encog,BasicNetwork,java,3.2.0,1,1398457867669
[BASIC]
[BASIC:PARAMS]
[BASIC:NETWORK]
beginTraining=0
connectionLimit=0
contextTargetOffset=0,0,0
contextTargetSize=0,0,0
endTraining=2
hasContext=f
inputCount=30
layerCounts=1,61,31
layerFeedCounts=1,60,30
layerContextCount=0,0,0
layerIndex=0,1,62
output=0,0,0,0,0,0,0,0,0,0,0,0,0,0,0,0,0,0,0,0,0,0,0,0,0,0,0,0,0,0,0,0,0,0,0,0,0,0,0,0,0,0,0,0,0,0,0,0,0,0,0,0,0,0,0,0,0,0,0,0,0,1,0,0,0,0,0,0,0,0,0,0,0,0,0,0,0,0,0,0,0,0,0,0,0,0,0,0,0,0,0,0,1
outputCount=1
weightIndex=0,61,1921
weights=0.4240817732,0.6550814767,0.632813171,0.2975734485,0.2409462614,0.1052527545,0.309932322,0.2590700714,0.3187087498,0.3171717549,0.5044775988,0.3883267563,0.6020309448,0.3606887605,0.4043299774,0.350200354,0.3722343367,0.1619846559,0.5091997766,0.4709649599,0.6814613431,0.2492153562,0.2294238118,0.1388751768,0.6101108969,0.3247443167,0.1416841956,0.1009874795,0.2520255885,0.2949779464,0.3566627928,0.2686511616,0.10407507,0.6164556967,0.2055009605,0.2389045157,0.3433236741,0.5538583776,0.288164518,0.5932112998,0.4158881483,0.3919848867,0.5474191663,0.6485465926,0.4368841255,0.1995088533,0.5371026996,0.4087902618,0.6105283637,0.3074645721,0.5427350057,0.3967109324,0.0235061572,0.3399216562,0.586237826,0.4385220998,0.5431319842,0.1181962143,0.0046417806,0.0240662612,0.1382593833,0.5096589679,0.3037061053,0.1723116326,0.1562700091,0.1599740689,0.4799513409,0.0787502539,0.421856344,0.3835938192,0.0111381727,0.5187563022,0.2842382235,0.3939569476,0.1160752455,0.4129959173,0.2600707137,0.2936492545,0.7880705303,0.549234565,0.5922160115,0.2603972047,0.6003855819,0.1831653866,0.660587482,0.6164630965,0.6616423253,0.7421725342,0.0212319905,0.3809456571,0.5875557624,0.1612002549,0.2753300816,0.2579762477,0.5676490203,0.1073417885,0.6488504688,0.2212382029,0.196885749,0.4479247522,0.0447505523,0.4889714495,0.7744843921,0.4456568784,0.2239967406,0.3453420653,0.2307214534,0.3616379589,0.0303833109,0.5260993271,0.568093783,0.402623042,0.0585405766,0.3977184199,0.725137898,0.3067382547,0.5795310563,0.2944358154,0.4112488834,0.2175619945,0.4594161379,0.7266125058,0.0270526768,0.5013156505,0.5663576084,0.3326574504,0.3745183414,0.5603725554,0.2154947642,0.5185157474,0.0046982007,0.2230770516,0.0967501177,0.2355632086,0.0699509355,0.711916343,0.0044393916,0.7587914013,0.4327612126,0.7542640663,0.020045283,0.4387057114,0.7049131787,0.7423489673,0.1570285666,0.4751232886,0.0934568267,0.585286811,0.4196358293,0.315071269,0.445782655,0.5068933369,0.2666067046,-0.4975734609,0.7237468456,0.268872648,0.4550634347,0.1968345845,0.1573371881,0.5145555734,0.3082991555,0.2743707827,0.3090229798,0.0156013726,0.5240727253,0.6933079958,0.6780298786,0.2975437049,0.7261375546,0.3981500237,0.6373820047,0.6025579409,0.6924431291,0.0980437776,0.2722008428,0.5404305,0.7515534906,0.3576500598,0.6713984856,0.7154852798,0.7730584843,0.5069681989,0.2985055472,0.1838362076,0.3908106708,0.7775157923,0.3253683362,0.0926272108,0.4150157511,0.5732205527,0.0541598656,0.7793789064,0.0375970028,0.2809422992,0.1209032429,0.3871025319,0.1712477212,0.3642526728,0.4685145583,0.0835179922,0.2587600231,0.2136920981,0.0462857445,0.679406623,0.7019203167,0.6598464883,0.4138224464,0.4059934503,0.55718933,0.1686318047,0.3432240393,0.0170840425,0.6808983131,0.0916809221,0.0913653261,-0.7347319883,0.2447918545,0.2483075953,0.7263487772,0.3025447603,0.5920513539,0.1445566688,0.4761495524,0.6535038327,0.0121645602,0.5281217267,0.3579105327,0.6435038859,0.546100619,0.1573461303,0.0393826555,0.567723918,0.1402796665,0.4186751662,0.2983658006,0.1566635825,0.5083189855,0.7685664905,0.5992252494,0.5519447235,0.6795309425,0.024071054,0.7257992836,0.740297533,0.2949353886,0.7529065493,0.1207018981,0.2005584465,0.6531063425,0.1770377808,0.6625770838,0.7296280476,0.1061278489,0.4782592911,0.469163689,0.4047182759,0.7634907083,0.4394030782,0.1246066021,0.236828234,0.1569970983,0.5402148659,0.1255779574,0.583838393,0.6413570496,0.1735672304,0.7973651456,0.664750053,0.5755857684,0.3787766775,0.6959424974,0.5669575894,0.3309958231,0.769965579,0.7410884519,0.3407301199,0.5305154956,0.5011300322,0.6203615306,0.7458240467,0.662164791,0.094852757,0.4918439724,0.4528287242,0.5655701408,0.7209652547,0.2877338942,0.7410367684,0.5682761213,0.110684238,0.4148432919,0.3675689234,0.283729621,0.4962506279,0.0107432763,0.2326119939,0.0421185898,0.6803076709,0.659011937,0.1221551179,0.5733286499,0.7653563261,0.0332445901,0.190408167,0.7713249802,0.1060590917,0.0175687853,0.0021098271,-0.2464976594,0.0398040455,0.1786350178,0.5333491912,0.7081890431,0.6893442856,0.6306486855,0.1536317535,0.1535767632,0.5172761916,0.1578318622,0.0753079974,0.6927705223,0.1449367884,0.7934049473,0.1711249507,0.5183028218,0.6940925601,0.151348002,0.0019359956,0.5284120978,0.4535494481,0.0563844013,0.4056608743,0.383685924,0.7224631433,0.6781847986,0.2879020505,0.6227043445,0.1432345369,0.0851528538,0.2235243332,0.0386267933,0.6446820645,0.1624919666,0.3283379936,0.6343381571,0.3796281939,0.1915958694,0.6594256604,0.7530904975,0.7220106374,0.0425861416,0.0140215013,0.4070087854,0.0827442685,0.2900451697,0.3260743431,0.1228352903,0.4388125565,0.1872405005,0.0874997228,0.6485175432,0.4208221774,0.1611441622,0.7786621307,0.5064243371,0.1843434491,0.4815437592,0.0155868087,0.2114460451,0.7190016431,0.2413153042,0.0018516131,0.6321007637,0.1868560083,0.5743909975,0.6402279947,0.6725034991,0.1156220838,0.6355480173,0.0827412009,0.0274024019,0.3012417492,0.4109502138,0.616012952,0.2232459383,0.2428741101,0.0988357045,0.4441505688,0.3904123652,0.4402169942,0.3622344295,0.7163989859,0.0058611909,0.3973157834,0.075916243,0.346045924,0.2575448969,0.0349282565,0.7668601092,0.6039417116,0.4937337082,-0.4940114445,0.3162144166,0.5660440436,0.3847393536,0.7279691395,0.098302413,0.1406914162,0.2186114531,0.3543044567,0.7983983613,0.7894109034,0.550924671,0.655173314,0.7998780104,0.6659251089,0.5208172498,0.5539962968,0.0592185147,0.6726136408,0.7876422694,0.1652126317,0.7382023863,0.2642521484,0.1405155747,0.5754195052,0.3861463919,0.7096612979,0.1802833399,0.5132975923,0.5799162763,0.5161879542,-0.5327153813,0.1058332317,0.1313472714,0.0334211999,0.2271217809,0.5343328583,0.6294428617,0.7011138923,0.0179597868,0.6436467393,0.1420428438,0.5201010755,0.6862533205,0.5132753333,0.1818114606,0.5553415198,0.3715884102,0.3893532151,0.1518133002,0.2877678729,0.1119675961,0.2049277982,0.609760066,0.7941542215,0.7971244973,0.0054077318,0.4936615691,0.800770329,0.6448962928,0.6220961653,0.7671451531,0.3521117522,0.257477502,0.4804605529,0.6254269925,0.6414249719,0.7736534299,0.1549670437,0.7715477485,0.5952500052,0.5393399614,0.2094963944,0.6012206277,0.5620126661,0.1043171095,0.6583403961,0.7422018226,0.550345295,0.5778004173,0.2067413539,0.590093437,0.5008744108,0.2566496715,0.0282587161,0.5266229747,0.1560863284,0.4052225086,0.0908813081,0.1626249951,0.7390594286,0.6490378022,0.143621744,0.0688787839,0.429917085,0.347712419,0.5795208211,0.0690719279,0.317908027,0.1701386816,0.6766218936,0.7677864419,0.7402432894,0.5497494755,0.3477720239,0.6073357962,0.4810373056,0.6909512011,0.0251607034,0.6245688829,0.062028762,0.4916175996,0.1796398358,0.5079305751,0.2434057794,0.5480127569,0.7501712339,0.5047492433,0.3341329358,0.7719491248,0.2611902569,0.4637206228,0.2757142588,0.0281694815,-0.3403247004,0.409631979,0.5254912325,0.8023122235,0.7359053258,0.3879330446,0.2009164705,0.165553003,0.574668126,0.4110194833,0.7075448327,0.7038599897,0.5983615737,0.5459218489,0.2757515173,0.4328133158,0.0234038974,0.5162852576,0.3270370974,0.651792042,0.6336507362,0.0571726867,0.1764998067,0.3068869599,0.0769839522,0.0427942552,0.7494326036,0.7423008555,0.2633336928,0.1047624805,0.6465287221,-0.2987967378,0.3128375463,0.3285559927,0.6800610041,0.6454604953,0.0230530918,0.1334170267,0.3236494295,0.3489917802,0.7881863544,0.3640898079,0.5509485063,0.1128274411,0.7361370366,0.3910874466,0.3249184876,0.3416640788,0.2351096384,0.0042596014,0.0674541167,0.0043920332,0.276447226,0.2987299491,0.4821163516,0.0059199113,0.2900157703,0.7462381031,0.5896885894,0.4906649876,0.2473674617,0.7878640132,-0.2786824888,0.6663846637,0.5032602901,0.6792381697,0.1534573416,0.5075225473,0.6029006105,0.4917738909,0.3141741186,0.6108183024,0.3673158722,0.4712604383,0.4281335269,0.3349405445,0.5554766307,0.7499960136,0.733219165,0.3461852462,0.7316633122,0.5500970072,0.1772479547,0.5453687326,0.2448379003,0.0848071698,0.4595063103,0.2203958101,0.3826059229,0.3261337576,0.5369088653,0.3964173297,0.2500409536,-0.3889269971,0.6970070582,0.4047533853,0.6163790781,0.0743934479,0.2884620072,0.547839735,0.2390085057,0.2607222294,0.2957312141,0.5949584571,0.3448027914,0.6773252096,0.4227973988,0.7408896582,0.6577381579,0.0961310465,0.0752127454,0.1985535455,0.5795556246,0.6422408462,0.5856983075,0.1282997476,0.3288125966,0.3629744554,0.729353333,0.7796448121,0.4331374459,0.4385802416,0.6839319254,0.12011023,0.6612076685,0.4302777143,0.0701900685,0.6969129401,0.6743361986,0.329951685,0.2709884907,0.1828355795,0.2551353226,0.6549955165,0.3829085989,0.1541465687,0.5868901598,0.5425878312,0.5673790556,0.4985130202,0.229879049,0.2267604906,0.758774385,0.5816045726,0.5585367928,0.7770353365,0.5308572674,0.7175797381,0.21034379,0.6572191535,0.0219796824,0.119042559,0.5621248196,0.2822903156,0.2562645133,0.5604094484,0.604808222,0.5874253063,0.7631158605,0.0096033422,0.1359128039,0.7145434004,0.3121010763,0.4217949228,0.0542663868,0.6841478119,0.3784053681,0.005761235,0.0542419824,0.563153072,0.2640111863,0.7581331732,0.6401926679,0.687939091,0.1466272795,0.4047827061,0.4638347958,0.6167696604,0.6383221152,0.7949836411,0.1004171608,0.5637535154,0.1897509789,0.4491261456,0.0898917397,0.0250788301,-0.2276939437,0.3613609269,0.2295856352,0.253555867,0.517339916,0.6797322506,0.5143880317,0.4231847165,0.2164589224,0.7867070454,0.6642027347,0.7545587465,0.4727469669,0.1811690447,0.4729010408,0.4823644418,0.3131457139,0.61959655,0.4086653755,0.6213487595,0.332765246,0.7195680937,0.6207682451,0.3601164994,0.3864332935,0.0022331947,0.7742916344,0.6450515079,0.1870190058,0.2875261618,0.104282615,0.6855455785,0.4080764913,0.728191925,0.3944970903,0.7782838072,0.249938785,0.4935033238,0.1723794117,0.4491914962,0.5584329114,0.4445034171,0.4601313171,0.053141395,0.5398687235,0.2803800849,0.5775061927,0.2099149287,0.3286038926,0.5211512191,0.0062542138,0.0093683532,0.467526147,0.0095242423,0.3905059431,0.7084392525,0.5862275634,0.7747103858,0.5979060586,0.3150323712,0.6813460788,0.029263156,0.0359130455,0.2098140756,0.2208792232,0.1680174035,0.6473319358,0.3358065552,0.0895025763,0.5133527257,0.5503260212,0.0401576457,0.0470082539,0.3422466527,0.7161161229,0.5505277101,0.4356505151,0.7296545335,0.1834305913,0.1391869806,0.3650212903,0.2123887231,0.4358677521,0.3183727922,0.5163078221,0.1116274004,0.0858602149,0.6256066574,0.4454554101,0.547430273,0.7784849974,0.7389997431,0.0393499836,0.4225154536,0.3002438963,0.1638767184,0.3781670316,0.7485244063,0.7344281777,0.6862053362,0.4268829661,0.2677015491,0.5601484434,0.5757715043,0.312525503,0.7287441457,0.124127038,0.7741525043,0.4970416693,0.2278952321,0.4477056829,0.0604609424,0.3388001745,0.1372194874,0.4092155435,0.5284570724,0.4047089623,0.3027727435,0.6805878103,0.1125630267,0.4497148629,0.2088219334,0.3850431201,0.7129230359,0.1904115554,0.083480208,0.5041730919,0.0771100124,0.2217343022,0.0810165532,0.686080084,0.4972012252,0.7594487188,0.3625464834,0.0054687857,0.0178919186,0.4633200338,0.4814740665,0.7467114052,0.2126192014,0.6370542736,0.6148782162,0.3187310197,0.6817963698,0.4520131261,0.6103561466,0.1431346773,0.5849984843,0.1666212125,0.4128405605,0.5098374462,0.7754060056,0.6300100536,0.7196861789,0.3954496984,-0.5194215042,0.3619080851,0.1273718814,0.5577505327,0.7966745319,0.769465008,0.6267032929,0.3001750085,0.0995538406,0.3406533069,0.4794753636,0.7953382686,0.3989885583,0.6689215456,0.6459055746,0.5301207618,0.7112122618,0.4427076527,0.7070212789,0.4078222427,0.5363383453,0.2121749297,0.3920258285,0.5423413925,0.2366437027,0.29291127,0.1265483484,0.1947964742,0.175167481,0.6356219957,0.7351044634,0.7314747337,0.2480684791,0.5751345855,0.0467347908,0.5598541743,0.0251663479,0.2247758385,0.7492790773,0.4311424234,0.0241630435,0.6349143692,0.7837164933,0.3349460523,0.2663158448,0.3273177538,0.1518007475,0.4605235888,0.0443910484,0.2759238944,0.7644341247,0.6424621428,0.3114617618,0.0596876158,0.2774381469,0.1756901909,0.4809688252,0.6759716431,0.0906147217,0.5466797557,0.0183198062,0.0075694073,0.6433095401,0.6520319211,0.2203673836,0.3511736372,0.705893323,0.3318026754,0.3606804749,0.1173410632,0.4105886895,0.4676884071,0.542121902,0.7518355772,0.3233347141,0.3617752925,0.1644510626,0.4446125364,0.5560762811,0.6877561176,0.1313697388,0.1679310069,0.7396717194,0.5272247305,0.1572581464,0.7887927746,0.4679564758,0.4766320176,0.3965642327,0.5572223971,0.0120701035,0.6713088188,0.1053762019,-0.7154323549,0.7989918702,0.2789652205,0.1463571027,0.7585659832,0.7579689284,0.1797550445,0.6878861266,0.4113552847,0.647995637,0.0229251124,0.6029988976,0.3022666007,0.4431828369,0.7374924032,0.2948139583,0.5987480779,0.5555640503,0.0591067196,0.2074306721,0.5189779246,0.3317996332,0.4076503184,0.4050559946,0.762031609,0.5499417536,0.7135712052,0.5945967847,0.2799248935,0.1666011901,0.2860856029,-0.2875976858,0.7275745241,0.1289058617,0.5459138485,0.3858890147,0.7513940381,0.4098645318,0.2529785881,0.6074661293,0.4309124517,0.0428973518,0.022729372,0.1831538953,0.0478706448,0.3758346346,0.6616747055,0.7828591809,0.115621946,0.3286922654,0.6678558612,0.6265195106,0.5915573365,0.0434104689,0.5276282102,0.0794488545,0.5465431826,0.4765477188,0.3820605291,0.4520752599,0.0331422886,0.7004029512,0.2050198486,0.7114027146,0.2692431443,0.5931000413,0.2679164084,0.0813069148,0.1757845844,0.5736738494,0.1027071066,0.2519814932,0.7883361356,0.2158001869,0.7852480256,0.4275617063,0.3441995815,0.2543559452,0.0861281571,0.5411371784,0.2481549062,0.4612309501,0.5669930782,0.4455434083,0.4136619535,0.0311478717,0.2873695185,0.425078822,0.5297047885,0.1453844094,0.1928648139,0.3598710996,0.4010119636,0.4633084062,0.7770702945,0.626698488,0.7249659599,0.7853947232,0.5810163132,0.0573861025,0.5699189085,0.6139592087,0.0463111778,0.3023259558,0.6989346413,0.2889324468,0.300993543,0.7827823398,0.5867201903,0.3138614818,0.5274344098,0.3447497267,0.1370621491,0.2702665318,0.3236591354,0.0234248281,0.4755486806,0.7615424975,0.1090530393,0.6104014285,0.3400844911,0.7814937513,0.0511711193,0.1595251801,-0.141841018,0.0583831769,0.5267410425,0.1129345375,0.1816080737,0.5778739172,0.7651271199,0.3053365158,0.5481071265,0.3074239905,0.3249759169,0.6000491963,0.3105116364,0.3754171195,0.7371385841,0.3423258747,0.462152343,0.2936620582,0.4635620435,0.4908695177,0.1934625566,0.3405712089,0.1458478113,0.6113019394,0.0223709105,0.6579947623,0.2936176212,0.0509279229,0.073705493,0.1020282002,0.4458327583,0.608690169,0.7593425881,0.6689502248,0.3421206993,0.369077978,0.0638496204,0.1469259127,0.6863751968,0.0744786941,0.2114222693,0.3984534906,0.461968936,0.5649919001,0.0240235149,0.4548697769,0.699904995,0.1949684409,0.5980365885,0.6447235801,0.5593984579,0.2635716909,0.0655521099,0.4473971769,0.4191414789,0.1315148885,0.3615666224,0.3672347476,0.0781448906,0.1306967741,0.1161790404,0.5192938759,-0.4269062449,0.114303416,0.4121120351,0.4252352923,0.643928835,0.6865696297,0.3928911442,0.0022346954,0.2305890437,0.5715927139,0.1423986898,0.1458024914,0.426220392,0.6158719776,0.0148269609,0.2519474048,0.5353170591,0.3571322455,0.2034483404,0.7282729257,0.2669023555,0.0063383149,0.0153109157,0.0869437309,0.0369542108,0.3902346511,0.3472276695,0.0051244902,0.1032756429,0.5078092186,0.3630666813,-0.7475627182,0.6079834171,0.3878754358,0.0997446176,0.1885777536,0.5196805151,0.2209433129,0.0599144696,0.4140009194,0.5421006264,0.6396092586,0.60032031,0.6863992488,0.3917713825,0.5820174959,0.7568775849,0.1178484488,0.609297108,0.1152993374,0.526828587,0.4244374334,0.2423726634,0.1857093878,0.0887179104,0.0097754295,0.5478913216,0.0481862016,0.0886682537,0.6148548218,0.2670511992,0.4347204343,0.5872495299,0.1317040448,0.3263080903,0.6726680813,0.7919145638,0.714331937,0.642430811,0.766395904,0.5095773341,0.238392148,0.648971596,0.6604998501,0.114738592,0.5761308594,0.6978126976,0.7227723542,0.5380752707,0.5076811836,0.5907121464,0.1737373874,0.4907958621,0.3367529392,0.1501422295,0.6555243722,0.288916673,0.745387088,0.0730076036,0.6297359613,0.0454182116,0.2092063148,0.1864276279,0.0840262097,0.142551967,0.7583254382,0.6534744927,0.0906274472,0.1283472604,0.1484070722,0.7735832031,0.1026171827,0.7981285411,0.7577485273,0.7076968521,0.2398702194,0.6984674597,0.3571885556,0.4045918111,0.5404097467,0.3974477775,0.0537006822,0.5397325518,0.1886503758,0.5511573785,0.5925401989,0.6786663554,0.1217535368,0.1476104706,0.5249979689,0.2614299699,0.6971563482,0.322806631,0.4440918524,-0.244119294,0.0359639431,0.0287951748,0.6887448043,0.7615493941,0.0712125686,0.7911102906,0.5503673326,0.6757317912,0.7870667542,0.073361308,0.0930482529,0.6343330384,0.1039482502,0.4233945592,0.1047552774,0.0617147689,0.2007182986,0.4369546347,0.2580229631,0.5920591594,0.5147238764,0.3376232045,0.646232454,0.1406751964,0.6220852092,0.1017694395,0.6261841425,0.6087961499,0.6561719759,0.1681355964,0.5211213389,0.5275980995,0.4471676065,0.6715995777,0.2193285138,0.1163502712,0.1805292562,0.6231943451,0.1746260287,0.4237328695,0.6935406638,0.2551567543,0.6547372533,0.5409388499,0.1853577846,0.6393785412,0.3837270185,0.665233713,0.5494567775,0.3456859094,0.7575988463,0.0413797575,0.1404562277,0.5069152165,0.0856541061,0.0998862082,0.1706897145,0.6638451578,0.4874097191,0.1975315554,0.5408480463,0.5074699726,0.1171298123,0.1232429141,0.3101003523,0.4588954579,0.00226587,0.4684599632,0.5699411242,0.5996238952,0.394726075,0.1140058293,0.6009069741,0.0906479821,0.7469314355,0.570244956,0.3165652829,0.5559623227,0.1965807862,0.4082418918,0.1199553837,0.1246510317,0.406304103,0.6342200737,0.4406059989,0.7846617227,0.4412504758,0.7676152382,0.0460696098,0.187853866,0.2443961215,0.4400772905,-0.6533072372,0.0735541682,0.5073845926,0.1493501692,0.405545469,0.0325748764,0.2220523518,0.0212226233,0.6134665629,0.1613838698,0.792797332,0.5767851341,0.7493790544,0.6430266536,0.0123442715,0.1285530476,0.3215558578,0.0482856671,0.7483590959,0.4580289578,0.3649162275,0.2097970658,0.1623417667,0.4370546476,0.3032601547,0.6149650243,0.7770206991,0.6117823695,0.2440868193,0.0572977256,0.2576380308,0.009942543,0.1187427902,0.6355489156,0.5416555305,0.7254074706,0.4050073305,0.5059028583,0.7749237141,0.6371042839,0.1528484455,0.7735454111,0.0661303387,0.277158109,0.0044619024,0.5502484396,0.2636391836,0.5286687054,0.3080994379,0.2565050721,0.5862748069,0.503134598,0.6581124626,0.1908953302,0.5597082021,0.7417817432,0.2834618378,0.0105592002,0.7032888548,0.1783123038,0.7481061108,0.4453457146,0.8005599226,0.3389804924,0.1507154747,0.5610518058,0.44229476,0.647688282,0.7927730629,0.2767969255,0.0441587102,0.8021473802,0.1408532579,0.0556512072,0.3437839028,0.4403018218,0.0356538285,0.3102982291,0.0964851864,0.6121765454,0.3582463666,0.3739996164,0.568236985,0.1175188059,0.7179255068,0.1381009897,0.1826106412,0.334014526,0.5385416597,0.6035581036,0.3806217185,0.4965987771,0.5926463481,-0.7260631307,0.5832397658,0.2448475159,0.1668476895,0.6893814722,0.1867840794,0.057258564,0.1743992362,0.0653057687,0.2948590781,0.0240681783,0.2757169281,0.5551870377,0.4707304497,0.7489795277,0.0674078238,0.3481586429,0.1338940942,0.5959144434,0.4194131642,0.2526931476,0.2059970223,0.3253222944,0.0220292247,0.5243810201,0.7593616601,0.3926540333,0.5687607203,0.4779065089,0.724336765,0.0808375995,-0.2275424029,0.6637513594,0.4940018214,0.1705226925,0.2195233052,0.5865450739,0.3641612619,0.099130171,0.0070367999,0.1280692282,0.4315455172,0.2215007695,0.0456243081,0.2673431686,0.7256439528,0.0557927044,0.6566528685,0.0857296085,0.4475393,0.5025117583,0.3960585398,0.8018840303,0.6277722238,0.5520519336,0.6321075126,0.7438107108,0.4214509011,0.7640823772,0.7632657645,0.4354737667,0.6001568689,-0.1282304285,0.7280300482,0.3590776251,0.3169874967,0.3681758388,0.539522846,0.247904566,0.0225928861,0.3749216767,0.7043763588,0.0804512122,0.1893964133,0.0925832111,0.7761398729,0.2049445058,0.5180302608,0.5054667887,0.4496575644,0.421781624,0.5867473245,0.3962394868,0.4419495538,0.575860816,0.5202116824,0.590521492,0.5908317946,0.2375429496,0.0009809173,0.4487508688,0.1348300095,0.0320464501,-0.4912439844,0.4534165955,0.7602176713,0.4486865227,0.6675950009,0.0209284144,0.7250434496,0.3967113289,0.3340636768,0.6079139882,0.3492664218,0.523984571,0.5142722346,0.1148256619,0.6569806361,0.1335577319,0.2977519022,0.6246746964,0.3607318314,0.795973164,0.6104404128,0.0170899391,0.6506573002,0.5857167408,0.2945609702,0.3603001878,0.3572027016,0.6227286161,0.7027237291,0.6954407564,0.6740714498,0.4763236297,0.0331647367,0.0277399122,0.7517700663,0.2592408019,0.5540429605,0.5878522761,0.7360308574,0.5761484415,0.4360471664,0.1016134115,0.0258089614,0.0602408903,0.1315257421,0.5243204722,0.4000707623,0.1237148455,0.4556996496,0.6478640473,0.7302709165,0.4652626111,0.7149476716,0.2201681781,0.1442816542,0.4857849954,0.0345303745,0.6701122052,0.616512305,0.8007794068,0.3720456566,0.2725056307,-0.3367649782,0.6518223256,0.7492201795,0.6727489152,0.0038138955,0.7513766365,0.7161006477,0.5235887492,0.4843799184,0.6514066068,0.6950146113,0.6083485386,0.52607541,0.5288993149,0.3390113751,0.2979035856,0.2722167238,0.6990052155,0.4250543308,0.0200655186,0.288111444,0.7832714278,0.2600455687,0.6038694183,0.3745709276,0.5771901808,0.0518355674,0.1690220367,0.2908965995,0.2898294532,0.3941140276,0.5400566739,0.2738210159,0.2017018704,0.7152787292,0.113675433,0.2770964931,0.0792944153,0.745521346,0.6292495152,0.4270860469,0.1052677937,0.5540078702,0.5724876428,0.059773752,0.4109924164,0.3723541047,0.347710538,0.5378161586,0.7776750749,0.3902215063,0.7168177217,0.1316429114,0.4589894619,0.205032051,0.5480901731,0.601022714,0.0001857,0.0376071144,0.5218188933,0.3670043521,0.3507047499,0.3337078758,0.4599130645,0.023949203,0.3507475444,0.041499418,0.6423283795,0.6432423267,0.5839919818,0.4188703007,0.7779379471,0.7552653387,0.7437224712,0.5926069159,0.0049377104,0.188114768,0.468155501,0.1920565668,0.4974355834,0.4974352316,0.6289826526,0.7892736086,0.3339908532,0.6832615103,0.6444011708,0.1288648997,0.4530294468,0.7908230132,0.7436074666,0.0191116641,0.5519389934,0.7030082522,0.7142004952,0.1372211358,0.2124466332,0.3981493834,0.5572207541,0.2219871442,0.3013101993,0.5602085278,0.742231404,0.4285820827,0.0503042074,0.7837646959,0.7762074716,0.7756832462,0.7440684748,0.7252160497,0.756496331,0.2617527977,0.6709853684,0.1340588259,0.2159781753,0.4122607421,0.6230572662,0.4531358807,0.594371364,0.2650553761,0.7714977734,0.7075710973,0.6218655652,0.7147027413,0.2133086167,0.1962737103,0.0338149903,0.178468323,0.7594056328,0.7457747472,0.3230324246,0.3274961333,0.3160412595,0.7412480399,0.1538699857,0.1051645778,0.2801341783,0.1460841002,0.3294864222,0.5074651783,0.4983395518,0.45662237,0.248137878,0.7246914173,0.6770013258,0.3552092241,0.1459567582,0.3166376206,0.1797346372,0.6190893751,0.748369306,0.5277087577,0.4394553791,0.002955546,0.0926610386,0.0775571148,-0.3110613345,0.6573178304,0.5646824112,0.3682059133,0.7805804025,0.0325698927,0.6456715405,0.6199717855,0.6919612847,0.2126584617,0.7179771876,0.1541585422,0.1721978611,0.1898890504,0.743233243,0.4909151257,0.729652856,0.4654991452,0.6651555672,0.7808088445,0.1939719578,0.2262114773,0.4144188668,0.7220330941,0.1709934717,0.1787417547,0.3962565794,0.5405158387,0.3213059471,0.1137422138,0.4493232298,0.6995851549,0.2481502215,0.5153870242,0.7218230876,0.3168999587,0.3978126516,0.1919379625,0.0541974811,0.7511564604,0.0241252934,0.793369182,0.7882937664,0.7795220649,0.0513796147,0.7589478942,0.0544015297,0.7758928077,0.294799253,0.4381678517,0.0834133558,0.6714756777,0.5606573744,0.0205750923,0.1519818161,0.512692217,0.6343242933,0.1282110179,0.3588307525,0.6686956591,0.4368935198,0.7428262442,0.1390251508,0.7977217406,0.6069273951,0.1428376511,0.6905625866,0.6407987567,0.2574518955,0.048467226,0.474153407,0.5688680445,0.3215551491,0.5420662844,0.7623335177,0.0076052173,0.3935114849,0.3851029089,0.7175974625,0.6126303327,0.5205479224,0.7867581075,0.3771249992,0.655389462,0.3482168379,0.4591617011,0.7813251975,0.149952317,0.1870384264,0.6201574452,0.2524328772,0.0420847648,0.5985331621,0.4156704442,0.5204190273,0.0672418436,0.2870515996,0.2205787779,0.5293548055,0.0322187576,0.0110412075,0.6751004809,0.4552956144,0.3215080729,0.7991289184,0.2426818751,0.0451055518,0.2353238066,0.5567968048,0.6926361477,0.6764641647,0.1105192504,0.0486343658,0.1582845649,0.4215096812,0.1850578244,0.7612571437,0.5452209819,0.5487565278,0.7735047713,0.7503245607,0.7295003896,0.7683106133,0.3953430255,0.3029966436,0.466466396,0.7602001707,0.3554626929,0.0830848982,0.600361586,0.2928000525,0.5540293607,0.2060368394,0.5202030868,0.6353263772,0.2607989753,0.6960301688,0.462142926,0.6323137486,0.5364274235,0.1209065648,0.5725338233,0.6828742581,0.4927661783,0.3120301229,0.3655619617,0.7290901906,0.4933153826,0.0064189398,0.4141821943,0.4894198374,0.293803433,0.4384819634,0.0244472517,0.5360453618,0.0901810695
biasActivation=0,1,1
[BASIC:ACTIVATION]
"org.encog.engine.network.activation.ActivationTANH"
"org.encog.engine.network.activation.ActivationTANH"
"org.encog.engine.network.activation.ActivationLinear"
