encog,BasicNetwork,java,3.2.0,1,1399147563953
[BASIC]
[BASIC:PARAMS]
[BASIC:NETWORK]
beginTraining=0
connectionLimit=0
contextTargetOffset=0,0,0,0
contextTargetSize=0,0,0,0
endTraining=3
hasContext=f
inputCount=140
layerCounts=1,8,141,141
layerFeedCounts=1,7,140,140
layerContextCount=0,0,0,0
layerIndex=0,1,9,150
output=0,0,0,0,0,0,0,0,1,0,0,0,0,0,0,0,0,0,0,0,0,0,0,0,0,0,0,0,0,0,0,0,0,0,0,0,0,0,0,0,0,0,0,0,0,0,0,0,0,0,0,0,0,0,0,0,0,0,0,0,0,0,0,0,0,0,0,0,0,0,0,0,0,0,0,0,0,0,0,0,0,0,0,0,0,0,0,0,0,0,0,0,0,0,0,0,0,0,0,0,0,0,0,0,0,0,0,0,0,0,0,0,0,0,0,0,0,0,0,0,0,0,0,0,0,0,0,0,0,0,0,0,0,0,0,0,0,0,0,0,0,0,0,0,0,0,0,0,0,1,0,0,0,0,0,0,0,0,0,0,0,0,0,0,0,0,0,0,0,0,0,0,0,0,0,0,0,0,0,0,0,0,0,0,0,0,0,0,0,0,0,0,0,0,0,0,0,0,0,0,0,0,0,0,0,0,0,0,0,0,0,0,0,0,0,0,0,0,0,0,0,0,0,0,0,0,0,0,0,0,0,0,0,0,0,0,0,0,0,0,0,0,0,0,0,0,0,0,0,0,0,0,0,0,0,0,0,0,0,0,0,0,0,0,0,0,0,0,0,0,0,0,0,0,0,0,0,0,0,0,0,0,0,0,0,0,0,0,0,0,1
outputCount=1
weightIndex=0,8,995,20735
weights=##0
##double#20735
   0.1875470705,0.2003567538,0.3264614936,0.5674856527,0.6135798409,0.1332078552,0.4304022918,0.3909205948,0.1332749861,0.62273977,0.335058653,0.243072847,0.3488067449,0.5767098996,0.447879595,0.0101003231,0.1791878876,0.2602024831,0.249777681,0.6542350098,0.4813838318,0.6922896033,0.1493316755,0.1957566075,0.3131666722,0.1438491029,0.5560338121,0.3022674446,0.6145113931,0.0490804477,0.4735930247,0.3373190676,0.4516665009,0.1825257736,0.6009177644,0.2794178772,0.1137939981,0.6516030181,0.3770167069,0.0090486546,0.227044534,0.4068908068,0.4049263748,0.0517173112,0.6967454512,0.4611041667,0.0582800281,0.0376007613,0.2114348856,0.3669658659,0.6977693684,0.6104454574,0.3758892656,0.3607216592,0.4984291588,0.4118241889,0.6019625378,0.2071815246,0.3330288332,0.2851373654,0.2361360477,0.1008090019,0.1593510525,0.3601196764,0.1205340803,0.0723330617,0.2674491394,0.1451380301,0.6258936968,0.5506877991,0.2445675179,0.5759496998,0.1882850489,0.3536914387,0.0447670119,0.604286323,0.4282844578,0.6588478243,0.2922009596,0.6515653128,0.4476807727,0.4933813598,0.5835431996,0.122456089,0.4799377526,0.4145834764,0.1176905203,0.5730101972,0.2746166248,0.6307654105,0.2736019331,0.6869542366,0.3157198611,0.6973780903,0.1681715335,0.401164125,0.516185714,0.6148572138,0.6648305103,0.0913131305,0.3087302305,0.3051637628,0.3356536597,0.2488097002,0.5770287927,0.3116040227,0.5902743728,0.1824900627,0.15841924,0.5671987204,0.2927716401,0.0019658953,0.3505807907,0.3437452534,0.3307609035,0.092150275,0.472676054,0.4426519675,0.333547696,0.5405732732,0.34363466,0.4490111648,0.6962661321,0.4289578357,0.1712351651,0.6733080218,0.45945867,0.5832935706,0.6180685202,0.6276472059,0.5314216618,0.5788038376,0.3601362712,0.2463801771,0.5971327145,0.4937743712,0.0608279486,0.4905341343,0.5887941298,0.5390481337,0.6615101269,0.5417566369,0.0428676249,0.4300654043,0.509895309,0.2043956312,0.5970939078,0.4355650282,-0.2403525291,0.0647690227,0.0849918081,0.270651229,0.5670974818,0.2198577882,0.6620336933,0.2762004863,0.3727884195,0.4622888804,0.4463863514,0.41044522,0.305724392,0.6945604796,0.5700699952,0.5423049697,0.4659234741,0.6899629269,0.2412652693,0.56814602,0.6391136062,0.2813762208,0.6798746602,0.1386708328,0.4874996132,0.383291521,0.1218110942,0.311985152,0.4583376537,0.5174180931,0.4560605088,0.4662093429,0.2242214764,0.3022220843,0.3383194142,0.2197606478,0.5029599072,0.2232458785,0.104501748,0.4260378825,0.4475622058,0.6727335647,0.2609181003,0.6371091499,0.3927547966,0.6988007168,0.2990774564,0.7015784757,0.4530728861,0.5557297567,0.1197934525,0.1440002303,0.2686494581,0.0921988325,0.135697495,0.3528442955,0.1437562811,0.1314135251,0.2199255089,0.2756712518,0.2138586164,0.2122056608,0.0150971798,0.1656294005,0.6269987664,0.1569915277,0.1617583624,0.5081507539,0.0310013949,0.2566349271,0.0079947945,0.4034616806,0.3111938684,0.1309825053,0.0668839329,0.3466521662,0.7088427125,0.3725951066,0.049199097,0.6619584166,0.7007797935,0.4238397375,0.3068864348,0.6896569675,0.572181989,0.5226890654,0.676931879,0.4753054989,0.0661908053,0.3258949172,0.6697296,0.3679431804,0.5797854671,0.1830506451,0.3718894843,0.2118282147,0.189305923,0.4664224197,0.075517812,0.2606068151,0.052226113,0.3177674912,0.6337642187,0.5534763865,0.4570087338,0.4901351511,0.260304024,0.5952683771,0.4886162172,0.0243207854,0.2989010481,0.4510903205,0.5995554756,0.0900123756,0.6987251386,0.6404236406,0.5285904222,0.2964515276,0.52887411,0.0129412914,0.1874162237,0.31604897,0.6055933411,0.2381815993,0.0734228535,0.5560083339,0.1991648107,0.0557422134,0.2128429016,0.1275732373,0.6107052822,0.6736901605,0.5265223873,0.0452878607,0.6334345431,0.1619383421,0.1933100119,0.3693686881,0.427566895,0.4256067495,0.3575565511,0.1360399875,0.47727049,0.1037272843,0.0269682395,0.5569808084,0.3709415346,0.6839523867,0.2776507401,0.0491364649,0.0117958527,0.4443394192,0.3921551995,0.2965455402,0.559628082,0.2092629799,0.5496729366,0.2626027333,0.3147067673,0.4339519517,0.6290402049,0.3067862984,0.3358955069,0.4526554034,0.1073666568,0.4662023429,0.5986840062,0.0126287674,0.316903262,0.317668218,0.6104492121,0.1558229892,0.2365705115,0.463159311,0.0737673162,0.1337730994,0.2910363668,0.5250146841,0.6624945337,0.7054767909,0.1336667219,0.6156375167,0.2107669494,0.0578140709,0.440298975,0.6814861543,0.2664438277,0.3965512807,0.2257501536,0.3399688497,0.6210468013,0.3804625382,0.3213789761,0.3091377345,0.4493261531,0.6531842022,0.2127614317,0.2424092847,0.400197217,0.153193979,0.2856900655,0.1472340687,0.6191927741,0.5872957517,0.263202298,0.2900539851,0.6352228104,0.0543821561,0.2824880993,0.1578670797,0.6292230837,0.4594855939,0.4863478479,0.0751437217,0.4033328081,0.3236404389,0.0674158874,0.2363335252,0.1943431644,0.0043388823,0.3694974976,0.3104697029,0.0617949845,0.0943131898,0.4643504894,0.0135142413,0.3211754498,0.4732011875,0.0462555661,0.6122480657,0.2530544778,0.6777248592,0.5372936921,0.7031234244,0.2328281238,0.2603999167,0.4706996395,0.1610447599,0.1325152018,0.6244963233,0.6122431562,0.0575885529,0.4826208607,0.4188455917,0.459541591,0.2010082839,0.6332233715,0.3771816445,0.6823041176,0.0656701941,0.4147747037,0.348724328,0.0985950863,0.4171424635,0.3044075618,0.4356486508,0.2320926554,0.3557467031,0.3112642055,0.3201140536,0.3129836391,0.5723328383,0.5399755787,0.5573931444,0.0165516035,0.1319613644,0.2867451415,0.6955014787,0.6445293891,0.5085549153,0.2810493702,0.594451057,0.1185715294,0.4167904405,0.2374779562,0.6719814937,0.2964024614,0.3117119447,0.2027266493,0.1970345171,0.1440189782,0.6804318388,-0.6628259237,0.2501671743,0.5845851852,0.487606596,0.3730367087,0.4698477091,0.4922481734,0.4402057569,0.5054220719,0.0869206375,0.0151798112,0.0446078727,0.3924180751,0.1975246999,0.2686347469,0.2652660494,0.3887255577,0.4546419868,0.3563423763,0.4931888549,0.5525338024,0.0172084981,0.3594737371,0.3483576677,0.6663644599,0.7073027422,0.3730231189,0.5266431154,0.6012964975,0.4116376536,0.4927043095,0.6621848356,0.1720050988,0.1210619393,0.206979512,0.3950163385,0.6861968796,0.1576833867,0.5792973078,0.507226684,0.3391009478,0.4449553202,0.5231159208,0.3816623995,0.707909621,0.6231345452,0.4822489279,0.4038687043,0.3614122299,0.0276348583,0.5949827033,0.6828017361,0.1719791641,0.1880524152,0.3453458335,0.2318007113,0.1727784151,0.084877071,0.3895147204,0.2307448158,0.0940399606,0.1539361695,0.2423286055,0.4734356233,0.1139680995,0.5523816291,0.5317780663,0.6964625245,0.1739056313,0.3837425113,0.2139223192,0.1094011718,0.5278299295,0.0552998976,0.596121724,0.0809123632,0.2468551161,0.0027214173,0.5180578223,0.5071500863,0.4426328802,0.5074333635,0.6063640368,0.2306385081,0.2921462027,0.2127450037,0.6764610637,0.688069589,0.359313031,0.7051484128,0.15813168,0.2655986098,0.5542112191,0.0620783386,0.337022657,0.0572120043,0.1398440511,0.3679730703,0.4008800782,0.6096338377,0.6702488029,0.3231048376,0.1802264301,0.0143059552,0.2065374265,0.0556186474,0.0986242449,0.6133963665,0.4243627503,0.2866764926,0.5655680538,0.3009415163,0.2435781897,0.3135558871,0.5891749853,0.6190998449,0.6670632599,0.1413106102,0.0501284585,0.312222298,0.4165134338,0.0277369404,0.5688457805,0.3293753573,0.2772052528,0.4889791232,0.3477018248,0.1630813897,0.3656957281,0.5346815483,0.1361091902,0.4257123981,0.1266351597,0.6638512943,0.3412120874,0.0258958527,0.6344999071,0.206872961,0.3446490541,0.3634638079,0.3423548586,0.0082693452,0.2676660256,0.6922677317,0.0138217116,0.6105301066,0.3092491127,0.3535899684,0.0519804737,0.0204837353,0.4628707702,0.6815173356,0.206752728,0.0832331041,0.473584775,0.1032228364,0.4581529892,0.5991306228,0.5245175985,0.3016308041,0.2930792143,0.4421524824,0.2423080571,0.5507312874,0.1984502068,0.6188443374,0.6708985693,0.5323336934,0.5601702925,0.1860677235,0.360986122,0.1026720056,0.5166978634,0.3715674819,0.1519966355,0.3929566813,0.6641942157,0.2568243625,0.0207767103,0.4807762292,0.3297608507,0.5432015435,0.5234943497,0.1841960436,0.6863673212,0.3370989053,0.1360976816,0.555102738,0.4902061916,0.4820518056,0.4777710107,0.4253838771,0.3402378284,0.0384623103,0.2878824259,0.0145838187,0.5230071464,0.0835400326,0.3344966449,0.6822820573,0.2810254176,0.3466496281,0.425779732,0.1235630111,0.393604207,0.0370192761,0.400601467,0.5284710648,0.4181199821,0.1585957668,0.1453709759,0.3471332327,0.1677584121,0.3265581233,0.3003683886,0.0922713039,0.2464568872,0.6681832866,0.6004845473,0.4524946476,0.5382464387,0.603997693,0.1656679457,0.6577745595,0.0017581285,0.0138062995,0.092186845,0.1260647973,0.2729219905,0.551654535,0.4950197874,0.28763197,0.2024830899,0.5269623318,0.1061880445,0.3900796517,0.3022686672,0.6588843055,0.5068037718,0.1968219309,0.1579722472,0.7029127027,0.4187860422,0.6329111842,0.2089054097,0.4651831975,0.6677734224,0.1648035522,0.4585008664,0.2659020421,0.3979857176,0.150524128,0.0312586993,0.017522911,0.3497263178,0.4897728896,0.4444600457,0.0322433594,0.3805625077,0.4975886923,0.5967356031,0.5299000198,0.1993701256,0.4840858149,0.284065973,0.4557460546,0.0224793621,0.155633507,0.0359664233,0.4105297117,0.5291378016,0.0127039133,0.4313082658,0.078224339,0.6346794383,0.1753762855,0.6324767262,0.0347026932,0.7003069186,0.1070059602,0.6406646647,0.2538545138,0.3641810247,0.5889580207,0.5909390583,0.4268744847,0.3884426617,0.2833524733,0.182761716,0.6898774786,0.0678368459,0.2159395452,0.139010249,0.357537405,0.2496459916,0.3104048737,0.3728123043,0.3350864248,0.2405903349,0.5978121233,0.4497906997,0.0868625277,0.3933350975,0.1507000969,0.054148605,0.5800516855,0.1462288433,0.0674752352,0.3118984218,0.2902186634,0.2133205083,0.4970014345,0.4093275102,0.1027122138,0.0747360133,0.337256378,0.6201820912,0.4936693575,0.4671930643,0.113217504,0.1588608391,0.6819063396,0.107449901,0.6100653029,0.6750402598,0.1054034658,0.1539239961,0.5630809992,0.0043384931,0.1812178394,0.2617286092,0.5325608946,0.2672571727,0.3379217029,0.0815575814,0.6953285671,0.5700858191,0.1883809349,0.3843882059,0.1261769111,0.4087907399,0.524668593,0.3514142184,0.3410417461,0.2786672574,0.6087342981,0.5952077114,0.6248463488,0.0061823747,0.2571857843,0.4565959204,0.2055739715,0.4827956334,0.5352965105,0.4200553511,0.3885491216,0.1466574101,0.491577335,0.2230729273,0.0206853662,0.5107436127,0.0525736053,0.6090196561,0.1135864542,0.1623326499,0.4995145083,0.7088775574,0.0391459486,0.2398801559,0.647848346,0.4556184135,0.5068457287,0.3366880206,0.4928116515,0.0955951615,0.4845556492,0.3083020743,0.6615550202,0.6457477492,0.6116804521,0.0324029,0.0537245336,0.3679191747,0.1347554284,0.1891451566,0.1307306784,0.5485581428,0.1818973786,0.0714353362,0.4255089234,0.2960295062,0.3632363529,0.2079883369,0.4552855279,0.3328182054,0.4504247027,0.6307358326,0.4404921703,0.0988271731,0.5562752046,0.275061837,0.1098297505,0.0150421378,0.6558744756,0.2903854662,0.1734741673,0.0458603699,0.1026718134,0.3479764905,0.577597846,0.4994601448,0.6440166984,0.6288030661,0.3232167247,0.2761393805,0.3266904809,0.0103688447,0.6607892678,0.4906015918,0.1643022441,0.3529885086,0.4079766463,0.0621185959,-0.2318121408,0.4076855589,0.0869427745,0.3718488805,0.564768154,0.0386873892,0.4580825367,0.6029544448,0.2574329501,0.6020205491,0.1479291659,0.1876555951,0.5701588916,0.4037476994,0.4190421171,0.7028492286,0.4661657523,0.4596968481,0.6423565864,0.3384957847,0.0092681314,0.6387058182,0.1736861459,0.4204500992,0.1908322729,0.3590131004,0.3774039311,0.288908902,0.6920434503,0.6568981393,0.4301144948,0.2706201391,0.3246371352,0.2495806125,0.145977706,0.7036187909,0.2026225869,0.656881665,0.6408744849,0.0626892056,0.2379510469,0.0623290765,0.1745620975,0.408204807,0.1046292919,0.0849668423,0.23341547,0.2171476506,0.3672863582,0.0977210674,0.5399234492,0.3323797323,0.5466816323,0.3925067857,0.3819458732,0.0626247627,0.6883222383,0.1971647582,0.4539252405,0.5088715096,0.2801496092,0.5444922459,0.1792811393,0.5687981424,0.6875886655,0.2290506978,0.3009310713,0.5114695227,0.6945206019,0.675958224,0.4092518416,0.6935952319,0.2366900865,0.3395038454,0.552557961,0.4070935793,0.5866239046,0.3684598985,0.6155892571,0.1238141756,0.2406017351,0.3051878526,0.3795613545,0.183990386,0.4983013131,0.2000476559,0.1835668668,0.0718162666,0.689425852,0.3421386588,0.3776775379,0.0543968271,0.1446862249,0.493872813,0.1321757401,0.3565689523,0.3086220226,0.2236737571,0.515546497,0.6584708753,0.3148046603,0.595372337,0.3626689954,0.4021349916,0.0507822729,0.1260500245,0.2058320189,0.2443484074,0.2195342926,0.056037934,0.0631143317,0.6073929412,0.0731168638,0.40981521,0.4801306489,0.2725829325,0.6039385049,0.4400341507,0.6284732624,0.0084261417,0.606392611,0.5614374871,0.6179379297,0.5493827986,0.4049231944,0.2592021971,0.6960106741,0.5284163231,0.2633755153,0.5364367281,0.2121244955,0.6603841546,0.4653217856,0.5623475826,0.0455911155,0.6052255518,0.4180261351,0.1149181821,0.0858865914,0.5210328489,0.310862332,0.5343116573,0.6061183627,0.503228534,0.5747354664,0.7210273614,0.4411839699,0.5750447336,0.3121462783,0.1731888088,0.590143682,0.4363991576,0.2591940134,0.1139495129,0.0988111576,0.0612689414,0.1741137912,0.5905614929,0.1579752607,0.1925948656,0.220449273,0.1620687901,0.0085499466,0.3016383219,0.3224000501,0.2660150809,0.4181002776,0.6066533167,0.5405141864,0.0675765361,0.5717106596,0.4799971155,0.0947247696,0.6253763629,0.60384623,0.6543537749,0.1122150722,0.4529332324,0.5443398922,0.0176677442,0.5336853352,0.1557093656,0.5531038997,0.5273266303,0.7097928754,0.3769139396,0.4129568848,0.1573647772,0.071246369,0.2414381284,0.2446531509,0.1460805197,0.6217163703,0.1795115551,0.4489129247,0.0235535122,0.6249041929,0.1183146623,0.0196720358,0.6600663524,0.3734947197,0.7089268593,0.0611947552,0.6000121473,0.314392442,0.5950830913,0.2222498051,0.711696599,0.4657465137,0.5424031425,0.1727348393,0.5155153159,0.6746936285,0.1165050147,0.6243113728,0.4518600297,0.2400479066,0.2454453979,0.3744858996,0.3415702627,0.5859005907,0.2795736919,0.1816480828,0.3703787495,0.6400249335,0.4156181748,0.1963916562,0.3808476646,0.0822214643,0.3882604929,0.0244848382,0.3148785241,0.0386023005,0.0174387809,0.2378332665,0.3110198449,0.4010863194,0.6966439749,0.4397610603,0.627082942,0.0392883041,0.2458713933,0.5317174119,0.5282120277,0.592441323,0.089535577,0.1871764896,0.2553354484,0.6328906087,0.4833284725,0.2240041635,0.1395144433,0.6165458813,0.2363829823,0.1459957221,0.6612796106,0.5298180784,0.652053137,0.6563121003,0.5131292913,0.0105419258,0.1546913945,0.4182020099,0.5899838268,0.5406747725,0.5151112664,0.3426855943,0.2712319386,0.2392374954,0.1076638486,0.4990635218,0.3109587579,0.082495524,0.4383490369,0.2440243459,0.4236383115,0.172948028,0.5851741182,0.7050706698,0.0367786909,0.2740424739,0.3303150463,0.3171211169,0.0887366056,0.4219071382,0.4272097582,0.3298934539,0.6120882116,0.4343394723,0.1847787572,0.3288243028,0.4120513829,0.5314693965,0.5056582621,0.5078349431,0.2440735557,0.36013954,0.0305684662,0.6009927063,0.3920705359,0.0541451951,0.7077110268,0.3665101948,0.0806513835,0.6351231678,0.1753372831,0.1885951314,0.4108296391,0.1928058345,0.6250802154,0.6119969338,0.442488391,0.6564073203,0.6357047761,0.0703137568,0.4420567379,0.7152361434,0.0315219294,0.5901642009,0.152529714,0.0464275988,0.2778079287,0.4635102148,0.3951532181,0.0741893305,0.4884925961,0.4294024351,0.71075979,0.5977505498,0.7244793947,0.308037536,0.0824811198,0.3220412894,0.1731098788,0.4722312108,0.5647687716,0.2784641837,0.6875229486,0.5440301255,0.1044619447,0.4616920429,0.3092573107,0.5366402244,0.4403087451,0.0130607509,0.6468677706,0.0373315372,0.0522333354,0.4895712561,0.4304401961,0.2790077392,0.2689417423,0.6260458573,0.2718992149,0.0180369835,0.0358400517,0.1349703227,0.4926571195,0.6614290115,0.3377445843,0.1485205245,0.1675287395,0.4471894367,0.1248319456,0.411143198,0.4811594729,0.1812298,0.6134376429,0.4189716005,0.1298182281,0.1887842187,0.4460727749,0.3216175312,0.6637997655,0.005911667,0.3512357884,0.184217299,0.0551007778,0.7179836559,0.5139547701,0.1003308317,0.0237607122,0.4314876101,0.2800068339,0.6727549294,0.4008843659,0.2250406672,0.1752478884,0.0658604901,0.0126879784,0.2694318001,0.4096677174,0.4838831677,0.0032617523,0.6880404325,0.3812039349,0.3045919656,0.6423514284,0.0715129676,0.465875464,0.3262251146,0.1140792153,0.6335447814,0.0053742049,0.0526119895,0.0441797721,0.1309757547,0.7114142966,0.6127945658,0.4976213383,0.1465704766,0.3350256653,0.1782971488,0.105506817,0.3331098853,0.3698184211,0.4812659067,0.43838645,0.6385036837,0.0393495445,0.0213153412,0.6684706044,0.4077408716,-0.2907678287,0.4630506961,0.2892276194,0.1915759494,0.5815658494,0.329229463,0.4911170523,0.0426127966,0.023203214,0.3288290039,0.0955709938,0.7079538993,0.164646528,0.2842481736,0.1467647315,0.6733693204,0.5902725666,0.4979088491,0.7145041924,0.4889633648,0.1660824666,0.7238877239,0.0435263463,0.069884802,0.6764869932,0.3519357397,0.7012737873,0.4374659431,0.3385436556,0.4603656533,0.7050093322,0.025962945,0.3805690589,0.0274519182,0.5457551373,0.0469319978,0.5680873214,0.3405133159,0.3069650049,0.5059929012,0.2031436936,0.1155512443,0.6425135979,0.1304115536,0.3323269156,0.1381545242,0.5992306359,0.1930056611,0.4408413357,0.4045086687,0.588698483,0.4179130888,0.2349522799,0.3827140689,0.6170204007,0.3590781217,0.5620335285,0.4328489881,0.3338033373,0.6361727382,0.0221860264,0.3797738243,0.5507264206,0.458526005,0.3119240762,0.4507105471,0.2608663417,0.0882439505,0.7207392613,0.5390182432,0.6169065261,0.1309950394,0.1251101881,0.1183478518,0.3605701526,0.3585682554,0.5893801653,0.6278614383,0.258607886,0.0032133876,0.0553138926,0.4285483772,0.2912862245,0.7223357999,0.137747598,0.2533244486,0.283864793,0.3858012254,0.2390187169,0.0180373741,0.1239482149,0.6743143487,0.4659027854,0.0793743754,0.5804042198,0.0434187305,0.2898384483,0.4190141288,0.3016269815,0.2436795455,0.3887333274,0.292776305,0.0037194102,0.2984180947,0.2777783687,0.176076667,0.2501170367,0.5450589025,0.1660598029,0.263290806,0.1409134533,0.3304184227,0.3276407639,0.7188974086,0.3331774444,0.6709434515,0.2615471448,0.6247394903,0.331012388,0.1717856416,0.4030111151,0.6527341047,0.4249664302,0.2645992413,0.4132480554,0.4829544076,0.5097137179,0.5246088029,0.5732493228,0.2694142966,0.1558875867,0.615460149,0.1289958836,0.0415024214,0.34699411,0.3084415628,0.0667496902,0.554946986,0.2681573644,0.200869104,0.4508535422,0.2248505647,0.0057252449,0.2808608763,0.1213655909,0.0050886875,0.3477939396,0.3583572183,0.4877664227,0.0707234994,0.0540904135,0.2248467675,0.5960438519,0.7181219714,0.7085558332,0.6964651266,0.5255919063,0.4649732053,0.4213293993,0.5830581648,0.0680360672,0.608218793,0.4313581228,0.2908706547,0.5001822024,0.4815093868,0.6430757368,0.021330951,0.6195485477,0.249658665,0.4224185114,0.5896899153,0.2040719133,0.5236258677,0.1980900966,0.1640475291,0.5702430064,0.1075498959,0.2304886092,0.3319104872,0.5271143233,0.5265388709,0.0949292071,0.6444857386,0.6519564192,0.3494613096,0.0244459251,0.5198817818,0.1366516514,0.159764732,0.5220323945,0.4262676601,0.7182817702,0.3855213904,0.459923792,0.6854534043,0.3128285029,0.4816112839,0.433236539,0.5039821529,0.5204121237,0.5418747573,0.5964381364,0.5023643819,0.3796672932,0.1143736132,0.0459717088,0.3717444201,0.1332008429,0.4770298313,0.0089533686,0.674589672,0.4358372778,0.2194469409,0.1591825552,0.4087785998,0.1475755034,0.0091601054,0.5418748099,0.1122346576,0.7146555886,0.1011308595,0.3559517892,0.0327637778,0.4764307891,0.2270653114,0.4341449323,0.3656959724,0.136837509,0.2563605594,0.5125377574,0.5068564812,0.4281610521,0.0381881121,0.5559376026,0.1892652925,0.4265467904,0.1377605079,0.0647334286,0.4382567581,0.707831624,0.1668066245,0.6200638243,0.269262514,0.5881013296,0.558336078,0.5409828251,0.4683000846,0.2106315971,0.6914304582,0.3951117478,0.6253002519,0.0788512244,0.5432218464,0.3745413779,0.4784706769,0.2325733661,0.1461985023,0.0992970528,0.2050987989,0.1890558399,0.3696756719,0.1942316295,0.3736975926,0.6238629771,0.0414676799,0.136482701,0.3979143266,0.5723680736,0.238162497,0.717160908,0.4574446783,0.1473316794,0.7113328017,0.5171145622,0.5950904035,0.379362453,0.1519467686,0.2031360596,0.4949896606,0.4329166717,0.682485127,-0.1981975337,0.212910979,0.5751404356,0.2375548655,0.0620967821,0.3683233695,0.0477757806,0.3377138952,0.5272959767,0.0197365777,0.5775869865,0.194606617,0.5566464463,0.3313401575,0.1900823187,0.6765492694,0.3375812406,0.1415894739,0.6628754575,0.3705500978,0.6296228248,0.5055778663,0.1868662734,0.4843742107,0.4349858615,0.2782851198,0.0116223056,0.6107754099,0.1146506587,0.1632017477,0.3156260551,0.4786654135,0.6031851048,0.591999845,0.0294152083,0.4673659029,0.5934564168,0.4258122959,0.6447439576,0.7026783073,0.270714719,0.4611533291,0.2770928699,0.1801351797,0.6198643226,0.4111047665,0.7223141549,0.097811454,0.2471711675,0.4504155375,0.6328220633,0.5745873756,0.0655651351,0.2454776456,0.0482329636,0.1156782207,0.3599537174,0.7013948321,0.2845228245,0.2027247583,0.243208403,0.6120431518,0.1708381662,0.6343618017,0.0419276575,0.0070927457,0.2857675222,0.5614557247,0.421495439,0.2871711766,0.0037283759,0.5545486097,0.399881331,0.0144985431,0.6362794009,0.6735151935,0.2300315092,0.5514802589,0.0696130984,0.4043840011,0.6737413675,0.3270979918,0.4330300511,0.2048687755,0.2293958109,0.1622452594,0.3779046579,0.1122851767,0.3065344934,0.1914861597,0.3922798737,0.0175824348,0.3546699985,0.2878024053,0.0288332446,0.5163716473,0.6227845701,0.1539278431,0.6978480861,0.115668247,0.472849927,0.5528985153,0.291808619,0.6820236335,0.294320914,0.1545947479,0.3648759992,0.1987507095,0.224358235,0.1569439059,0.0343491868,0.6839534229,0.7082449758,0.1354387208,0.1387380577,0.24304116,0.5762087806,0.0796797354,0.1148655241,0.1114262215,0.5504675592,0.7171543206,0.2528009345,0.1606944667,0.2687185962,0.3946092407,0.1769983617,0.1401416945,0.433035211,0.2316721188,0.5033059746,0.6705067724,0.0979854757,0.6696696528,0.4704762646,0.517137267,0.1418303926,0.5312001254,0.1288453541,0.4427067307,0.6019575126,0.251063812,0.4754114814,0.3899483114,0.2684959777,0.0940930435,0.2392361845,0.7151670795,0.653691868,0.0334315206,0.0660793444,0.4901567576,0.5926863389,0.2638315332,0.1174924862,0.4788228291,0.2957907006,0.3742891321,0.4297209176,0.0118499564,0.089575495,0.6033681356,0.6543660458,0.3185430366,0.454047729,0.6192835469,0.6868963213,0.560685117,0.7182426323,0.1367539639,0.0753860264,0.5452653202,0.3262702027,0.0347131717,0.1190440591,0.7245635841,0.6494046556,0.4019128055,0.6584892876,0.4658236299,0.6750231102,0.6002939494,0.1369001594,0.5305300675,0.48002501,0.6185213448,0.3623545169,0.0169915911,0.4049954334,0.0938502512,0.3047189069,0.4266252137,0.4791991907,0.1113231623,0.0284981798,0.0955050164,0.0923563061,0.6134484195,0.320111071,0.6380417534,0.4478801298,0.1057086191,0.4398202557,0.2725626983,0.2093754028,0.0893666568,0.451567434,0.4018765601,0.1784541825,0.0942781386,0.6821971569,0.0140866763,0.0976062435,0.5081842641,0.3685175078,0.3918055742,0.1317643607,0.1076817996,0.0100637028,0.2823675831,0.2984707301,0.0388094834,0.1058080308,0.2229046072,0.680166639,0.1001306802,0.5221673002,0.4005596239,0.1541289051,0.2447054863,0.5594278468,0.5117137669,0.6219402251,0.1688034705,0.158320689,0.4709157609,0.1763922993,0.2856054109,0.3664440319,0.2940438096,0.2045570755,0.4316131991,0.5164409096,0.2399055739,0.00884069,0.2286077087,0.7063901633,0.3633465338,0.2977637551,0.2942356088,0.5093900229,0.7127844167,0.3921762835,0.2375068117,0.0115077721,0.0689752517,0.4159575569,0.6443353069,0.7234794977,0.49848054,0.3205500069,0.7192377299,0.637749207,0.6751800845,0.6460750138,0.3646726805,0.0128212483,0.0762887235,0.3369169842,0.7109569886,0.419574324,0.2821413021,0.3909570994,0.492545291,0.1270190439,0.5266158636,0.617132778,0.6743627722,0.2248177488,0.298805299,0.072133311,0.5283268583,-0.698114749,0.1277496022,0.0773760713,0.0918565997,0.0700844036,0.1296075517,0.5148628171,0.5831322949,0.6433573071,0.3785519803,0.0201729824,0.019471482,0.0473860657,0.4274218909,0.7207535091,0.0321423422,0.1560197655,0.5565417333,0.062297955,0.6285943037,0.0143855458,0.6391887811,0.7157636479,0.199845903,0.4355190993,0.7104865314,0.3744932319,0.6282347754,0.1585470126,0.681894638,0.3893890771,0.6560092148,0.2495362007,0.5361873488,0.5143049039,0.5648345572,0.3758811776,0.0894243078,0.6502657663,0.6369522576,0.1016572837,0.6193111543,0.54275912,0.5755062573,0.2120087004,0.4796367107,0.3520141699,0.6095623207,0.7182657575,0.3828743652,0.1447970461,0.0303169144,0.5694034786,0.6938635818,0.0280262301,0.6270612848,0.3457799967,0.31095696,0.3564681943,0.1541726646,0.5893203924,0.2476992752,0.4504008476,0.2834741836,0.3106735572,0.248226815,0.3556279229,0.0229070167,0.7017865571,0.0827065936,0.1628088141,0.1789882045,0.1951727843,0.2591300675,0.0829093766,0.4393943292,0.538689527,0.6671934656,0.6692522309,0.6387814477,0.4202871109,0.5597984464,0.0619913785,0.6456700554,0.1653181827,0.5760996634,0.5862919342,0.1355336497,0.4779868473,0.1176094654,0.1215641554,0.5640056917,0.214309655,0.3116198461,0.130823278,0.398015027,0.0895165775,0.2209681001,0.3529807646,0.4118398522,0.3129898023,0.3541881178,0.5141461289,0.714354936,0.5960273419,0.6492800418,0.5673748908,0.5939957323,0.452428885,0.0183235288,0.3979491808,0.3773529566,0.4432505581,0.1843057112,0.498508917,0.6060060673,0.7008777645,0.2433761502,0.4509095582,0.1196527147,0.557708037,0.3326819059,0.2783054029,0.2145508737,0.6467337729,0.57781078,0.3953657178,0.094231907,0.060916348,0.4334430553,0.1681531838,0.5611047051,0.1374722399,0.3759874533,0.6704893059,0.1135929198,0.6571026701,0.0613408484,0.160665597,0.115579899,0.1616692432,-0.1872337873,0.7154832184,0.0656822811,0.5034652044,0.1629669769,0.2478557834,0.1670750006,0.0019309401,0.1385922487,0.5606101236,0.0561526695,0.6119669307,0.3451667773,0.1575325448,0.6381001798,0.0205222725,0.2049516942,0.2676022869,0.0078695274,0.6033735506,0.0686108,0.441606232,0.5468142883,0.0417397131,0.3212760362,0.6440843836,0.0801498228,0.6987540662,0.0782883866,0.4549355378,0.2195081555,0.1547978376,0.121790188,0.1361345291,0.5509104833,0.1844198673,0.5839735228,0.547025418,0.3614079008,0.0650451128,0.57893049,0.3879835999,0.7113406123,0.1711525615,0.1364962961,0.0168851719,0.526654138,0.554105597,0.5036051326,0.5074144419,0.129746466,0.5211215352,0.0520890085,0.6913799858,0.4347494457,0.6387391614,0.5437851501,0.1399299105,0.0213095787,0.5762153653,0.5644785504,0.0633156032,0.5105594512,0.1527873487,0.2265910927,0.4546198346,0.466337786
   0.4501076427,0.4459141505,0.1654522451,0.381688762,0.2542730294,0.6008579569,0.3025879759,0.278117763,0.552815525,0.4172161855,0.5259741356,0.0495355593,0.3422047527,0.5633669737,0.2182261571,0.7015696482,0.0983935743,0.6961263106,0.2938865445,0.6549725365,0.2010163681,0.5134508422,0.284380325,0.5273519116,0.6037395664,0.6181140188,0.7220746204,0.4905898372,0.4185720896,0.3314366772,0.5433736408,0.1184796485,0.2635916405,0.4684375158,0.1021955794,0.2214598295,0.106149948,0.6121621188,0.4895984802,0.1212309391,0.0752567053,0.0443487944,0.2573926924,0.2762440314,0.5570470458,0.3127989361,0.1618718105,0.3924384349,0.7092300172,0.250011496,0.3711398094,0.3822797174,0.4569545151,0.1087944587,0.4589904722,0.5056540085,0.4845785531,0.4301478923,0.5213774781,0.5223296168,0.3471139493,0.628843322,0.4832090858,0.479363903,0.6383527193,0.2830061288,0.4877668955,0.5965165714,0.1405296396,0.1492279119,0.0497441026,0.5517190565,0.3296451651,0.1463888476,0.5345428394,0.6051496797,0.5033282688,0.1349010474,0.4535556529,0.457831635,0.2576763297,0.1581153357,0.0580769635,0.4488374525,0.2407593587,0.3654413263,0.3916937063,0.2972752556,0.5976983882,0.4238768142,0.3700208524,0.0738702943,0.1373534121,0.3724731412,0.074070555,0.1846670065,0.1691310642,0.1558344617,0.5678423353,0.1469921792,0.6772594512,0.1664988081,0.6314283321,0.4083942492,0.305882627,0.4529424931,0.0393080316,0.7243709597,0.1059568971,0.6638715345,0.6135469925,0.3780885542,0.4016595933,0.3471271274,0.2026619409,0.6369105726,0.2009736473,0.0550297053,0.2538189042,0.6239325681,0.5651843656,0.5758215994,0.489363925,0.4953353736,0.469999594,0.6651354434,0.4276715865,0.6897815013,0.1709980474,0.7166660754,0.3185614091,0.0722238631,0.1089933006,0.4311790855,0.0920447368,0.4463576614,0.1266983138,0.1565503612,0.0639024327,0.5784913812,0.4036372724,0.587705656,0.5253122682,0.2045223385,0.1803127249,0.4957745,0.7209310655,0.0534756918,0.4387842726,0.4220515645,0.2132454632,0.265964217,0.1763815712,0.6430445579,0.7142937314,0.0001946813,0.1911592336,0.1765808172,0.6653737627,0.0047797922,0.5727725715,0.6933896986,0.0676646825,0.2451132916,0.6067865527,0.7249708903,0.118419654,0.3804573875,0.6121344043,0.4060970221,0.5861017847,0.516563708,0.5979928674,0.4332775995,0.1246355432,0.1862229758,0.6998280334,0.0355315412,0.3087745019,0.5867197631,0.5030652339,0.6750373326,0.1688456133,0.447926112,0.493322974,0.5717541843,0.2503283972,0.4302572801,0.7035982465,0.4695257176,0.5985487641,0.3885046892,0.3426214344,0.6291383721,0.296919014,0.5838202712,0.2291385819,0.0516500359,0.2507025582,0.4609307352,0.1247209527,0.4551626888,0.4623057963,0.1711024481,0.3600230627,0.0063646343,0.7203253128,0.5781476109,0.5736550867,0.508062652,0.68590175,0.3917334659,0.2918573392,0.1853734831,0.3913636166,0.4958698194,0.0613985774,0.3620478336,0.5126056225,0.4241121012,0.3871981872,0.6297223725,0.6896299405,0.2706594403,0.2703955072,0.2543307833,0.1755309754,0.4292957154,0.4404613179,0.3768260933,0.064187874,0.3297358027,0.2977317111,0.5180072467,0.4331370719,0.4189617328,0.1423990158,0.363855318,0.695012915,0.1801993243,0.2457793837,0.1273098407,0.1438526975,0.6101823881,0.4099859144,0.1422578462,0.1701338887,0.7239762464,0.0031055169,0.1139416774,0.1695144116,0.3692472103,0.0779419513,0.0539601994,0.0190027597,0.1330248104,0.1300576129,0.3908967739,0.6257445643,0.2795501551,0.0329955206,0.3968974539,0.0821250379,0.2336188456,0.3423360532,0.4559451363,0.4331649863,0.4474542355,0.2227478659,0.1660494477,0.0890319098,0.1336395295,0.6940929335,0.1252585514,0.3279862504,0.6688741793,0.5325174003,0.3128961328,0.2668338566,0.2098468807,0.591291946,0.2546881135,0.5197067262,0.2839618499,0.0263932981,0.6942050678,0.2343784623,0.5953193728,0.374294449,0.6868934732,0.3182316283,0.0794624085,0.1072561454,0.3665354692,0.6943678906,0.2430208253,0.2378316595,0.095306322,0.7076640924,0.0778036116,0.6533738372,0.186889425,0.2895385948,0.6472930179,0.1396036146,0.4017491272,0.1480660546,0.2859581071,0.1249517306,0.3348825129,0.4744778131,0.3576231284,0.1791366694,0.4970815093,0.173154427,0.0560143928,0.6632111431,0.0560830223,0.2545119707,0.6823472755,0.3846686684,0.433006496,0.5505632138,0.5924734126,0.5319717121,0.5811109883,0.5321615692,0.3774204563,0.4774172754,0.4518341814,0.2100622511,0.0944361191,0.6671172636,0.0288349517,0.275172528,0.0804888822,0.3638749371,0.4316217615,0.0222260768,0.2081131745,0.0698515656,0.4647182325,0.2582961824,0.4491655088,0.1126119171,0.4293503455,0.065586183,0.5877068374,0.6453532606,0.3319394332,0.5811502017,0.6233300827,0.5288054919,0.2854881373,0.1548757563,0.6026707128,0.6822143541,0.0404081749,0.1002633856,0.1868154016,0.5449540088,0.0603244996,0.2567221539,0.5801109861,0.4399492745,0.0950711825,0.2934990722,0.0084844271,0.1550629705,0.3531488382,0.5010277675,0.2284257228,0.1238621201,0.3321690555,0.3030514458,0.4245883546,0.3972903304,0.2863366507,0.6775675709,0.0462107,0.1596136263,0.3115984531,0.5407731776,0.4816292641,0.0479701631,0.5446355522,0.0137677285,0.0993559523,0.4324784763,0.3696719216,0.5143045068,0.6899391833,0.4736118101,0.1873454411,0.3863662302,0.1574878303,0.1342560425,0.1172571224,0.643693087,0.3170839779,0.5376318614,0.0623063116,0.3476552649,0.2861522073,0.1817655982,0.0513585612,0.615894238,0.0105225523,0.6224856862,0.4516638887,0.160018085,0.4472725279,0.056550364,0.5271002256,0.0585191045,0.4160548678,0.2019786766,0.3397057382,0.5059889126,0.0171524124,0.4217442719,0.4949996602,0.2439908252,0.6925696443,0.4103547777,0.0731522351,0.2019846946,0.4880275121,0.5737093547,0.0400096748,0.6405098686,0.2797408064,0.0312644194,0.6637806724,0.6005935327,0.2974704586,0.2715241472,0.0628498835,0.2608056259,0.2051139546,0.3415314973,0.4160427897,0.6176595284,0.6423672307,0.4405516143,0.6020812626,0.163098185,0.3983122214,0.3439015528,0.6208652552,0.5837161387,0.7071010598,0.3282011451,0.2018140849,0.0142352436,0.5386195501,0.361714066,0.3315335753,0.6688812891,0.074938428,0.4736772557,0.3615255678,0.6601415652,0.5410958051,0.2431523688,0.30206782,0.1158003406,0.1675183323,0.0054606667,0.4318652647,0.17492469,0.5934124624,0.3584963303,0.0923128736,0.0707625587,0.3643804464,0.1663381179,0.4081895483,0.0472461137,0.1117359251,0.7023999615,0.0809326029,0.6568635211,0.589043896,0.0417032973,0.2488758514,0.6360825638,0.2413187076,0.1208480432,0.004599963,0.5179603556,0.5749512272,0.3792670609,0.4800423197,0.0164638289,0.2057573528,0.0391826789,-0.3030329364,0.7171087224,0.7088690636,0.3881753987,0.3277930717,0.3649677747,0.4697957689,0.5704393669,0.5866219291,0.5514687157,0.1036816849,0.1425006768,0.6776376183,0.1106610158,0.4816101357,0.2693029718,0.6853510665,0.5826339086,0.0613409572,0.3660243477,0.4881353577,0.2937725342,0.6962814635,0.1010391958,0.325204755,0.0817958221,0.2386902522,0.2583107663,0.1221844312,0.0946163567,0.6347136686,0.0485037869,0.0318781883,0.20037582,0.3903974318,0.0045541871,0.5855799857,0.1855328574,0.1416804263,0.1664015415,0.0748465838,0.4281117766,0.4403353599,0.2899796021,0.171295527,0.108181209,0.3107300416,0.669667996,0.3307585664,0.0118061141,0.5158283767,0.0226588133,0.3413202307,0.714883529,0.7249646323,0.175030182,0.6840084559,0.2359412293,0.5850229465,0.1762356087,0.2274473476,0.4143760896,0.7212390189,0.0978843169,0.2904119579,0.0219083595,0.2440771005,0.0908576068,0.6472148501,0.2489902845,0.2390718995,0.1831325018,0.0123927468,0.6886661147,0.1073001662,0.3075790273,0.27956602,0.3798483758,0.347745262,0.0610360105,0.1878340856,0.3666083608,0.633466018,0.0874054277,0.1829596471,0.4690735138,0.1006086204,0.1459460458,0.5790260112,0.0712283711,0.2040061905,0.427072428,0.3882216974,0.6760134227,0.3247313596,0.4531068065,0.1024832999,0.1154852716,0.2512720368,0.360154511,0.0353966694,0.1657641441,0.4802525936,0.4409092823,0.6480414672,0.5282405292,0.0361115865,0.6187684167,0.3776038325,0.3616601454,0.2852959368,0.2666644742,0.623040124,0.4735339835,0.1127671192,0.6315938552,0.0040981177,0.0504995558,0.5800173936,0.3995038745,0.2961625845,0.5485489035,0.3435113569,0.3954526669,0.0968520103,0.0868379431,0.2600900173,0.3410507025,0.588418937,0.4170126503,0.2612118669,0.0850891208,0.0084899856,0.0916481706,0.0690561305,0.2863896072,0.3448294233,0.369354162,0.3323571644,0.5991737431,0.6133171709,-0.0732463629,0.2903331619,0.3122078917,0.2022503347,0.3540885978,0.678917369,0.4451965126,0.4327451292,0.6151797201,0.5902808425,0.5620613546,0.3207377899,0.3582791765,0.5250443478,0.5004903695,0.1739828549,0.4947789178,0.2929323356,0.2788101158,0.4564660527,0.3950179238,0.3656052912,0.0870849719,0.3207213594,0.2809607871,0.4488772429,0.2419019624,0.1582631152,0.7126028123,0.3330369389,0.61110324,0.525759659,0.241153777,0.5402781512,0.2957781706,0.6768602154,0.1207783188,0.0226868032,0.5669751506,0.3098647485,0.7241939086,0.2488767788,0.5154011738,0.2051477784,0.6627861196,0.1420486541,0.6952044042,0.0272956788,0.276310089,0.2166956226,0.2332021924,0.3543970524,0.2127301113,0.0042418351,0.5559394864,0.5145600235,0.0958379596,0.2613252492,0.21027587,0.6191762286,0.4434634006,0.2955101819,0.5936132592,0.0202581073,0.3038450008,0.2153195026,0.3632460939,0.5487938348,0.5046843695,0.42361829,0.01927069,0.2478483575,0.5196665577,0.0387152319,0.1425037678,0.5184126176,0.5932773398,0.2394957481,0.5975269014,0.1675790726,0.0080531689,0.3858768793,0.1370112094,0.1509073708,0.6211486412,0.1524788478,0.5010047606,0.6692363923,0.0974112136,0.6382570193,0.0364077591,0.1481734173,0.3964317477,0.3671316633,0.284160365,0.5248275847,0.1475152515,0.2977449752,0.5899796495,0.4191892037,0.6637271201,0.1509162256,0.4258739179,0.5690789922,0.2808411567,0.3896196435,0.7049064557,0.6261142204,0.1794333383,0.3987167119,0.5277484828,0.5551897356,0.343024772,0.2551116435,0.5865200174,0.0240477044,0.1328016123,0.6139696374,0.2842536229,0.1550995898,0.6925259061,0.5230051832,0.2501143224,0.1777064256,0.5741028796,0.4613247519,0.3466903391,0.5266782352,0.4487728952,0.0262156293,0.3187202469,0.5417270413,0.5231143109,0.2737614261,0.659091231,0.1509325584,0.6117409928,0.7159458222,0.6001541801,0.2773688717,0.5597291369,-0.3687335649,0.5518026065,0.5780997329,0.0681705427,0.0001378761,0.0945816086,0.2806448696,0.3534355862,0.3952768224,0.7088857309,0.1950096606,0.236597192,0.149537417,0.0896753048,0.3033452886,0.448136246,0.3149418823,0.0552671815,0.7169524426,0.2026294104,0.0576723917,0.5793441938,0.0075457465,0.3964788146,0.0505218946,0.3698910758,0.5281126248,0.6346688604,0.0857872535,0.0023311493,0.6479378154,0.0221465525,0.5929839035,0.4309865622,0.6615300216,0.1443824655,0.1445989845,0.5016220013,0.6318604955,0.6177507442,0.4372214306,0.1137726435,0.080671939,0.5692480112,0.352006702,0.0575604861,0.1426819792,0.1666579673,0.4520618025,0.235035698,0.614955741,0.128010834,0.0093343104,0.1635662657,0.4623405855,0.0631542446,0.4758950333,0.0735906236,0.0241801206,0.7158909422,0.2469162123,0.6078336278,0.4885788493,0.3782662878,0.3308725006,0.47811942,0.4331239642,0.6763088558,0.6429847135,0.2403898439,0.3751865188,0.0579180435,0.0011742005,0.350983785,0.096603973,0.4036937751,0.6052896897,0.3065472132,0.6503719218,0.4926514492,0.4284763833,0.5832758102,0.4497214181,0.4533610157,0.5328809077,0.5827243515,0.5778071774,0.2021863213,0.0326932418,0.6916802254,0.3919112324,0.2965618065,0.1322186416,0.4863839388,0.4313294416,0.4659571227,0.3760900974,0.4195389112,0.6951556635,0.2389001201,0.1448593152,0.1095339793,0.2080269911,0.5785332185,0.4881288384,0.6170589995,0.2744930619,0.499805501,0.147410522,0.6574242685,0.5384167183,0.023037514,0.1580626858,0.07234205,0.3222646166,0.3338310025,0.4938758204,0.3296093542,0.1313153722,0.3818843759,0.0518596906,0.3743375472,0.5822524337,0.2558335329,0.6985088366,0.715723045,0.225582505,0.7105942709,0.4691612738,0.6138341001,0.5019793069,0.4612881564,0.5164233827,0.5266750669,0.5968199483,0.5859151467,0.0121197478,0.1673618887,0.0539906086,0.3166670594,0.0084013332,-0.4163136862,0.1292288094,0.5656859796,0.6952927774,0.4344882252,0.2742732147,0.3503536821,0.133673267,0.1988245484,0.6411231793,0.1312579508,0.1016792602,0.2060223704,0.1215057335,0.3792059864,0.5196885467,0.5951992858,0.5063464412,0.6160706656,0.6814318493,0.551267466,0.2199616065,0.6398605531,0.6661211966,0.4130633232,0.3274466682,0.5010829755,0.4824677938,0.4865711575,0.3002421431,0.647615302,0.1444039761,0.6632963015,0.3139372505,0.3701737729,0.1229848903,0.4010365689,0.5380861712,0.113959606,0.0617153255,0.0866386393,0.3816823752,0.1927408646,0.0846217542,0.6654159386,0.4943530078,0.6339117854,0.2629870012,0.2921389831,0.392895606,0.0628427546,0.2940614278,0.4350823843,0.4178048436,0.5092663643,0.7036277163,0.6104205217,0.3129744597,0.4773764733,0.3643243955,0.3889646827,0.426658656,0.6353719233,0.3788063771,0.2721342151,0.2416819742,0.5925206991,0.4985836683,0.2749265852,0.5176601841,0.4022769315,0.4291163821,0.323023027,0.4574733855,0.3304552189,0.3400242267,0.4420960863,0.1818226198,0.450140158,0.094993551,0.0437571311,0.3447545768,0.0621142493,0.4840507007,0.0434998883,0.2130078564,0.2941112505,0.4789274342,0.2275746507,0.3311922408,0.4748121601,0.673193122,0.0017844409,0.0498718673,0.0445089089,0.0743672909,0.4698181538,0.266241649,0.3388212029,0.4787387323,0.1582061514,0.1262721609,0.401272457,0.2835351752,0.2843785449,0.1808856806,0.2203607937,0.4777617316,0.5105457472,0.0326356605,0.3589966978,0.1695757193,0.265504996,0.122923373,0.065560065,0.6652108766,0.6736008845,0.1505110482,0.2167907252,0.4781288489,0.4198766358,0.2943302781,0.5157269144,0.2734968669,0.5789920843,0.1008275561,0.264902437,0.1620769322,0.2266138106,0.7230520995,0.5919570333,0.4527112793,0.5362584214,0.5803596866,0.2043262654,0.0059318059,0.0881475231,0.6080294665,0.5216916056,0.5686538186,0.4088050213,-0.5794821844,0.1860029973,0.5719350014,0.3904059525,0.558137403,0.5323835547,0.0864667296,0.0150009286,0.186582652,0.1866105296,0.7251179884,0.3732602106,0.2497683252,0.3965592834,0.0602258076,0.1454151208,0.4914188439,0.4204279166,0.2752586375,0.6437570835,0.1623626584,0.3429531956,0.6055735794,0.1427181834,0.2986024116,0.5919959501,0.3028649931,0.2932645875,0.2791908041,0.5039326874,0.3407099839,0.4996060364,0.3697159742,0.3264817023,0.7188006068,0.0651273822,0.4243686673,0.6016152914,0.3365965354,0.2575028183,0.0294406782,0.3953440157,0.5896487035,0.7210839698,0.5620311285,0.3060678019,0.0703782278,0.1994223023,0.1378553012,0.1852874931,0.4158546223,0.4389738453,0.2900249752,0.1551158175,0.6129946654,0.5320207274,0.4092340157,0.0924702406,0.65492711,0.3315961946,0.5675170549,0.2059809015,0.0069614118,0.06189863,0.0085780452,0.3016308684,0.3902095675,0.5273395497,0.0199592881,0.2965955355,0.0536152098,0.4267482653,0.3863117071,0.643777917,0.2270193709,0.6159154951,0.1006229834,0.1745376231,0.4014359585,0.2693456142,0.0659172161,0.6061766366,0.6265508768,0.3150805419,0.2123274146,0.1082618781,0.2424629227,0.6811457278,0.2865489705,0.1999542354,0.1219150651,0.021265197,0.3317477021,0.6011447598,0.5494306578,0.6397095094,0.700734394,0.3964837164,0.2174245955,0.3631665695,0.5791457186,0.0101466103,0.6926867737,0.5035483727,0.040880265,0.5746949111,0.0235883554,0.0586490345,0.4103451821,0.6545735168,0.1356787183,0.6278337002,0.171152086,0.0296917596,0.1190398512,0.2583775341,0.2890596317,0.0996844373,0.1357959589,0.4744418665,0.5201912584,0.6222493478,0.5047368779,0.5361132875,0.177175638,0.3176843697,0.5586414162,0.1453457859,0.5276984511,0.578557734,0.1766910871,0.1477178863,0.2391231014,0.1710323526,0.1477833875,0.6484553467,0.3635202105,0.0871436135,0.2235771196,0.2334623404,0.6359580625,-0.4970571319,0.0715332886,0.1114463691,0.5112552609,0.363117737,0.209317772,0.6440771344,0.3666689775,0.3264054369,0.5974895248,0.0188422011,0.2645348798,0.5108164886,0.2616625961,0.480404785,0.3715505997,0.5172826638,0.5059101353,0.1965761963,0.4414655447,0.3229407943,0.4397298001,0.0154128029,0.3404892793,0.3665556884,0.3324713768,0.6076213914,0.5758704629,0.6571452768,0.0120109744,0.3983133848,0.6047742764,0.1466924531,0.5601637709,0.6478816784,0.6042895493,0.4638123862,0.1827748747,0.6224212264,0.3681525453,0.4984167931,0.5643537904,0.590665716,0.5705473061,0.5972759109,0.2082540616,0.1214616179,0.3925689069,0.5278611993,0.6705799527,0.5824094144,0.0276290095,0.0689634154,0.2300684304,0.3121900722,0.3065849303,0.0967423503,0.4389955977,0.0250945785,0.4481926975,0.3133428967,0.4046946842,0.0327708233,0.4647922807,0.2126042885,0.2484985284,0.3620989552,0.3584911604,0.5871204161,0.5920674424,0.3118333946,0.3390872236,0.6835079206,0.3821842838,0.6876600646,0.647445699,0.4351483754,0.6967884003,0.0023900734,0.1069495015,0.1840283152,0.6988409554,0.4365047753,0.7012780256,0.6827099943,0.4864080441,0.253556508,0.6807650824,0.4349614711,0.5307434126,0.3867008896,0.2774186141,0.396328885,0.0679807001,0.4419821742,0.5041170878,0.4271415729,0.0795909178,0.6415689624,0.4582134038,0.4892294034,0.209932154,0.2727607344,0.6749469657,0.1579321026,0.4128233577,0.238975725,0.1068362587,0.1737802282,0.4272678344,0.46124449,0.4056478544,0.1733663088,0.068987155,0.3170199865,0.3823895258,0.200219754,0.1809315828,0.3896702133,0.5437623098,0.0686378477,0.2399499654,0.6188686008,0.3213350281,0.1717193667,0.0216184554,0.0155844485,0.4265189474,0.0060789222,0.2227727023,0.3301211648,0.0305601564,0.6119110073,0.4147823672,0.4376534858,0.3542592277,0.0641076075,0.5476586432,0.6455307815,0.6629913971,0.3381076817,0.5897163356,0.6063286549,0.3946099981,0.38855763,0.1882597753,0.1168493349,0.6800480737,0.1789177355,0.0703943672,0.1756650545,0.1883835142,0.2230451288,0.5472886067,0.1202345152,0.4140564259,0.3263092815,0.5462467139,0.5451438245,0.2585783628,0.6026589783,0.0856926254,0.2551707471,0.2945021021,0.5479518527,0.3306488412,0.6725310234,0.4290948632,0.4484104769,0.6275581851,0.6507662999,0.0377702516,0.3394093636,0.0422507822,0.3733825565,0.5680095271,0.6362468778,0.1446328398,0.0557470444,0.4801136341,0.6279421086,0.102156847,0.0741591887,0.3497467674,0.339443366,0.6667024462,0.5242387356,0.4879342368,0.1191698817,0.4476219127,0.6701925987,0.712968953,0.5807528966,0.6830907982,0.6847384522,0.4146365509,0.5884694679,0.1250517747,0.0695361371,0.4453507741,0.3808525272,0.3189435211,0.3693330945,0.5498157349,0.0679442022,0.4815312488,0.5886080485,0.361576364,0.0768910333,0.6165301287,0.4034392494,0.5914183044,0.1958048517,0.6272520545,0.2133036197,0.1665066294,0.4608490109,0.18756949,0.3915121496,0.551604111,0.5152290459,0.1278809843,0.3827952561,0.1072804184,0.3465500525,0.6605152449,0.4160566573,0.0625794667,0.5509177616,0.137263579,0.0465241589,0.1203662555,0.4314950147,0.6214490951,0.4210196753,0.4814519887,0.2165776333,0.163341911,0.3123840632,0.2381095908,0.4716445824,0.7123348918,0.6588736836,0.5966065918,0.1650871368,0.1689930233,0.6764171868,0.3994130416,0.1733450602,0.6730057218,0.2356437092,0.1241710547,0.2486445651,0.4871949342,0.6373557655,0.1659223342,0.6100405686,0.4759699802,0.3963596322,0.7093462283,0.2386788555,0.1878589197,0.3764447909,0.4766771523,0.2521036306,0.4808227529,0.5208181051,0.1298582538,0.6102469246,0.5161489203,0.1654648792,0.3285303307,0.1835889367,0.0672331364,0.3610558656,0.235159691,0.6517781322,0.6243622057,0.5226098218,0.3048123997,0.6292764048,0.1879609278,0.306376794,0.0261302695,0.0441086796,0.5564107418,0.2411143706,0.4009240557,0.102635719,0.2365051705,0.2734664898,0.5726744312,0.0819422956,0.5198510617,0.4740574327,0.0810112197,0.6899873778,0.1094587704,0.4257256051,0.0628862219,0.1670126814,0.1646855215,0.0352700474,0.7045210284,0.6877899761,0.3961948797,0.0811724135,0.2425577262,0.6116483267,0.3191475358,0.6144405662,0.4906317347,0.2253873279,0.3361426976,0.313424808,0.0006787047,0.4930950334,0.3870268909,0.1774263589,0.6506658854,0.0024207908,0.6166926068,0.2036977649,0.6228760046,0.5095725434,0.0205178177,0.1387845389,0.1663642434,0.2819293329,0.1373214762,0.3376839617,0.2813140721,0.6661450479,0.0860196206,0.5892090221,0.3821530228,0.2099528009,0.7018975809,0.4205534858,0.4701314565,0.2033586668,0.2970559833,0.1005178216,0.1524545523,0.6143388607,0.4255374946,0.3718652571,0.1420611303,0.1113927476,0.4967089725,0.1336841197,0.1741505286,0.5640513089,0.3326412397,0.6656309903,0.6178842464,0.0519651361,0.4257103778,0.4788522986,0.5084207739,0.6311981913,0.2190068041,0.0375076363,0.2875374053,0.5454048903,0.2451152276,0.6183963207,0.1325489211,0.5990540518,0.6405810306,0.4647731646,0.3616497841,0.4322591894,0.6380221559,0.3308815031,0.2920796612,0.5699727196,0.5170126714,0.5000499578,0.329755391,0.1042732415,0.0457937619,0.2865727868,0.552308962,0.1053850629,0.3236451165,0.2796952684,0.3956344769,0.1515351424,0.553357263,0.6658218455,0.5593082077,0.3634558817,0.7226890202,0.3755472441,0.0606970035,0.48200358,0.0374286363,0.3638498124,0.3977859695,0.6034218195,0.4434421921,0.044784393,0.3363441072,0.0748772713,0.583551498,0.2518791534,0.5910223653,0.1859549394,0.3033090358,0.6139441727,0.569094224,0.6111507556,0.2711267961,0.3680154874,0.0688003713,0.7017464502,0.1384747583,0.3353982248,0.6225825699,0.0024007613,0.1451984742,0.6716036283,0.2323316264,0.1411943349,0.2494581177,0.5927440052,0.4879444228,0.4530567379,0.363090712,0.6730796128,0.1132364311,0.2053449257,0.2941681703,0.003892919,0.452622051,0.0361877152,0.293649737,0.6841227435,0.0910501872,0.1796608062,0.3447691762,0.2866367603,0.0628758217,0.0321281231,0.1245433471,0.3627047077,0.5996400919,0.2836386473,0.3041514815,0.0728975517,0.0977635345,0.2731475765,0.2640597581,0.5610118325,0.4240892013,0.607965159,0.5854389963,0.1738680871,0.3512477774,0.6030726295,0.0811810321,0.1625158543,0.0620919533,0.0609232642,0.6129057549,0.4705703337,0.7033676952,0.6366756675,0.6095914894,0.0799395855,0.231454341,0.6521974943,0.5857553045,0.6922222062,0.0900087542,0.3370255722,0.0692807649,0.6617716996,0.1811258556,0.1438817081,0.5251124007,0.122503781,0.4896320965,0.4845352165,0.2466669445,0.6907554852,0.1141703235,0.5138966167,0.2328069582,0.1568949437,0.0218298726,0.1172794593,0.6219333531,0.5378680223,0.6099795931,0.3960560964,0.3460701548,0.0377037929,0.0422300817,0.5309858167,0.0973781567,0.6142027373,0.090964676,0.0297142655,0.5026534229,0.2046249863,0.5390993956,0.2281560883,0.2564825124,0.2222948725,0.2620405408,0.2984971667,0.239111082,0.3242748786,0.3769487083,0.1942386015,0.6389433046,0.6394181751,0.6265290413,0.0985440705,0.4496310567,0.2727722162,0.259847647,0.6271368593,0.6281360718,0.4933801764,0.346014871,0.0837176369,0.5134871783,0.1991793565,0.6672454056,0.1587557211,0.2491274518,0.6786093435,0.5127452853,0.7123450811,0.1583142608,0.3298036913,0.2490737849,0.0867794827,0.3332885227,0.7092911198,0.0844519913,0.1049263555,0.0795551167,0.6294959993,0.3481948966,0.3628765248,0.5113986769,0.4941734559,0.6672444484,0.3041313125,0.5937631209,0.6173708161,0.4702093628,0.3701918279,0.2047629694,0.6696155415,0.706337599,0.25341691,0.6853282448,0.5408098327,0.1582056462,-0.6501716157,0.7136576808,0.6099364256,0.4340335433,0.4014493471,0.712632164,0.2168511556,0.4316848867,0.574498718,0.1573622946,0.6669022041,0.6727431726,0.5118348744,0.6185331925,0.0079981636,0.3056317685,0.5504309351,0.0318520264,0.1433392247,0.5266047936,0.7197800241,0.174359259,0.6041254846,0.0402771633,0.1336131924,0.2738451145,0.0907348656,0.6268428627,0.1053006988,0.7163789709,0.6388949489,0.4737523081,0.0907739637,0.5095552395,0.6229399921,0.6485610779,0.2865776637,0.0383650792,0.0521754783,0.2986629673,0.6907940999,0.6927054954,0.0229608717,0.3021362894,0.6890088374,0.5659800199,0.612810628,0.5763933629,0.6448502629,0.3188436318,0.2005183591,0.1309764555,0.6076246992,0.3595391738,0.27341112,0.5840062489,0.6772201418,0.6603312842,0.034556777,0.0789927014,0.1570386678,0.486146711,0.6897700834,0.4513197529,0.2858171077,0.1446787411,0.3748405373,0.4987675414,0.3610346854,0.1206333093,0.2840716159,0.121648153,0.3627416202,0.0107135488,0.4239475176,0.3005965141,0.6397340755,0.2261748886,0.5237091947,0.304269412,0.5964917425,0.5757368427,0.2094289481,0.1765580998,0.1102147403,0.5892867028,0.3329075171,0.3907276107,0.3377979845,0.5346840142,0.1072614086,0.1611680543,0.5959495353,0.5454050072,0.1451939624,0.0907574015,0.1899437086,0.2912033977,0.161394691,0.5504973816,0.7199248628,0.1347164478,0.3034309604,0.1225133248,0.3154208069,0.3497606153,0.6751881818,0.154781381,0.3687155414,0.0594814034,0.4498916326,0.3736721999,0.3338511228,0.4821532629,0.6557691525,0.5438244087,0.1889051376,0.4456839536,0.2038031446,0.6576092568,0.0661959182,0.4870619731,0.3005771725,0.4707100304,0.5375640157,0.0434274276,0.154770974,0.668342497,0.5615628721,0.6419526728,0.1188059948,0.3729377383,0.1388879728,0.5823794439,0.2063360368,0.2701241477,0.6733110493,0.1279331619,0.3389837649,0.0487719646,0.6815828216,-0.1237689766,0.4618480479,0.7136952844,0.5857292128,0.5912471339,0.0843231801,0.3435560915,0.5680859929,0.2541338183,0.5991830203,0.3010135829,0.6690680862,0.4318930379,0.329656934,0.2829959597,0.3660731072,0.637704589,0.3884652822,0.6811834297,0.1752822019,0.398316192,0.332072339,0.1255910994,0.6353174205,0.3579916838,0.5624942392,0.2583861345,0.4681247359,0.6400402523,0.6134288799,0.6834937376,0.5399358945,0.5828009876,0.5302658624,0.6840571761,0.2589384555,0.0076689999,0.3739987178,0.3196055671,0.0361480082,0.4155709839,0.4825082555,0.3760850588,0.2319020234,0.5943324232,0.6025404775,0.6369522884,0.6303163005,0.432856031,0.3912989078,0.674704018,0.5417526733,0.3897539778,0.3994714728,0.1510868776,0.6084747842,0.5222783007,0.1895104997,0.3907288442,0.2285255219,0.6083702103,0.3164718306,0.3768268177,0.3988737783,0.5442870789,0.5210727997,0.3674820455,0.5236420126,0.0480126092,0.5917604111,0.3569039237,0.5534823655,0.194810809,0.0085786422,0.7009811599,0.4251279831,0.502559905,0.4703066406,0.0755095903,0.3959077835,0.4283702776,0.394187795,0.2747710451,0.6567084256,0.2985418643,0.6286326862,0.0241308319,0.4884323298,0.2807149895,0.6347925425,0.4704288953,0.4002373734,0.3416777402,0.0279060033,0.3216477898,0.6497644041,0.5149195871,0.3717671187,0.5930687435,0.378186735,0.1059050723,0.4547935945,0.0713529542,0.6645262838,0.3159329502,0.0200353989,0.2881381119,0.6639747561,0.3368127155,0.2842599705,0.7194374697,0.1295467541,0.2703903486,0.1306169502,0.4771553819,0.6330874675,0.4167009653,0.5132980426,0.6823398249,0.5896590302,0.3947046592,0.6866509697,0.3225192258,0.6725902307,0.2742627059,0.61145296,0.5982157509,0.2443019087,0.2844764355,0.4490353119,0.2403494805,0.3718675129,0.2247294541,0.3482081481,0.306154091,0.69348723,0.6629059938,0.2748521856,0.1322721456,0.4262570342,0.2842575006
   -0.4241016278,0.0194776414,0.4137182946,0.7111318681,0.0100511126,0.3170848333,0.4383934755,0.6836167264,0.2919688596,0.212018748,0.5961926916,0.2476964486,0.493629793,0.4969858286,0.2115026787,0.4114857222,0.4678339525,0.7187426257,0.5758973305,0.0523388797,0.6373581377,0.2509808215,0.7077833183,0.2258875247,0.073730797,0.4585279444,0.1447103966,0.3369479668,0.0305620299,0.3784726695,0.301151042,0.0751495894,0.1901711033,0.0933513401,0.1175322417,0.4483927337,0.2971846488,0.2464294839,0.2636439494,0.6300947452,0.5123910893,0.6924666338,0.6783985229,0.1686381559,0.0639285479,0.2526540162,0.2492002356,0.6817205493,0.2206234363,0.3532507075,0.1154139169,0.2582427581,0.3340536278,0.5702276742,0.2521300918,0.4686487267,0.6802826048,0.3386178854,0.3603797976,0.0706225089,0.2600704569,0.5721805396,0.318659893,0.1505785447,0.2080398819,0.5656165692,0.5500450032,0.3978448079,0.4724786405,0.6161281054,0.3484561801,0.2288534704,0.3270292915,0.7185810966,0.6155665605,0.3109688693,0.1215601991,0.0732586842,0.3288759193,0.0192950579,0.3318952754,0.2367176859,0.105431522,0.1440181958,0.0759062454,0.1703322444,0.0756777697,0.615838181,0.6746481248,0.0342327852,0.1080121525,0.4723257138,0.2475603216,0.0904536737,0.6358145313,0.110903242,0.3312565481,0.2906062528,0.3679257807,0.1699689832,0.2242843186,0.3399020384,0.2622712247,0.2011548109,0.3207244891,0.4322907648,0.5500954395,0.4380483675,0.2431986404,0.0139052881,0.5318338778,0.704765523,0.3494553574,0.3569111702,0.2837059638,0.122363948,0.446485616,0.1557684132,0.6501894589,0.0311108982,0.390076052,0.682026321,0.0510316406,0.4520602295,0.1668796516,0.2048190015,0.2287137562,0.2460722185,0.3312942838,0.7069525583,0.0913532172,0.529473096,0.6222538847,0.0901531609,0.5423135654,0.3292736327,0.4435934395,0.2089301203,0.4726646605,0.6150233556,0.0769112259,-0.7078345308,0.2601730274,0.5589377767,0.510809848,0.498958875,0.5891115771,0.701161795,0.4396031782,0.5234381744,0.6764269682,0.5329618894,0.0098220222,0.3439177088,0.1491374003,0.1793936498,0.215469637,0.524216072,0.1167482791,0.3466334539,0.451569299,0.6716052685,0.2748541595,0.2348018125,0.3959924054,0.5991029607,0.1619413182,0.1257031448,0.3006634834,0.2500510537,0.6138435289,0.6316821419,0.0170294164,0.5576182583,0.1013559278,0.54631417,0.6278229969,0.2460568129,0.1482730023,0.1387794975,0.3549529752,0.0047534284,0.4443404792,0.6282299028,0.6725766266,0.2168920698,0.1405562111,0.596956784,0.65472938,0.695274269,0.2417671336,0.1463304636,0.3827422822,0.1769308062,0.5845793415,0.3104281791,0.3716412282,0.4160696048,0.7066291038,0.4087969686,0.3479442366,0.3575217754,0.5666887208,0.3317461073,0.6100077076,0.5617597773,0.2483177729,0.232287104,0.602961245,0.6117637676,0.0692319715,0.2573050038,0.5241429647,0.4399016895,0.2984992784,0.0789811707,0.6831346613,0.1468462354,0.2055826513,0.2146316166,0.5813690434,0.1084289693,0.1542786273,0.6711352702,0.5947556434,0.6233514936,0.5071652511,0.5237887092,0.1131046518,0.3723773784,0.5791457171,0.7088019517,0.3691888882,0.6140626692,0.0409279997,0.1234486384,0.6912710526,0.3506248642,0.5511615644,0.6731146138,0.4016752103,0.0523873068,0.6152054719,0.1095273224,0.2180137809,0.4561575025,0.0099593894,0.2997836425,0.6061451274,0.1249177895,0.3611075679,0.0616705298,0.505797844,0.6859229815,0.6060881837,0.6935224464,0.2244108503,0.1972258946,0.2398834826,0.3944024595,0.5457595654,0.2509095422,0.2632610484,0.4809255142,0.3093911272,0.0696209699,0.5235808103,0.2211023731,0.0542464811,0.4074781862,0.0249912281,0.2356886769,0.2060690931,0.0876003816,0.0099304387,0.7044466687,0.3609921598,0.2047229269,0.5048669092,0.5853718116,0.5645045946,0.5148022843,0.0833837438,0.1183095734,0.0357529679,0.4241522614,0.2481773197,0.6195251909,0.2202792635,0.3072584297,0.3117784237,0.3842775481,0.2351075148,0.7129947968,0.5172459003,0.4996904586,0.5644200873,0.6850791238,0.5945211181,0.0679539218,0.1252335613,0.4739509723,0.1647794898,0.0255337824,0.024707907,0.2251031805,0.6757902849,0.4871288661,0.6255359894,0.4776598522,0.6983025358,0.3207947355,0.619635814,0.2859096886,0.0058286791,0.2795656363,0.0921127653,0.1699893576,0.4865140373,0.0307335404,0.1425553258,0.5998049518,0.6609428953,0.3690071156,0.5485073919,0.3305347333,0.0235095635,0.0836803094,0.2764941583,0.5800086753,0.125121086,0.1157743037,0.4686656199,0.6158125262,0.4648788542,0.0691500594,0.2088616179,0.3180670494,0.4250900975,0.4267902259,0.3336140759,0.5558106594,0.3106090846,0.647701751,0.6079041857,0.5038542722,0.1514646045,0.0500222344,0.2299510396,0.4263017969,0.3670581433,0.4836262654,0.2202431857,0.6818109089,0.618230627,0.4656011529,0.1209538643,0.0509134237,0.4710194576,0.3027677813,0.1618390792,0.5144015586,0.307285356,0.1599893692,0.5497044382,0.29458053,0.6461653659,0.0285403398,0.6997376406,0.2032679175,0.5110569236,0.5843762692,0.2646226798,0.5889030101,0.6895579903,0.5107200417,0.1583216375,0.0255878864,0.3082481386,0.595350981,0.4917754222,0.5142061192,0.3438474928,0.5135460428,0.6890329685,0.5747378938,0.5225550441,0.5913066419,0.3793847981,0.5916996589,0.2166167105,0.1151359601,0.4435869828,0.3995966428,0.2380254992,0.0315460891,0.2278234352,0.521016736,0.1638715848,0.0970247391,0.4570007991,0.2456565373,0.0822876028,0.4871749919,0.2936927538,0.5311947853,0.0126075973,0.1366140759,0.3418366323,0.0776140055,0.5647845152,0.4487752377,0.541455363,0.092057727,0.427175806,0.2469048913,0.5853149257,0.6246281595,0.6168774438,0.2037151386,0.3710343898,0.0166366406,0.4551599679,-0.652281521,0.4162619383,0.3413901463,0.2116668157,0.4700661346,0.4316781845,0.3887142531,0.0721555374,0.6260436043,0.6943278506,0.6139171765,0.2454268731,0.4098670823,0.1118822877,0.7087052274,0.2728399961,0.3438356921,0.4258655935,0.3136957629,0.2953316195,0.1006147541,0.4297363366,0.1305786327,0.688506372,0.3934813834,0.3472281804,0.1431574356,0.1254827547,0.3976061047,0.4748670056,0.194712456,0.6937146638,0.3180584473,0.3670009824,0.414134602,0.1172963566,0.5525395414,0.3895170688,0.3153172997,0.7190602287,0.4829489154,0.3196054071,0.0121642432,0.3324889053,0.6614150499,0.1276560536,0.3922851017,0.6683456548,0.5830626267,0.6113071677,0.1298974754,0.2736390266,0.242772423,0.0907425119,0.4435252575,0.4963741315,0.6948557787,0.2461001109,0.580872058,0.1382897193,0.381881908,0.493102799,0.3878277626,0.2082253231,0.0718615425,0.0523155565,0.6161251246,0.192946727,0.3793519584,0.1169254656,0.3889822451,0.3479098811,0.6661292289,0.2582086501,0.3941219206,0.150661826,0.3280903169,0.3742043683,0.1777214858,0.5998383138,0.0596222258,0.5999470605,0.1609135452,0.6171775149,0.194508445,0.4700656924,0.3002414992,0.1090234421,0.0044313731,0.4494721426,0.1799198437,0.1501035169,0.6641352795,0.099479022,0.4466936807,0.4066246332,0.3902902973,0.2567377397,0.28112375,0.5107682991,0.3158519699,0.1852594085,0.346424726,0.4063387481,0.1247781154,0.7060728881,0.2561997626,0.2379511943,0.5486843756,0.323198637,0.1962332837,0.6741088762,0.4875014581,0.5185988781,0.3319374668,0.3629550759,0.1352492531,0.4832448925,0.6697979084,0.2728849591,0.1744904763,0.540263247,0.4104596298,0.5823512882,0.6153085049,0.1939482245,0.5622698658,0.1217354125,0.4363086881,0.1818574633,0.5717687205,0.6434887276,0.4152057294,0.2210678094,0.4574038245,0.1593654649,0.4617431649,0.0143514057,0.4393966273,0.1246625502,0.7195127439,0.5993122288,0.6817022601,0.2630192944,0.3228507813,0.5742330994,0.2672665273,0.1252179025,0.6180857597,0.6818784035,0.1200733358,0.5520408618,0.6975949599,0.6675198052,0.2608175767,0.4100588732,0.5665368312,0.0877670049,0.4733404489,0.5124028412,0.3699861105,0.092693085,0.6279262091,0.237309407,0.0225390911,0.487399832,0.4150449944,0.1855481072,0.6655702548,0.2817056924,0.6855487694,0.4019185278,0.6819019746,0.3603565901,0.5437433093,0.3198302601,0.0560172493,0.1652441305,0.6053433747,0.583542154,0.0891107527,0.5746780716,0.32506668,0.0144258707,0.0556191089,0.7030045675,0.1358734843,0.0461611016,0.4615316867,0.6710677816,0.3056761908,0.7189710221,0.2048290216,0.5196020569,0.422674457,0.4912386776,0.4609647403,0.0206522614,0.5828989505,0.2532311021,0.0004789835,0.0751929252,0.0006128744,0.6205666268,0.1903661395,0.3466894976,0.4729587024,0.5756202922,0.4333703847,0.0746025646,0.1441881678,0.4270635775,0.5646877039,0.4807077159,0.1511048765,0.274763959,0.1506677333,0.3042222185,0.1355391345,0.0562027,0.1405505051,0.5102234604,0.1421852104,0.2263921938,0.2956988821,0.1911801543,0.1738279731,0.0165167217,0.6474023172,0.0247505572,0.5226899265,0.2786772912,0.3524761212,0.3851309861,0.0998340065,0.271972243,0.0123696703,0.0031799707,0.4262839922,0.5427396817,0.1352659737,0.4933979804,0.4196126837,0.2811900753,0.4373165384,0.6633110972,0.0764304878,0.0169990038,0.0400398705,0.6090314406,0.6899721003,0.0543265756,0.5308030608,0.1031433212,0.4995004596,0.6834736805,0.5577185757,0.6747930647,0.6618986208,0.3042708312,0.1411803251,0.1951226837,0.6039491902,0.0151883483,0.0549629473,0.6091583966,0.332407636,0.675248382,0.308779641,0.2704454324,0.1942192646,0.6995517599,0.1616424353,0.6759680873,0.3126293962,0.2892566678,0.5154772097,0.6453271567,0.2657316128,0.5752545798,0.0045720644,0.3103485047,-0.0648831254,0.6811473052,0.6672486777,0.5146608006,0.0852566953,0.6519177806,0.5916155745,0.3211535339,0.1035966704,0.4972161453,0.1984771093,0.3000063649,0.1691886645,0.3738116409,0.2231706543,0.5187774366,0.038923494,0.5194277154,0.6459044717,0.5914051717,0.1493476692,0.2307142278,0.4222602844,0.2266140854,0.2650908062,0.0509161079,0.0926680737,0.1558916965,0.2762581424,0.0936898765,0.7222230323,0.6139318731,0.3129035848,0.686865729,0.695876309,0.0177600985,0.2630000379,0.6887412781,0.7155020593,0.7177266235,0.6335622955,0.3192877594,0.6571524529,0.4927450291,0.231258601,0.5744375554,0.3926413318,0.231736054,0.3649473691,0.2887154956,0.1888197836,0.7191967823,0.0006928393,0.0247939858,0.1339765161,0.5676034139,0.1502711025,0.1921157211,0.4492263264,0.2585262441,0.3955241329,0.1951837153,0.4474971318,0.2253615995,0.7209520608,0.7220160977,0.7073752964,0.343033262,0.2714418387,0.6333384359,0.2773443948,0.2707321563,0.4643951615,0.2859624057,0.6286137468,0.3550719381,0.5507969669,0.5542305263,0.1401918859,0.3656972597,0.4546946384,0.3426846836,0.2514302281,0.5309318357,0.6299617437,0.0519738157,0.5747545324,0.0621148315,0.2253330179,0.4906144378,0.5587916663,0.3096176723,0.2596998601,0.5037651463,0.3487993175,0.6703986441,0.3759621343,0.0580059536,0.4772429103,0.056734177,0.6016440689,0.7015785102,0.4996169186,0.2959752504,0.0058111457,0.6455685978,0.0961191349,0.2971303014,0.5207135688,0.656749477,0.1610160188,0.1977474876,0.352336255,0.6280573357,0.5014733999,0.0227387478,0.3078790337,0.5487936162,0.0423175088,0.1957125749,0.0896335404,0.3582355074,0.2275519549,0.1742313077,0.5538890133,0.5998260448,0.6001345588,0.1942401696,0.5541498204,0.0152885553,0.1123288002,0.4476609949,0.0291467921,0.5857423263,0.2537483129,0.4137224013,0.188442421,0.5018840562,0.2440689619,0.2381827359,0.2319613707,0.2258092514,0.6264755118,0.3560891045,0.4588447215,0.5717734434,0.4228573349,0.2112425349,0.5187517621,0.483581147,0.5964804253,0.3367166614,0.7249149698,0.2295560262,0.5141784183,0.4477631012,0.5427964936,0.7063219993,0.2798417678,0.1696028954,0.3282028156,0.321328014,0.1535172138,0.7180837703,0.0788777434,0.1860451357,0.7176490074,0.6512099337,0.24377531,0.0186184355,0.3428372811,0.6440565276,0.2702964598,0.4141607902,0.4483285686,0.6169739282,0.4449782214,0.6056459346,0.2341360164,0.5905846625,0.3639302344,0.5540669542,0.4797802422,0.6545045624,0.1904381984,0.2312859835,0.7053008875,0.6834307081,0.1335803634,0.3808124654,0.3512130399,0.0837027034,0.6469543322,0.0007485922,0.4093977895,0.6074542087,0.2444061759,0.5234468173,0.0624334042,0.1006927193,0.0162723866,0.6297349838,0.6160866445,0.1201290627,0.244026314,0.3528027636,0.3499926697,0.0583727413,0.5210001209,0.2465558342,0.5379732049,0.3964774697,0.5734990364,0.565090978,0.4972332511,0.1430540564,0.3766451123,0.4832336521,0.5483166363,0.7016498053,0.6696921516,0.2893858231,0.2980551293,0.6831654305,0.6197003182,0.6222197178,0.4215225858,0.2968049622,0.6399787928,0.4828526729,0.6479703529,0.1096768094,0.2813334986,0.3550133378,0.2133236608,0.4370949992,0.3936433076,0.1786235167,0.3178991169,0.2955297297,0.7122378456,0.7088315424,0.7015947853,0.0515460368,0.4477609467,0.6133437983,0.4252872798,0.6269690712,0.1622688109,0.1302593688,0.4900381936,0.6303988844,0.1048090123,0.5361247107,0.0175844126,0.0487305469,0.5081490475,0.2996854589,0.1109504442,0.494436154,0.482946144,0.263946798,0.4464328569,0.4009450159,0.3439463842,0.1741416576,0.4397884544,0.1356296693,0.4821477879,0.3232724496,0.1347329138,0.1960110114,0.3159288317,0.4464207933,0.319126309,0.6165090481,0.0560543386,0.2779468681,0.6781075364,0.0715510193,0.3551224045,0.1812639964,-0.6210358794,0.4017219318,0.6855939289,0.6241574774,0.4443104574,0.0033346608,0.5487614869,0.2024220452,0.6060787747,0.5274409839,0.3832238676,0.6624159277,0.6004232072,0.4499159281,0.169521299,0.4300035475,0.1909873351,0.6398805387,0.3169573791,0.665953239,0.093959817,0.2029833192,0.439951823,0.3032931137,0.1300684347,0.5220490766,0.4414096754,0.1677685148,0.5294024391,0.5771467439,0.1123817294,0.0031195995,0.6781796517,0.1546678367,0.1373057146,0.3231467187,0.0043099789,0.3739414408,0.6815283468,0.3691410228,0.1757164227,0.2402660724,0.4631442769,0.3570124296,0.109695336,0.3181409262,0.5205647256,0.3138503236,0.2703061994,0.224705246,0.4531036963,0.0412570415,0.4453420254,0.3134350042,0.1965003805,0.1433359285,0.2184618664,0.4586144329,0.3807460237,0.0242799718,0.1412842704,0.6014956319,0.06850052,0.5222326522,0.5742114399,0.0943679245,0.4342834719,0.718064812,0.6777313508,0.6861536676,0.4600345851,0.0542763546,0.4955363961,0.6242600417,0.1088945844,0.6293990918,0.1261073245,0.217789604,0.3740425799,0.4323584424,0.6364169881,0.4917378384,0.1771185339,0.279179652,0.2965916066,0.4131328197,0.3285382726,0.0124349804,0.5687880925,0.4708641834,0.5778494477,0.6314461138,0.5989685789,0.4160544231,0.5683667931,0.3559000011,0.1641811128,0.532400576,0.0732808593,0.3632109232,0.4647465983,0.5898135885,0.5931101698,0.4310074525,0.0431256828,0.2776129061,0.0786904739,0.1131890125,0.4532174257,0.2574226244,0.3212264281,0.4799279906,0.007419591,0.6992015023,0.0231042379,0.2743337652,0.3220587249,0.0677164961,0.4911972291,0.0315430397,0.3528585147,0.1339984812,0.0609948647,0.1057078627,0.5010138798,0.492114754,0.081746545,0.1015962415,0.2640623249,0.6581445819,0.3059273279,0.3193087541,0.5357800562,0.465890778,0.3168714031,0.2240748145,0.0018631785,0.0232267247,0.4413406127,0.6015145776,0.5780639898,0.5675098267,0.3476314589,0.7180159671,0.7223175855,0.2496528132,0.1191946388,0.3885409328,0.5766609314,0.670529162,0.3402092274,0.4710361436,0.2985888559,0.3616751563,0.0133497053,0.5193443434,0.7074926614,0.0682081121,0.3253599485,0.2812033072,0.376670987,0.3920174414,0.6752349813,0.6700980566,0.235483466,0.0392087691,0.0240958642,0.2256766498,0.1939926085,0.456379226,0.146397292,0.7083431383,0.1590835369,0.4164874898,0.6948396287,0.0100095926,0.0059414251,0.6338637574,0.1656022768,0.5083657776,0.6665482014,0.5202404548,0.0764767964,0.5560580728,0.1640145659,0.3191673668,0.5331704918,0.2021333688,0.5676562222,0.249694854,0.6890030433,0.1916769039,0.1993245926,0.2445528314,0.5345883809,0.1208116103,0.2446426272,0.0730571695,0.4491374777,0.016008739,0.271029046,0.3988239752,0.4013416758,0.5883218527,0.4204654269,0.4849739827,0.0030122491,0.5637320119,0.2690450015,0.3044966695,0.3191025035,0.4593859328,0.1010553932,0.2318495351,0.4467811018,0.3537502705,0.0183411148,0.3190044443,0.4758845458,0.0021387437,0.1300826054,0.0381460443,0.0944513825,0.5627476382,0.5876395959,0.6316158772,0.0228722941,0.1288359955,0.1221755878,0.6193436135,0.5838299277,0.666287401,0.3603032328,0.6102243869,0.2534125537,0.3115647727,0.6517478498,0.6269616974,0.1610352575,0.5276947374,0.0106542617,0.6083083361,0.0833564622,0.6017493933,0.2762409548,0.3523312806,0.0251796887,0.6663204874,0.2539825134,0.547003171,0.3780568248,0.3008422993,0.3586634968,0.5186566431,0.4859499708,0.5947137612,0.3497192204,0.6457563657,0.4957373304,0.5138664883,0.3793151262,0.1751826115,0.125574255,0.3715651738,0.4424944716,0.4293803638,0.3293662804,0.5951757325,0.6898967079,0.0640182699,0.4607097438,0.5464770095,0.1298416334,0.2972500925,0.2811193917,0.4315707639,0.1133678001,0.6078688791,0.6523355523,0.2048012162,0.3295884161,0.694736064,0.012954036,0.3850114063,0.6292806637,0.5266526867,0.349898131,0.2535675955,0.4731233105,0.6345966423,0.0621067583,0.3253953586,0.3841816222,0.0968180737,0.6564148537,0.4169263526,0.6356002995,0.3979379996,0.2301791647,0.090311202,0.6820742101,0.1957737214,0.6340235629,0.3453002361,0.2666955842,0.3729477889,0.1316899587,0.264212866,0.580465217,0.0575231378,0.0034433195,0.1955898863,0.5949563423,0.4984363648,0.4195589901,0.1753023118,0.0335169998,0.4726296977,0.0182130138,0.5719607856,0.5564815263,0.6096100684,0.1792125406,0.3417865672,0.0733908586,0.4930395343,0.4770577342,0.4477279586,0.209894517,0.7144899198,0.4579337831,0.102025193,0.30454515,0.5386587374,0.4459628572,0.5719359001,0.4006236477,0.4106755995,0.3108427737,0.1982576553,0.6933844555,0.3287871483,0.2907309345,0.4664829886,0.6714840896,0.4591903519,0.4585112393,0.6858520257,0.3139539711,0.5469829489,0.6266355038,0.5057098156,0.4984400688,0.2864858143,0.1013779062,0.6745915679,0.3946500071,0.6507825593,0.4994181134,0.4474731515,0.4099200841,0.5951124126,0.1730960491,0.0634585192,0.3383191367,0.6471257318,0.1937605007,0.469004114,0.4544944901,0.1406633201,0.3908524251,0.7110636478,0.224486967,0.3326345884,0.4688111503,0.0648943289,0.1893577097,0.5689688345,0.1216171673,0.3142606291,0.2789627619,0.5564238986,0.3537254707,0.4979338746,0.1924473924,0.0319303991,0.2118809223,0.0044513135,0.304893891,0.3671660328,0.1683626953,0.7215237916,0.2062744914,0.7157878086,0.2091257711,0.4428100117,0.0751832795,0.0407090789,0.6622823441,0.0784563581,0.0800672675,0.4855417163,0.0875523694,0.535012691,0.4171714564,0.5867985996,0.2237116418,0.2328090291,0.4311764829,0.6682446985,0.5437348633,0.0146545823,0.5508753572,0.6668335044,0.2680874771,0.4232844781,0.1279767617,0.5414577499,0.4600590186,0.0743320437,0.4760535965,0.012517841,0.0910848187,0.2480465944,0.205326901,0.0349184758,0.4671789881,0.0303994374,0.7062180017,0.4878209652,0.3601031735,0.4518970965,0.0750073717,0.4281783572,0.6886809827,0.5162398859,0.5307917547,0.4688432148,0.5174453211,0.3115302311,0.3556694412,0.259748537,0.5114651683,0.6753933631,0.5187988365,0.1519545435,0.204791393,0.6140603052,0.7227372617,0.5230182675,0.4299999984,0.2119557731,0.6557673939,0.0495383924,0.4968698102,0.2933727271,0.2138771969,0.0486228355,0.392695423,0.6585123617,0.189806642,0.4941906575,0.1883643979,0.4164455408,0.3554421403,0.5871460031,0.1371700305,0.4031562427,0.3680575398,0.001419088,0.6881206273,0.3540584072,0.0541939899,0.678959887,0.6561301023,0.6780633759,0.5487632971,0.674267988,0.6242759996,0.1670114783,0.385873208,0.3631108163,0.3156697002,0.0101623668,0.1099768846,0.0086022199,0.6032975169,0.5768759686,0.6108498705,0.5255252421,0.3584227608,0.5001410167,0.6284733407,0.1246834806,0.3142751873,0.0482298694,0.2852524232,0.4471332055,0.6232611185,0.1671554665,0.0831246947,0.3685075481,0.0822359133,0.2930106573,0.0376249597,0.194391385,0.5765441539,0.164104425,0.0242603826,0.3202138071,0.3016432726,0.5074775258,0.2887961205,0.1729865348,0.6270282419,0.0131105141,0.4222587569,0.5449446039,0.3391803277,0.7167837182,0.2745280216,0.4988793629,0.328130552,0.6017028659,0.5988694718,0.2052115062,0.1264988482,0.7014215532,0.6369503205,0.1215390691,0.4046216439,0.0543091528,0.1709730106,0.2620553326,0.5934108289,0.0149768178,0.7045312532,0.166402011,0.4939696035,0.406677346,0.6441153966,0.1442399897,0.7235851335,0.4330191657,0.6155104968,0.1915882649,0.6271346,0.4083177321,0.4978000557,0.6010894203,0.0733403539,0.0267023206,0.4922701853,0.1651284785,0.1519103102,0.719804543,0.7157378709,0.2556327715,0.5472747524,0.1425107834,0.6577981129,0.1209069447,0.3107370346,0.0931999359,0.4984531259,0.3865406695,0.6806113093,0.341312493,0.5403406743,0.5100559237,0.1877613854,0.4632210803,0.4747037483,0.0168969509,0.5145051071,0.0401309047,0.61997429,0.6446280312,0.5762859796,0.625137192,0.4504541394,0.5517600832,0.5246738139,0.4011072549,0.3497212181,0.063155204,0.0427629664,0.4153394645,0.6753708287,0.2296849973,0.7246322484,0.1934101315,0.393260809,0.577496055,0.2764981534,0.509191462,0.553133782,0.1681827667,0.4449040185,0.5644720704,0.2989880601,0.415314903,0.2877477952,0.5356423566,0.5109956598,0.4554150476,0.1960198498,0.481344351,0.3150455919,0.3346528333,0.5316970734,0.5648207838,0.595037892,0.4540315183,0.6780545772,0.3165726313,0.2779545425,0.4348187283,0.5093242973,0.3288727432,0.1061027793,0.2607584641,0.7070872921,0.0528563083,0.291148169,0.6511404863,0.4079726379,0.1445373033,0.1827519786,0.4466342359,0.3611529205,0.5165258666,0.1143559736,0.6988168892,0.1221511181,0.4357464885,0.5416463454,0.284672665,0.6014027815,0.2778714895,0.1672684633,0.4884440677,0.0536163493,0.5615706763,0.6209162808,0.6542180024,0.2324217073,0.6166792881,0.705855475,0.0416297479,0.2944293079,0.0115662176,0.325239779,0.5889561052,0.673879408,0.6763412949,0.2618946585,0.2918439178,0.0540153445,0.1358234923,0.1035297393,0.5467653259,0.1910032377,0.6435162803,0.4187501666,0.5357464621,0.0976924518,0.4074038439,0.2714196363,0.280647379,0.0210163449,0.5153289259,0.2477964372,0.0839108674,0.268177913,0.0745792991,0.3971732269,0.4005998699,0.0547060015,0.3261179032,0.1686425181,0.2387592351,0.296159602,0.2882875564,0.476080709,0.2191421809,0.3464958133,0.6355371629,0.3704256736,0.008213348,0.6849134542,0.5212037998,0.7236454492,0.6077815809,0.2526012122,0.0856529303,0.1420645604,0.1741881793,0.6352366117,0.6797048546,0.6248991673,0.4688092988,0.2308249607,0.0686569717,0.2897530615,-0.3496048559,0.3103451382,0.1871040073,0.2339202237,0.2631849888,0.6395955599,0.6227233892,0.1240211842,0.5285407883,0.4186836279,0.0008110971,0.3725709887,0.111174965,0.0317820262,0.1356525041,0.2590122288,0.0920306973,0.2505253125,0.6546697397,0.0090570962,0.4678817105,0.696152712,0.0148413696,0.1682797695,0.205020029,0.5615749355,0.4762528924,0.1554405588,0.5043996895,0.3746546713,0.4352691867,0.6520291686,0.4567837178,0.4744868165,0.4856334046,0.5997431467,0.3838607988,0.0254393176,0.2890033581,0.5226821183,0.0964562534,0.2301315101,0.1838005656,0.6246457307,0.0250816962,0.3960407238,0.1380298333,0.2017119264,0.0241118229,0.0472476286,0.5267572573,0.5430871536,0.1805017082,0.2356199203,0.6271540005,0.4469038698,0.2879448261,0.0333921527,0.1063423506,0.3372045456,0.2339968327,0.4546830036,0.5973967302,0.5637696515,0.6364701377,0.4701943701,0.4712378287,0.5701372351,0.3581325637,0.5932312429,0.0467472607,0.636132894,0.2535580379,0.526906715,0.445435235,0.0442625554,0.6235671601,0.2449697355,0.213731554,0.1646488892,0.2369012036,0.1638784736,0.0910926191,0.0888573559,0.7118462394,0.1377514594,0.4920368038,0.1862984378,0.2342573459,0.0167733908,0.3368262212,0.1612355769,0.4383694152,0.6523195757,0.0423642128,0.1758949459,0.4121339707,0.0348349413,0.4270576595,0.0829768655,0.0232986004,0.0935940464,0.546577869,0.0658171103,0.5338336926,0.0032388867,0.6053696058,0.4842162532,0.6797633641,0.2860829404,0.2041605412,0.497879985,0.4326068074,0.1848140806,0.2225243025,0.4617471858,0.468810785,0.4157558788,0.4337001524,0.4037401954,0.5457492694,0.4976996125,0.4949721695,0.339770711,0.1308698499,0.1052245069,0.5138539362,0.6184615077,0.6316224017,0.4525411329,0.2916307762,0.1998243,0.4279127544,0.2586371017,0.5387900927,0.6586703568,0.048904057,0.0786680739,0.3385319422,0.2558495158,0.2674622231,-0.6050211161,0.6126691785,0.633100069,0.2580705751,0.0745328281,0.2307952921,0.6298518079,0.7099845369,0.5551593045,0.3423023061,0.1304249989,0.23430381,0.3241293026,0.3783532593,0.4403413733,0.5634601506,0.2165109454,0.6929629641,0.6135622878,0.3173863327,0.4532925808,0.1638060883,0.6479279953,0.6316375134,0.366963151,0.3015233386,0.6273194331,0.4743077181,0.4798733746,0.4505093262,0.0555918116,0.5068884254,0.1449131954,0.2768578698,0.1380829419,0.1609263592,0.5182172528,0.6315486166,0.1478196243,0.2606988832,0.4209504125,0.5173172088,0.0492537506,0.6239732311,0.1299653686,0.1705776632,0.5520591036,0.7122316589,0.1685910247,0.4874905318,0.5210092599,0.513879686,0.2699289171,0.2637951291,0.4441059884,0.4875801739,0.4169054241,0.1741750823,0.4539603747,0.5152793329,0.0798351886,0.7084726332,0.3709921772,0.5911616865,0.1518355952,0.0233567558,0.6775591212,0.2515967825,0.543065504,0.2974248579,0.5965288916,0.5614555155,0.6208632792,0.2915916731,0.5127100131,0.6325503577,0.3642632449,0.5383056758,0.2325909513,0.1957067718,0.5949530392,0.4264664833,0.0389581295,0.3396022433,0.0752543815,0.3503615264,0.1502157552,0.7053184938,0.1301551452,0.7224007209,0.2737302015,0.7059076692,0.0937331103,0.0288372443,0.5183381398,0.0700927088,0.0962634614,0.7026988621,0.1787369432,0.071727018,0.3969363957,0.3167919755,0.6777065826,0.0204002783,0.1493498158,0.4624372597,0.4671744034,0.2110713384,0.2268757436,0.0089563636,0.5370199775,0.1989795029,0.1817316772,0.5108177706,0.4367171383,0.4719242583,0.0507287026,0.0444472103,0.6841638842,0.1946159817,0.3121250483,0.1838029003,0.3399640443,0.4129370111,0.2046366955,0.471958496,0.0370106679,0.5901169856,0.4612176745,0.6803314061,0.2308013089,0.7193541655,0.2573851926,0.057118484,0.191628118,0.1494754555,0.0140352231,0.1028138801,0.1842736813,0.3388586746,0.4111326113,0.3669977696,0.4267975675,0.2282468648,0.4272092794,0.6956211581,0.4424981257,0.2868534542,0.6364454323,0.0592355853,0.1367550794,0.1167695352,0.0427033018,0.0715522449,0.220440541,0.096902225,0.6716792282,0.5408725267,0.2651260777,0.5640213618,0.281967876,0.0352594631,0.6130094985,0.6290190249,0.5722854168,0.661128685,0.5703571057,0.2794681806,0.5171156483,0.0801458557,0.5477699535,0.2992535518,0.2266117868,0.014920883,0.6114775485,0.1226736857,0.4305124566,0.1033443901,0.2890990458,0.2561354668,0.0617997222,0.7109040697,0.1967711356,0.1406004744,0.5746400403,0.0820536998,0.3503630563,0.1288036938,0.2686221138,0.2637159703,0.2952700964,0.1740503879,0.0020166606,0.5890802259,0.5304194854,0.2349585984,0.4062899115,0.0224516214,0.5162263249,0.4329904113,0.1683421872,0.2300802218,0.3462887331,0.2126820047,0.7043936049,0.6534230774,0.3202431924,0.0720964452,0.5633892767,0.0441220104,0.1396781545,0.1747450224,0.0340875682,0.610664163,0.4297967187
