encog,BasicNetwork,java,3.2.0,1,1398645018753
[BASIC]
[BASIC:PARAMS]
[BASIC:NETWORK]
beginTraining=0
connectionLimit=0
contextTargetOffset=0,0,0,0
contextTargetSize=0,0,0,0
endTraining=3
hasContext=f
inputCount=140
layerCounts=1,8,141,141
layerFeedCounts=1,7,140,140
layerContextCount=0,0,0,0
layerIndex=0,1,9,150
output=0.0154956846,-1,1,-1,-1,-1,1,1,1,0.2825689265,-0.0595360033,-0.9299086695,-0.6928393327,0.4843495701,-0.0127592067,-0.9774351213,0.2340893506,-0.9623107315,0.5641055936,-0.9627719699,0.3873555755,0.1278680564,-0.9776222626,-0.921595884,-0.4192136761,-0.5380156357,0.5010214436,0.5254416067,0.5567947417,-0.4435258595,0.0362972288,0.0442971673,-0.388733281,0.1603430777,-0.9725317935,0.392753203,-0.8822451736,-0.1874022985,-0.6207526679,0.6335976311,-0.9463601384,0.2456416011,0.4017764895,-0.9307916164,0.5641010509,-0.0694304504,0.3969254448,-0.9710810221,-0.9758951552,0.4918311472,-0.5390378511,0.580582904,0.1150184671,-0.3229913796,-0.975303686,-0.975806846,0.3460721122,0.4493161362,0.3999853827,-0.8065352465,0.3229102951,0.5619167351,0.7121391278,0.0504343714,-0.966051753,-0.0923656598,0.0137371203,0.5088367512,0.0554468896,0.2637642847,0.6361742403,0.0948707905,0.0682913897,-0.9689529264,0.1255104218,0.2318954501,-0.9737746949,0.2967576477,-0.942759053,-0.9674307227,-0.2258281797,-0.88713986,-0.4144725619,-0.9721484479,-0.7279877779,0.0379267192,-0.5729302117,-0.4262442543,-0.9627678498,-0.9159247722,0.0128760938,-0.9780850496,-0.3292620873,-0.7521116833,0.4390267659,-0.9573833453,0.4341599526,0.0470012312,-0.9708829917,-0.9320913131,-0.05974361,0.5095916291,-0.4265142391,0.4671077786,-0.1460254661,0.2880026234,0.4221707101,0.4465735917,-0.9541396925,-0.9698100139,-0.5827302795,0.5751903743,0.089774551,-0.2206933858,0.3842149131,0.5187540528,-0.0550710375,0.1523443996,-0.0754684642,-0.3329714372,-0.9650328475,-0.1209569177,-0.180889402,0.3475714366,0.6243531065,-0.7888247249,-0.9287799405,0.0067556109,0.0739565199,0.0614613458,0.6014690579,0.0989346972,-0.7913341359,-0.7944373871,0.4374425429,0.5718341211,0.308352082,-0.393294602,-0.5334623549,0.2969810974,-0.2437546114,-0.9469533364,0.2932354318,-0.5653649235,0.557978861,0.6535475227,-0.6486321645,-0.9569830552,0.6390649117,1,-0.0029613466,-0.0284090909,-0.0093925981,-0.0010753496,-0.0135135135,-0.0488644184,0.0030522747,-0.0062529311,0,-0.0039436974,-0.0024268391,-0.0034246575,0.0340086831,-0.0033804385,0.001730376,0,0.0079607438,0.0016711653,-0.0034364261,-0.0090972708,0.0027147117,0.008008794,-0.0467836257,0.0017759763,-0.0011632968,-0.0103448276,0.0183615819,0.0056931617,-0.0079451628,-0.0122699387,0.0046510658,0.0074908886,-0.0069686411,0.007628294,0.0042177191,0,-0.1055900621,0.0309327576,0.0101289479,-0.049122807,-0.0646937371,0.0121776672,0.0017273869,0.0277777778,-0.00430939,0.0015170576,0.0147601476,-0.0316409124,-0.0018429227,-0.0031352877,-0.0067567568,-0.014925675,-0.0038660678,-0.0072727273,-0.0030395137,-0.0072169258,-0.0163547728,-0.0068027211,0.0106966144,-0.0025008411,-0.0073260073,0.0907012195,-0.0047195466,-0.0041566747,-0.0273972603,-0.0012594458,0.000786128,-0.0221402214,-0.0160726765,-0.0025971889,0.0223149783,-0.0281690141,-0.0067933125,-0.0018974325,-0.0150943396,-0.0049715909,-0.0027394516,-0.0180590452,0.0362318841,-0.0017406619,0.0070006115,0.0114942529,0.0035688794,0.0034854115,-0.0017591556,-0.020979021,-0.0070978727,-0.0015419427,-0.0075757576,0.0995732575,-0.0040737754,0.0201858379,-0.0071428571,-0.0011776616,-0.0026734786,0,0.0737386805,-0.0060292596,-0.0221419598,0.0215827338,0.0038060566,0.0123293773,0.0114503817,-0.0638554217,0.0079985727,0.0036935924,-0.0211267606,0.0017309594,-0.0007752791,-0.0075471698,0.0682110682,-0.0006666667,-0.00448,-0.0215827338,-0.0130214762,-0.0106631158,-0.0076045627,0.0644578313,-0.0089794376,0.012214722,0.0367647059,0.0024385669,0.0088518787,0.0153256705,-0.0526315789,0.0070532449,-0.0174658622,0,-0.004324684,-0.0098141947,-0.0075471698,0.1594982079,-0.0085063591,-0.010989011,0.0070921986,0.0079143,-0.0200377681,0.0038022814,0.0479134467,-0.0123320526,1
outputCount=1
weightIndex=0,8,995,20735
weights=##0
##double#20735
   -0.0381583203,0.3436251706,0.2384945176,0.1764138676,-0.0962488135,0.2878309053,0.0870799015,-0.4225378011,0.0111795112,0.5272348035,0.1067714796,0.1463146601,0.0515302176,0.4333899098,0.7373110078,0.1729039921,0.7963863589,-0.0141225439,0.1530646468,-0.1389859807,0.1700669756,0.5081182072,0.360963396,0.5242197036,0.4738574663,0.4107273465,0.3304795709,-0.0258266971,0.373378752,0.549875564,0.5397424716,0.4979101644,0.488410068,0.7398420156,0.0055413308,0.2564448528,0.2236812262,0.2560870471,0.3464587196,0.3581551551,0.1625001816,-0.1049798575,0.4329568278,0.3387383234,0.40059684,0.4595467761,0.8275927978,0.213171914,0.0248524946,0.3851108018,-0.1423474507,0.1825263288,0.1549668645,0.4674558354,0.3131578772,0.4497038252,0.3830938285,0.396684019,0.629958535,0.4724948171,-0.132149985,-0.144342507,-0.1211432555,0.6196174855,0.3850597577,0.0565932751,-0.1454651008,0.3938516384,0.3424874154,-0.0968759487,0.298356485,0.0128624363,0.1687189113,0.2843204154,0.3518722967,0.5509718309,0.0739330631,0.405971666,0.7667682029,0.4914306179,0.7539561438,0.7719877076,0.7893893902,0.5352740612,0.1076725918,0.6147093118,0.5522212575,0.423658952,0.091106216,0.5277301888,0.5118673828,0.4782559354,0.5813673508,0.324846915,0.7550810035,0.0137669249,-0.1231830408,0.556743964,0.4708374744,0.0260647297,0.0123736573,0.5291163626,-0.0083807557,0.658477349,0.2129151187,0.0985481449,0.2676265971,0.1682550227,0.7014014765,0.3743247473,0.0863521163,0.2383006097,0.3546975238,0.4915304442,0.5267143536,0.3665167244,0.2469074247,0.332407728,0.7605348907,0.3457730868,0.2686881704,0.7107905489,0.0397916696,0.1441302799,0.3251062745,0.5506737168,0.1704621635,0.1820048437,0.5229215525,0.4659525215,0.2641626469,0.1276191148,0.5629330254,0.3280402463,0.4501480096,0.3900088976,0.7180796299,0.1282532382,-0.0178446715,0.800567966,0.4961684116,-0.0271233286,0.7381999162,0.0907247675,0.0091871479,0.7198789969,0.816529715,0.4916060317,0.30124025,0.4488136703,-0.3189818846,-0.4593459901,-0.4473217235,0.281412477,0.2751875858,-0.5215606127,0.0887510303,-0.8196956217,1.1609017318,-0.8655022407,0.4398509481,0.5039799081,-0.7808713137,-0.3123515124,-0.7008600674,-0.7135253116,0.4744172716,1.0438924503,0.6423700558,-0.4440657932,-0.1278723827,0.275887576,-0.5498043952,0.3430645385,-0.6664809242,0.7222308127,-0.7806686864,-0.6803369973,-0.655841869,0.6304650392,-0.6076803764,0.3554082146,0.7984721309,-0.6249199522,0.5862752392,-0.2102098601,0.7562748597,-0.693930181,-0.5040500436,0.4320154205,-0.8047505317,0.7330283499,0.1080489795,-0.4831946016,-0.2639641369,-0.4338010796,0.424628744,0.9701254164,0.7917390272,-0.4991517626,0.2843296271,1.1766068444,0.808376947,0.2968887064,-0.1633089252,-0.2468632025,-0.2957719344,0.3337937972,0.5593633134,0.8041627824,0.5448840635,0.5933114745,0.4459417857,-0.4643301857,0.4370255303,0.6055114115,-0.6697445666,0.7770672852,-0.6020833094,-0.7094698014,-0.5733554111,-0.7105055158,-0.5392743236,-0.288855882,-0.4804006727,0.175665223,-0.5744432647,-0.3667573021,-0.7189404676,-0.7759209479,0.3039237651,-0.2290750509,-0.2124870314,-0.2143772644,0.3159120032,-0.7359859784,1.1885913537,0.255667801,-0.6372447074,-0.6291962648,0.6423991883,0.5228334048,-0.4723449089,0.3782788571,-0.613155206,0.358651441,0.6974540738,0.4135379045,-0.6046021962,-0.424788319,-0.6897569909,0.3928615439,0.343153943,-0.658879673,0.6612816072,0.928905005,-0.1903352793,0.33713535,-0.0696012219,-0.4874280038,-0.8517718457,-0.6646104075,-0.2971205942,0.6719784397,0.2607950289,-0.6944321331,-0.7513773493,-0.1840710986,0.3460530364,0.0687949774,0.7509588519,0.374127249,-0.6510101326,-0.4012445284,0.5547388883,1.0467691401,0.6566540394,-0.4924092655,-0.2050584898,1.0684642142,-0.292946367,-0.7999731861,0.3830183039,-0.3844948952,0.4971525145,0.75206076,-0.1949079985,-0.6405313952,0.5001979832,0.0908344169,0.4314733075,0.1485652715,0.7727969873,0.4377996997,-0.0190018995,0.3433369098,0.5248188316,0.1243932569,0.245084086,0.2995770746,0.7128766067,0.1935372882,0.0876516354,0.6643046525,0.6977720498,0.2401553471,0.4657596921,0.275930623,0.3345294287,0.6095577452,0.3576201731,0.3288978093,0.1172981066,0.1613002083,0.4925093948,0.6112592695,0.3419154618,0.2925869791,0.3837483191,0.2672183255,0.0801474049,0.3352678964,0.4542000016,0.6037289046,0.6687353709,0.0965250382,0.0248768549,0.4267442992,0.6229052007,0.3700153993,0.1287659203,0.6065859023,0.6478823989,0.0651117986,0.6813355234,0.3950989038,0.4015541454,0.2344858724,0.0302695928,0.381965978,0.4888105183,0.4913798041,0.4023954162,-0.0515285651,0.4064560367,0.3716526022,0.2420719403,0.0756776791,0.1115356046,0.10767969,0.18870944,0.2170434971,0.6381525515,0.4028663031,0.6084909867,0.0354520466,0.2277829713,0.5263172045,0.0714192341,0.3393242012,0.364249255,0.2315943961,0.6577738564,0.390987144,0.7621317985,0.5685029287,0.5374968001,0.4014602434,0.1543160505,0.5628847055,0.4398686948,0.5664924689,0.4775882487,0.6876355845,0.73186733,0.2015711073,0.5643970761,0.5916099174,0.4466237969,0.3648341089,0.7231619629,0.2205078853,0.1331826869,0.7676364449,0.3232779437,0.3331573671,0.1000672039,0.1425615156,0.2546984096,0.5617134391,0.3074702287,0.2772482984,0.2287534869,0.4011398886,0.3138605749,0.3066654368,0.6084477525,0.22867346,0.2907631817,0.6542920013,0.3636581234,0.5867177089,0.3098931508,0.3384744606,0.5379756503,0.2573540558,0.1604868827,0.7084995762,0.2890544852,0.4826121061,0.2807626195,0.4491711576,0.2773772078,0.3410293038,0.2420018197,0.1257669518,-0.0005290573,0.4708846271,0.2517082125,0.3871591709,0.2338697695,0.2880158592,0.2180142137,0.1433025805,0.5251291846,0.43713942,0.1515370854,0.7284477331,0.6932096142,0.3204893242,0.0051415337,0.1269718338,0.4549215543,0.7069932588,0.4980164155,0.4090158841,0.0825000044,0.7214208369,0.2307036218,0.2921664346,0.1080987487,0.3495569149,0.6213745195,0.3524798229,0.6798758208,0.6556963003,0.0700556827,0.2583605059,0.3752509993,0.5468746806,-0.0442878995,0.8114174394,0.3720612385,0.3290585848,0.4208082677,0.6150493918,0.6543968039,0.246989942,-0.0569885186,0.1521473106,0.5907569867,0.034248622,0.5526333789,0.4637158375,0.14986849,0.1612547805,0.0246025105,0.5502335316,-0.0250820563,0.0822550689,0.4439275942,0.0712477226,0.4997544693,0.4011964529,0.5631106969,0.27635659,0.7562779933,0.2537587504,0.5279274694,0.4466103056,0.1938646275,0.5921172124,0.0733023481,0.5598575732,0.4992305425,0.3934823461,0.6893134726,0.2912466981,0.6416136884,0.3977437037,0.2931956036,0.5136773366,-0.0137331337,0.567248972,0.1776748281,0.2671603719,0.3907839453,0.1338640589,0.4668311437,0.1019087206,0.4055096052,0.5680259599,0.7705289352,0.6181844693,0.133331691,0.5785952206,0.6095317395,0.5169991848,-0.1131635251,0.2891151644,0.1985198588,0.518240319,0.2792697696,0.6311371998,0.5346462073,0.3457250104,-0.033365748,0.4470362836,0.4916126138,0.3942625049,0.4350877393,0.4611780132,0.0223429371,0.3334600191,0.2526629034,0.2149887908,0.3243406269,0.0423095266,0.0709070473,0.4051969538,0.3828330228,0.639319304,0.3544738998,0.0021528024,0.2978100052,0.2222258237,0.1857788931,0.6492035372,0.4128731605,0.5695321254,0.4788769808,0.1445506651,0.4427851213,0.2131456783,0.0767097323,0.5486525709,0.1504932767,0.5539770559,0.6327706693,0.3731004969,0.2183676084,0.5821643084,0.4120232726,0.3595655986,0.5815327485,0.3113633776,0.6213956179,0.3968210714,-0.0314034762,1.088854909,-0.065932491,0.3869046564,0.3212154184,0.4208654614,0.3019544082,0.4855098939,0.4232862407,0.3279165851,0.170058627,0.3406625502,0.4712670473,-0.4557985884,0.4790456623,0.6032129198,0.3183358257,0.728815516,0.034704171,0.4842956034,0.3228669107,0.1510000101,0.4569891826,0.2265362848,0.6317747575,0.0421472251,0.4690805682,0.242506528,0.1804789474,0.609298712,0.6565794259,0.527563195,-0.0247745606,0.3153545689,0.7234579028,0.3304062572,0.6091400845,0.1398933816,0.3784443657,0.5644122463,0.0462953036,0.2543699189,0.2871480799,0.4743075877,0.4082653571,0.1042122959,0.2052583609,0.6772121615,0.233796012,0.0029173892,0.2334684246,0.0184501527,0.4800404429,0.3272698511,0.6314977034,0.6367773173,0.2202550432,0.0546755531,0.7123564562,0.2961602852,0.1792739652,0.6348563457,0.3438216281,0.0381995252,0.7383101511,0.4728078083,0.6555231644,-0.0230817313,0.4019697669,0.1349505785,0.3198924165,0.4906546718,0.1085518264,0.0646026053,0.0478135452,0.1060337647,0.373690597,0.5595412814,0.0466510289,0.5177082915,0.4260617602,0.2757767566,0.4941785458,0.2576727865,0.5952133975,0.3713875049,0.6050920994,0.7353196382,0.3731209965,0.6590669667,0.54589321,0.5563091902,0.1989259695,0.5774732799,0.3339263801,0.1168984896,0.5259280693,0.0156267617,0.0574456077,0.5868268319,0.2708694077,-0.012165158,0.1801445,0.434394598,0.6343086301,0.6422229504,0.3017593957,0.7059137507,0.0849600767,0.5746145466,0.1922373335,0.6261489391,0.0551749227,0.4167280417,0.2168295006,0.7383688286,0.4100205964,0.0255007758,0.3935583308,0.1421140987,0.5252813171,0.4358004103,0.4720469993,0.4001616789,0.6883258625,0.6649567422,0.3087790831,0.4244581138,0.388651362,0.0208352993,0.4605927265,0.5651781674,0.292174887,0.3682940095,0.2573470492,0.2548516616,0.4627569857,0.6771847769,0.490500144,0.5388728499,0.0326306772,0.0775151236,0.6218175276,0.351944914,0.0140153313,0.5195003761,0.3140454063,0.1190559996,0.6354731061,0.4317811086,0.0929884121,0.4179489191,0.4190711625,0.324421549,-0.3447436252,0.6754955473,-0.8005376154,-0.556842287,-0.917869634,0.3489022581,-0.3029975454,-0.9829235874,0.1457535216,-0.723632731,1.0967343906,-0.3562086448,0.3358277586,-0.1720488652,-0.6786715069,-0.6834746631,-0.8164834774,-0.5735807623,0.5851414587,0.6855292066,0.6554398655,-0.9819065469,-0.1525845503,-0.0397298925,-0.7057165382,0.114208669,-0.530650086,0.5784865965,-0.9956819795,-0.6488562259,-0.3709041179,0.1012136188,-0.7364140479,0.0043288115,0.6964604821,-0.4314854839,0.5530113972,0.0240317733,0.7812487029,-0.9490936261,-0.8765926996,0.0911847288,-0.3343251516,0.2802046176,-0.1477356896,-0.5040455329,-0.4732819649,-0.5042580787,0.6571618437,0.7421947466,0.1436189026,-0.3507354754,0.7255895051,0.8990204425,1.0283671728,0.4211266309,-0.8819802505,0.0145676298,-0.7477695948,0.4180982748,0.4896526199,0.5731633428,0.2318151928,0.5604909028,-0.003602899,-0.9293302862,0.5316742643,0.3584559272,-0.8303280229,0.7863736756,-0.7776971241,-0.8593052362,-0.4184367826,-1.0136168041,-0.794771212,-0.3171396289,-0.4310683303,0.2426950681,-0.3832040234,-0.957784435,-0.770101599,-0.8852632934,-0.094168872,-0.6400100478,-0.7567431168,-0.6434366852,0.7117323586,-0.5402700814,1.0673587026,-0.0533333389,-0.874910075,-0.9321278076,0.5438149999,1.1003007174,-0.9355659832,0.1295467581,-0.395607993,0.4088673052,0.758821166,0.534588373,-0.85517899,-0.6083501435,-0.9669335652,0.2943320705,-0.1953311699,-0.5840792173,0.0926762709,0.5620366172,0.1014061886,0.0428348567,-0.1056506455,-0.914126657,-0.9034221989,-0.4591321932,-0.7298978769,0.1799464062,0.4764464854,-0.3154086981,-0.7339033182,-0.9392512995,0.5081573305,0.1870857768,0.6568295847,0.3631354625,-0.325426176,-0.9588867554,0.6363669706,0.4194470388,0.315898299,-0.4117415939,-0.5802270166,0.7662115869,-0.7046642537,-0.5239446791,0.142371649,-0.6045288766,0.7582000668,0.3127923277,-0.4322275602,-1.0042989846,0.3978262762,1.0484548639,0.2614481232,-0.2379505591,-0.671427926,-0.2850980943,0.2024141297,0.0894047286,-0.5592846265,-0.0051560818,-0.5757915152,0.9279253259,-0.3603600935,0.6993986584,0.2127870696,-0.2907620803,-0.2137153715,-0.7040242602,-0.2160938905,1.1533973297,0.9388920599,0.8869469254,-0.1894031382,0.421486385,0.0160328068,-0.8078912609,0.1456949517,-0.1912032238,1.1157616459,-0.5869852006,-0.2449609547,-0.3701561279,0.71590853,-0.285156128,0.2654172517,0.7642878255,-0.6033657826,0.7286387233,0.0136533286,0.8047689077,-0.7960106883,-0.5800119922,0.6143432684,-0.6659567926,0.6714442918,0.1513016128,-0.2027740069,-0.2232541556,-0.6651833737,0.4168616095,0.9686724277,0.3311377783,-0.1657871987,0.2187169929,1.168045577,0.8155689148,-0.037929082,-0.3051817126,0.3278954951,-0.2741303771,0.1638958243,0.5785513767,0.1780594526,0.8663893076,0.6315304714,0.3829580008,-0.7469756051,0.5112855841,0.7369201886,-0.3759436155,0.9586596711,-0.5929538005,-0.5242052469,-0.1155567328,-0.4468441485,-0.1349554951,-0.5236430347,-0.5132484082,0.2164883618,-0.7565235028,-0.7623568262,-0.5216040563,-0.4615915131,-0.1560544871,-0.6534816806,-0.2227435061,-0.1704713213,0.7007171328,-0.6828204672,1.2694042773,0.5624251503,-0.4987211391,-0.6387895025,0.7773163763,1.0705379173,-0.3616985862,0.365083073,-0.3671711601,0.6226112807,0.7460732492,0.5880830853,-0.6996018249,-0.4214224276,-0.5408020409,0.7085237519,0.3571927231,-0.3510958117,0.5190143964,0.8715268242,-0.1378496867,0.6380861939,0.3560473235,-0.8098081873,-0.7804594417,-0.4479796433,-0.6635193783,0.5029047313,0.7646249117,-0.5573507979,-0.5354809776,-0.1947889537,0.593054926,0.2384943863,0.443564425,0.3917306468,-0.4973552875,-0.3348450081,1.2516566967,1.0446764801,0.4015464051,-0.2850661263,-0.2890563389,0.5622405516,-0.1127778302,-0.720776176,0.6626203741,-0.6098377825,0.1723302481,0.4262766475,-0.6369923824,-0.2776343628,0.6550461388,1.0020899513,0.3081971906,0.3048149868,0.1829567426,-0.248436394,0.4502262297,0.5116022978,0.4479875673,0.1169179575,0.4707614542,0.4493816065,-0.0139525409,0.0340828066,0.2251133255,0.5634208999,0.4572940211,0.0714071111,0.3566455293,0.4141862322,0.2830553168,0.2073614482,0.5380091584,-0.0502429078,0.6626326075,0.2302494557,0.1339997822,0.3570675231,0.7000436092,0.2417990603,0.2222889532,0.0791615822,0.5670907709,0.3365318476,0.0233033234,0.558664298,0.422028251,0.0284410296,0.1509953928,0.6893850277,0.1261163934,0.2409449848,0.1915854938,0.0882082711,0.1088297667,0.2799451156,0.0092630199,-0.0321242284,0.2977398404,0.6758034857,-0.0839714673,-0.0639417352,0.1998073967,0.0671957381,0.2870658561,0.5609167227,0.3800056116,0.4897646064,0.3441085313,0.417544654,0.424344724,0.0145616864,0.5571215657,0.6925928933,-0.2523296013,0.3549010415,0.0184995208,0.5422737209,-0.0583492711,0.053776218,0.0859236626,0.1930506003,0.0215371899,0.2319319291,0.4074313919,-0.150824332,0.2349398162,0.6008546892,0.4691135507,0.3444818838,0.4292109872,0.2504432748,0.0321830872,0.1449659082,0.0220424078,0.1284374906,0.6100583659,0.2558713073,0.4997264745,0.3936066339,0.6148894268,0.694637522,-0.0610536128,-0.1307713,0.3047450721,0.1826416797,0.3000846954,0.1880736465,0.313497786,-0.0386870482,0.2569308119,0.6514708566,0.6333873969,0.1992851346,0.1567074049,0.4399599148,0.5154626282,-0.0477660947,0.4205018745,0.3684225609,0.4289193649,0.4955525733,0.3514853148,-0.1799631454,0.3262759187,0.4437655972,0.4508665302,0.1324860516,0.3157345193,-0.0643493209,0.0692956569,0.2150763709,0.084333216,0.2153233227,0.0691828319,0.5971943908,0.159254844,0.0586915204,0.1960501688,0.0214710495,0.1412656011,-0.1384044325,0.3174129995,0.2722225603,-0.1553251801,0.5543251658,0.1594973944,0.6575547147,-0.023742554,0.6345847576,0.1787318747,0.0983068638,0.2227346,-0.2063701444,0.30659359,-0.0366282663,-0.6001267109,0.596758587,0.4533943885,-0.2009272286,0.0041345715,0.2229866875,0.7188530731,0.5619219808,0.1558038074,0.1565334063,0.4225228059,0.2883073143,0.4336307841,0.1746398699,0.0991989437,0.3864044066,-0.0095151933,0.0196609751,0.5578418746,0.2153793368,0.5457363857,0.2158345771,0.5630648644,0.133843012,0.5465064329,0.2537477881,0.2374579271,0.4581251571,-0.0226239748,0.6874485233,0.503490244,0.2999431577,-0.0041418276,0.0794135351,0.1079694487,0.2913192797,0.0186742339,0.0566079914,0.4762023638,-0.0340628172,0.0649975447,0.5694576123,-0.1555071412,0.0193401526,0.0104561552,-0.0504420237,0.0688212115,0.7181718006,0.4947284476,0.1168706414,0.5311545246,-0.0806504683,0.1281614854,0.3487588763,0.3598406393,0.5705255127,-0.1862751653,0.0141548134,0.4435432894,-0.1562153448,0.658896594,0.0325950244,0.2510761244,0.4516605927,0.0093726211,0.5959215141,0.1137281315,0.2364954462,0.5898567044,0.4055214319,-0.27116339,0.1598462876,0.0615069692,0.4886203307,0.6147964679,0.7158480145,0.4488841165,0.4010754454,0.0500391902,0.3841991603,-0.017765922,0.3042346556,0.3215133824,0.2916421389,-0.1588458353,0.5841326895,0.4616050168,-0.1719341193,0.2259780503,0.075061189,0.4024758061,-0.0394898396,0.1271546233,0.1812088506,0.0329519227,0.3354305936,0.2877089361,0.6603297221,0.1156598923,0.5199925052,-0.0977528235,0.614153852,0.6391981238,0.4664656384,0.5169124432,-0.0956949898,0.7042270599,0.0875721194,0.3059183757,-0.0911372269,0.2329525268,0.0507847459,0.1252748226,0.184990103,0.3425434222,0.2661022143,0.0013549053,0.4437876233,0.0097455328,0.0294567434,0.6435421473,0.4215208724,0.575684448,0.1296719416,0.0668569954,0.2177310322,0.0258801529,0.1952183644,0.1410128106,0.1430704832,0.4061122735,0.4000620906,0.4578337083,0.656456398,0.2170226043,0.0304002834,0.1829768205,-0.1103113965,0.09124355,0.4226216276,-0.0616224686,0.0030436643,0.0276477789,0.6229613479,0.2443769231,-0.0578807151,0.6766418172,0.0128345403,0.3246661022,0.0911859688,0.2078829317,0.2734600919,0.1703168713,0.2503028838,-0.0184294108,-0.2704430314,0.3042940949,0.4983691552,-0.1238995249,0.1496787422,0.6457778998,0.5387963387,0.1003607193,0.0799459984,0.5019812159,-0.0050908532,-0.1806921077,0.6816059684,0.0729490682,0.2392721592,0.2551424134,0.0863088277,-0.0345000757,0.0018082365,0.5853369121,0.079263932,0.4871054785,0.4796107069,0.1228644513,0.1794796446,0.5311401771,0.2814140297,0.1652172184,0.3866753663,0.1559706703,0.2396217252,-0.023394575,0.2846792978,0.1744286015,0.1410701759,0.0505320228,0.3952183841,-0.0246455741,0.2225575841,0.0959664976,0.5020045309,0.1600751263,-0.0034847757,0.092038141,0.705568752,-0.0925272077,0.3389816123,0.0349315647,0.6003260012,0.1678843587,0.2181926486,0.4442554163,0.5334813916,0.346302416,0.4156110046,0.1388067408,-0.1484817642,0.2258712753,0.4402074678,0.4962600241,0.089319395,0.3228099888,0.008240742,-0.1803222384,0.1096377304,0.0675010696,0.2456742861,0.3766708449,0.3339238521,0.0449115268,0.2514128109,0.0569187085,0.3964030507,0.1923957587,0.31235037,0.2909535118,0.1737674439,0.2531987009,0.5910376183,0.1382378957,0.5303814951,0.218999091,0.5516100936,0.6790231076,0.3680562247,0.7010656962,0.5598229434,-0.0982560884,0.3551936254,0.0488955933,0.5115560936,0.021169833,0.0863158425,0.4926904496,-0.0829619306,0.3337149913,0.5203551595,0.3911520527,0.3998174668,0.0247957753,0.4704133659,0.0771596877,0.639840103,0.1355379407,0.1995087824,0.0597912609,0.0980807421,0.5290110369,0.3210298917,0.1160834473,0.4734228163,0.532919006,0.0707960388,0.2782687304,0.0362443327,-0.0482271721,0.5930522356,0.2756572256,-0.0282873909,0.0869542979,0.4342960191,0.1688572689,0.4029142007,-1.598234029,0.1923077922,0.6199834901,0.4153816025,0.0926175905,0.2876428062,0.1553907023,-0.0469399686,-0.3293265551,0.617995123,0.3967841792,0.0845062061,0.3819889028,0.1304157532,-0.0783117823,0.4585689175,0.5432683164,0.5731951262,0.2742653875,0.1083241577,-0.0223385935,0.2630140757,-0.0008330668,0.451935491,0.4590635599,0.1263735969,0.6611469192,-0.0653592446,-0.0661694073,0.1500868163,0.5377910949,0.4107500257,0.1973938927,0.3066578469,0.5340425587,0.271906518,0.2677104958,0.3182672642,0.4689593231,0.1591076139,0.4548476084,0.4022561662,0.1839505682,0.5396027267,0.4739127283,0.3961962537,0.3146352761,0.1095708724,0.4100690208,0.3894418995,0.2134582449,0.3175219791,0.532894865,0.3165424523,0.0337646519,0.6047675515,0.3144114228,-0.0078964498,0.3089016872,0.2412236428,0.3017217397,0.0933322109,0.5579152412,0.0239485539,0.3834463078,0.0630585253,0.1399983227,-0.332667774,0.6459625534,0.1866482715,0.4866856739,0.1290801847,0.3154350682,0.2492895495,0.1586608462,0.5953740577,0.1725759148,-0.3164909091,0.5291414543,0.4813141221,0.5846886531,-0.0203371175,0.2380359427,-0.0423377394,0.2610109366,0.4975719006,0.3874412595,0.2880577827,0.4081489752,0.4894878664,0.248970509,0.0608526319,-0.1073361686,0.5821990935,0.2089473798,0.1376605952,0.525794549,0.0246911286,-0.0214209173,0.083453681,0.0244287187,0.0684340547,0.1398503482,0.123224057,0.1484990362,-0.0536027604,0.0812984585,0.0017676795,0.5676440647,0.3007485869,0.2849109129,0.1180397286,0.1488085181,0.2038036971,0.4417896523,0.0667601315,-0.1494340775,0.2902103964,-0.0713520634,0.2342478667,0.2593931911,0.2323872541,0.0147165633,0.3203123994,0.0743033176,0.3369540454,0.1434569288,0.5492470782,0.1812269867,0.6385991156,0.1020305174,0.121576594,0.04501911,0.2583622397,-0.0075150882,0.3577666426,0.0939192432,0.4280801545,0.5441573287,0.0266184433,0.353355655,-0.7088134735,0.2865348403,0.3330165507,0.0224294326,0.305920192,0.4317741945,0.4306709804,0.1691598602,0.5985475008,0.4736214619,0.1207357328,0.3505066654,0.4209709066,0.0681706405,0.5390276573,0.0923392312,0.2281071052,0.6663021095,0.0157002722,0.6855928686,0.6683754541,0.3598007199,0.1846248989,0.241912871,0.3842149829,0.5590604264,0.0755963728,0.3261979423,0.3332816968,-0.1021096523,0.5967121657,0.1050354069,0.4010434043,0.0891443173,0.4339849272,0.3284032425,0.1477336542,0.5555785959,0.3687993398,0.1702267169,0.4277389989,0.0280674559,0.2649069432,0.4707134582,0.1982270582,0.3415955708,-0.1316125582,0.6350315762,0.5576097329,-0.1552007702,0.0868465109,0.6790635528,0.6557694371,0.1614244254,0.1207517333,0.4343382206,0.0101350306,0.5200534702,0.660685068,0.5628568708,-0.0336232611,0.5351042844,0.034786897,0.0386601979,0.3600509386,0.7049039231,-0.0900066692,0.1869583334,0.3103118908,0.2500306458,0.4918036914,0.4736347821,0.5403739484,0.5839565915,0.3217950008,0.1891038413,0.1859747174,0.4947283768,0.1005742658,0.0456640668,0.3791773045,0.511664113,0.1033264464,0.6255542316,0.1539831044,0.3923045862,0.5452871125,0.0676945081,0.0557005012,0.1059218021,0.3826411629,0.2959542581,0.2417172456,0.414993026,0.5133425759,0.1691177383,0.3356808078,0.6669023495,-0.1248095957,0.1743490396,0.0166512949,0.3947454815,0.4642154047,0.2505199592,0.5335029328,0.6728886834,-0.0770276516,0.6468579622,0.2149531369,-0.2534593449,0.5430363546,0.6617085293,-0.2237236784,0.504372922,0.6130051308,0.198493308,0.5094791025,0.1838656279,0.0874008704,0.3855717653,0.3272510154,0.2611606484,0.4167794673,0.5053276352,0.0700916469,0.2266586888,0.4341236548,0.1303408464,0.6105687892,0.5865642844,0.2822524459,0.1122550301,0.5987643144,0.5156408782,-0.0348428184,0.5414398388,0.2983114561,0.4514419531,0.3843865263,0.2963430862,0.4773899576,0.5512566709,0.1887504681,0.6998729494,0.5660619616,-0.3762798983,0.6633023335,-0.0842313425,-0.2038160938,0.1065892187,0.0514455651,0.0992495525,0.0617666616,0.0824876114,0.4696657154,0.078033279,0.5961677042,0.0108917294,0.358913918,-0.0543398087,0.6006852852,0.1960729806,0.3284096619,0.214015952,0.182687564,0.2917625811,0.3006737532,0.2685258965,-0.1451309322,0.0362977821,0.1491649352,0.0592947514,0.4533795461,-0.0935410575,0.525845587,0.3839920097,0.521540883,0.5010480011,0.2061943437,-0.0043075157,0.4423390756,0.1845468088,0.2321669465,0.4379486879,0.1427067534,0.5801829281,0.2665129865,0.0510083604,0.0040730693,0.47191705,0.0293005832,-0.126045504,0.3121034308,0.5512139102,0.1899967145,0.2203065311,0.4613717063,0.42792895,0.0910993745,0.5868112712,0.0550867721,0.1037936214,0.4024994904,0.1476683573,0.565990491,0.6824252581,0.0728278047,0.0758410718,0.1965987409,0.4511333948,0.5021444967,0.3084276474,0.2323522973,0.6325126743,0.4776302846,0.0683999586,0.6668783476,0.6093501199,0.4955587238,0.3453203624,0.13128688,0.4031727131,0.6148274285,0.194885556,0.4668700789,0.4155860207,-0.001368269,0.2776734904,0.2397930529,-0.0463608161,0.5656102046,0.0368601578,0.4161477884,0.0048859743,0.5596788969,0.3397544543,0.1083609181,0.0341758692,0.5905428518,0.4166023429,-0.069865551,0.4410117994,0.3397441515,0.4629047489,0.2755436424,0.1451844801,0.4302208942,0.6746712557,0.6404142485,0.2631034695,-0.0108620344,0.2947618806,0.399649354,0.1919518305,-0.2181667953,0.0159479267,-0.0159697392,0.3097950791,0.1512133458,0.549357773,0.2262781242,0.5707974657,0.141385423,-0.0174639724,-0.0671305725,0.5250711279,0.2060473352,0.0597938421,0.150775729,0.3625284585,0.0406888627,0.0794724651,0.6591106038,-0.118641924,0.0877829759,0.4909234262,0.5911273953,0.6416268469,0.2909146687,0.4469962898,0.4863170721,0.0473019416,0.0209562256,0.2818952073,0.2801374979,-0.0425665237,0.0318849679,0.0331081064,0.0903308483,0.3091887294,-0.132143827,0.3690403096,0.4971109187,-0.0241923849,0.069569143,0.0499388132,-0.0721906189,0.1377965871,0.23584999,0.141064927,-0.0540114805,0.5762892495,-0.1263332781,-0.2413646763,0.1402906953,0.6195967337,-0.0146181355,0.1534278725,0.3322538683,0.0963587641,0.4366124688,0.251789529,0.7016235447,0.3174286739,0.3090912633,0.6827613548,0.6083279573,0.3509025175,0.3090632403,0.4720767508,0.5119690275,0.4232276296,0.5757062381,0.2678421668,0.1586201749,0.0533437079,0.0860128128,0.1775924736,0.458557655,0.181767899,0.4518762362,0.2434681753,0.2184907726,0.3939805621,0.3239688208,-0.2387378792,0.0546138254,0.1335795811,-0.0838180363,0.0825448321,0.4714382964,0.4217403074,-0.1632842438,0.5933211717,0.628402786,0.5788469003,0.1172924452,0.4370336569,0.6066304867,0.0612498181,0.4177790616,0.3834090305,0.5875069517,0.1035345459,0.0232243117,-0.0368505324,-0.6997857104,0.6626130109,0.1767121156,0.4580151331,0.0544851712,0.0808693276,0.5324670036,0.0404778848,0.3087691211,0.4318790702,0.151460835,0.2376901466,0.4393216152,0.3044022147,0.4592403336,0.5569064032,0.5612831453,0.3634105031,0.2510387491,0.1981739697,-0.0229562145,-0.0897937994,0.6893747877,0.3100591067,0.5216941163,0.530467794,0.4994432049,0.53123409,-0.0041176457,0.4909349348,0.599647759,0.0698150954,-0.05345276,0.5044563922,0.5660373981,-0.0080772881,0.0064692456,0.0022691781,0.4126180582,0.2777136703,0.5852921904,0.5401845565,0.5219414996,0.0624637011,0.2309901065,0.5103667081,0.4065070074,0.0018287604,0.0981087372,0.2354293652,0.6637624861,0.2872226031,0.080282352,0.2588837834,0.6132359884,0.2599317784,0.1475385076,0.3886478905,0.176783227,0.4828499947,0.0036468755,0.5765381284,0.4891300959,0.4683054738,0.2317103407,0.2470525062,0.4848551285,-2.1454700874,0.1834125379,0.0403767243,0.4127485148,0.437021813,0.2414883084,0.0682919407,0.0685234537,0.4600614435,0.2364469836,0.4753471914,0.0110649347,0.6725742829,0.5053924764,0.6236152163,0.531344127,0.1326571653,0.2890732934,-0.0374317477,0.0397555396,0.6292244566,0.2296081853,0.5024220958,0.6491493419,0.3800101206,0.4516701323,0.0881967463,0.6110619044,-0.0618098311,0.356458635,0.4412215121,0.3209112211,0.4481049187,0.2279453706,0.1228568329,0.0505472703,0.5593688019,0.1087419698,0.6720332077,0.555308039,0.6561606788,0.0901024288,0.1264635709,0.40044983,0.7019691466,0.2571694589,0.2100435951,0.5053421731,0.1259584108,0.1753628213,0.0663772632,0.2106797302,0.063457463,-0.2020221637,0.4007711505,0.6311413959,-0.0364119473,0.3584359695,0.047760039,0.147589183,0.1759644339,0.2965660363,0.1383254195,0.5727413404,0.2289190935,0.7205558356,0.0602152492
   -0.0599843235,0.0609564419,0.5631009211,0.0923215734,-0.0146539322,0.5254439636,0.3290614939,-0.0358298481,0.2162815027,0.1434392532,0.1302798339,0.2510067003,0.3873772467,0.1558379238,0.3530462436,0.4814482854,0.3095805049,0.5867906255,0.2671132048,0.4810044448,0.2336878866,-0.1790870459,0.2636778288,0.5733323666,-0.0800952983,0.1334104962,0.5887633174,0.4797374122,0.14863444,0.388751201,0.522606731,0.4743758342,0.0108978152,0.6297121668,0.2919899107,0.2257551289,0.628446001,0.6509158145,0.0389409216,0.3827088131,0.2389533096,0.6462980407,0.3941673724,0.4228942674,0.0837283611,0.3212242246,0.3940639358,0.186057731,0.2315698461,0.5563520378,0.0992727184,0.0508442722,-0.0218398544,0.1688167638,0.0647097818,0.1610907854,0.5051123234,0.1210720957,0.0116299388,0.3989549882,0.1730755286,0.4901434252,0.2022299601,0.2377955823,0.4596620088,0.3504120086,-0.1093759875,0.3298717182,0.5514061445,0.7179827881,0.5784833114,0.0654032281,0.3564081588,0.236207294,0.1839733685,0.1917440379,0.7174102972,0.0104516939,-0.0954649437,0.1267045647,0.153103654,0.4426824884,0.4866560392,0.465775393,0.1032842106,0.1055793352,0.0700028381,0.3691718861,0.2603391234,0.2298974593,0.2162747612,0.6119011956,-0.517468256,0.4049915972,-0.0086001992,-0.2904906478,0.4104373669,0.0770584572,0.2978115849,0.4404251594,0.6855560094,0.1137542133,0.1141537522,0.002314631,0.4192496263,0.6054957253,0.3704561557,0.1975590163,0.2640784263,0.3343138816,0.4481041919,0.4658346594,-0.0009912707,0.3185921244,0.630232193,0.2105606066,0.2527471491,0.3305332116,0.4462731321,0.6329859456,0.1718663793,0.3106856492,0.6019538085,0.5278905052,0.4986696635,0.4308901855,0.57711337,0.0000482439,0.0533489249,0.1613533058,0.5708313467,0.2198927317,0.286066233,0.0653672617,0.0460219211,0.6507505386,0.5990472986,0.5434804961,0.234851726,0.4114312495,0.3370397858,-0.0531283066,0.404220505,0.2672632599,0.5277268216,0.2853684719,0.337947954,0.0748939118,-0.7863245669,0.0435725607,-0.0044010804,-0.2053398587,0.0075914177,0.2069202162,0.4725227886,0.1350040545,0.324137634,0.2603588604,0.051891268,0.4486110877,0.3866142088,0.4408326258,-0.3072643648,0.3303665149,0.2222653322,-0.2053461309,0.1415684452,0.2215397858,0.2227939687,0.2761025436,0.3720907639,0.3054731736,0.1160163645,0.0015505143,0.2464474668,0.0402199259,-0.0576227807,0.5031310711,-0.000154332,0.1884104984,0.1712970904,0.5619008945,0.1049084566,-0.0633588138,0.5660358684,0.0249590659,0.1088249641,0.1123676756,0.5962773352,0.4050126225,0.0714931141,0.1809024648,0.3248161277,0.5459824483,-0.0421332992,0.3954189215,0.0979736279,0.2023180654,0.5252886422,0.0236355823,0.6519037322,0.1234036444,0.0078409934,0.2459726737,0.1754853374,0.228801537,0.2531399783,0.430606145,0.3256224187,0.2292089129,0.0766033827,0.4685795643,0.4034742315,0.0547355949,0.6333786606,-1.9373206106,0.2258424341,0.6134166075,0.4773434682,0.2460438897,0.1997234785,0.6775406993,0.1288580044,0.0252015466,0.5544295291,0.3414366297,0.4658239411,0.5278894914,0.1997712812,0.401302107,-0.0292444286,0.13853858,0.3582796432,-0.158737415,0.2984019035,0.0955698006,0.0537973807,-0.0377078409,0.1327256763,0.0825317489,0.0691761613,0.1989132671,0.4421522948,0.3245520338,-0.0092151316,0.5574833009,0.0098242829,0.0590002652,0.409270057,0.631435425,0.2671755392,0.2930860074,0.0483661919,0.4193608325,0.1691412203,0.721323407,0.0411477177,-0.0230892397,0.4767134487,0.6632639357,0.0540325366,0.4920730536,0.5043061918,0.3163533404,0.4436328007,0.2445535384,0.4894364397,0.5891844213,-0.0331840644,0.5694230391,0.5439936482,-0.0153441001,0.262375736,0.1530503167,0.6779859275,0.4201336053,0.0228534961,0.452245549,0.1695034099,0.5806637043,0.3038945834,0.0237435517,0.2860157425,0.2887197624,0.1021725213,0.3517180209,0.1629135914,0.4782679575,0.3404931752,-0.0791056884,0.1551836465,0.1323560157,0.0457407492,0.3248393076,0.6696712861,0.5248039143,0.1555069042,0.5195143256,0.1238988926,0.5666753852,0.1615000921,0.2153044975,0.7200740562,0.2802481122,0.4235108423,0.1947319265,0.2071025847,0.0503952169,0.3598126481,0.4868633513,0.0654118883,0.5139606461,0.3515448803,0.2038290281,-0.0610601949,0.4539952948,0.1196315664,0.3318550072,0.3783200397,0.4513129277,0.66515592,0.3169598929,0.1254354363,0.6391139062,0.1068627985,0.0311930474,0.1571266776,0.1280513978,0.1922756325,0.2828948795,0.6149395954,0.5019849525,0.4358132839,0.6679757257,0.6017695487,0.4712568872,0.5239718178,-0.060368478,0.1966938656,0.2965698497,0.0683472315,0.3733705356,-0.0369542925,0.7008384812,0.6776201962,-0.0186025201,0.654694707,0.0796062333,0.1500835611,0.2052809981,0.1116058542,0.0238033248,0.2457464148,0.0219323876,0.3004840878,0.5831905443,0.6110838425,0.1488390705,0.1720554795,0.6239082452,0.4493934096,0.649332446,0.5189810631,0.2381600293,-0.0105213501,0.3734483942,0.3139244171,-0.012906038,0.4149107025,0.3923008674,0.033993006,0.6046206454,0.1761738687,0.4433430467,0.0200118175,0.2774563018,0.0336938504,-0.012148862,-0.0513355922,0.4436052232,0.5406687224,0.3787835684,0.2265197134,-0.0120108293,-0.2021340058,0.3119412111,0.3930876906,0.6274725934,0.1037403496,0.0961252117,0.6230566515,-0.1273250664,0.469456535,0.7208086371,0.0140664947,0.1586537626,0.6249804401,0.6258837089,0.4312258767,-0.0077661974,0.0380169048,0.4141542459,-0.1149874769,0.1669436719,0.3623427427,-0.0442522794,-0.1180236939,0.3039064278,0.405249873,-0.2383681202,0.3614424642,0.1477563106,0.3666150965,0.6337235581,0.4033985206,0.1708204895,0.5377599005,0.1437019191,0.6122844385,0.4389163781,0.1973255452,0.074577706,0.2979023822,0.1272981966,0.4370277743,0.2962083089,0.0465156617,0.6808987495,0.1113690822,0.3479993281,-0.0729015291,0.4714067157,0.5949121855,0.5667516339,0.0889322593,0.6182595884,0.4012728875,0.4721022123,0.6727549104,0.2583324362,0.4660389099,0.6359883451,0.1980520204,0.2866887891,-0.2699016248,0.139810889,0.2539336425,0.3148783801,0.4079865204,0.181951009,0.0735411742,0.2307191497,0.5742441628,0.1488419891,0.2735842399,0.2376381266,0.2851228212,0.6037096248,0.3235235511,0.2275374605,0.03010057,0.2768444956,0.0289071753,0.2492097043,0.1505939262,-0.1425541778,0.0589710938,0.3256420349,0.0081007193,0.0980477511,0.417443476,0.6632906424,-0.1709314119,0.2338260848,0.4131829475,0.5237837305,0.4406315802,0.6076203336,0.6045097027,0.6146016777,0.2045661516,0.0770764737,0.4548539252,0.0517303643,0.3226823804,0.5009457296,0.5151355314,0.4425742614,0.4149765296,0.5634714307,0.2108763858,0.0703524976,0.0028538952,0.6316610355,0.6219848143,-0.0098113261,0.5888554045,-1.9481831393,-0.0174530278,0.6657863326,-0.0493164811,0.3185652773,0.098423165,0.5486752478,-0.0427463929,0.1874198151,0.2080886613,0.2260525112,0.1099693534,0.2021661372,0.0951667417,0.2414778707,-0.0984001133,0.207051383,0.0751096005,0.0828937731,0.6374034528,0.153545315,0.2966213528,0.4944324326,0.0999711675,0.4979575392,0.126018487,0.0048732087,0.0951916786,0.577782482,0.2610580836,0.4796902997,0.5873368557,-0.0110149368,0.3313986176,0.6682564886,-0.0162428044,0.3439968359,0.5961212313,0.3602753683,-0.2125447782,0.1945085015,0.2905028833,0.335475901,-0.2303270087,0.2253403648,0.4782480108,0.4508033651,0.4972676129,0.5742441896,0.1879957044,-0.0145764881,0.1254651758,0.2954545232,-0.0015208391,0.1664599058,0.6685174562,0.4308625244,0.0062216408,0.3781948418,0.4630867912,0.1566634599,0.5093150888,0.5820331222,0.1564985276,0.0548264809,0.5639742754,0.1707015031,0.5444219665,0.2791509017,0.4220488704,0.6783062043,0.013999189,0.477415565,0.485963154,0.4358976135,0.0711678815,0.6321861948,0.5620268803,0.3031224531,0.0195169019,0.5419012307,0.3967407865,0.4632571791,0.5750048851,0.0476922389,0.5920399737,0.6301822336,0.3887198427,0.3860264176,0.5638800026,0.6324794602,0.3236918358,0.5600514738,0.0233192886,0.1249579847,-0.0956031886,0.1723368085,0.6394324865,0.3000211932,0.354019416,0.6310983206,0.1481024288,0.166252432,0.082470702,0.6453423324,0.1158053099,0.2598118013,0.5643340056,0.3715956364,0.0516649876,0.5005323717,0.6201209808,0.0624938837,-0.0423041465,0.2570921652,0.4828395006,0.0846729666,0.5154524192,0.3233292008,0.4421291452,0.3244988419,0.2500950924,0.0399228622,0.4218115882,0.5854251702,0.1044091394,-0.150738821,0.0694253675,0.6308629369,-0.0198654542,-0.0742024391,0.2621964631,0.4632998523,-0.0294416504,0.55536503,0.6854703412,0.6597533682,0.089218067,0.5334923309,0.6771594206,-0.0315838418,0.328793577,0.4990330613,0.4232820177,0.2053511348,-0.4427486536,0.4454742511,0.1762125757,0.2392058249,0.2684956762,0.0420786292,0.2317442872,-0.0991377563,0.2292697108,0.506492011,0.1228874976,0.4480714006,0.1455200382,0.2491655158,0.0726681523,0.434172483,0.5597539099,0.1071149454,0.2299563522,0.621168512,0.3877593334,-0.0655886189,0.3285063649,0.5305801749,0.4565867486,0.3457027552,0.6954537954,0.2964877523,0.466983783,0.4009174289,0.3584981887,0.2439893122,0.2464771613,0.3119478454,0.3579485056,0.2183477015,0.5402424053,0.0676807357,-0.1273049965,0.0672338159,0.5901044542,0.5154331199,-0.2175544363,0.5051234096,0.3251627687,0.0686608453,0.0177777733,0.0707520034,0.6624896909,-0.0016891638,0.0177743211,0.6623580944,-0.0355204714,0.3535537553,0.1000354137,0.0533621539,-0.1320602375,0.087908242,0.1597296474,0.4191065849,0.001505742,0.3167292551,-0.0299589687,0.0069283073,0.4942166093,0.132891064,0.4612610799,0.1617306083,0.0848128273,0.6707757383,-0.1269372473,0.4425967881,0.5480189366,0.4739778514,0.3830661819,0.0660525697,0.44054106,0.024068778,0.5661112915,0.1334402672,0.1874713312,0.5567575926,0.0641371661,0.1532515453,-0.197492761,0.5789741962,0.631775839,0.2584530119,0.4872379894,0.6393391291,0.4907262445,0.1624732755,0.102409496,0.2553402693,0.0496861619,0.4701634455,0.4751626381,0.6316053553,0.0851227422,0.2777380411,0.6323917742,0.1767070542,0.3132174462,0.6162765277,0.2513750822,0.0990479849,0.6193894553,0.7158807295,0.1882995483,-0.0991847151,0.4396427777,0.2087565623,-0.0957206291,0.2038218118,0.1314170713,0.6337913815,0.2776036813,0.5326236315,-0.1919453873,-0.0113804082,0.2571659708,0.5917110743,-0.0299912812,0.4819742168,0.492472062,0.3091163661,-0.1727503323,0.098378597,-0.0481132373,0.554365131,0.401907047,0.6857817795,0.7140011616,0.5856994151,0.7035246581,0.4409065689,0.6020030596,0.1992284934,0.3380281016,0.1689605212,-0.0158475286,0.0621747273,0.4736756817,0.5609133134,0.2255183266,-0.0744385759,0.3667635724,0.6158465054,-0.1756125901,0.6980159605,0.2470425445,0.3963772005,-0.0408178345,0.0877753394,0.1465838187,0.4357446966,0.1398556869,0.4052372104,0.0008154052,-0.2225598202,0.6555541655,0.4000307727,-0.0683016039,0.5638109506,0.3437231656,0.5230873512,-0.1462351973,0.2937571934,0.3256717436,0.4384470628,0.5940562822,0.5579441056,0.3794319762,0.0676008166,0.5087468331,0.2149144013,0.1602940846,0.4366511084,0.3337249496,0.3412184521,0.4547548437,0.6020933567,0.2772069015,-0.0133547594,0.2952121129,0.0131503589,0.1287012082,0.5405532494,0.515887319,0.0016059086,0.0328079789,0.3355696441,-0.0083787301,0.5198624851,0.5565973056,0.1657005861,0.1036915693,0.5713378574,0.3352654863,0.0934709597,0.2903428155,0.2032603982,0.7068889524,0.3130167617,-0.2755293116,0.4741972371,0.2164101039,0.0553740232,0.435336437,0.5463907781,0.4444675439,0.0588797341,0.0687438215,0.6236835101,0.0982048045,0.3715948254,0.6143464197,0.1811469948,-0.098226061,0.6196759171,0.3138311782,0.4369305566,0.3955637348,0.5688753388,0.4922670826,0.0614404745,0.5934690576,0.3222310656,-0.0451194363,0.0463835532,0.3918992336,0.3254126738,-0.0058478285,0.4806108717,0.4326218379,0.602257355,0.3921760963,0.5639211466,0.2628770541,-0.0195235723,0.4772259523,0.6419519906,-0.0530029815,0.3657415316,0.4785794089,0.3872346231,0.316075417,0.6928972999,0.0064859444,0.2053126775,-0.0311184702,0.3282284211,0.0193394831,0.5124432504,0.3516478394,0.1718898481,0.4367911041,0.1625381137,0.1404033704,0.5934740155,0.4419142762,0.6764374424,0.4742143702,0.2134738571,0.6024438727,0.1983197532,0.1289038019,0.1202118857,0.4119730432,0.0416846088,0.4636909919,0.1027880658,0.0613993319,0.556485689,-0.0205166736,0.5328906683,0.0384148206,0.3021443431,-2.0485083786,0.2665351017,0.6941829306,-0.0566584906,0.1002246113,0.2234506468,0.3297598255,0.0654919861,0.5109173824,0.4398588534,0.4940930142,-0.0547076082,0.2377877203,0.3392695923,0.5517727057,0.3263195814,0.6921522015,0.4369481561,0.1645499685,0.2496448172,0.0854999137,-0.0438458834,0.3254187209,0.0196919217,0.2021546341,0.5090504017,0.2582613071,0.6037292278,0.3355122211,0.0401917971,0.5384467989,0.5096177351,0.3047050096,0.472088445,0.6329769908,0.5015868477,-0.0966084797,0.3036591909,0.5283108104,0.1096055742,0.3084457916,0.4662066209,0.1573655265,-0.1605884449,0.247419655,0.2535045751,0.310223495,0.1132738091,0.5573983939,0.5006716189,0.3107829474,0.6776205489,0.2693035506,0.5054631507,0.3456448514,0.0929952076,0.1608368363,0.5035167285,0.6040316102,0.3807511899,0.3480900747,0.0193362282,0.1345886514,0.2420507431,0.6185784943,0.2492458113,0.6043219028,-0.1915229032,0.5747539795,0.1767343366,0.4745863808,0.1841005796,0.5263876942,0.5669194701,0.0931781162,0.0850520433,0.0732438252,0.2412500227,0.0979194546,0.0776256828,-0.0200871274,0.3994292497,0.316818809,0.2395108879,0.4447910984,0.6333972327,0.1609307208,0.5870216412,0.3821042049,0.3917051088,0.0153987058,-0.2746751089,0.1259115197,0.6591991607,0.6597131406,0.3365437297,0.5861395578,0.2932879308,-0.1526003114,0.087648261,0.5172046255,0.1653571686,0.4319713226,0.1347301693,0.5963703201,0.4657880692,0.4510840698,0.0629098588,0.4225672886,0.193118891,0.5321051844,0.2400786744,0.2185497155,0.3438877474,0.3510294763,0.5204836758,-0.0758488344,0.5082320128,0.1556718032,-0.0320422075,0.5328731529,0.6614297708,0.180124007,0.5587392806,0.2305953304,0.4951152369,0.3514021367,-0.0335193924,0.2218525978,0.2223037788,-0.1490619769,0.4260428629,0.4719069692,-0.0624809717,0.4249606756,0.7250700892,0.1074124996,0.2294648975,0.6533763752,0.0922409586,0.048447377,-1.5520770269,-1.2823475564,0.6651840041,0.2200382323,0.2921126522,0.5897981747,0.2322798176,0.3417990787,-0.0732715106,0.6303640606,0.5237990738,0.0857336709,0.0991377659,0.3210834966,0.1478347154,0.4572512035,0.2470206561,0.3835193821,0.4226264958,0.714658235,0.3380101849,-0.0649131542,0.5671374982,0.6448952627,0.3145237523,0.1693946504,0.3915112395,0.2653628018,0.4127899552,-0.0687526735,0.3951638093,0.3028736694,0.4955883466,0.3414653128,0.5212479611,0.4436886122,0.1944517366,0.365143891,0.2162339646,0.3966963795,0.0706908143,0.4246487565,0.0301880169,0.5343468847,0.1938068922,0.645507363,-0.2782228112,0.3911378409,0.4534588823,-0.0872161711,0.5767268905,0.3702592,0.6871982305,0.3266449072,0.2670710575,0.6097385209,0.3957596141,0.4295051758,0.2778166819,0.3802087194,0.4339408181,0.6492256086,0.1698490318,0.1679967107,0.1708607702,0.0426908188,-0.0361504692,-0.2757772575,0.5742311665,-0.0041219908,0.1687781113,0.0102464883,0.2144192182,0.6796631002,0.1968806995,0.5425602721,0.226925134,0.2497384934,-0.0271511223,0.0678219258,0.4691130693,-0.459259371,0.1911814652,0.4407036497,0.0475340671,0.7003643687,0.5973148645,0.2103016164,-0.2798837459,0.6198702001,0.5777998866,-0.012774655,0.1780154208,0.5659595519,0.2447805136,-0.005558069,0.09006307,0.0898558689,0.4347619696,0.0712149275,0.1649631298,0.2253978189,0.118179762,0.1918374989,-0.26516501,0.0611078461,0.5801096118,0.4619669096,0.3941681479,0.2893342946,0.699897905,0.0429702985,0.0102919947,0.0943832734,0.2021586161,0.5301429453,0.0502697137,0.3336326047,-0.0590566819,0.3851801014,0.3815278815,0.1399617915,0.2026891141,-0.04841114,0.3672668847,0.3380812741,0.5274075291,0.2652853937,0.5109417368,0.5645596155,0.293270677,0.223875789,0.4449672176,0.007125146,0.1264464346,0.5180715251,0.4331983802,0.5074788004,0.1565695624,0.2017117352,-0.0230472214,-0.3853983998,0.0406170716,0.4876045667,0.0159785774,-0.0913383641,0.168399325,-0.0984621875,0.0081520027,-0.2419477553,0.7110896321,0.5144681174,0.1685189271,0.0111959102,0.5778960208,0.3460564692,0.3506569536,0.3320152533,0.0610040509,0.4235715399,0.2298539324,0.248858026,0.0149579363,0.5066001857,0.6986667094,0.463567035,0.5121391459,0.6864627971,0.3000446842,0.3528875299,0.3176378988,0.3430735832,0.5387066495,0.3456062251,0.6493956224,0.4894317329,0.2834388796,-0.0889545832,0.3193370768,0.1441355904,-0.0582715527,0.104788364,0.3853738936,0.0247533467,0.5079475268,0.2872448146,0.2863866818,-0.0577487551,0.3691833401,0.0955037533,0.0321505741,0.1976084709,0.0660939168,0.2139656005,0.2326673728,0.1035962935,0.5993961038,0.0692678717,0.1898640446,0.4260094286,0.2411387988,0.3140959091,0.6590132879,0.3938114078,0.6513900619,0.0301237518,0.7228961363,0.3451876479,0.1585338675,0.0919779272,0.0073083174,0.0153210805,0.2623067854,0.2359028959,0.1989946964,0.2207243204,0.5362600998,0.1262496294,0.2184754066,0.5599994987,0.5653115328,0.427750046,0.1918183813,0.4360180161,0.4707103927,0.3301542144,0.6004285815,0.3502310313,0.2142232785,-0.2695257627,0.2915057062,0.2202653707,0.0718151467,0.2624314062,0.4456425429,0.4782338467,-0.1913405844,0.3571918781,0.0681046416,0.4031037919,0.396720159,0.6663573375,0.6693960645,-0.1357419715,0.5487686125,-0.0078995378,0.2599080947,0.1844880144,0.222572091,0.2524226436,0.2461933375,0.2570622619,0.4001497233,0.3678261603,0.0475684027,0.2959855573,0.2072255489,0.2679763473,0.2162586847,0.5420868286,0.2871167648,0.4841994492,0.532741717,0.2825972045,0.0723220741,0.4612215489,0.5290202096,0.1698450944,0.5757933068,0.4505561114,0.4793240561,-0.0360223712,0.3242580505,0.3846198237,-0.0338305185,-0.0388995127,0.6534865525,0.1183385853,0.1126631372,0.2419942996,0.0306100843,0.3237970529,-0.6537338169,0.1207982503,0.6960613342,0.427231865,0.2200384177,0.0654171351,0.3992355526,0.4276303559,0.1318515912,0.4887359307,0.6107800206,-0.026518472,0.4318616091,0.0414498516,0.6090389545,0.5057861528,0.718241822,0.5604972274,-0.0221988961,0.5649072581,0.5444370816,0.3600229181,-0.0247149186,0.6004973441,0.4420678447,0.3993599196,0.7062188539,0.1110254828,0.1235389102,0.0975519008,0.3411289505,0.1655393171,-0.0392651746,0.5441180633,0.0529221424,0.3390337199,-0.1358970499,0.7198406177,0.2372222192,0.1693021741,0.4739248017,0.1814762305,0.2343693806,0.3028008345,0.5358425727,0.0066430017,0.3479687684,0.5917700623,0.0019313039,-0.1004613561,-0.3427913675,0.1548309036,0.2626857873,-0.2326212273,0.2515609543,0.2506104533,-0.1086050466,0.0984371061,0.1695453913,0.1357792485,-0.2525295544,0.039955112,0.4536308732,-0.2669143879,0.1345740078,0.0458524642,0.4957201449,-0.0730475528,0.1427840539,0.6101120856,0.2456470004,0.1991574127,0.123066355,0.2358800446,0.2250749212,0.0410851003,0.6722845647,-0.0631402613,0.1062790547,0.0490049172,0.2469053453,-0.0605362558,0.1527587862,0.5879318122,0.6393805025,-0.0097887381,0.4680838787,0.2137127335,-0.1897775635,0.6960309894,0.6718262618,0.04194195,-0.0774426513,0.4518900103,0.2510513011,0.0807078709,0.5186067849,0.6511648211,0.3964908922,0.2747693038,0.1332137217,0.1701644225,0.5128076487,0.0909571901,0.0156298735,0.352950264,0.3400293801,0.2349428039,0.5548008184,-0.07971491,0.0982776651,0.1415416239,0.292495455,0.2298149708,0.4999867686,-0.1420068731,0.2213326825,0.6046805955,0.56766509,0.0382081038,0.0311570999,0.2700257979,0.252511072,0.3635309189,0.1604457942,0.3878658245,0.218058254,-0.0156374671,0.5979844704,0.6629998732,0.1800584993,0.4821275203,-0.0408155743,0.2428897131,0.3229571851,0.202570375,0.0158631064,0.3437794987,0.107668286,0.665904246,0.3962949514,0.5701851595,0.5206434507,0.6165362143,0.6021498805,-0.2015488849,0.583810041,0.4156601066,0.2076356452,0.5727650738,0.5083662443,0.2836135483,-0.0625963856,0.6382562633,0.1324328982,0.0888014183,-0.0140556698,0.5847664892,0.0138689263,0.5625794429,0.6105150635,0.1188221649,0.4566456652,-0.0278105311,0.5371881855,0.1304059812,0.3521299996,0.2738292848,0.1445660739,0.0511793918,0.1975160333,0.0099048422,0.4369509998,0.0349130217,0.6083585924,0.6742816404,0.5643847579,0.1187504845,0.4271980825,0.1662126018,0.220577197,0.6043116284,0.2267039027,0.1003130766,0.0648879218,0.5620584804,0.6117663999,0.0471595301,0.0142141274,0.1719287551,-0.2095886018,0.1637616658,0.2179755685,0.2498169726,0.4210422572,0.0598299693,0.0934894268,-0.0372112912,0.5018198974,0.1087715978,0.1530055013,-0.0681905339,0.5721739837,0.6971157534,0.4361169823,0.3484910314,0.0862658092,0.2401211366,0.233927956,0.5698610258,0.2363899716,0.6626448214,0.6838930658,0.3479060036,0.628885325,0.1573181912,0.5784305193,0.3659661691,0.0091604934,0.3068149313,0.4300028061,0.1978307589,0.0802212158,0.1005544066,0.2902474093,0.5598432153,0.1487091835,0.2535771606,0.4691593508,0.6060871962,0.7218041074,0.3346595966,0.1287223344,0.07325407,0.6606971592,0.3915053924,0.4050016629,0.3231167714,0.5535986639,0.265965141,0.2488749435,0.332115121,0.4003579702,0.2871226264,0.1903155619,0.6554005794,0.7463746502,0.3536413787,0.6764502344,0.1539909318,0.3353618643,0.4513634931,0.5480024565,-0.1953393768,0.2806639284,0.2190663828,0.3964675601,0.5193908661,0.4657612887,0.1221288253,0.01199715,-0.0756789373,0.679500676,0.337039234,0.2887379017,0.4228962281,0.6678462519,0.1534465512,-0.0427824349,0.5477327775,0.6981586442,0.1035189527,0.318408247,0.3881070187,0.493126587,0.3534972059,0.1368686645,0.6906737133,-0.0927096387,0.344158936,0.5100313859,0.420593452,0.5982859176,-0.1066378339,0.6768065971,0.0479622608,-0.0569299925,0.3586360319,0.1076657396,0.0945911154,0.4549908701,0.4921800018,0.119023346,0.5404240007,0.0647669642,0.4058179341,0.2666019474,0.2609152981,0.3166114393,0.3060217561,0.4672873286,0.2939022199,0.1706083101,0.1738432246,0.0127243571,0.4910806024,0.327950425,0.1244157392,0.2319022186,0.40145994,0.2597305031,0.5842670835,0.6169053568,0.5365503519,0.1159927383,0.139070371,0.0890832625,0.4514628819,-0.130150409,0.4788202953,0.4102789688,0.2364157177,0.4071184216,0.4088608796,-0.1549650863,0.3407559273,0.3565010155,-0.0702343417,-0.1565850427,0.5808923984,0.3072781817,-0.0152859704,0.4092881028,0.449187661,0.1202244662,-0.0510164252,0.4623442707,0.4574632801,0.4393482587,0.2589333888,0.0494295335,0.6904146957,-0.2513183275,0.5439282646,0.3886465885,0.2218845263,0.5942255168,0.1972314357,-0.0868234938,0.0128334532,0.5693452589,0.2373597502,0.1813543326,0.6424375191,0.1330540708,0.2974172701,0.0685490494,0.4770798552,0.4128015185,0.2022173948,0.3930364651,0.3062860133,0.2060243305,0.4522483163,0.6396397535,0.0964014016,0.4914308466,0.3005281623,0.2652085621,0.0324245526,0.0437474173,0.1577579505,0.5010083113,0.2185198796,-0.1885033956,0.3908190628,0.671222776,0.4803763903,0.0231345249,0.1761505215,0.506384414,0.1181795098,0.0323756238,0.1986921922,0.3170803746,0.0540665404,-0.0001260866,0.481882878,0.1571037948,0.2140568648,0.2197227385,0.1246169951,0.0523045921,0.2164864284,-0.0950858026,0.1362499377,0.5746130615,0.619915813,0.1793470573,0.6063262163,0.1203260421,0.0844289352,0.135448268,0.5451383477,0.3571732802,0.2731151446,0.6076116692,0.175816139,0.429474166,0.1564200392,0.6247540151,0.1493582009,-0.0213659615,0.2745671512,0.2165570571,-0.1661759692,0.1595313695,0.5487949959,0.5094283339,0.0822320682,0.2445968848,0.6645298701,0.4244070842,0.6043137554,-0.0001356232,0.2750929849,0.1988796351,-0.0546954786,0.013771767,0.1057936884,0.2229821123,-0.1026844915,0.6813717135,0.6338310118,0.168612367,0.126268126,0.2097735202,0.2790939996,0.6411135127,0.131064894,0.0573544545,0.3796784162,0.6975580763,0.2745366284,-0.076170844,0.563170115,0.6528626949,-0.0474524325,-0.1112867332,0.0091391566,0.2908209596,0.0014200233,0.05543129,0.4790009639,0.5818335647,-0.0349255197,0.2751958996,0.3509453169,0.0457274295,-0.0438595424,0.2721770904,0.6425671295,0.2416373109,0.0355163927,0.5049491134,0.338704435,0.0288588661,0.1641612087,0.0028690143,-0.3179834599,0.1909395359,0.1413904743,0.4076805313,-0.0611948144,0.2034220396,0.037744206,-0.380096192,0.5905681017,-0.0735271166,0.4090964033,0.3238252245,0.1102672198,0.0072362857,0.280474818,0.6752484611,0.4567981198,0.4750925488,0.3223716153,0.0306322082,0.1095472624,-0.4327996803,0.038102666,0.4971948529,0.5917565697,0.2171664226,0.3286087141,0.2481347969,0.1774071418,0.1173036971,-0.0068349501,-0.0420795782,0.4984254436,0.1560038204,-0.0016579419,0.2970178555,0.4106973065,0.1445820012,0.3083995281,0.3609689522,0.0274162879,0.0355228163,0.264430806,0.564002399,0.0295627965,-0.004622892,0.1275202465,0.4218454835,0.0716916587,0.0599607276,0.1458378806,0.3310166494,0.3084310786,0.3557590613,0.5707049248,0.6730318284,-0.20756929,0.1421243849,-0.2930451787,0.481776198,0.2774864759,0.4868186035,0.0732591628,0.4969255335,0.0591356561,0.6963769913,0.1529762619,0.1964668021,0.1992176289,0.1872785148,0.1417499287,0.1467232153,0.0280764946,-0.1249990347,0.1592426244,0.4278680871,-0.144404297,0.2382307965,0.6227358545,0.5468517267,0.0923663577,0.6105593606,0.3802879172,0.6590602321,0.3898301682,0.2986120144,0.0682726237,0.0924460755,0.1356834226,0.4923437687,0.682972648,0.1905437056,0.3941409583,0.5925579741,0.5762926959,-0.5036555342,-0.171617324,0.1446478287,0.5095173685,-0.6855887774,0.6924419442,0.1510572531,-0.1121699419,0.4806573575,0.1471007752,0.6774239217,0.4639577738,0.5779458726,0.0086938069,0.2482818389,0.1814783351,0.1728357798,0.4879175309,-0.1838502712,0.1768893324,0.0560725621,0.3513890799,0.2239540453,0.5393728066,0.2387708366,-0.0762015098,0.719818905,0.4120901854,0.1461324779,0.0446001534,0.5382751366,0.3922730169,0.4788318766,0.589223123,0.2001272651,0.3995872182,0.2260903142,0.1761174925,0.5369593094,-0.1253049145,0.3261147404,0.3648551151,-0.061918719,0.2352266356,0.2059784415,0.2944808199,0.4479205357,0.4467367618,-0.0219873473,0.0550104893,-0.0405574342,0.4248175917,-0.1509551376,0.1758416584,0.3260274335,0.1284778637,0.452890242,0.3248536866,0.364440536,0.1741595039,-0.2628069968,0.0937405111,0.5243878366,-0.0482904554,0.4641872316,0.1318393714,0.0431120994,0.2515845272,0.063426681,0.1203818098,0.4423371861,0.056637103,0.187934662,0.2861568124,0.18067635,0.6612453207,0.5567744613,-0.1533202771,0.2044825427,0.4886965711,0.393189264,0.5413408118,0.5718661536,0.3955011409,0.5602772274,0.5567764578,0.1559335581,0.2389520483,0.0640333947,0.252220015,0.1703515431,0.3591868959,0.5895374718,0.2245516526,0.1187006109,0.2956091367,0.2169748661,0.2774556011,0.1381159178,-0.0911789915,0.0378990187,0.0231431744,-0.162505142,0.5698921239,0.3924973508,0.0112971693,0.2148283428,0.1913493125,0.4253453611,0.1426195772,0.6302262878,0.2037208267,0.1228344876,-0.1954716979,0.3414297602,0.2815946474,0.2955108562,0.4561628585,0.4347546712,-0.1245433371,0.4296019819,0.0545852856,0.4619960005,0.3879607602,0.4735895146,-0.0160173758,0.6068820923,0.2066672954,0.2014384333,0.6347380125,0.4622807305,0.1498443864,0.1159134358,0.3501083605,0.3572862453,0.143022026,0.1194276891,-0.0526905711,0.532564429,0.3035589064,0.5267531155
   0.0141579116,-0.1802838406,0.0219357541,0.2671385746,-0.0815846977,0.1062611681,0.0621969041,-0.6010686302,0.300556709,0.3488132763,0.0696270675,0.04436702,0.6912263927,0.1257153037,0.0312861633,0.0308736187,0.2130996679,0.631721993,-0.0472668906,0.6553053576,0.4791284435,0.3847523597,0.6127004231,0.3563946974,0.3489735922,0.4577747845,0.6704240708,-0.0722939789,0.2510173689,0.40965224,0.2689211867,0.0325740366,0.453598334,0.3684477654,0.1107812195,-0.0458594467,-0.239821076,0.1048855725,0.1919532707,-0.2107292363,0.5563551544,0.618895726,-0.071348643,0.1650001436,0.5803986369,0.2720458339,0.1509102009,0.4412140139,0.6328171399,-0.0921221183,0.1071150661,0.2857229931,0.1834050089,0.2145715323,0.3963226297,0.5293226347,0.5086663453,0.4073277247,0.5061167915,0.2583510498,-0.2120940961,0.6803050013,0.4168864755,0.364529933,0.0142155317,0.653848044,0.3130434058,0.191922268,0.0862567248,0.1799704952,0.1219668988,0.5560804693,0.4222456661,0.1803911135,0.102963787,0.2225519672,0.4588440169,-0.0193588233,0.2535234803,0.5827660805,-0.055427929,0.0450897287,0.6045576536,0.0965222741,0.2062634897,0.1211784538,0.6945137971,0.4711887938,0.2875083187,0.1526998249,0.1393123151,0.3862697094,0.3583526183,0.512391085,0.040570197,0.1689636454,0.0872049064,-0.0655444683,0.3398760913,0.3360519812,0.6286132387,0.1674105664,0.1842886991,0.535437031,0.3991195302,0.3973624699,0.0947258939,0.6681321753,0.3672923948,0.0243366031,0.5429962296,0.1212637784,-0.0551275342,0.2306503092,0.0412152197,0.2132389739,-0.1555655839,0.1541061059,0.2469561501,0.3433346773,0.3750284126,0.4918900716,0.0159586105,-0.1046665931,0.2344450088,-0.0116339476,0.2217388808,0.1990445808,0.3008478988,0.3493439495,-0.1558028452,0.3980401565,0.6219004634,-0.0022389195,0.3298903119,0.5670607625,0.4482890557,0.1771691945,0.2882295021,0.4010763968,0.4067552568,0.0282632073,0.3876291709,0.511590452,0.5772829869,0.0100433881,0.0626016318,0.3930598611,-0.1490335722,0.152347984,0.5037661166,0.6556652514,-0.0864102743,0.4910028339,0.0406111734,0.2674549538,-0.016117857,0.0473901731,0.4152251555,0.2637909798,0.12878996,0.32642014,-0.0667015551,0.3121158355,0.5934163105,0.5168812802,0.5008423323,0.1209867153,-0.000429171,0.5217580864,-0.2114775644,0.5916765784,0.2245949457,-0.1370747224,0.5260941914,0.5297315836,0.4805600631,-0.1510535619,0.0103132401,0.2612862692,0.0567602186,0.3458660206,0.6177507817,0.4947191208,0.3813515438,0.546766873,0.6587255881,0.3020111329,0.4291570194,0.31350595,-0.1114819158,0.2656265367,0.5477190496,0.5364653458,-0.1105968364,0.2415228663,-0.0280384965,0.434518728,0.3154310704,0.2088858183,-0.0168414029,0.2392525316,0.3539532895,0.260402661,0.1141408461,0.4279641934,0.0489152488,0.410549921,0.0930780775,0.0404571318,0.1758154531,0.385563256,0.4439580512,0.4438683576,0.067640079,0.2271778541,0.1345431585,0.4896592807,0.4126225343,0.5480453843,0.3330948784,0.0115478474,-0.0032048362,0.234954682,0.115583281,-0.0338462791,0.4057618708,0.1259541571,0.5839973571,-0.0942153383,0.0188493478,0.5060346409,-0.0432182806,0.571347463,0.631007965,0.3518333016,0.0514994489,0.4186454527,0.095562553,0.1905933771,0.3347669084,0.178031983,-0.0167302038,0.4902706509,0.089566157,0.397928169,0.0239401001,0.1585984252,0.3092500307,0.1491327867,0.490754453,0.0875981825,0.4424415126,0.4180745187,0.042135039,0.4067205112,-0.0773718642,-0.158525538,0.6586422799,0.3373722065,0.3045766461,0.2262508721,0.648121887,0.3633500751,0.2312820147,0.2507253841,0.5523138023,0.5534108319,0.2807069157,0.2022871055,0.4584785219,-0.0851291275,0.5237805051,-0.0210800869,0.2396440703,0.0080563752,0.2327570065,0.5718776105,0.4234970439,0.056895286,0.1759717301,0.5970056185,-0.3448324827,-0.2305407629,0.0387235175,0.2604814716,-0.0613127358,0.4538727019,0.3269144965,0.0639778942,0.0688617798,0.6952902336,0.1746847693,-0.0510416604,0.282376614,0.4075423406,0.4180521188,0.1499676368,0.5596957139,0.1242855993,0.4457046152,0.0116479244,0.1712133106,-0.0112217763,0.0283525756,0.2990929426,0.5270143226,-0.0556119777,0.4771367346,0.0389195946,0.2394657912,0.3344147563,0.5119113244,0.0433625894,0.0839065182,0.4909217199,0.4652450373,-0.0640387514,0.2102870265,0.2913587599,0.6004705486,0.0410836853,0.1812102392,0.3722354672,0.006062873,-0.0928897183,0.6332017232,0.2036677117,0.1230495044,0.2355438034,0.4489773747,0.1979436014,0.3508963139,0.3891458525,-0.0476671073,0.1521995974,0.0327887298,0.2146394599,0.0519801096,0.3597316634,0.7081452381,0.6212897959,-0.0583796164,0.4944768614,0.4181981644,0.5420987543,0.6773962759,0.1597283907,0.2671307911,0.4203267945,0.5370172722,-0.0869741533,0.4191775181,0.185684226,0.0431342862,-0.0227481129,0.4825162073,0.6974002006,0.2655278583,0.2077221183,-0.1448872129,0.0097765522,-0.0154305624,0.2754420013,0.5963759505,0.4993167658,0.6252584696,0.0912120351,0.2718628154,0.6208633704,0.2513363366,0.0825632309,0.0467850632,-0.1228017929,0.0850390364,0.0963309224,0.504096624,0.4345011288,0.4412103842,0.1520657291,-0.0953873835,0.043358772,0.319685936,0.6665476304,0.4556702296,0.1163357814,0.5234277961,0.1670904858,0.3020085913,0.5436809328,0.2226523324,0.1671888872,0.391788906,0.1289422406,0.3555976361,0.2559983384,0.0566312748,0.2970174969,-0.0562565917,0.4253157605,0.4549071547,-0.0322570557,0.6018902153,0.2125251981,0.4500685556,0.3041940912,0.5298206763,0.2836673287,0.3073362279,0.5840072213,0.2742124279,0.4919035531,0.0354834414,0.6735495669,0.2631623186,-0.0136067211,-0.0703253923,0.5027942032,0.6122951445,0.0675252019,0.0472246051,0.2333424959,0.0308420434,0.1668705142,-0.1175239748,0.5627621327,0.3479654138,-0.0448422024,0.0064205457,-0.0442513889,0.2752108708,-0.1017498043,0.5928616734,0.5408411459,-0.0657392415,0.422128529,0.5863950693,-0.2357407972,0.5589088661,0.1737389377,0.3681782658,0.434106456,0.2071518537,-0.0289152867,-0.2001129507,0.21129578,0.1201277979,0.3160546253,0.0678312385,0.161724284,0.2372259834,0.2420873353,0.2711004205,0.0226729225,0.2438341881,-0.0600078556,0.0560566904,0.5929377232,0.1882357216,0.3762517319,0.1996019607,0.1916535475,0.1267319726,0.6819591751,0.4218646903,0.0669357307,0.0228358891,0.4927041316,0.2086850217,0.1566761338,0.4318509879,0.2685393554,0.1439326425,0.1107442496,0.7128238668,-0.0463788393,0.1244617427,0.5037138859,0.3385923879,0.2342993844,0.4373554643,0.2676129838,0.4558350503,0.5774702005,0.5288701498,0.6034023001,0.4577228923,-0.0303737064,0.7183868714,0.5085610737,0.100538167,0.1870776669,0.4309298226,0.2717226598,0.0139144692,0.0126905597,0.2368041109,0.3647184073,0.2319670892,-0.0140352448,-0.0522623392,0.545792831,0.5481458518,0.2139310554,-0.029606597,0.4388172698,0.5833680247,0.1393169887,0.2998640351,0.3775474334,0.4886601577,0.5773739587,0.5277811816,0.5857469671,0.3317220515,0.0956012858,0.1392668582,0.1367843511,0.3173479536,0.1031444611,0.2387421971,0.0250667009,0.2127189744,0.3868186209,0.1292706527,-0.3495874028,0.2459893922,-0.0620352545,0.0397345645,0.1655787722,0.4241308643,0.539189394,0.0746973996,0.1718439142,0.39997622,-0.0681096993,0.142965105,0.1189798859,0.3178739941,0.0711230497,0.3692377142,0.4175787981,0.0256835432,0.3307351144,0.3666917322,0.2210243551,-0.0435727708,0.3929312807,0.5713753771,0.2170227575,0.0919713169,0.1317758457,0.4684452508,0.2195348306,0.5151863186,0.0138078195,0.1729779518,-0.0094293041,0.1688481029,-0.0210503627,0.5815720732,0.7116216357,0.1293992541,0.1883257985,-2.1756895991,0.2205582908,0.3249657098,0.2426755886,-0.0482044073,0.5633489566,0.035036471,-0.0259344612,0.5607951449,0.3878762316,0.122630471,0.557969255,0.5759281245,0.6490153594,-0.0298884448,0.5739485255,0.4575184687,0.0952224995,-0.048898953,0.5557699577,0.1741432051,0.3465652091,0.1458240298,0.6086727199,0.3784774288,0.2907790895,0.5051138737,0.153241593,0.2125284497,0.2139756062,0.6639859278,0.2621806062,0.3033129397,0.6888529619,0.4453212654,0.414667406,0.0870361941,0.5449037066,0.2689396756,-0.1316966829,0.6813593388,0.5848003101,0.003373278,0.2221072243,0.3665103117,0.1594730651,0.1405106089,0.606820562,0.4268186385,0.4593475589,-0.0303374956,0.0304188536,0.0798395768,0.0026826841,0.0889268445,0.5160370139,0.0602324483,0.6630660964,0.5315990668,0.5870025226,0.3487440582,0.0007109217,0.47078703,0.538412201,0.515633898,0.3022216039,0.4774723116,0.3208081563,0.6105509524,0.4488060566,0.6685690994,0.5792024026,0.0368740993,0.0280300388,0.3784645227,0.6787073402,0.4108200814,-0.0945487611,0.0140343631,0.3776884843,0.0163520858,0.0987984573,0.3130027867,0.054495022,0.2410748811,0.4593647369,0.6838015848,0.6340752178,0.5512850634,0.3625652868,0.0560685429,-0.0572034138,-0.0354248522,0.4820555804,0.4806392384,-0.0653356322,0.2090929652,0.2265173384,-0.10876551,0.3039109041,0.4942531096,0.0945755111,-0.1029605643,0.3558538643,0.1281971885,0.595214737,0.3274061815,0.3440193529,0.0164510907,0.1705926846,0.0919745213,0.0495570767,0.4214821655,0.3409624149,0.4326657851,0.3792709481,0.2331024194,0.4635744198,0.3277921478,0.2343548067,0.3892467124,0.6527378896,-0.1338980801,0.5052690947,0.039126306,0.3453649068,0.1148824471,0.2559177556,0.6600286734,0.466496526,-0.1488240272,0.3952466642,0.3206242716,0.0553905286,0.6573623477,0.2577248203,-0.0034491089,0.2803177829,0.0642918592,0.048526721,0.2793272894,0.522945938,-0.037809145,0.5337271463,0.6116247259,-0.1473935827,0.1385128072,-0.0031428205,-0.0013721119,0.2525773062,0.4724928201,0.3944738091,0.5208295805,0.1214206174,0.6183189909,0.1785610154,0.2602359852,0.5351874438,0.2231435935,-0.3196336925,0.5087183264,0.374227828,0.1187502339,-0.0814471273,0.0682470638,0.5186728101,-0.0601288941,0.5532387389,0.3945073775,0.5432079302,0.2099571524,0.4541318998,0.1658429327,0.0071225534,0.4382198856,-0.0409946277,0.0987483914,0.0504339969,0.4328081608,-0.0314639133,0.1590566294,0.2199183725,0.5781861722,0.4102629353,0.1621899785,0.0904901453,0.5744355219,0.569783031,0.1278391265,0.3928711972,0.0464216663,0.6346229892,0.4417257014,0.4811990751,0.0016210246,0.0796816458,0.176980048,0.3818864757,0.2024120101,0.6178610347,0.6304052796,0.2350042742,0.2117228071,0.5064340211,0.6446560658,0.4042723897,0.3939786415,0.5508640411,-0.0731407299,0.3559753425,0.686963231,0.3656191875,0.5106734383,0.452812685,0.5310020403,0.6645591105,0.315194061,0.1927822793,0.6112405138,0.0464002562,0.2708732462,0.241509832,-0.1574577427,0.3580410758,0.2041244777,-0.0619879405,0.6059678176,0.1296262076,0.3084177727,0.1219976598,0.6415486047,0.406524138,0.4254787726,0.2651293936,0.0033940931,0.1785554811,0.441027659,0.1513660366,0.4448429779,0.3972718798,0.0817993587,0.6787957322,0.256073687,-0.0297655407,0.6899308906,0.2726942805,0.3109784094,0.626022234,0.2803692898,0.2899021786,0.2609280474,0.5024746483,0.1162907454,0.0806972035,0.1211036166,0.4121767835,0.3266696163,0.410039933,0.51961583,0.1293114101,0.1669570802,0.3974724302,0.0491674583,0.4141329107,0.4034502765,0.5961436871,-0.0536323244,0.6044275848,0.2088255483,0.3273816766,0.011555103,0.3679497537,0.686673674,0.5113441208,0.0618365835,0.2461862699,0.6150616758,0.2472218316,0.4752601133,0.5348786634,0.622355246,0.2332518005,-1.4330624644,-1.3938768809,0.2552908021,0.0682739402,-0.1095051411,0.3866434148,0.3911573446,-0.1273721227,-0.4947905857,0.2081601488,0.5737219759,0.207341982,0.5135945283,0.6785637823,0.0830189567,0.6405621082,0.4769984339,0.41925627,-0.1891865074,0.0992508652,0.18887369,0.0553605124,0.4452112113,0.001083169,0.0596281828,-0.0154980356,0.1850215861,0.1895082365,0.4914763942,0.2999010252,0.1216455116,0.0744507667,-0.0863676895,0.1154446317,0.492502958,-0.05473789,0.4148222257,0.3586943508,0.5175846177,0.026698442,0.2649626402,0.0795965003,-0.0557002935,0.0095275944,0.0354408508,0.4512119297,0.1233264131,0.6453931214,0.0543270809,-0.1849029218,-0.0240348044,0.2691957912,-0.0267317696,0.0554624533,0.0719102839,0.0128105818,0.3032076717,-0.0244587605,0.3713015125,0.2443561153,0.0051880913,0.3400177547,0.2101943725,0.5310685545,0.582955549,0.5212843393,0.4102217295,-0.424070257,0.357885253,0.081106804,0.6178784042,0.1086478179,0.5790041952,0.0809605847,-0.1058684291,0.3041598243,0.0574662463,0.1127892076,0.2755111409,0.6828815871,-0.0772661522,0.2098399581,0.4454691566,0.5450754286,0.2180557744,0.2448159023,0.6505752598,0.6568253149,0.3004692039,0.7132057989,0.2437113482,-0.0562640008,0.4492789394,0.0015159911,0.1682429314,0.4142916729,0.5703345429,0.1776463748,0.064498307,0.2936931765,0.6976290495,0.5809361717,-0.0292824906,0.1199786993,0.4549915323,0.2946850414,0.0326669764,0.0031233592,0.2329240653,0.364783685,0.7160480039,0.6193600669,0.4885122583,-0.1549624877,0.2752850368,0.028868956,-0.0871747389,0.111776539,-0.3336766319,0.1807934119,0.5063073916,0.0254477562,0.0761775268,0.2088896541,0.2499761417,-0.0167611698,0.1183870459,0.4586956965,0.4644380951,0.5606463094,0.3046536082,0.6393262743,-0.0893308266,0.4987331758,0.3548112225,0.4145771383,0.2456167643,0.1568594878,0.4352006959,-0.0200878872,0.2639542648,-0.1366693313,0.1306743356,0.4573847181,0.4790143156,-0.2359589724,0.1554719819,0.4004287029,0.5475580834,-0.5244263,0.6929614314,0.5699481808,0.1268971527,0.60933558,0.2489274347,0.3697873292,0.0746042098,0.4025032684,0.1022670551,-0.2648326512,0.321279877,0.6087702814,-0.0247155401,-0.0529755414,0.054836335,0.4751826774,0.11454378,0.4589564943,0.2887482829,0.4690384509,-0.1610073723,0.6931233172,0.2034645877,0.1998691129,0.0939386941,0.617192789,0.0045200555,0.1385226998,0.2712288437,0.4441489893,0.0513510175,0.0072401482,0.1418312741,-0.0163719015,0.0298763271,0.1836307659,0.4484347423,0.1834560368,0.51410602,0.294532964,0.0116941022,-0.0327120424,0.7147250603,0.5295994061,0.1706709246,0.3609829889,0.2688948728,0.0896556941,-0.1491584826,0.5607021946,0.3612919873,0.4653276681,0.133695681,0.5464633742,0.4794539487,0.4623859964,0.4167717602,0.4005607553,-0.0613275411,0.187109115,0.4962407606,0.6306079979,0.0256810939,0.5908316587,0.4956712718,-0.0785683428,0.2049465874,-0.1716165896,0.1369926134,0.6247560577,0.2141189494,0.331227014,0.3579261516,0.6344362721,0.5120803736,0.0297353411,0.6123632953,0.1762316994,0.374134887,0.3819765477,0.5777271128,0.0241071716,0.2110405691,0.1233064063,0.5379651396,0.0299895107,0.4268409648,0.6523820868,0.2283323269,0.2101310216,0.5765739341,0.1603034001,0.0326918176,-0.1555804955,0.6896605128,-0.1386668071,0.35722721,0.0374781079,0.4683320372,0.5305505149,-0.0003513169,0.1736582141,0.5054535178,0.1355352383,-0.1165357921,0.0794221784,0.6758240839,-0.1228474467,0.655861789,-0.127968814,0.0395789543,0.1822671096,0.3371098454,0.01491897,0.5325506253,0.431012306,0.6194890025,0.3152666413,0.2101473535,0.5885664082,0.5647866743,0.1866376593,0.607765945,0.2924335439,0.4573662047,0.1560805482,0.2522396556,0.5613769596,0.6084860435,0.4170211711,0.5783266055,0.5114272159,-0.7082500259,0.1452726377,0.3341058138,0.4694641342,0.2022070744,0.1239173489,0.0547632093,0.2594893016,0.1639287624,0.0047420703,0.0265591744,-0.1560578864,0.4002376503,0.6310106041,0.1883857999,0.2677723853,0.2771849884,0.3512644074,-0.1101407844,0.334747654,0.3107936206,0.5457039753,0.2742984763,0.0106542763,0.2294188277,0.1639420149,0.6536340118,0.5186341269,0.3402103725,0.3392698223,0.3162203499,0.4109554213,0.039705234,0.3586685686,0.3933655044,0.3616121825,-0.091332852,0.6520277934,0.4756116337,0.1315926966,0.0983837251,0.3083430928,0.3003007226,0.4425584769,0.1225471399,0.5599548365,-0.2206046709,0.1802543703,0.1163193425,-0.2007026263,0.2578106902,0.295429953,0.5365942701,0.4699991596,0.0279737603,0.2116643916,-0.0780939914,0.6697895389,0.6369213541,0.4795564437,-0.1396239935,0.7056821579,0.0928320507,0.0319180936,0.5153376926,0.6841278313,0.3190223306,0.0837436232,0.382441886,0.5660462124,0.3140525528,0.5228889738,0.2951988674,0.2508267185,0.3950328672,0.0450696203,0.1076424269,-0.1510573068,0.1312337407,0.2325786157,0.4470207461,0.4326206227,0.1586956322,0.1979604422,0.2712048807,0.2823145021,0.6455486491,0.3221514257,0.5203308201,0.5414311175,0.0832477868,0.1572812709,0.6247740907,0.1908476927,0.0850004734,-0.0776903656,0.4132841405,0.387843001,0.299148161,0.1487318797,0.113260942,0.2967721336,0.1584986624,0.6935669811,0.3100960826,0.1244399737,0.0710668342,0.468097975,0.3162676165,0.4749657688,0.5974801003,0.2120368093,0.1941987198,0.0753524052,0.0131744245,0.2526976497,0.4035646048,0.1759370242,0.4098430031,0.3145820523,-0.049954197,0.4526132942,0.3554754178,0.133335854,0.2341396163,0.0857401255,0.3257554297,-0.0465157953,0.0582398286,0.3443637783,-0.1169735318,0.0382996254,0.4039556277,0.3170172004,0.1459873774,0.6350407069,0.6936318047,0.6459729855,0.436698284,0.5295900303,0.5052033679,0.734484788,0.4941343815,0.1878552443,0.1168211062,-0.2057572591,0.2091294954,0.2924014926,0.5484268594,-0.4747129202,0.6450620488,0.6088865386,0.3682986615,0.0423388525,0.0249849017,-0.0388932546,0.6091446844,0.4544988291,-0.0346752576,0.1463884907,0.2499981836,0.2805008932,-0.0314827534,-0.0670907252,0.2855596946,0.5935577784,0.1235658922,0.3644628259,0.1472319519,0.5573819772,-0.0687727479,0.0811472097,0.1574271378,-0.166817443,0.6199968024,0.0025941172,0.3152736669,0.3427155715,0.5671077078,0.026922695,-0.1827025957,0.5359965964,0.5629470044,-0.2037452233,-0.1670712494,0.0840197449,0.4055561493,0.3831365653,0.1485144581,0.5877282175,-0.04091573,0.3508021812,0.0940012757,0.2566361394,0.0369460084,0.6161415611,0.6336499983,0.3603440379,0.6243135892,0.5782216382,0.520743747,0.472053801,0.0877091434,0.0159755055,0.5909924435,0.2556701945,0.4543342659,0.011310317,0.1588730165,0.0055309159,0.2238696355,0.4409928251,0.3862654751,0.6829633304,0.1270145739,0.271116183,0.6869576865,0.6781561788,0.3308617174,0.3017699409,0.6651169761,0.3768840727,0.3027741017,0.4059514251,-0.0076530631,0.6394866512,0.2868622533,0.6793830683,0.2921229132,0.0835668752,0.408094283,0.5792728248,0.1469882514,0.2093473416,0.5457597066,0.5612009638,0.3208461119,0.2304507399,0.57246709,-0.1099679655,-0.017524041,0.1930843923,0.4755336638,-0.0679079566,0.694283281,0.1526239342,0.3514731568,0.5267255861,0.0897915648,0.403717346,-0.1928471559,0.4167825853,0.2745210288,-0.1805566065,0.0504043479,0.6686250719,0.5320466354,-0.1017909483,0.2762367255,-0.405009622,-0.1434254893,0.3857535775,0.702174393,0.0391284794,-0.0337855696,0.3014784348,0.5537705446,0.1693103429,0.2059622996,0.0190459415,-0.0210127666,-0.1165895823,0.3209080372,-0.0689959665,0.378702775,0.1669515919,0.4590431787,0.1555462788,0.2772700997,0.4511782414,0.0099463488,0.5225296764,-1.6051165677,0.0709955001,0.4300190408,-0.0785940372,-0.1120861616,0.1485693728,0.0996099516,0.100267044,0.1375768747,0.1287791777,0.1646487748,0.3227640383,0.4748775243,0.605649019,0.3738128961,0.2353023651,0.2217082292,0.4096540388,-0.1311757596,0.3209371029,0.5238511005,0.0915004675,0.0879925853,0.4676085805,0.1380698967,0.586893003,0.0662174093,0.2925543673,0.3539764958,0.4199125764,0.2840595145,0.1665119052,-0.0039487789,0.3736420632,0.4955188804,0.1215005391,0.5000585398,0.1297486717,0.3835820367,-0.2194552081,0.392594367,0.2188831185,0.2330781235,0.3794494678,0.6545689285,0.2005992977,0.0362140746,0.4606573391,0.3829849874,-0.1214872287,0.1637292662,0.4472957908,0.5230554013,0.1774605164,0.6474408048,0.2267265358,0.3672640271,0.0552006954,0.4215025454,-0.0304631071,0.2806723498,0.4913926742,0.114853313,0.1715469106,0.5125849559,0.0647696346,0.5733468689,0.247395436,0.720177622,0.5348660881,0.1747744584,0.6711193878,0.6780866122,0.2212389408,-0.0633984355,0.5210063141,0.615664554,0.3703709177,0.2466201831,0.5813392016,0.6634495238,0.5931454636,0.4621353653,0.3371073581,-0.0146303022,0.641454589,0.5903201561,0.6604982791,-0.1327968399,0.2958182678,0.2069511196,-0.1145501036,0.192078883,0.56204319,0.265573865,0.1880542799,0.3090357237,0.6663391832,-0.1599751796,0.2415325978,0.4526549068,0.0747052803,0.52604046,0.7145985115,0.1536858233,0.6516806523,0.061363373,0.4295136695,0.6385731034,0.2232027442,0.6401566017,0.4031385942,-0.1981437789,-0.1378424995,0.7055430543,0.6086569687,0.4864776442,0.7204200259,0.4949392275,0.5542021787,0.6073707044,0.4389053029,-0.1644023774,0.458229165,0.2843976498,0.4979952156,0.115510555,0.1077401174,0.3617379496,0.2474745388,0.1646330183,0.5764649138,0.1748162368,0.6391333939,-0.0290365521,0.5760826159,-0.0048910499,-0.0017727248,0.2469582808,0.0660353829,0.2247784289,0.2375631728,-0.1920569034,0.4356853673,0.4824347932,-0.0729673708,0.3413568897,0.5111822335,0.1982306232,0.1511601196,0.5420050134,0.1915352005,0.411024742,0.0864180861,0.2667434981,0.5287214891,0.5443952733,0.1013674216,0.255249711,0.1913690792,0.6890458177,0.1259956207,0.5415083654,0.580636323,0.312748105,0.045731636,-0.0099321321,0.2635015344,0.3451008134,0.2950154724,-0.144862023,0.2795404197,0.1513391031,-0.0623992601,0.2551261317,0.3189098211,0.3201998516,0.0285590488,0.5189689365,0.5773585295,0.4606019326,0.6827362142,0.0264571569,0.1890454874,-0.1793445765,0.12024764,-0.0005150718,0.0974706274,0.1538580346,0.6285442799,-0.218672434,0.531025989,0.5575203983,0.0811974959,0.2212878808,0.7098794784,0.4128131774,0.1133262138,0.3183377916,0.5999105764,0.36935313,0.0299961668,0.3876151143,0.160286173,0.1266093741,0.3596493813,0.0387883981,0.5024394882,0.3023411156,0.4460712194,0.1671269912,0.6457583517,0.0804699055,0.4961450884,0.4909510688,0.5137330898,0.6869514566,0.283264014,0.0216270753,0.0195722258,0.7249394527,0.0741764959,0.0147407196,0.0857527718,0.4277075686,0.6187975502,-0.0242062764,0.4626721449,0.0973674669,0.2735603833,0.6949117186,0.3340745585,0.2294033344,0.4082520113,0.4626345777,-0.0063623839,0.0918414365,0.6870714943,0.3994870008,0.3345269555,0.0747548829,0.6244002002,0.1730910761,0.2436077504,0.4303325378,0.6444969248,0.2309424681,-0.0778056316,0.5549661008,0.5618648138,0.0079035752,0.4807105052,0.5944552907,0.320230596,0.0039206887,0.4959631027,0.5388165334,-0.006844942,0.3136818696,0.668547415,0.3071085991,0.6481563197,0.2034877898,-0.0966362056,0.0333810574,0.1965855527,0.3517157035,0.4179063763,0.499732815,0.1561448844,0.1423861315,0.5015516104,0.4780301047,0.5701851582,0.0093226984,0.3494860408,0.0652828005,0.4226389531,0.579945437,0.1835125311,0.117966113,0.51963411,0.4337083363,-0.1413444354,0.0265465274,0.274122204,-0.0808232119,0.1781526212,0.1597645218,0.1339142949,-0.525124301,0.2193726058,0.339089166,0.2293019188,0.1395633675,0.2822765686,0.3878273594,0.2118281604,0.5257369184,0.4077843531,0.2583779808,0.3454776698,0.2460652707,0.1055621816,0.3757449054,0.4296740553,0.3090350561,-0.0206939797,0.714554462,-0.0066950655,0.3241178172,0.0347801804,0.5124394773,0.3199564208,-0.0675759976,0.091631463,0.3491174982,0.4363202077,0.0612252621,0.4016649995,0.1796001401,0.427772444,0.1013418088,0.1624673543,0.0548794097,-0.0157972196,0.346413142,0.6202236974,-0.0681572605,0.5520284822,0.2585528002,0.102701808,-0.1040018036,0.091672048,0.1692953552,0.437129463,0.2013898579,0.3137174183,0.5775452113,0.1472473466,0.071744513,0.2624801281,0.1467184892,0.2776631116,0.2038761114,0.2358419913,0.0076814352,0.3989527537,0.2814110978,-0.2465555695,0.4095380413,0.1434529569,0.5165284391,0.0938570199,0.3602458941,0.0206873817,-0.0507866906,0.5508006741,0.2572823582,0.4091059607,0.5612994984,0.5132756845,0.3331950542,-0.0297197472,0.5527600181,0.1314355716,0.5141903163,0.6299235618,0.0503255991,0.5671896018,-0.0146763343,0.5852625423,0.5889514521,0.3024623185,0.0778793272,0.1143769185,0.3974577004,0.0574347972,0.330053342,0.5010205119,0.5737928306,0.1598878271,0.0230527711,0.5859217604,0.2032459931,0.040353108,0.0652071413,0.1408525685,0.469558823,0.6647919461,0.206794622,0.1462123745,0.0982735372,0.4659483634,-0.0462024995,-0.2058574327,0.5991574805,0.0695422267,0.4167659559,0.3636211121,0.1682296724,-0.0721378711,0.386594942,0.4965033834,0.5846537736,0.4250307703,0.0642929975,0.1415119619,0.5214433801,0.1123827706,0.0695630122,0.5119162276,0.3958163946,0.2334437872,0.595262712,0.0465808885,0.2515813692,0.1741374479,0.5064441969,0.2694464505,0.2388122617,0.2025776211,0.2812883288,-1.7783980818,-0.0020381294,0.0370883405,0.6336245531,0.2059366867,0.0435471782,0.3354382603,0.5797083497,0.660193946,0.1411589178,0.1742646013,0.2706532265,0.3548111592,0.3492000221,0.2471515135,0.4509957482,0.6885435213,0.6662391847,0.0134342981,0.4358534131,0.3885842161,0.2533532488,-0.0130252076,0.4479809496,0.079488582,0.0064133022,0.2338233788,0.0869799135,-0.0238673203,0.3220258128,0.0920311583,0.3098416801,0.1352411388,0.1838252684,0.649540525,0.2093820518,0.4584611431,0.1326786225,0.0648075046,-0.0082210831,0.3895092584,0.2759322151,0.4160470878,-0.1308903797,0.1100706906,0.3424722704,0.3911720651,0.2436816591,0.5735165211,-0.076387447,-0.1856086504,0.6141864396,0.2978086875,0.307741214,0.1855505179,0.576567737,0.0223106237,0.5083317822,0.4948961734,0.3178323555,-0.0372269477,0.2128955916,-0.003071313,0.2135701291,0.2314519195,0.4615779574,0.3238434673,0.197247021,0.5929199559,0.1030207697,0.48644607,0.6637852462,0.2653115565,0.3967818358,0.2254009763,0.5024404308,0.6874282177,0.057330517,0.2114042963,0.3750238416,-0.008856059,-0.1304734429,0.1437625558,0.5485436175,0.62776323,0.0529046664,0.2720515761,0.483209952,0.1868678841,0.6825775414,0.441125027,0.1009311694,0.0836713688,0.5086279606,0.6066993014,0.212791929,0.3568232874,0.3386572924,0.4355492345,0.1830007682,0.0485298974,0.0937975359,-0.0557194626,0.3159783807,0.2836950473,0.3610884187,0.1031286404,0.2782926093,0.4852660399,0.3088387769,0.3896392248,0.3204922678,-0.1135588809,-0.2712050575,0.047971296,0.6324324282,0.5542895682,0.088366645,0.0546728598,0.4829022888,0.3022049974,0.5256310565,0.4642886464,0.3995538982,0.4954445927,-0.046532706,-0.0363391033,-0.0675775178,0.1601956162,0.5680282507,0.2623051063,0.3320211992,0.4710390204,0.3087686449,0.5031469163,0.0138641689,0.0637644195,0.4696087963,0.3938112395,0.704539747,0.4229204921,0.6248858441,-0.1259735023,0.7079552348,-0.0808843639,-0.6253622722,0.5968549883,0.3605837964,-0.5899747522,-0.0325621652,0.5586339159,0.332727548,0.4560003243,0.2772889957,0.0927545151,0.36746966,0.6330517865,0.3630409714,0.5991589498,0.1445749952,0.081768084,0.4623010763,0.1688346924,-0.0776901022,0.3031978929,0.471674109,-0.0331529228,0.1183735027,0.2868104363,0.0100068669,0.1277053235,0.1123595682,0.1998186068,0.4156121703,0.6285449321,0.1770659041,0.0492085928,0.4997689602,0.6038787996,0.6852030602,0.1719603635,0.0057942455,0.0890367815,0.1335735751,0.3752777081,0.2580029323,-0.0180028637,0.1911555828,0.4747231452,0.0317863374,0.219248795,-0.199971005,0.5278945174,0.438584564,-0.1232534362,0.3948411662,0.0607801998,-0.0620529263,0.3678093059,0.5162004613,0.1044660229,0.2782003426,0.5137836496,0.6613970127,0.3036236975,0.0376810261,0.3679829971,0.5147368443,0.0002194063,0.2261253198,0.3829266828,0.0164861522,0.7068368455,0.4762596005,0.2163958842
