encog,BasicNetwork,java,3.2.0,1,1398560486128
[BASIC]
[BASIC:PARAMS]
[BASIC:NETWORK]
beginTraining=0
connectionLimit=0
contextTargetOffset=0,0,0,0
contextTargetSize=0,0,0,0
endTraining=3
hasContext=f
inputCount=140
layerCounts=1,2,18,141
layerFeedCounts=1,1,17,140
layerContextCount=0,0,0,0
layerIndex=0,1,3,21
output=0,0,1,0,0,0,0,0,0,0,0,0,0,0,0,0,0,0,0,0,1,0,0,0,0,0,0,0,0,0,0,0,0,0,0,0,0,0,0,0,0,0,0,0,0,0,0,0,0,0,0,0,0,0,0,0,0,0,0,0,0,0,0,0,0,0,0,0,0,0,0,0,0,0,0,0,0,0,0,0,0,0,0,0,0,0,0,0,0,0,0,0,0,0,0,0,0,0,0,0,0,0,0,0,0,0,0,0,0,0,0,0,0,0,0,0,0,0,0,0,0,0,0,0,0,0,0,0,0,0,0,0,0,0,0,0,0,0,0,0,0,0,0,0,0,0,0,0,0,0,0,0,0,0,0,0,0,0,0,0,0,1
outputCount=1
weightIndex=0,2,20,2417
weights=##0
##double#2417
   0.0774536304,-0.0599549588,0.0003939277,-0.0067088224,-0.1585347232,-0.2454535547,-0.0873809662,0.4591751189,0.3184589395,-0.035646662,0.4746010592,-0.1991457422,-0.0783227239,0.507416124,-0.2859734282,-0.1590174207,0.3832951034,0.0626066382,-0.1713794912,0.7416734905,0.5476683577,-0.0040811287,0.6235934853,0.1564976882,0.0105057373,0.5129206959,-0.1433833888,0.6936265524,0.0428874867,0.6086051103,0.1021030678,0.6380845485,0.0071439264,0.7015263253,0.2335987387,0.3988743448,0.0314030921,0.1787017439,0.4805679356,0.5157367535,-0.2075231976,0.3849985205,0.2835476493,0.0510923038,0.2132813048,0.1150586609,0.5796931336,0.3335916937,0.1694022414,0.0699369578,0.4133048232,0.7155479469,1.1113314461,0.0261872591,0.0300832913,0.1454733926,0.0074822355,0.082366529,0.2135056823,-0.1039341366,0.1604621099,0.652569643,0.4458750815,0.7141701968,0.2403489973,0.2311871051,-0.06486321,0.2999604972,0.1068800477,0.7263598298,0.4929623276,0.6468316804,0.4221619642,0.5429407077,0.5469890305,0.3590810109,0.3370976098,0.013778215,0.0962557873,0.6754720598,1.0434575243,0.1093653203,0.5402897175,0.4792655802,0.7837110651,0.3150276649,0.2528867902,0.4019146747,0.446081602,0.525475139,1.1635796601,0.0096397309,0.1250189678,0.7277201233,0.289040083,0.317839012,0.2072766216,0.2101677787,0.593208401,0.6208396261,-0.1433405399,0.3437686697,0.3172968625,0.6726578839,0.1164091639,0.7886274247,0.4356844299,-0.1086147566,0.5518072734,0.3480719586,0.2289135597,0.3164908917,-0.1132099609,0.421016951,0.403322464,0.2825335638,0.5869461881,0.6001081951,0.6711921136,0.4849760271,0.0748411695,0.9926830346,0.2561352256,0.2643060074,0.1879801929,0.2255637752,1.2486727068,0.3350530559,-0.0316419164,0.0049605531,0.025481881,0.1331000041,0.5374301094,0.9000523629,0.7094977398,-0.050614858,0.3664762311,0.5030440515,0.2158095812,0.3407605179,0.5273120851,0.280268377,0.4718467726,0.8434260538,0.5810759797,0.2674385806,-0.0424589431,0.4448634853,0.2801007973,0.4338446962,0.2153240145,0.4810649738,0.4867699069,0.6343072158,1.1550045539,0.2133897231,-0.0020703319,0.2840925499,0.0527886544,0.1400912028,-0.1155234665,0.4774854048,0.1997225465,0.2743205889,0.7641907664,0.7697164647,0.6503333836,0.6733521134,0.5102246801,0.4237989959,0.4042887408,0.5731209155,0.4164578504,0.5490561085,0.2190095008,1.0711838471,0.1660706458,0.5372796522,1.091818756,0.6884583597,0.5925015657,0.5963826737,1.2773833311,0.6190893568,0.1819094267,0.6594472954,1.0034466043,0.048343809,1.0097731782,0.1162482981,1.1090221887,0.2892992746,1.0369086816,0.7754092667,0.0838044404,0.6911529714,0.6930505598,0.004818718,0.0659440925,1.1874631836,1.2724441496,0.0577077658,1.2273697632,0.6083597795,0.0366458803,0.3317507027,0.7167525083,1.0794526086,0.5603363438,0.8174252351,0.3134981056,1.3472223908,0.3047976811,0.2397094893,0.7711679235,0.2009223551,0.7122663385,0.3039800575,1.0973563282,0.3549729823,0.3966596604,0.7545916361,0.0989325894,-0.0294264799,0.8625359479,0.5952982081,0.1736217983,0.3076961199,0.9508000585,0.527163776,0.061928877,0.0976049508,1.6215203269,0.2654227259,0.491188698,0.6015768561,0.3657628805,0.242941884,0.7935783148,0.353694926,0.2574496232,0.4867656661,1.0881609465,0.3466832758,0.9112468658,0.7907282946,1.044448673,0.5443216193,0.6397800287,0.5673569426,0.0892451611,0.6685601356,1.0463964803,0.9019768189,0.4202252286,0.8079157359,1.1825407689,0.5782667554,0.127352673,0.3278790145,0.6884401787,0.3291178279,0.3367982586,0.5971884423,0.6594150197,0.0989318392,0.662712437,0.2905853208,0.479018015,0.4540203271,0.4460040974,0.2442813344,0.5790238805,1.2213636192,0.547183952,0.2393584145,1.0981372323,1.2578902109,0.5471424296,1.0288622395,0.9453946397,1.0110697391,0.5584016124,1.9259834034,1.93699249,0.2730393755,0.05062559,1.1909949157,0.9693663334,0.6666094368,0.7472799272,1.0767132367,0.4472625491,0.3332148944,0.6661596177,0.7961877998,0.5079213585,0.7685430662,0.9253390545,0.5383566326,0.1830383279,-0.3057870329,0.5617566478,0.3189854509,0.5660477515,0.2683031566,0.2942228971,0.1660189723,0.6191624293,0.6398504295,0.6811739476,0.5441983411,0.165205552,0.6970543083,0.4906746641,1.407730594,0.4041752674,0.5020963067,0.3244086609,1.0098015438,0.4970262345,0.5555581674,0.6200643052,0.3058325348,0.5848945279,0.4624165133,0.6135169262,0.847424151,0.2097605848,0.0966842486,0.1269956101,0.2236627724,0.2345178786,0.0681724147,0.3232275409,0.1000701471,0.5230586042,0.3394337242,0.552157354,0.2478337116,0.4886919451,0.2805558387,0.070927807,0.6866240146,1.0464966401,0.422651106,0.4930579432,1.0114030653,0.4536381872,0.3624607297,1.1733822269,0.2423866781,0.4076660898,0.6052887708,0.0264542664,0.3960383298,0.6821357951,0.6261995202,-0.1894709101,0.3663376059,0.4715680983,0.2611912852,0.6126900433,0.6447889069,0.4508715317,0.9032201006,0.3423529855,0.708093087,1.0739690097,0.7958508817,0.2409437703,1.188513609,-0.05909475,0.6330934741,0.5430951,0.5420226766,0.6836572657,0.5693826113,0.2300764312,0.1262916718,0.6496662929,0.6259386743,0.1212433043,0.3136205384,0.3882628873,0.1855617783,0.5635784309,0.1594699293,0.6699690793,0.5072053217,0.3943618339,0.4166035509,0.8055632464,0.2737141366,0.3446522921,0.1938758916,0.1925753617,0.4071359456,0.4807221201,0.9958999953,0.6462936985,0.775975151,0.3926670166,0.6519997289,0.5030552918,0.087143532,0.8565194343,0.7056043415,0.2818405903,0.0477586631,0.8216319946,0.8272290325,0.4748511984,0.8846234405,0.7841522874,0.4210083483,0.1299736545,0.7905832208,0.213667003,0.647229494,0.8808595453,0.6315062409,0.2639847856,0.2564888443,0.6874833348,0.5137507178,0.6881949707,0.6366975633,0.6427933374,-0.0234135383,0.6729202789,0.307316179,0.6439165328,0.2877531681,0.6787586125,0.1704255487,0.2400160693,0.5084311706,0.6652921708,0.7856571039,0.4364928726,0.7150474829,-0.6304480707,0.2305356112,0.697415172,0.6340515783,0.3631912546,0.4201368445,0.4277634955,0.160383244,0.4247321147,0.4544929915,0.1043149149,1.3766273103,0.8149154283,0.0588159093,0.4516097577,0.0333056369,0.5435107876,0.6355784379,-0.0328736332,0.2954511301,0.2595614308,0.4351954053,0.0901855969,0.6712632403,0.6778648806,0.5435692509,0.7109363364,0.0781293812,0.1011036765,-0.0818259188,0.6607292349,0.2102614798,0.0597471225,-0.3183447294,0.3582457449,0.0362034062,0.6201179946,0.4578964173,0.2112816955,0.1190322525,0.4382599247,0.4652383667,0.1030467217,0.4351646538,1.0410095855,0.0907596198,0.3425422462,0.189171641,0.0309074318,0.3752998132,0.6891735816,0.2262650723,0.163936555,0.7188980021,0.6202800157,0.2868364053,0.1195725053,0.3691894706,0.2003238762,0.5951185148,0.3163951117,0.7022593191,0.2745832179,0.4955736798,0.2701327672,0.7794192813,0.02649587,0.521939829,0.2719866675,0.1964767149,0.3451838259,0.8467750484,0.3042072048,0.5344594922,1.4343062602,1.3264138684,0.3967534513,0.737506648,0.4402670671,0.2507432614,0.6494465291,0.3391651084,0.14300047,0.0579611853,0.5771534943,0.142380742,1.0639110064,0.5077197237,0.27314284,0.0733493022,0.0965747032,-0.1416642057,0.6474679601,0.5394893087,0.3164141251,0.7177291606,0.8142299023,0.3581638656,0.3003856929,0.6184508482,0.6777791,0.3441223528,0.6884750743,0.6208019063,0.0699375404,0.1168163328,0.4905583629,0.7191564372,0.2659196351,0.4775980297,0.5830504537,0.4300199904,0.2781571681,0.2553641934,0.6963622069,0.5145214418,0.1215797344,0.7555880297,0.418283935,0.2865439599,0.8545854476,0.3289094302,0.5243375198,0.2196096506,-0.0842849757,0.4033778618,0.2705538422,0.5354671317,-0.0033956943,0.1342997297,0.403979711,0.0448683126,0.5721434592,0.3925439312,0.3044560724,0.6871535648,0.3697652193,0.6911724433,0.8262447516,0.040083476,0.8098063602,-0.114693998,0.2150073162,0.6705460839,0.5917484786,-0.0018770888,0.7822240263,0.0844885199,0.297818844,0.2572876057,0.1987519012,0.1953140128,0.5512468751,0.657958505,0.3648872228,0.5019138297,0.1872387364,0.4408767545,0.3030577352,0.392014252,0.5497603342,0.0247270679,0.5196804829,0.767612239,0.2318437012,0.1370853058,0.2190923393,0.4166678666,0.1373945511,0.3328562693,-0.0457930937,0.793935839,0.3680817813,0.3472556453,-0.0647770978,0.1491340145,0.2567929314,0.2383877714,0.4946541425,0.0304643017,0.3055715767,0.5679093926,0.4284837563,0.4127443604,0.4055851315,0.9062516302,0.053563231,0.6625195187,0.52297502,0.0787205739,0.2084507282,0.4984851366,0.3528095401,0.0879240763,0.2329600657,0.6864981056,0.6260639915,0.0996329611,-0.170813446,0.4130164911,0.7127874786,0.1321056122,0.7879914156,0.3167552858,0.0788251629,0.4926502976,0.7555096288,0.3193520092,0.2596672235,0.3316698275,0.547327975,0.4614453929,0.4129142213,0.4506596876,0.6879818305,0.1466131535,0.1646752629,0.3785689615,0.5270614579,0.8168556643,0.1767351556,0.6696992407,0.7686093118,0.3638633885,0.692858794,0.7473436253,0.6902983399,0.2349017742,0.521734141,0.7032224297,0.0290847999,0.0446575863,0.0034111982,0.3621259664,0.2808409415,0.1746248609,0.5799415128,0.7469959592,0.5216902551,0.6017316498,0.1425973344,0.6172289432,0.0638453868,0.4380121696,0.3999128772,0.1649274874,0.423585144,0.520242729,0.4677376046,0.217319189,0.2393436667,0.3191470799,0.6351411941,0.4415407431,0.0970293306,0.9255748744,0.3878229319,0.1767787991,0.2572575142,0.2275230858,0.8430531187,0.9533421336,0.3458424696,0.291740532,1.4429153689,-0.6391948102,0.4548428574,0.2564353071,0.3962674336,0.1360802161,0.3674439903,0.7439892455,0.7008329818,0.258733779,0.3294131372,0.5762120768,0.5287258541,0.6024702564,0.4055502912,0.8513258319,0.0224863414,0.732939112,-0.0365800146,0.558402349,0.5203322451,0.3951616261,0.6301822618,0.8474670317,0.66351024,0.1111131668,0.6441524708,0.1859417913,0.1025729646,0.5198266024,0.7900074387,0.5411821127,0.4624418902,0.5332396672,0.8059486524,0.0990848154,0.1000620675,0.4748359616,0.5493951038,0.4683212366,0.2655279366,0.7584870336,0.6326269562,0.2661703732,0.0770896582,0.580185158,0.4563339063,0.3119802246,0.2419325124,0.0130131865,0.7283120511,0.2622420521,0.3171676275,0.4948348886,0.5580560607,0.0743215898,0.2155896433,-0.068451116,-0.120466106,0.1243682931,0.1730081864,0.2110854243,0.6632268411,0.6079999709,0.3265478853,0.5924155769,0.1844556693,-0.0600763529,0.5601831608,0.0366183837,0.4824261555,0.1865176528,0.3301508231,0.2900836427,0.5018363678,0.4604406554,0.6555245645,0.0050652107,0.8521726565,0.7315376628,0.7092560289,0.3718953111,0.4410302784,0.4781636558,0.7105935247,0.2942929895,0.228511572,0.627462273,0.3028817441,0.683476251,0.2874694221,0.4141054455,1.2384047901,1.0740281925,0.2489254977,0.6391663446,0.524485962,0.3094164462,0.2079575145,0.4734299402,0.208784439,0.1039753968,0.6304144064,0.0092250583,0.6878994266,0.1475970388,0.3593791834,0.361908324,0.7000010269,0.2519047805,-0.126008121,0.3194326422,0.6776261032,0.6071072819,0.4067483768,0.230510935,0.5881176084,1.3672858147,0.4680431694,0.1259916418,0.5794380781,0.3699978489,0.0007115872,0.3070622567,0.4051902113,0.7571650096,0.1384427075,0.1063174304,0.5117365635,0.401972127,0.5880451222,0.4278135574,0.4163415135,0.072285393,-0.1888171551,-0.0491649921,0.4841955822,0.0124519893,0.4360595836,0.2574532284,0.3065871937,0.3183011479,0.7821243563,0.6116388328,0.0158544462,0.452866464,0.1587729015,0.2677378118,0.4294034938,0.3620645227,0.1631415351,0.2353219947,0.231557,1.1035900548,0.5317344476,0.4785124125,0.2058584204,0.3173573692,0.392344187,0.5451770334,0.7722757442,0.7818957062,0.1360126007,0.7598526882,0.6827339545,0.0704694144,0.8192702373,0.4692575235,0.1913258155,0.5411447223,-0.4672186793,0.3385777722,0.3215062305,0.022211405,0.2882428171,0.6860687268,0.1339918606,0.4091212706,0.2940360979,0.5610410592,0.2691952314,0.5266185004,0.0464482069,0.4252348529,0.358161305,0.4892768691,0.5819081036,1.0372336655,0.2064203278,0.0736683257,0.2464591213,0.0300285872,1.2777779977,0.5600206812,0.0645672029,0.466130281,0.4146449223,0.1521945432,0.2568366216,0.6419856798,0.1714363953,0.2018361691,0.4910044923,1.0631192869,0.1181522485,-0.0635625556,-0.0899518436,0.459569226,0.2757338665,0.4550465285,0.4018377132,0.2833825447,0.4471003218,0.4970454279,0.2203720302,0.259513681,1.7480474956,0.292630937,0.0615731692,1.2154652418,0.6773792351,0.5516045609,0.816214276,0.6015236406,0.707690649,0.7062108827,0.3663926368,0.7734547878,0.3926422038,0.0715989318,0.7359468997,0.5306968651,0.6966134207,0.4495488436,0.4793697265,0.6469813323,0.7273478969,-0.4173078894,0.958040531,0.0755350633,0.2556894075,-0.2651580562,0.3331747799,-0.3499406401,0.0975048574,0.9333363412,0.1939233301,0.5899403079,0.5612697043,0.4602459414,0.3910596491,0.7890641806,0.3550695372,0.1514498208,0.7194541134,0.3319782386,0.522627593,0.5907056848,0.4070228498,0.6634289363,0.2142089197,0.6360766634,0.3382600841,0.1133568887,0.1581911706,0.1825905219,0.7696892388,0.2194292027,0.6161708527,0.0354303372,0.5991615118,-0.004075206,0.5402770557,0.7431850981,0.3017506965,0.29710142,0.066691903,0.3175465692,0.1737670903,0.6695410368,0.1319476715,0.4672233859,0.3789807569,1.1052231581,0.013172155,0.567590011,0.5757800407,0.2957098793,0.0057691329,0.119934984,0.2180477061,0.6243805755,0.3480319949,0.384632172,0.7719190009,0.035087962,0.6710611505,0.6321798166,0.1483002509,0.044034951,-0.3889760228,0.4048567253,0.2509753888,0.6859482658,0.7926356201,0.5321987428,0.3147941407,0.6240938814,0.7904922424,0.2190821311,0.2599904863,0.8131253064,0.6712527075,0.0151699008,0.3740141584,0.0178165531,0.6764055175,0.6661091851,0.4999366485,0.6583193304,0.4964958002,0.4989662191,0.4519266083,0.1382170335,0.2696541073,0.8500290585,0.7407266898,0.0588369371,0.6687072416,0.4875274659,0.7365735972,0.3312363105,0.5680764328,-0.295986249,0.4860279513,0.4345862758,0.6401047783,0.4437267604,0.3145206613,0.6026239742,0.8155398851,0.1517411295,0.8209667015,0.6786462901,0.0352073416,0.2989385334,0.5543468083,0.5653981688,0.5495741962,0.4461786644,0.3643428645,0.8799793342,0.4860868692,0.4407060973,0.2254474392,0.6577048113,0.144116437,-0.083251757,0.7548790248,0.3403327353,0.3514586815,0.3487353517,0.496540584,0.5443956659,0.5954661851,0.7772334657,0.3235249283,0.6109308403,0.2503035797,0.6861415741,0.1725814173,0.4204618838,0.5204098853,0.6694669738,0.585151475,0.5584183594,0.2305614441,0.5776848459,0.7575833516,0.2238123115,0.4289726935,0.2753008254,0.3377098038,0.1000134891,0.6410524877,0.3621400543,0.8636615706,0.1703839929,0.0487520187,0.1995007859,0.7015988357,0.2602211599,0.5786886345,0.6675612882,0.4264274728,0.0946215633,0.7135250559,0.3908037244,0.3498496202,0.7153735387,0.7037752187,0.5884963488,0.2137933978,0.2943380114,0.5967083511,0.208045293,0.4561296308,0.0678328189,0.5879163851,0.2791345403,0.7833687591,0.6770113395,0.4971464113,0.798791169,0.5547266121,0.2658579274,0.5544694323,0.7933295765,0.4732522097,0.7911925601,0.2697379156,0.979800619,0.3805923958,0.320449467,-0.2674218853,0.3389418542,0.3680686734,0.1979863202,0.5966408635,0.6900105704,0.196814851,0.4366991229,0.2978607176,0.0739052278,0.6670121227,0.5074200695,0.0863449847,0.7564999259,0.3585159451,0.1276874154,0.3771556821,-0.0372668646,0.224559732,0.5373494518,0.1216011242,0.653706196,0.7239177679,0.1603141885,0.0390753763,0.6037238089,0.4670196026,0.1492723652,0.58579381,0.3381381519,0.0839017706,0.4337266468,0.2879743045,0.2653229101,0.3934925351,0.3288171433,0.143355919,0.0534818487,0.1840741391,0.3458116818,0.1342850885,0.6075285032,0.7837493197,0.6596610684,0.0706948821,0.2666506994,0.7593501753,0.5588860876,0.1682965935,0.6023003117,0.7660683655,0.3789632422,0.051206463,0.7768475592,0.8761597028,0.5718489366,0.3239670428,0.1994143394,0.513980271,0.6555420604,0.2075185808,0.6411073323,0.5414710168,0.1046570512,0.4500564401,0.0663209512,-0.1082303173,0.3203808505,0.5354466809,0.040175952,0.1730672768,0.5673668742,0.601086297,0.1685078197,0.5582308297,0.0613856526,0.3788586805,0.7536422344,0.6834085848,0.4475612585,0.484802904,0.0871459537,0.4794998188,0.3916379653,-0.0125006932,0.3434996157,0.2795713195,0.1086238181,0.9063791483,0.5285276022,0.4901451657,0.9915857786,1.0651843972,0.4855576153,0.2047818483,0.6096523029,0.6230897079,0.1186817233,0.2177827934,0.1575872734,0.146961834,0.5470825355,0.3965250446,1.1547762125,0.4037327375,0.147185113,0.1894735214,0.0912097939,0.1070714004,0.2352883087,0.6339821885,0.183144741,0.401138468,0.3015048547,0.1733366496,0.4309165456,1.2532822073,0.7087627739,0.3471595954,1.1595231769,0.8779713273,0.0256684293,0.629950712,0.2270852456,0.8558075935,0.2006448951,0.3815097819,0.3335982735,0.6363551198,0.1621585136,0.2378365779,0.7920093085,0.6162868474,-0.0900466417,0.1357576985,0.0769440094,0.265724916,0.7884276824,0.6340154977,0.3711197952,-0.021626122,1.0051541,0.3684722002,-0.0804617728,0.4302102373,0.3625852071,0.1865453218,0.2032982003,0.3176796118,0.0311308613,0.4663985158,0.2140403231,0.6558032459,0.2342018454,0.4266962505,0.2075858435,0.1162621466,0.2935669476,0.6470950465,0.2324529791,0.2576031083,0.0747181552,0.1561523849,0.1335211652,0.5224695527,0.1011564765,0.290254766,1.3089011736,0.0968426789,0.2696582549,0.0375358555,0.5170728214,0.2039800955,0.1379544863,0.2133251227,0.3660291127,0.5513307233,0.6604686302,0.6195261099,-0.037687666,0.3898991987,0.5679910997,0.1296791449,0.4652529049,0.8160064882,0.0885718958,0.3418548978,-0.9336792977,0.3008782863,0.5679655202,1.1627537566,-1.2004410975,0.2510659139,0.1395098815,0.0998524407,0.1956478567,0.4185935811,0.4164498437,0.3354319799,0.1046331555,0.7590248719,0.7033991332,1.2144104599,0.6706839654,0.6463918041,0.8101039512,0.0353913915,0.2122864483,0.5307777119,0.5068076255,0.3902109305,0.548007124,0.3594066265,0.3910044118,0.3990359796,-0.1600255499,0.0966534291,0.2649491386,0.0905515956,1.0113473995,0.4719194895,0.6471661525,0.3776144733,1.1913336915,0.0994997737,0.2589856395,-0.0013622585,0.6584580114,0.3659868626,1.2337183161,0.6898495518,0.2150224064,0.2021110822,0.320506856,0.4299664123,0.6519139703,0.1160618301,0.5302220664,0.2458127121,0.4540830887,0.6139032613,0.3379656433,0.7942466823,0.283486611,0.508949645,0.4063409608,0.4629296214,-0.0249907355,0.0587614901,0.0648173562,0.2573288895,0.519741473,0.5344961908,0.3832889061,0.3210898184,0.4547794658,0.6805241019,0.849647065,0.389931311,0.537733544,1.1142251995,0.8686163715,0.0360483861,1.3354681708,0.4201751907,0.3181621071,0.4740402524,0.2193715961,0.541326245,0.2666450977,0.5591652242,0.2932627482,0.8571120197,0.6786304424,0.1224353753,0.6020310615,0.5756083878,0.8716903926,0.3686442711,0.5209689896,0.3063745112,0.4151162383,0.4239242277,0.1381426912,0.4898492063,0.524458446,0.3599256682,0.0023303089,0.620017588,0.60876952,0.3794384526,0.4721323186,0.4967996112,0.9386944161,0.0993732022,0.7154441887,0.5181578376,0.4998316437,0.6093233781,-0.1562748927,0.2044386274,0.8531587851,0.3441959169,0.6478602748,0.5417957232,0.4554709876,0.5045474474,0.4865629977,0.5513126303,0.6683397104,0.8914934018,0.1915852744,0.6162702821,0.1178993955,0.1643027575,0.1575751592,0.5148746479,0.1728256727,0.6861609071,0.529871624,0.6233432185,0.7697397014,0.6228443836,0.6606423726,0.4802340887,0.6152963836,0.6871111312,0.3759368773,0.1987637614,0.3451238872,0.0371432555,0.3624591462,0.0878588309,0.2879083124,0.5073582761,0.7341285114,0.7239347517,0.2704423656,0.3402324889,0.12025245,0.0649783543,0.6619215693,0.0454280306,0.4638666287,0.1865531946,0.6638425536,0.127494362,0.2007710128,0.2645497394,0.814682476,0.7439837935,0.2244107832,0.7904789382,0.2833869158,0.2623669759,0.6178997273,-0.4031924362,0.2216081004,0.2693757557,-0.5112829103,0.8908389694,0.2148789966,0.1578708661,0.4267221545,0.4253948109,0.1869020071,0.1390312378,0.780528202,0.2106309553,0.7362545018,0.3206264689,0.8393736574,0.3729802552,0.3156972393,0.7581860547,0.3793908746,0.0453737477,0.1124048109,0.5602573171,0.4286611605,0.1419281503,0.4388710994,0.2807628021,0.2428550078,0.6103157683,0.9975251291,0.3437930066,0.1833850426,0.4675256449,0.1762919921,0.2003396875,0.4635607329,0.3669618438,0.436020395,0.1607474841,0.4227762088,0.0790012258,0.2344787543,0.7657707471,0.1785544265,0.1970787464,0.8639775567,0.4957216058,0.4131955094,0.3120260341,0.4194160952,0.6127414729,0.7043077198,0.2783764575,0.1947489788,0.1310702659,0.0058987969,0.5712377845,1.059779747,0.1221615021,0.9492037614,0.3734343518,0.4473926504,0.1660224925,1.0241973293,0.3011814376,0.4478116993,0.4884141457,-0.9746279099,0.6547111458,0.2322850972,0.3483856447,0.3866203965,0.0818999247,0.332754329,0.2313185159,0.5583129638,0.3346910498,0.2373700769,0.3440565414,0.0370403305,0.2461840621,0.3780927822,0.4249569691,0.3374336889,-0.083374965,0.1196618848,0.2265563888,0.349457235,0.2601649687,0.500820374,0.2687126585,0.569289006,0.6437030568,0.7659386859,0.0689162292,0.3403879389,0.2074494143,0.3626109889,0.2557146111,0.3745567611,0.4184853008,0.423682773,-0.028750447,0.2688438552,0.521934184,0.1554250177,0.6330888421,0.6135200018,0.6546872979,0.7884353323,0.3595241897,0.1807732337,0.6728057827,0.7362940079,0.3132193633,0.6177895857,0.2213568712,0.7686181906,0.6461740983,0.118326391,0.3987193671,0.711066926,0.550641038,0.2840396437,0.693775006,0.5774667542,0.7155304189,0.5868042141,0.8433069881,0.2639085457,0.3999632029,-0.0064860517,0.0830499883,0.1115130676,0.3311916035,0.4778703749,0.6055509155,0.1664764503,0.2081771393,0.1718541284,0.1731752998,0.544633273,0.7244412493,0.1710452928,0.9366547963,0.8604964712,0.3912227639,0.625748168,0.2247780278,0.843578755,0.6505981163,0.0250065278,0.1274374253,0.167818163,0.024499171,0.7454137844,0.2220880382,0.6288399705,0.6885520932,0.6879566497,0.3954923195,0.5460626678,0.8312766728,0.0537388107,0.0738658974,0.7982579146,0.095024171,0.2621486634,0.0795871202,0.323986428,0.465346919,0.0107034722,0.4354788484,0.3958399592,0.6212317085,0.1836650017,0.2966084069,0.5406451646,0.1186751649,0.6294545306,0.5483255641,0.4254998777,-0.1068362929,0.5941169768,0.6717491956,0.2842437237,1.2131012809,0.6169699119,0.2993749692,0.6480457526,0.0462454772,0.529165337,0.6244976166,0.4575418614,0.6076624195,0.6930624163,0.3292023604,0.1193641948,0.7884433455,0.5232327129,0.3424332616,0.2069485357,0.1385089065,0.0636035475,0.3634265845,0.4717041116,0.1152437778,0.6122696091,0.6505675804,0.4655356344,-0.0866103445,0.4937637126,0.8014516394,0.3582791103,0.5917848857,0.2448314287,0.4293263537,0.2956453733,0.4275679308,0.7795850529,0.7046673213,-0.0153705763,0.5244165347,0.2228843643,0.1322474075,0.5212238669,0.5473974883,0.5340388055,0.4910826629,0.113623412,0.3489667604,0.1333498699,-0.3201001854,0.2308205161,1.3331099091,0.3553556025,0.4517138702,0.1379134976,0.0530260719,0.2849342857,0.5035962559,0.1675820559,0.0120776677,0.4441530447,0.6510764006,0.520777103,0.469920872,0.3105302065,0.3606722941,0.5468011929,0.3827831284,0.7315581371,0.2410724206,0.4577604885,0.7964953201,0.4849475686,0.5424501944,0.8745198194,-1.1199717441,0.3811128364,0.3578328724,0.6052364659,0.6898244695,0.4043657544,0.4297249895,0.4222887711,0.2356649183,0.5543000987,0.3841079995,1.0077077782,0.1856392414,0.5288905416,0.4967272623,0.7019428912,0.5693948051,0.3691377732,-0.0994149359,0.4342003917,0.5193329703,0.7003082104,0.0958010573,0.2752208645,-0.003516788,0.7217134616,0.5096861172,0.2355626589,1.1747829125,0.5004078905,0.5947872901,0.2781113664,0.9955078032,0.0665161264,0.5235977025,0.6369403258,0.2527720646,0.1573981233,0.3718060246,0.3470481989,0.61454968,1.0109590652,1.2706802883,0.2816104963,0.6451608862,0.4610690379,0.5000097471,0.0941845749,0.1519884191,0.0074186833,0.6357211669,0.2643592593,0.0914201588,0.2706448871,0.4907078822,0.0932306319,0.3274044405,0.3881737834,0.2314736506,0.4576166097,0.503269122,0.2865720987,0.4548277934,0.724823067,0.1086529715,0.8147702801,0.209052237,0.6969144754,0.381664032,0.183000539,0.4623117912,0.6574886192,0.108517682,0.3620427531,0.6556920556,0.4851153282,-0.0297468488,0.2203628732,0.5932844582,-0.0501531638,0.0735577396,0.7610866882,0.029599785,0.2423448457,0.3231578639,0.2132511378,0.6247997485,0.5774333695,0.0065724034,0.2030424666,0.4148631218,0.3030529677,0.4077178254,0.0669417315,0.5675601351,0.2517336264,0.1600386997,0.0413158322,0.3402749091,0.436004036,0.1707433484,0.4755398862,1.4175820859,0.0066752808,0.0559857111,0.3732890188,0.2933677477,0.541247507,-0.2486703478,0.6355066545,0.895760099,0.5211041129,0.6918787005,0.5441472246,0.4898172893,0.2412482737,0.7096945149,0.3433158347,0.2179377656,0.7001638399,0.2487527211,0.3053663154,0.3153635482,0.5711500827,0.7003259103,0.2751412979,0.4307313933,0.5528374227,0.5081090853,0.8724498497,0.6185692183,0.6734347002,0.5351200529,-0.0355509384,0.1987780185,0.6644772408,0.0324738044,0.3428116186,0.4242080387,0.2395307606,0.6245762906,-0.1229435069,0.5704246265,0.3741277382,0.7364808586,0.594376408,0.6552159574,0.3622986517,0.5162399853,0.1155487523,0.5413447043,0.678103821,0.6207372067,0.619613837,0.8147811684,0.8207717549,0.6401529218,1.2525834132,0.8311291543,0.7207460632,0.3055187227,0.6017113581,0.5862270923,0.2954672692,0.3450436061,-0.5233871262,0.1736045504,0.4867391563,0.1678048098,0.4309768997,0.6408121542,0.5009595593,0.7281706392,0.2707078443,0.6608557229,1.2159278636,0.568156114,0.5044206836,0.9751410373,0.2498632998,0.7630708501,0.0599291772,0.5123247954,0.117238901,0.470375244,0.538706925,0.957363429,0.6045129228,0.2552579167,0.3419721429,0.4954829615,0.0698977288,0.3738416151,0.6492598923,0.4570287602,0.1965258988,0.6994082367,0.8022643655,0.354362412,1.1874452226,0.2636306849,0.5740271666,0.6044507765,0.2042615371,0.515336563,0.6850427427,1.198878508,0.5574262431,0.1703935664,0.4875676697,0.2637202649,0.2889726076,0.4964650013,0.4357186005,0.529672319,0.3863163551,0.4043269579,0.6986668557,1.0258797902,0.0565274951,0.6657247069,0.3012055467,0.191943902,0.1074785206,0.6080047921,0.2887187415,0.3622717807,0.8685248849,0.885372928,0.5419337895,0.2662514758,1.0638867185,-0.2035047863,0.004190315,0.6438514967,0.1673341033,0.1320194445,0.6220226999,0.2327140894,0.4069494795,0.6135835846,0.6018419311,0.8571115073,0.4368865106,0.2282432519,0.6259821111,0.6772581203,0.3577749837,0.977936437,-0.420012243,0.5545312445,0.5078422133,0.6689832323,0.4948616241,0.6496360641,0.2147853837,0.0472916364,0.6928055171,0.9827574255,0.5368491752,0.3621232479,0.1427107332,0.1797060204,0.304835598,0.7875788718,0.2618287376,0.424024497,0.1711002019,0.3259218979,0.5184251203,0.2562048642,0.4682785329,0.7014467943,0.5819960461,0.4697375172,0.1400405527,0.0599528897,0.1128699366,0.5264464903,0.1731461618,0.4006071678,0.1976472695,1.6333171601,0.2573969476,0.325029513,0.2787998939,0.6767075018,0.4017217934,0.52646013,0.3885638963,0.4606552386,0.3202776672,0.1952347704,0.0945361565,0.3812846231,0.5936958517,0.5779320835,0.2874659016,0.5743504137,0.6651094917,0.5887849345,0.5909034591,0.5849554079,0.3648387879
   0.244194396,0.5112107737,1.2277755622,0.2358344351,0.126631358,0.8790968534,1.0877019622,0.3500471118,0.7049061447,0.2351774568,0.767005759,0.3819640122,0.3595345908,0.5221969821,0.0572791972,0.0363304801,0.6608127404,0.3924846002,0.4934123641,0.1870959461,0.5027001908,0.6305608042,0.1841574796,0.4541204818,0.6725337123,0.6219476908,0.6229996152,0.1932660263,0.5735249869,0.7108889698,0.6787923596,-0.0093380605,0.1280838878,0.5761660979,0.3909226686,0.0007602661,0.6520277704,0.5004743826,0.5579500232,0.5670215639,0.4763246953,0.6853962604,0.6972314853,0.0437727849,-0.015417654,0.636714044,0.5329623799,0.4922657835,0.6640950242,0.3050795296,0.3151167512,0.0101551359,1.0021004337,0.041845785,0.6332983156,0.3782856612,0.6703612706,0.2653836873,0.5208248642,0.1721377998,0.1811269907,0.6965509769,0.1498625742,0.6959959076,0.6784315307,0.2581165475,0.5712974029,0.6391105819,0.2909601881,0.3819899939,0.2420866809,0.2798644981,0.5238621535,0.2725745348,0.5970275712,0.2872332891,0.1781440132,0.4209994311,0.3167987929,0.2645941984,0.710982021,0.5970548512,0.4408479396,0.6748213361,0.7085768308,0.0913016191,-0.2687674394,0.4079136373,-0.0867459426,0.6555886876,0.1316333648,0.2845243987,0.6110829933,0.7756675021,0.4662131701,0.6221010611,0.019397486,0.1917519811,0.5966396678,0.1838461904,0.5523988155,0.2936262355,1.025046361,0.0228608021,0.3739258628,0.8664560085,0.5985263045,0.3163218065,0.3178712041,0.2046012598,0.6788051795,0.7148802521,0.7015167461,0.1267613091,1.842736114,0.3098018969,0.6516202218,0.3468160085,0.3007713876,0.6048731294,0.2353001781,0.4805626817,-0.5079674106,0.6489698346,0.1658349921,0.401478225,-0.086524812,0.3027301948,0.0456774934,0.3482208091,0.3623749415,0.3167538057,0.5687735323,0.5815903327,0.3838224431,-0.0215851299,0.5016912836,0.4647966018,0.6834313077,0.8242087579,0.3157600474,0.4735120381,0.683339124,0.0576578559,0.8101422223,0.1384600133,0.3722160803,-0.0588295541,0.0296076957,0.1759415464,0.2719977682,0.2607103207,0.0735167033,-0.0334124995,0.5821302577,0.0586865615,0.1506685867,0.386075148,-0.0499039985,0.4240033281,0.0447585249,0.5382604438,0.2808981653,0.0889904876,0.2430469146,-0.0011375314,0.458893858,0.4589652106,0.1804331597,0.5104324588,0.4177688072,0.0947212292,0.0635477769,0.5928225114,0.5649370875,0.7678742708,0.0747477032,0.4983872801,0.3484692351,0.6915675032,0.5092479087,0.6978127852,0.648784971,0.0319014944,-0.3169404303,0.4276799323,0.2683384301,0.4149400649,0.6011317785,0.1107915939,0.6036767536,0.4473311251,-0.0453921353,1.0178692764,0.5780581744,-0.0862776567,0.4563667576,0.3818208346,0.521719581,0.5981813788,0.7328130831,0.2475941241,0.5336482171,0.1605361389,0.6299952473,0.2960506763,0.3957519522,0.7161518394,0.3274168297,-0.014507093,0.7383630385,0.0291802657,-0.1603201315,-0.0295181599,0.6202254723,0.0807758086,0.4151032399,-0.1445203055,0.3464700844,-0.5695155751,0.4382294876,0.4028360404,0.6499202202,0.1030004511,0.5912497436,0.6945514919,0.1480788335,-0.3420510044,0.2320629361,0.6268844194,0.4771222411,0.338915233,0.5029674546,0.1165228952,0.5183807448,0.3607282606,0.2819883848,0.3963329277,1.0817773427,0.5291411818,0.4299646737,0.2159529101,0.5782241735,0.0082836886,0.6515069984,0.5544246523,0.1596026405,0.6107674214,0.6650463225,0.0460716395,0.5835721921,0.1737348924,0.737284617,0.1229963497,0.3787392118,0.4666919534,0.6527036422,0.7097435313,0.4905329502,0.9729622672,0.2663385066,0.1094443397,0.6653714813,0.1481042392,0.6667081004,0.6637360183,0.5716233623,0.6358859963,0.4350614702,0.5999654111,1.1877200474,0.251705716,0.5475369133,0.7630679997,0.6776435387,0.1605264606,0.5849779893,0.3357063132,0.3067778358,0.6192404404,0.4450464389,0.7819901064,0.4503459624,0.418386418,0.2261109691,0.4103663329,0.4236216548,-0.6445824336,0.3017869759,0.2765348932,0.5701859697,0.9653542905,0.389209902,0.5135243098,1.2586402324,0.5532564592,0.5129840547,0.9239736201,0.3423250821,0.8222764,0.4187511848,0.2477378415,0.6721133838,0.5337613996,0.4460434939,0.3241694058,0.5493760854,0.2126963823,0.5463673116,0.8029731227,0.1662979916,0.1890201154,0.1026624266,-0.0776598561,0.4360407779,0.2079605756,0.6220154973,0.2802388334,0.6276624899,0.5615557043,0.6638710319,0.490292898,0.5533290412,0.7766410456,0.0459431358,0.9423286974,0.877368012,0.3032810291,0.0713167162,0.1699702094,0.3360074667,0.1651143748,0.6880855265,0.5967163585,0.3812353378,0.1888453217,0.9428515122,0.5427276146,0.4502031883,0.7931059097,0.6507120184,0.3432506158,0.4946040789,0.9232426601,0.5125867809,0.0155147318,0.3988114013,0.439193533,0.8093607529,0.0437379229,0.6060537085,0.2427519117,0.6661379933,1.0682672789,0.5016364046,0.1119464228,0.391314851,0.6479704342,0.656238964,0.04810032,0.5215297256,0.6616758968,-0.0181207623,0.4049930821,0.1486122119,0.1511625952,0.515086164,0.7151200624,-0.6612852053
##end
biasActivation=0,1,1,1
[BASIC:ACTIVATION]
"org.encog.engine.network.activation.ActivationTANH"
"org.encog.engine.network.activation.ActivationTANH"
"org.encog.engine.network.activation.ActivationTANH"
"org.encog.engine.network.activation.ActivationLinear"
