encog,BasicNetwork,java,3.2.0,1,1399181610054
[BASIC]
[BASIC:PARAMS]
[BASIC:NETWORK]
beginTraining=0
connectionLimit=0
contextTargetOffset=0,0,0,0
contextTargetSize=0,0,0,0
endTraining=3
hasContext=f
inputCount=140
layerCounts=1,8,141,141
layerFeedCounts=1,7,140,140
layerContextCount=0,0,0,0
layerIndex=0,1,9,150
output=0,0,0,0,0,0,0,0,1,0,0,0,0,0,0,0,0,0,0,0,0,0,0,0,0,0,0,0,0,0,0,0,0,0,0,0,0,0,0,0,0,0,0,0,0,0,0,0,0,0,0,0,0,0,0,0,0,0,0,0,0,0,0,0,0,0,0,0,0,0,0,0,0,0,0,0,0,0,0,0,0,0,0,0,0,0,0,0,0,0,0,0,0,0,0,0,0,0,0,0,0,0,0,0,0,0,0,0,0,0,0,0,0,0,0,0,0,0,0,0,0,0,0,0,0,0,0,0,0,0,0,0,0,0,0,0,0,0,0,0,0,0,0,0,0,0,0,0,0,1,0,0,0,0,0,0,0,0,0,0,0,0,0,0,0,0,0,0,0,0,0,0,0,0,0,0,0,0,0,0,0,0,0,0,0,0,0,0,0,0,0,0,0,0,0,0,0,0,0,0,0,0,0,0,0,0,0,0,0,0,0,0,0,0,0,0,0,0,0,0,0,0,0,0,0,0,0,0,0,0,0,0,0,0,0,0,0,0,0,0,0,0,0,0,0,0,0,0,0,0,0,0,0,0,0,0,0,0,0,0,0,0,0,0,0,0,0,0,0,0,0,0,0,0,0,0,0,0,0,0,0,0,0,0,0,0,0,0,0,0,1
outputCount=1
weightIndex=0,8,995,20735
weights=##0
##double#20735
   0.5347273962,0.4273144794,0.3810403979,0.0447441483,0.6367212909,0.2467317903,0.6786946806,-0.0682839665,0.3970278775,0.3702465715,0.0141869825,0.4236014621,0.0232899133,0.0720580692,0.4123024599,0.5955359636,0.4818437191,0.1213220501,0.5364598645,0.3243909591,0.1815591168,0.6963859674,0.1589495661,0.1636127231,0.3768960634,0.7036099236,0.3783808794,0.1755324701,0.0645978059,0.1566712012,0.0743916464,0.6895800717,0.5766054697,0.6790909654,0.5004494088,0.3732517874,0.58164735,0.6737280767,0.3911319482,0.5065174657,0.5876214362,0.1473213915,0.1329135771,0.5728306708,0.6197971327,0.5559013637,0.5370480427,0.291722744,0.3975349734,0.3315023414,0.2252029957,0.5494979555,0.0926074395,0.1154556443,0.2916943777,0.5429168551,0.6013271678,0.5707819525,0.1249488911,0.2518307568,0.294803042,0.0572732257,0.6504805528,0.6106396536,0.3010793304,0.6402408407,0.1326318878,0.2704028181,0.0574906874,0.350035638,0.0963506807,0.5982986023,0.5894898554,0.1721191461,0.0418276613,0.5728789457,0.5717521245,0.6695391511,0.6107731316,0.520806643,0.311267437,0.6154445281,0.2778121272,0.5027864348,0.6948252444,0.1322559593,0.3140329294,0.5175621898,0.0756169085,0.4429233252,0.3581802767,0.3774535924,0.220408663,0.6028800806,0.1978894717,0.4145936689,0.1491910257,0.0441151637,0.2235437769,0.2294726502,0.38017567,0.2921087,0.0660978449,0.6571279833,0.0400534284,0.2706770135,0.2266576758,0.6408608225,0.2483998478,0.0282336623,0.143995818,0.4231138898,0.6626721046,0.0708360995,0.0045605148,0.1495806491,0.6753986787,0.0463255505,0.1528954229,0.2624409803,0.2142475284,0.2472958603,0.1847489858,0.2108719303,0.5806468076,0.0963188714,0.5988227548,0.4587015408,0.6228383038,0.6758986097,0.4068953493,0.4813977273,0.425353922,0.2332114675,0.555636155,0.6837423519,0.4369426599,0.5035401061,0.095420102,0.0223408862,0.1796498146,0.5398385173,0.5959524516,0.3045246525,0.5992644481,0.3743182867,0.0781115917,0.320706467,0.1399884901,0.3395228451,0.5362279518,0.2988556887,0.039018394,0.2319678882,0.4842440996,0.5271560877,0.2517289173,0.4725428444,0.2945249624,0.1062316449,0.072629601,0.6200320709,0.4702598651,0.3290604943,0.1586980393,0.3212514459,0.2703866235,0.6624185505,0.5804606526,0.6729236212,0.5299473396,0.5021973328,0.2471565751,0.6106608865,0.6728824551,0.2009353252,0.2063453379,0.3644281772,0.5157255257,0.5893373637,0.2282035262,0.4752379408,0.1101334626,0.1033436775,0.2278030002,0.5617011147,0.1612450587,0.429386733,0.4952331428,0.173623317,0.3192526257,0.6384332149,0.5654970148,0.2886391278,0.5553971391,0.371644932,0.3149678114,0.4263110429,0.6697690392,0.6781179215,0.0012673009,0.0073241959,0.2266875641,0.15577011,0.4724443293,0.17573526,0.3213323521,0.0397652804,0.0751613236,0.0293574203,0.2585101347,0.1644797578,0.7017352843,0.4240413676,0.5412342264,0.4429386016,0.2427803764,0.3814892487,0.3826185189,0.4158948293,0.1565739569,0.6873431144,0.5745305986,0.5361853248,0.4436064938,0.1098321267,0.1164317624,0.6476566242,0.1251332531,0.3354259097,0.5113269683,0.5012823769,0.4361202936,0.5725683003,0.0227263153,0.0538130596,0.5628861906,0.2281666572,0.6401242231,0.6887102437,0.3387168369,0.4133753913,0.4771086193,0.3815026322,0.649659418,0.2373896388,0.4397241665,0.2095014197,0.6046983386,0.6065335099,0.4746948431,0.6563688502,0.2682883394,0.4868846019,0.5396427497,0.1664625056,0.5468695465,0.5228600251,0.6044679805,0.3749871829,0.1895295344,0.1248127819,0.5094668302,0.0598775035,0.3830907621,0.2133475043,0.3012826468,0.4979333355,0.3449301671,0.3965309011,0.4207861844,0.2133629403,0.5948333239,0.151714348,0.2470642361,0.2721417258,0.0055884673,0.5085777414,0.1068326046,0.5294755083,0.3760037152,0.5014900312,0.3860712769,0.1552086716,0.3132015978,0.5047269035,0.1595719124,0.2580722873,0.675739569,0.4319892473,0.5218815654,0.7076179248,0.5598787903,0.7095466306,0.3638741876,0.0888850514,0.4811904519,0.5779504486,0.7040470218,0.2726699561,0.3747744637,0.2487115492,0.6732044103,0.249447583,0.0066575932,0.7004737069,0.2094067976,0.1197254363,0.2787156506,0.1719510073,0.0715601443,0.5335214021,0.4998017648,0.1155466519,0.4886745466,0.3511137511,0.3434223688,0.5566251913,0.2005918206,0.5548423264,0.4902424726,0.4717523549,0.5912259616,0.5717981384,0.4183562581,0.3119022183,0.2241641252,0.1180546976,0.5498785327,0.4146969636,0.0209686233,0.3338067177,0.5970998585,0.0633887798,0.1013574578,0.4859467544,0.4198096025,0.3872140173,0.0205110881,0.2232676249,0.0628208421,0.1579463539,0.5146613791,0.4015757317,0.2182901841,0.0557590277,0.1366778976,0.376550978,0.4375970835,0.2018242208,0.6539159698,0.0658516699,0.5864566417,0.5432298577,0.5840179861,0.4874449673,0.0634983199,0.3345124681,0.2025887653,0.1860927211,0.3550051503,0.4025812267,0.5162769233,0.5761596696,0.6008462892,0.3593826231,0.6936645174,0.4236523805,0.4296122537,0.7055575082,0.2381896106,0.5488073499,0.6598906968,0.1276078101,0.1602794798,0.3265745875,0.056819821,0.0182412123,0.6616524208,0.3024441281,0.3356138176,0.4905187544,0.0265932402,0.3323013964,0.2014548325,0.6710197865,0.585757668,0.1788154209,0.2343699464,0.0542163293,0.0641939033,0.602907626,0.5522044057,0.3515920926,0.3653954435,0.3278013095,0.0524388991,0.1828506957,0.004630977,0.601368564,0.2727328599,0.0108832631,0.1264497914,0.558197974,0.5244283463,0.3531341093,0.3136125542,0.3654238445,0.016822362,0.3359955214,0.0275978485,0.3015277863,0.6703504574,0.2103834343,0.4882328245,0.3542648733,0.0642779165,0.3900253539,0.3090051519,0.6214125255,0.1925864857,0.0109258477,0.514020171,0.4697100451,0.2587492101,0.1294701556,0.4652545073,0.4413291074,0.0162608629,0.5405175796,-0.6671711155,0.4505764626,0.5080966125,0.1698264925,0.6062829026,0.6349405461,0.5321747663,0.2268879475,0.558459516,0.4674187235,0.0755798625,0.1552043358,0.4397775426,0.6989481261,0.118087335,0.1183244631,0.4188238469,0.2124571128,0.4557754618,0.1044204785,0.0035018447,0.5879611162,0.2405698464,0.6053602846,0.4029686164,0.6353470495,0.4812354674,0.0561167245,0.0652936139,0.5940011525,0.1937906716,0.2025813421,0.0995214853,0.5863334148,0.1654519285,0.6108725078,0.2859275665,0.1384792395,0.1989122683,0.496842249,0.3105953351,0.680112799,0.1536461248,0.0477561943,0.5154581705,0.0709206773,0.5341415421,0.2517056218,0.6201564575,0.608668617,0.1556933607,0.1955507212,0.1241460971,0.4698076677,0.1584689906,0.1644320744,0.4992929651,0.4419083417,0.6227406908,0.0558571098,0.3836855873,0.3143083945,0.5989738324,0.2006391432,0.535256065,0.3070389658,0.0399675161,0.3601723424,0.1861524419,0.6045283706,0.4648945999,0.0010957977,0.5485954916,0.1130414371,0.2597174912,0.5424363544,0.4084534264,0.618812239,0.199393449,0.2562138121,0.0577301158,0.4542561914,0.5357930166,0.3072837751,0.4666205647,0.5973898504,0.6577198886,0.282056915,0.3395664638,0.3261618073,0.1360144947,0.4067483661,0.5932376659,0.1859963754,0.5718538325,0.6952900058,0.4142523865,0.2402327397,0.4858990921,0.2548077257,0.1254184009,0.6052792252,0.2685491828,0.3876106116,0.0437300076,0.3376794161,0.1031555083,0.1237692542,0.0131422803,0.2345199577,0.0206172477,0.6009712754,0.2976810585,0.3144629175,0.6030527496,0.2284041024,0.1902666153,0.447952731,0.0434723847,0.6904511557,0.2256804527,0.3396534829,0.3541183444,0.5379439499,0.3729194009,0.3903464571,0.0990450082,0.1505792687,0.4183795938,0.1972592971,0.0975027217,0.3649231266,0.2510725608,0.0144233375,0.3956034733,0.3644364551,0.2848766822,0.4472782272,0.3035539276,0.5062851399,0.1851266576,0.5883683491,0.6808935867,0.4221098997,0.18399426,0.3518076908,0.0280908392,0.2426596213,0.1478004609,0.1601068777,0.2818336659,0.6970557394,0.5601024229,0.2658518725,0.1103374015,0.1339000281,0.5074474611,0.1357036724,0.6018573047,0.3642724403,0.3487394275,0.0445722529,0.2457776347,0.4324970268,0.6185991578,0.1908403229,0.4076858838,0.064549435,0.6437188848,0.1019249272,0.2287676476,0.0196788771,0.5903509099,0.5311601389,0.6772690828,0.5123771811,0.6303296559,0.5763166129,0.2216455038,0.2366626424,0.4238962973,0.096443434,0.4682065472,0.0891121112,0.6487858705,0.6245390871,0.0531114768,0.4160314562,0.1153323343,0.1036441532,0.2234905181,0.3188185184,0.457229602,0.0426903067,0.5652909106,0.4875625563,0.2385223849,0.0809501785,0.0071610659,0.6195576252,0.1055700926,0.6216580662,0.2691759649,0.6575703314,0.5708606738,0.2145096997,0.214245022,0.1000142592,0.3619304176,0.563406093,0.6199218343,0.4048352915,0.1806113063,0.5835984917,0.4102417146,0.2156874891,0.5207195483,0.3046639681,0.040440619,0.6332344148,0.4425518075,0.1040093659,0.6504376504,0.1469276045,0.1163667962,0.6528051214,0.2968316079,0.2222826323,0.5595433927,0.3062872959,0.5794143349,0.3618686312,0.5972427258,0.5786530122,0.0306102202,0.3979668977,0.188011071,0.0883505381,0.306133122,0.1932606469,0.3525503554,0.0590130491,0.1159705518,0.0024117203,0.5194498125,0.410171883,0.1294546265,0.2785671414,0.0857361291,0.0530244942,0.260727381,0.4082385317,0.3161040316,0.4563771835,0.6251854088,0.3060153569,0.2155462063,0.3914462233,0.51731159,0.6718667813,0.6115569691,0.3305489585,0.5244083903,0.4316738416,0.5552016436,0.0844264596,0.2537183559,0.6069226805,0.0235293592,0.6795605078,0.6372656276,0.0043335511,0.6310583899,0.4719717852,0.0881110499,0.5346747022,0.4229022537,0.470677754,0.2500891019,0.1887732841,0.5991625948,0.4620195772,0.0078914264,0.1320158356,0.2925796632,0.7097924451,0.2833264721,0.2202994827,0.0563708466,0.2507724898,0.1589384045,0.3945575812,0.133889867,0.0628781074,0.7028539929,0.6242171724,0.0279267108,0.2859079545,0.6519938156,0.1334947133,0.4482294315,0.4610957362,0.4388447731,0.6488313163,0.1046823995,0.1556629417,0.507828903,0.6060717055,0.6812054929,0.4889696352,0.4360379088,0.0515461197,0.6255403192,0.134850325,0.4162363049,0.1160440542,0.5960061336,0.6693392498,0.6995385011,0.6493328658,0.1038097963,0.4885407885,0.0136099579,0.3466362019,0.0417985337,0.2190005786,0.1226653164,0.3830957619,0.2773448578,0.199770854,0.0566463162,0.2291108816,0.3583781961,0.5162749913,0.2530390372,0.5050164858,0.1086897367,0.5140741193,0.4839078523,0.1741477074,0.1887805036,0.1778998846,0.1346052039,0.5385714769,0.6973641433,0.4163479777,0.0464010615,0.6318168844,0.6527362238,0.1805677133,0.0620253837,0.5556063589,0.6560212427,0.4347139092,0.5265810427,0.4173075509,0.2312263046,0.020621732,0.3204343846,0.6808072993,0.0087241652,0.1123900098,0.287909438,0.4170199489,0.3482962446,0.1531462457,0.3255413896,0.6877130302,0.3257449068,0.2187525905,0.4036059296,0.0123449083,0.2258915335,0.5764282934,0.2075157656,0.5984682016,0.3434986132,0.3640865055,0.6538463486,0.7082085868,0.2233809355,0.5109650402,0.6713698262,0.5377781406,0.6916246438,0.6049102414,0.4773768467,0.3998197087,0.4001999742,0.0408548182,0.692987782,0.3983670156,0.2955869723,0.1886663969,0.2666328121,0.2175707616,0.3820280243,0.5040748779,0.5951718561,0.0526905981,0.561096437,0.2501695773,0.7022936165,0.64045438,0.4001849168,0.5955979199,0.4805887366,0.3133069694,0.2636258721,0.4145142841,0.1300456707,0.6552753754,0.0023942741,0.2304961431,0.5012909048,0.0531752214,0.4434097504,0.0227205762,0.0969406875,0.4302351697,0.3378780779,0.2585163537,0.3945698456,0.0935546303,0.454705268,0.677896089,0.2404883407,0.3411433658,0.4816513234,0.4950089193,0.151132016,0.31566302,0.5658206073,0.5989642946,0.1007438727,0.0129221429,0.44405715,0.1301374594,0.3100506069,0.3835913029,0.421358201,0.5481553685,0.0503908868,0.5067213181,0.2657149891,0.4969607994,0.5523954983,0.4961240338,0.6005076523,0.107651442,0.1034462263,0.1840565763,0.3910487376,0.4192633586,0.4114754409,0.2987934677,0.4867226383,0.1676962887,0.50924611,0.5095421494,0.1734411435,0.0901686047,0.4166961997,0.7017738972,0.0375146925,0.6936245871,0.4080489647,0.6119718668,0.060079799,0.5083231839,0.036095157,0.3710929024,0.4441921155,0.0518550313,0.2294077842,0.0594085437,0.4056551071,0.5816355767,0.3168219141,0.645958322,0.26841617,0.2229482056,0.20576153,0.379694263,0.6884818097,0.5741798506,0.135752105,0.2749709744,0.1452382584,0.4035578069,0.3274994974,0.294028128,0.2408753613,0.1651976712,0.7025798812,0.580303795,0.2180344052,0.0056170353,0.1452267471,0.3928347443,0.3634688287,0.1507077939,0.4845002437,0.6681237296,0.2009121311,0.297664667,0.5513959127,0.5099117338,0.062832866,0.6703398384,0.518307711,0.1002484572,0.0750569756,0.4988422538,0.6235524888,0.2005981843,0.542730375,0.3762178961,0.504528936,0.3569725142,0.3127326432,0.6388849549,0.5338271591,0.1308007415,0.3963049637,0.4283718177,0.3259345942,0.1474344377,0.7000983979,0.2515613359,0.4128337309,0.2317710854,0.5334208972,0.3434633972,0.5163015005,0.3854726132,0.5564436281,0.6012011713,0.1393278416,0.5901422982,0.4355549489,0.5831662605,0.3513270262,0.0462903132,0.4856997091,0.5744626852,0.2358482063,0.5732192015,0.1587741545,0.6834803547,0.2188200944,0.4963716385,0.2951579707,0.6800544081,0.67902451,0.3845365452,0.6790609736,0.3584463071,0.1969949189,0.5766648667,0.6701270335,0.674879327,0.2890652033,0.1947812511,0.6704951623,0.0510956865,0.401021358,0.4371234831,0.0934172696,0.2359419373,0.4616175255,0.4293710472,0.1197786857,0.5668482314,0.149453267,0.1714079105,0.6227538863,0.2505513817,0.2635402589,0.5688880944,0.0318334407,0.0849805011,0.6334741281,0.4566965335,0.3415101288,0.6495022925,0.228159064,0.4145634694,0.5626142856,0.6089529998,0.2939928201,0.479329232,0.000865746,0.1278579077,0.5848353827,0.4556746568,0.5443763333,0.5064687554,0.5126068205,0.101072044,0.0658039324,0.4929215661,0.5849095666,0.6480242161,0.0910282351,0.5414503733,0.6411544882,0.6465183992,0.5570223607,0.1422629822,0.7243474247,0.0206937079,0.438648933,0.1629276835,0.3762827702,0.3953149261,0.6584893911,0.393009122,0.4271651187,0.5519471092,0.5731549709,0.6414625457,0.258867613,0.6900104997,0.1556220948,0.0101510387,0.1888509241,0.1342991086,0.0522330939,0.6435978898,0.6863560605,0.3186935393,0.5994529525,0.5976195553,0.681851505,0.2384214631,0.2063531734,0.4723827592,0.0073850985,0.246986838,0.6476925515,0.012754716,0.2082716357,0.4057875872,0.4358604619,0.2018857406,0.4259645766,0.3468868769,0.5190671668,0.456244039,0.0428673344,0.4662567681,0.2802734872,0.319679238,0.1675214348,0.4074990159,0.2223209641,0.0589355502,0.5601702527,0.3766600489,0.7136142872,0.6198740919,0.5757019515,0.490420838,0.3324915606,0.0562217474,0.2268463688,0.0852779754,0.4763328764,0.5220660798,0.4284593066,0.2247092927,0.4905154406,0.3597224686,0.294736884,0.5580889106,0.1141137078,0.5470959157,0.7037022658,0.4434026388,0.4104500648,0.0262492941,0.0825796177,0.0324592445,0.4697576875,0.5109147656,0.4222506941,0.5927627373,0.3832430992,0.4514359042,0.547422918,0.0494191399,0.6843580865,0.3312274578,0.6346036282,0.0296797814,0.6227142911,0.5949124408,0.6711554964,0.4646314867,0.220125828,0.0959295209,0.4424380584,0.6267273214,0.4310025334,0.1220466716,0.3748420274,0.5272205283,0.1715645441,0.5745388284,0.3084705569,0.3089984002,0.5174657834,0.2668147559,0.6500587063,0.0921318452,0.0381324016,0.4590631958,0.5339218121,0.6850163257,0.3839180945,0.5630058798,0.4795039345,0.2890285022,0.0906548098,0.5798727722,0.3676986421,0.6296893807,0.2739618598,0.2800736326,0.4525388518,0.2514180761,0.0660040234,0.1432023976,0.4920973408,0.069326994,0.687023425,0.6277453005,0.6829670328,0.4688318887,0.3339879417,0.6744732786,0.2087285828,0.6922506077,0.6156319391,0.7047692337,0.3966849668,0.3013830998,0.2592859628,0.176036232,0.4086865401,0.6419121612,0.1966646482,0.1122131339,0.2117774633,0.5820996534,0.2649489156,0.0724456837,0.387489618,0.0097558895,0.595879869,0.1473124351,0.3382752631,0.6592322804,0.5074274657,0.5629468603,0.676540044,0.0443218785,0.6526906242,0.3175287188,0.4336204539,0.4413590147,0.1316226969,0.0653654934,0.314204145,0.2037116296,0.1455121659,0.1484559293,0.5048273668,0.0606586921,0.5305904911,0.1138880769,0.3656857719,0.2604208959,0.1402683703,0.48721128,0.2541658481,0.1031059899,0.2625307222,0.5760702847,0.3019215794,0.3458434335,0.492872408,0.1345340411,0.2476764504,0.4595810593,0.6404059974,0.6919759028,0.1343940611,0.7048300101,0.5589800617,0.4985404803,0.4904709306,0.3840716634,0.5824529285,0.5903015021,0.3547124582,0.2113766934,0.6438080154,0.6880930507,0.1507022877,0.3509841272,0.1015052944,0.2930780857,0.6108914308,0.1292982012,0.4557978255,0.4522035064,0.1799280415,0.6836714842,0.0857604321,0.6533227153,0.4089938701,0.2039944027,0.4361365674,0.2723480906,0.6067851713,0.0842184463,0.7078957611,0.6992080537,0.234044898,0.458085468,0.4150413104,0.4234010539,0.4154704757,0.2764079934,0.2555812344,0.5425944198,0.2151129342,0.4904953372,0.3790941576,0.2750304726,0.1251636754,0.6754486554,0.7086169534,0.337170341,0.3862889019,0.5873906736,0.3385582147,0.0118377915,0.1163233216,0.5362039302,0.4638323364,0.4557240411,0.6720617142,0.4328769769,0.0906391115,0.6054637512,0.2586134815,0.1075721615,0.4745862861,0.2607117371,0.6936612877,0.0904340702,0.5810939241,0.2286202143,0.0501618485,0.4785964478,0.2176828363,0.2750704698,0.4515532892,0.1307163837,0.0460828741,0.7104324439,0.1094356316,0.5328732275,0.690173421,0.4139699755,0.336026235,0.1380794567,0.0519304683,0.105992562,0.2411139296,0.4863561686,0.6383779942,0.1721753325,0.6015745008,0.0855275901,0.4742773671,0.5702224373,0.3558639317,0.6356067666,0.6835728774,0.3166347303,0.2334047827,0.5472713033,0.3471628596,0.720026486,0.5531237409,0.0781167948,0.4589534589,0.0139982733,0.0884030833,0.0748191497,0.6645317333,0.5871088956,0.4830288189,0.3476163933,0.1591472978,0.1824985348,0.3652505332,0.5713565241,0.3218997051,0.310401433,0.4603551393,0.2346823714,0.6812534983,0.108979024,0.0432509267,0.499024765,0.4971317049,0.0037169621,0.458294245,0.1508250331,0.3434194253,0.6585243123,0.3095245301,0.1691181723,0.3188484733,0.4388860613,0.5426573595,0.4934945399,0.1260919568,0.0297539201,0.3976705185,0.0375364563,0.2091399229,0.0150256083,0.6871972428,0.4052192178,0.5563907332,0.0967050767,0.5476676982,0.6647968593,0.4625722534,0.3443125675,0.26747265,0.6007773582,0.3678668451,0.2259982278,0.1475415149,0.1285073868,0.2083506298,0.3341980664,0.6125648661,0.3397520287,0.7228538554,0.5985325527,0.3279460301,0.0856284641,0.6334872312,0.1608036547,0.3974040867,0.5575894381,0.1120185929,0.2636239377,0.15791282,0.6817111271,0.5728241723,0.4520554416,0.6702799991,0.6944869775,0.0341811152,0.7150162136,0.4263872225,0.2179104832,0.3087272575,0.3091364892,0.2339262391,0.1475075383,0.4072409878,0.5792528485,0.1694817391,0.4397221854,0.5985758345,0.1515725634,0.7127761359,-0.3909775118,0.0998079635,0.5450584451,0.2906416775,0.3639403968,0.0827491553,0.3244162308,0.2119056559,0.483964661,0.025685126,0.1358956168,0.5213771816,0.1745442419,0.2082929594,0.3651201993,0.3388821379,0.205708757,0.6234452627,0.0157252381,0.08143476,0.6420345436,0.1542073026,0.3832318259,0.0554135503,0.6883228206,0.2276170918,0.4945040651,0.2510281796,0.3804673076,0.6830568576,0.3861317993,0.0422927785,0.6275025287,0.2941358944,0.1339301243,0.7226909945,0.6892123753,0.4925689001,0.0916729048,0.1088999568,0.213347773,0.4192183335,0.7106830742,0.6354859886,0.3520736529,0.0035983719,0.4995627791,0.6406417966,0.0359117494,0.3541325431,0.3206114451,0.1474558536,0.6554665847,0.1464469609,0.6979784214,0.4051084905,0.6483150056,0.2942417242,0.0975747125,0.0337852838,0.4602661303,0.5672486882,0.2416246826,0.6226030945,0.1162685094,0.3289297537,0.1666217233,0.6051797516,0.5012966696,0.4071222898,0.2151496022,0.0077547072,0.1168274453,0.1203048762,0.5156955608,0.6971040079,0.012249678,0.6371817028,0.6280132722,0.4773878835,0.1490577487,0.0598643308,0.1717082931,0.5624083204,0.1365291753,0.5874381068,0.6699882592,0.6172902421,0.208954875,0.257544778,0.5756579758,0.35361731,0.4849834154,0.342800125,0.5611124221,0.5913730811,0.555665288,0.4252150577,0.3788608452,0.5654327075,0.0378499477,0.5564815305,0.2854553013,0.2993380459,0.4300385906,0.2722084358,0.2450866391,0.1120467693,0.7168388721,0.1142065851,0.1062896705,0.3259302936,0.6684237919,0.2117785675,0.167198612,0.2226913209,0.5321746205,0.2405343156,0.6900523072,0.1780069791,0.1077716553,0.1832026226,0.2690167316,0.0405015269,0.3733265186,0.6151282767,0.1226162252,0.0893287076,0.5144741657,0.3767377989,0.2911212408,0.4473380072,0.1084321871,0.0786149275,0.5108224802,0.5267280351,0.1434853539,0.5784303571,0.3920961386,0.1867729894,0.4470745188,-0.2762195659,0.0608848222,0.2389419018,0.4496722879,0.1091099941,0.2768036526,0.4453091328,0.3718308753,0.6197381857,0.3676272081,0.3970268864,0.6193196333,0.5131895781,0.3709132718,0.1511631753,0.4294846811,0.3116826548,0.092696323,0.0769309028,0.4554143377,0.2814872912,0.2404028628,0.6887062959,0.5995940931,0.1741684073,0.0522376369,0.4226579118,0.4250483298,0.0795542889,0.5132783914,0.4750193375,0.4932845382,0.6230768635,0.6816945884,0.2025760883,0.186105329,0.1516556101,0.23905733,0.634678234,0.3894776979,0.3081836545,0.5823568257,0.4598808914,0.7174323208,0.0326684615,0.6567338676,0.4063539662,0.3467566235,0.4726923327,0.6846743818,0.6071886258,0.1298451745,0.004207469,0.4178508855,0.254169829,0.6115507438,0.6910399467,0.615905286,0.4030993027,0.2471350462,0.2868266387,0.1243167483,0.3817687339,0.198266094,0.1962048808,0.1463322919,0.6753718568,0.6191600857,0.6677801609,0.1398679535,0.6570669514,0.1252167753,0.3351476305,0.6408348634,0.1875379488,0.3193617064,0.5445136328,0.4704470506,0.1603145032,0.5679139197,0.2465563259,0.1735915749,0.0049085433,0.5046526328,0.2704944559,0.0876620684,0.5505646692,0.2264416022,0.5159885663,0.0749070584,0.066684382,0.1717618292,0.5203802936,0.5022748973,0.2233564179,0.5837410808,0.0136613387,0.2520756003,0.4078483643,0.2050421761,0.1985595469,0.4472175955,0.4957245075,0.5093248159,0.3074058375,0.6907009819,0.0767697359,0.5357565897,0.1227300235,0.6174985333,0.2766737006,0.2011045408,0.3180160279,0.6187991764,0.0284279242,0.069227346,0.3164342269,0.6130258687,0.0966573215,0.2824294379,0.3229791589,0.0499877161,0.5011626685,0.5157273908,0.680240319,0.1427904911,0.2934153034,0.1814548456,0.5138400306,0.6267095107,0.2445824384,0.2141409163,0.4895567638,0.0517007713,0.0872975107,0.1012488336,0.5230719502,0.6902772058,0.0715039197,0.4761808475,0.3249992975,-0.3532038518,0.109589178,0.1930897794,0.7164192923,0.7151462673,0.3353929079,0.0255235852,0.0704243249,0.6867087557,0.2514004804,0.1536382242,0.4267683456,0.6189383444,0.2448001227,0.4222232733,0.5728697302,0.5506484297,0.1101083783,0.4725053013,0.0892812762,0.3721512041,0.5812284699,0.5847890101,0.0614938483,0.2895458905,0.0646832575,0.2116823873,0.6409765325,0.2846408511,0.6909130973,0.0371149047,0.5338230379,0.4120856538,0.4673708363,0.1574236028,0.2555708182,0.4278462246,0.3813187393,0.2324626379,0.3408346697,0.4447195132,0.2462343993,0.0622752506,0.2680767655,0.283313228,0.1308590378,0.0143293794,0.1441521189,0.6092503404,0.0200970671,0.63071749,0.4183616498,0.614511789,0.4531244993,0.3092064007,0.2897519654,0.4451307462,0.5057220647,0.0538367501,0.7067819605,0.3132840351,0.7130438073,0.6957960612,0.455597423,0.2711483634,0.2310466262,0.4599654836,0.5057665342,0.0074347079,0.0491385126,0.4076697723,0.2843577676,0.6852155393,0.3753196301,0.671442678,0.2554969498,0.4673306069,0.336721294,0.5543486826,0.6188109641,0.5583142562,0.0831990256,0.4239496029,0.3758796911,0.709100278,0.4309329544,0.1761797079,0.0627675121,0.686279841,0.5883263378,0.0526434368,0.184936159,0.1481635868,0.1157791387,0.6841505643,0.6255268976,0.1402094444,0.4057101965,0.1347838466,0.520172671,0.6363141521,0.4600391831,0.0601995912,0.1316926037,0.0932483149,0.2910108565,0.6837881442,0.1629413875,0.0459685882,0.5148968621,0.4335323581,0.0199208493,0.3516659842,0.588632227,0.3960884646,0.2770215285,0.4279105116,0.6215225456,0.6189830836,0.0486585794,0.1048029041,0.6023454422,0.2591979447,0.072511597,0.2890846177,0.2984908364,0.4961054744,0.1932272775,0.0867658784,0.3765119822,0.0573930576,0.4442853257,0.1805392577,0.6146883039,0.0548477079,0.4687685951,0.623440178,0.3812159863,0.4226382827,0.6089757531,0.2064407555,0.0007454871,0.0448858493,0.4720972262,0.371766309,0.5770980876,0.0548840671,0.501418,0.1529471959,0.3004365184,0.4697355665,0.6167936925,0.0143670489,0.5169706679,0.3967896986,0.1182854523,0.0643252738,0.134082097,0.599543842,0.6908119824,0.1257590799,0.1471332492,0.4980822875,0.2306315191,0.0001317748,0.0169436852,0.0068530825,0.2489578905,0.0112581879,0.4274447944,0.5183735838,0.3665427489,0.0640161846,0.2792290319,0.3109172756,0.4578349519,0.1500771384,0.1698991243,0.5919681476,0.2984893023,0.5256897755,0.6262460022,0.2459428688,0.6657972439,0.1781615667,0.1797263343,0.0882194824,0.574003905,0.5885949538,0.178961671,0.0546967177,0.5553226435,0.4808837094,0.5840991138,0.3068303866,0.7102057426,0.338291389,0.0285515841,0.2087843456,0.0626213844,0.418863493,0.6195932268,0.0509410254,0.3803183612,0.4357708619,0.2631448783,0.6675235242,0.3078244701,0.169312811,0.178746347,0.5326656729,0.39982428,0.1023953136,0.2846961796,0.5422800514,0.2585897516,0.2938964372,0.4218979454,0.7147029985,0.5011864394,0.6507854461,0.5379602733,0.3898686737,0.7096889409,0.5768848209,0.216631677,0.6304050714,0.4942973036,0.2427905525,0.3290859971,0.1129663677,0.5118958039,0.5838105693,0.5765667882,0.674849714,0.7138610553,0.5441319019,0.370472578,0.1297618166,0.6210607582,0.2212315187,0.4465548547,0.268886999,0.011651255,0.4421832854,0.0159333691,0.6036617387,0.538117483,0.2097892372,0.7195002124,0.2045673685,0.6101143386,0.0345039247,0.3608332538,0.2315078289,0.1728833801,0.3885908114,0.1944346053,0.1089559541,0.3090994869,0.5692546823,0.6332215619,0.6209413063,0.0416186624,0.4765744403,0.7236395479,0.0482121812,0.5786460356,0.7029047965,0.1383510842,0.714356731,0.1410901527,0.121162467,0.5449754294,0.2469625248,0.514941582,0.4991658973,0.0715247878,0.705346952,0.1986222489,0.3218393411,0.6612798556,-0.5145104139,0.4789107631,0.1192954948,0.4206484398,0.267655604,0.5531569819,0.5209347806,0.7249714665,0.4059872152,0.260111569,0.6393845064,0.4138454333,0.0278720389,0.2030353104,0.3381697828,0.2253534012,0.671211478,0.7198352854,0.1085417907,0.2715349458,0.1662529459,0.3398897276,0.6038204018,0.6532132366,0.0619138448,0.6450069273,0.6228087649,0.028214149,0.3634344606,0.1148426425,0.7020906939,0.1477067748,0.4118991899,0.304805142,0.3122563443,0.0722657667,0.4160398075,0.5704698794,0.2948149197,0.5926293036,0.3172265393,0.1784259945,0.1565120387,0.2567554394,0.3003252815,0.2215512951,0.6242067907,0.1757506581,0.0519698132,0.1821393096,0.6138933656,0.4166669012,0.0945938668,0.0309415372,0.0495107087,0.4426857175,0.6336104207,0.5541773528,0.213233707,0.2332634963,0.3523929573,0.1758584486,0.4081818423,0.4964021287,0.6213199021,0.6612362903,0.462129948
   0.1932997896,0.0740528624,0.18715222,0.3651389644,0.4849169993,0.2128735647,0.1483029732,0.5772943675,0.4960477786,0.4826518202,0.4475657534,0.6799353955,0.4435491353,0.6327399242,0.5084608753,0.5311545534,0.0184359235,0.5121478655,0.3156867067,0.0934154141,0.3184161317,0.0378682914,0.2545712859,0.6338553088,0.5304845676,0.5529817192,0.651119354,0.5999307142,0.6528074974,0.4016743232,0.260794804,0.5540928225,0.5051740805,0.0003164424,0.568955726,0.4441098281,0.6987550287,0.1347908263,0.4908828895,0.1383497636,0.0307920384,0.4367466771,0.1873963437,0.4971748644,0.3243516845,0.3183484818,0.6928830208,0.2184900352,0.0821718319,0.3572176595,0.2843239304,0.5389247023,0.6662660746,0.3960780902,0.417601064,0.3286605468,0.6178564387,0.1569070055,0.1120135687,0.5857121113,0.108486534,0.6863317867,0.4257976197,0.5858275511,0.7012100489,0.0266366048,0.6016453382,0.1063965048,0.4783519153,0.2504302303,0.4788872744,0.6665725298,0.3990398782,0.4121996435,-0.0635980787,0.4770822002,0.0992926939,0.5895137168,0.2915886283,0.5964519949,0.0416812435,0.3722853852,0.1493898397,0.2534513986,0.5563059597,0.4431312583,0.454168073,0.2728684776,0.5864305561,0.2282142906,0.0610690434,0.576467668,0.5504151557,0.5009645011,0.3132073488,0.6248833266,0.3057044971,0.5769936396,0.1152232619,0.5007416012,0.4349654362,0.0377481342,0.1332048406,0.0677458867,0.6061779984,0.0725839278,0.2224146839,0.6490586031,0.5995234687,0.2944613962,0.5396188841,0.3953864271,0.6095664508,0.3627493195,0.2097301048,0.4209812449,0.2532201184,0.6041743497,0.4018925801,0.1779341076,0.1902242333,0.6447721548,0.3154990295,0.2701065558,0.4400643721,0.2727501642,0.2974826899,0.3221742096,0.1645931536,0.0169224895,0.3888426496,0.4416608087,0.0719053763,0.5520055333,0.0253166445,0.2245809901,0.1112126421,0.6036298794,0.1309613969,0.0709431692,0.0513872483,0.499069975,0.5728729319,0.1104719648,0.2824866079,0.2626953265,0.720907242,0.7244159409,0.2822519617,0.27600686,0.0930329977,0.6790354235,0.472849766,0.1216412725,0.3732307469,0.5177912091,0.6510125158,0.2448156498,0.458670172,0.0570638836,0.4916545696,0.1608246279,0.4861118458,0.6590736254,0.5668695651,0.3475104826,0.5358590611,0.5730541484,0.5440424428,0.4763410541,0.0618004707,0.0362413695,0.5298244737,0.0913601557,0.3577400236,0.3368502916,0.0043502759,0.6568061839,0.4965969493,0.0601002502,0.6764365413,0.3658122755,0.6791409609,0.6278014959,0.4993848785,0.0414782566,0.2350718424,0.0954643817,0.1357522607,0.5222670068,0.7020821687,0.0882891907,0.5463000052,0.3581759507,0.2980310977,0.2525773894,0.4840728859,0.2824414524,0.569324712,0.5618247901,0.3525241132,0.0931910099,0.5415008559,0.2111461666,0.0900762552,0.2690652732,0.1762717113,0.2860440813,0.0341513113,0.5829604363,0.042168518,0.334234398,0.4051204772,0.2099812336,0.5358081602,-0.5923726701,0.0707260836,0.4895826065,0.6830148782,0.6333074771,0.4755786086,0.5743573256,0.3341127669,0.61132062,0.6680993439,0.462815506,0.1414694042,0.5785033752,0.3694570469,0.5283139624,0.0757980117,0.1174924933,0.508067332,0.0892624548,0.5469282894,0.0288929002,0.3088138415,0.5066956747,0.292641427,0.1094094496,0.620839383,0.5921648359,0.5186558911,0.2884813858,0.6095164606,0.4754173697,0.0504938503,0.1136081303,0.4437810707,0.0959784918,0.114081794,0.1240949466,0.4596718247,0.3682409925,0.7199388418,0.5467112608,0.1416973742,0.3577742965,0.5389286772,0.6164667118,0.2756931506,0.6613323978,0.5785297432,0.2911414136,0.2404246126,0.5398232083,0.2309291004,0.2654012696,0.2287157878,0.5050859577,0.0757419836,0.5022780085,0.6840295613,0.1885784738,0.7125676757,0.3841034713,0.0429012397,0.4409350609,0.0652947761,0.6907633685,0.156902221,0.409680535,0.2572493155,0.3906757993,0.2724106147,0.2337162472,0.1458645273,0.1354802766,0.3190638194,0.386540991,0.0041469317,0.4938475724,0.3690695016,0.6601786825,0.0816033135,0.4604247209,0.2052631073,0.3491894213,0.2035541745,0.4453082132,0.6364248757,0.1467813345,0.2036682157,0.3139379624,0.3017464398,0.5268704322,0.7133296117,0.6158914908,0.1190437164,0.5359906793,0.5010024229,0.1005795331,0.4635505026,0.3021546198,0.4692703132,0.2317532884,0.0607771108,0.1841057679,0.4653442647,0.0900365922,0.6715360584,0.5153159501,0.2604833566,0.11551374,0.2673677805,0.6347893623,0.4864291419,0.0638332393,0.0318281131,0.4466236417,0.2694207748,0.055035254,0.5451482555,0.3578607448,0.6985903223,0.1400980721,0.4788579037,0.0393703225,0.6959683499,0.6828300049,0.7149776542,0.7098044611,0.6127465035,0.422486567,0.0700048274,0.7041583755,0.1884266387,0.351343252,0.1333479982,0.1435739836,0.1484535937,0.2012404142,0.0991954427,0.4017021495,0.0381995201,0.1502787903,0.0098980304,0.0112706621,0.6865372892,0.516251239,0.4027906846,0.6371748976,0.5218100884,0.6622927345,0.3848902725,0.5253000407,0.5932134039,0.2954434955,0.1961983315,0.3965985741,0.6102318819,0.340049584,0.5059583873,0.4320686671,0.1520752587,0.3930108991,0.2064511048,0.0969262626,0.119270339,0.4928758603,0.6154237461,0.355731905,0.5653375539,0.3022005334,0.5969793517,0.3698329827,0.6554191311,0.2980497612,0.4802370533,0.5238481091,0.7208992958,0.054305351,0.2393363738,0.259553637,0.4426038457,0.2402273502,0.2979263328,0.4465193973,0.6791222251,0.4177777882,0.1673243809,0.3215431956,0.0509973677,0.6572161774,0.3823047221,0.325241991,0.7103231995,0.4938603019,0.4524158966,0.3367341718,0.6980544972,0.3803319385,0.5602955324,0.5232301052,0.1234056013,0.6882094605,0.2248387297,0.3913389081,0.1779839994,0.6388601561,0.3930927838,0.6863101152,0.3073417646,0.3653918329,0.5938865769,0.4755927753,0.3589565475,0.0003978912,0.0658630059,0.2847695157,0.6352177557,0.7037512722,0.2502129349,0.4624658838,0.4854148106,0.3821614462,0.5211831285,0.352384083,0.7169210195,0.2446520493,0.5446828775,0.3332107977,0.014301896,0.1155172429,0.1423974819,0.5789383918,0.1882053195,0.5425176455,0.0370227345,0.6979004845,0.0881380421,0.262592347,0.7025029073,0.5968312585,0.4578450405,0.3453011853,0.0223135727,0.214651149,0.18065735,0.5297964126,0.6682845169,0.7058053865,0.6883376675,0.425278814,0.6659937517,0.4703514533,0.4098433995,0.4624445738,0.5402771348,0.3617258218,0.0459358984,0.027825159,0.1910484973,0.0610287953,0.6154545526,0.0314746363,0.1311484329,0.188113555,0.3083415047,0.1691423044,0.3154088352,0.3996404036,0.5321073266,0.4308841822,0.4981129886,0.3977378078,0.1990831455,0.1892224757,0.2895354521,0.2759482539,0.4942276338,0.2846051847,0.2214908745,0.2952494317,0.5545665225,0.2529924375,0.4983716115,-0.7064981791,0.1150182336,0.0464079953,0.5578934497,0.0873774317,0.4530022913,0.1942421437,0.5156637072,0.4019863801,0.5395225806,0.0020341628,0.0957821685,0.6073030458,0.1480278272,0.5063657316,0.6098675401,0.6356995651,0.0998642637,0.6688282958,0.330802499,0.3668596482,0.0005962141,0.5879887233,0.6540071062,0.3606917713,0.2125586118,0.0664366543,0.250615794,0.4087366991,0.0121321329,0.4100843578,0.00008319,0.6430564841,0.1061592046,0.6421643767,0.2589072209,0.0564734771,0.3923446038,0.3500782575,0.6096170721,0.2677786504,0.4823084904,0.3829493919,0.4172122005,0.1981909009,0.1506269126,0.646072717,0.6850640237,0.6546059722,0.1370759099,0.1140051439,0.6441240263,0.4650199317,0.308203957,0.6553109437,0.3101425191,0.6363892874,0.2070320241,0.4283661834,0.5406406463,0.0512549869,0.3807387782,0.4577364682,0.1800433198,0.3645070642,0.4295168543,0.3057787615,0.3174428696,0.5021568219,0.1671794661,0.27529684,0.064000709,0.4304012915,0.2686769072,0.2337233135,0.1302872563,0.2748233417,0.2080293769,0.6104214411,0.1982481527,0.6022761488,0.5365460776,0.4971020509,0.3870301755,0.0648122471,0.2587065893,0.3871960946,0.2868750251,0.5818495321,0.5945830877,0.7125510677,0.6950409272,0.3647152073,0.3809921447,0.712135989,0.3963304325,0.291288727,0.1802054371,0.3382786438,0.3750951799,0.4578499876,0.0099109044,0.2982627323,0.2339647873,0.2823470456,0.5811579944,0.0716183622,0.0233803943,0.2548799978,0.6867687177,0.6840544423,0.0086308361,0.1404071068,0.0618417061,0.6020264221,0.1587844375,0.0361134291,0.2016204848,0.4020546806,0.4514587358,0.1889192032,0.3814991089,0.4445853797,0.425421095,0.5950157442,0.1517556787,0.21703121,0.481355957,0.3786185776,0.0919212949,0.5615602511,0.101035399,0.6585610863,0.5190612059,0.4013440167,0.6080132196,0.5792853331,0.5189413403,0.4560570028,0.1180696376,0.2437269015,0.4919331416,0.2024475802,0.0423003174,0.1467535293,0.4779536656,0.3342490675,0.4591131505,0.661987048,0.0513042624,0.4117967578,0.320304617,0.6203579487,0.1891033317,0.1839925373,0.0224368925,0.0415897239,0.3727479471,0.6987703187,0.1477233115,0.3591569455,0.231902294,0.5767777724,0.4334048776,0.0971320756,0.3768913447,0.2329506664,0.4346327664,0.5628334456,0.414203561,0.0291602795,0.2307039852,0.1740097725,0.3954667019,0.1472935319,0.2390238666,0.2457956445,0.7111527287,0.6195382591,0.1196450022,0.4610236476,0.7209701745,0.0496636856,0.051103879,0.6981037387,0.0846799462,0.3805570535,0.2828554502,0.1882397394,0.1181287643,0.5505351579,0.0256732194,0.2649168831,0.0526231069,0.4788705079,0.6510991521,0.013268979,0.0495043757,0.0260099434,0.5302096688,0.3406613904,0.4788263782,0.2639188119,0.7152566719,0.5768333867,0.0017736565,0.1219771188,0.2300377844,0.1464416215,0.6170757279,0.5833832417,0.7178334225,0.2670146655,0.661936686,0.6044967244,0.1659398425,0.0991708655,0.4942843655,0.4119434904,0.4424544616,0.4889147435,0.6925679515,0.6002535932,0.7063678812,0.4053112818,0.0750766558,0.3020784603,0.7028857319,0.0872152989,0.5921900729,0.247430325,0.1921873864,0.5472861444,0.3575516825,0.2415587503,0.4868680537,0.6336306267,0.4776079715,0.584384047,0.6474236662,0.4358680263,0.5792023824,0.7129007657,0.2949244814,0.2384190351,0.5608124022,0.4099478348,0.0053883534,0.5573868871,0.3962428701,0.70320078,0.6411054658,0.1359700716,0.221658838,0.6328564607,0.5161637721,0.0761885938,0.1275957363,0.3718947614,0.0920619483,0.61590859,0.4606084998,0.7037032766,0.0947072916,0.0107051427,0.3127226829,0.3119886568,0.302721939,0.0350660636,0.1941166632,0.1849510115,0.2638754209,0.6540495919,0.5634699809,0.3988334824,0.3079024619,0.6748644582,0.241323317,0.5670702604,0.7148021234,0.7200717824,0.0468365108,-0.7057972474,0.2182477135,0.0097146695,0.0260102654,0.4447184174,0.7236662565,0.075903171,0.6665598136,0.388006573,0.5681473675,0.5195276271,0.4799049601,0.5529418466,0.2894906625,0.1266619747,0.4148642363,0.1343379572,0.4230137946,0.2960775351,0.7093185082,0.5374974977,0.5652481066,0.4501744842,0.0793250071,0.0097321887,0.4351820022,0.1143383054,0.098324212,0.6961041041,0.4352385303,0.6129474878,0.2615250088,0.5088488579,0.5405461295,0.4583490979,0.2993841601,0.3542368958,0.0508297275,0.3266267313,0.6526417934,0.1388221607,0.2980701324,0.6053730615,0.2933189427,0.6736550756,0.5634562621,0.712406128,0.6396998607,0.5245301631,0.6286544618,0.4510093828,0.3614369026,0.294103335,0.3523016939,0.1951972079,0.4975103296,0.2468278595,0.0899325969,0.13801081,0.537649009,0.6707449151,0.5529166381,0.4851390923,0.4271591622,0.1681407864,0.0341927039,0.7094897642,0.3190172039,0.4433993927,0.2425870196,0.5775450933,0.6843885307,0.397285529,0.5461815231,0.4866904415,0.0681264354,0.4136139879,0.2524759249,0.3926367753,0.4213067767,0.408097188,0.4202614881,0.1815276673,0.3710609071,0.2785152322,0.67582483,0.3253800744,0.2976453203,0.2298919177,0.1146906702,0.2042534604,0.1469496081,0.3582511853,0.5275701767,0.5606128452,0.3212278825,0.083930188,0.2757369941,0.6384288153,0.2875287942,0.7057875717,0.2153747718,0.5641927688,0.5118928881,0.3722308905,0.2080169242,0.0336771997,0.2074214311,0.3212007015,0.4118658916,0.0673317979,0.5620064706,0.4806262166,0.1235870773,0.2252248578,0.2473516997,0.0990474247,0.5261026954,0.1419726005,0.6491856919,0.1152808165,0.3063621248,0.6405885908,0.5741671714,0.2659888535,0.1535825881,0.2457521176,0.662093587,0.5468412366,0.6618126957,0.542233146,0.4555184918,0.6507193289,0.5390386813,0.3490748553,0.3575005756,0.417070905,0.6774367493,0.2806277558,0.518035202,0.7071480994,0.6281645408,0.0345189789,0.2474967727,0.5231486893,0.000785155,0.0649140943,0.6270310818,0.018815692,0.6803165123,0.417925494,0.2964288175,0.269520468,0.0231100729,0.0157307907,0.7100489544,0.1938145794,0.5521104263,0.4188185463,0.2147678464,0.5650565394,0.5116462675,0.3699812205,0.4254508771,0.5389771724,0.1233820254,0.1184269917,0.242355835,0.5688754373,0.0178127281,0.1634689648,0.2848924533,0.3875669546,0.246224471,0.194932499,0.0444665673,0.5245641004,0.2681151928,0.1501075898,0.4934615995,0.1066610335,0.479735733,0.3846963945,0.0517494096,0.6241782969,0.4228289676,0.6695596323,0.4788953666,0.243194906,0.2684479071,0.0995047833,0.3294688387,0.5276834398,0.6257032821,0.5845861957,0.0871267313,0.6243754355,0.3374960301,0.1602625502,0.2193840889,0.7190365834,0.3671918917,0.6900777374,0.7021032233,0.6843064999,0.0697665821,0.4379567228,0.0034519646,0.5350521515,0.5697839533,0.6740350182,0.3782097294,0.2945101035,0.5893932487,0.7015386032,0.2186279122,0.2120224022,0.3565608274,0.6465401274,0.4596977664,0.5573138315,0.2524724239,0.5512694065,0.234523274,0.6985109353,0.6747255225,0.3053086597,0.0092919864,0.5766150411,0.6085843738,0.2985578035,0.0624124455,0.240071673,0.2966092451,0.5900924707,0.2338475622,0.1796595137,0.4696244364,0.4837078847,0.118428047,0.7007722724,0.3582240918,0.5319493768,0.6678502667,0.6160230233,0.1378523771,0.0797320795,0.3714147481,0.5102155647,0.4198430573,0.313419699,0.2382646341,0.5173182818,0.3185838301,0.1380159451,0.4871996679,0.6162034956,0.3958027068,0.7076027732,0.5622352586,0.5357244161,0.003270377,0.2338738289,0.586876419,0.694311465,0.4023780726,0.1226557729,0.3086399179,0.5295965484,0.6906001954,0.6315526419,0.242538591,0.0295515735,0.1808095161,0.0864674245,0.0920579602,0.1762297015,0.5646061974,0.0647458611,0.0415312609,0.2630030528,0.6589982461,0.0087900171,0.5663823734,0.2952993295,0.1378278299,0.2393014599,0.0794839575,0.1260810522,0.2445820922,0.627605915,0.4965232486,0.1723394465,0.4404907421,0.0652659098,0.0757679167,0.0220820456,0.3778741281,0.7145479327,0.3176391346,0.1307468466,0.3981864058,0.5144655804,0.1851131014,0.4139064812,0.2472603301,0.4884502029,0.1941822886,0.6533501422,0.2218214327,0.5727448052,0.3101075883,0.6377801366,0.6341599692,0.5597100754,0.6262173153,0.4131123461,0.411306843,0.4695903461,0.2514874436,0.5931864095,0.0533170842,0.3245595994,0.0539201843,0.1047191911,0.6587336249,0.2683307164,0.3138134778,0.6890140956,0.6175038577,0.4287110046,0.0457403321,0.2962073036,0.2174709673,0.2101225016,0.7151207455,0.6832591511,0.6286340677,0.2785731397,0.5561666215,0.5549592906,0.0346115519,0.6844300128,0.5058615972,0.410354725,0.3887352546,0.1657797944,0.5520513184,0.0321857362,0.5991308346,0.6051407652,0.5094982699,0.4954443898,0.0456515853,0.348471608,0.6338474443,0.59645108,0.5166563823,0.4042419734,0.4753991017,0.6110522167,0.3762128671,0.491301994,0.1085057492,0.0102475416,0.2778811831,0.0829821407,0.3950148583,0.2643843916,0.1873053051,0.1468274799,0.0059503478,0.5326809996,0.640803605,0.3453160331,0.160311437,0.0332906674,0.1498555123,0.4170805663,0.5075573877,0.5006630848,0.4564028274,0.5167300529,0.626515718,0.6250511865,0.5823928168,0.5890655187,0.2902337422,0.4354435031,0.39894465,0.1855219613,0.6207253715,0.214039911,0.4611782594,0.39764223,0.3949346157,0.2912452358,0.3895140371,0.082505709,0.5725087763,0.1225459217,0.0391294562,0.62181458,0.1816068169,0.1763760334,0.4371420554,0.0718470004,0.4191260676,0.0843429196,0.2101149064,0.7029222793,0.6695121279,0.3800392991,0.3001928895,0.2836674709,0.6486236615,0.0442082427,0.6382725195,0.231166952,0.2868945515,0.3451025161,0.0783091481,0.7231002445,0.1876885532,0.2476489035,0.3035929334,0.4509486191,0.1418193274,0.0341153902,0.4007538267,0.6729628993,0.4015467921,0.2581728523,0.6705487806,0.6664769937,0.5749751114,0.065663387,0.3331250145,0.1136507451,0.5587167843,0.6213293926,0.2654465503,0.5636977597,0.6676461387,0.0800269893,0.0075005535,0.489094305,0.3575018212,0.1987875221,0.0857429018,0.0668256941,0.2318075457,0.0504507698,0.6593678633,0.1534641012,0.2227383752,0.5057452551,0.2877832306,0.1314554925,0.3648372921,0.0106709187,0.0120277502,0.3187777489,0.0212063299,0.2854213399,0.6872846826,0.0808641547,0.2829243086,0.3769819475,0.7094837427,0.52222974,0.4853119256,0.7182903085,0.3845850378,0.3260967104,0.6560806477,0.1483651172,0.3699529515,0.5211230242,0.3645233122,0.511490481,0.7097609335,0.6378283062,0.6441700482,0.6015800694,0.1774703256,0.3243383773,0.524547001,0.1783417891,0.6358667947,0.272571137,0.6697345655,0.5249255791,0.2211477294,0.4026566523,0.2901403752,0.1920235104,0.0952141183,0.6358865667,0.6650546199,0.3970887962,0.0082486254,0.6757898799,0.5147210134,0.3583831435,0.709517372,0.4693080926,0.3906031511,0.4670644783,0.2788936302,0.6810109934,0.4855418067,0.6826398534,0.1523655678,0.5594981975,0.6266975553,0.352046005,0.2560511789,0.6089621931,0.6095695307,0.5602862872,0.4736977441,0.3422755274,0.5956934636,0.6999830689,0.5990428712,0.1729111625,0.52685874,0.5552744329,0.1367860312,0.1368628458,0.2060416988,0.3932933231,0.0304473681,0.4356556405,0.6082368778,0.332616728,0.6120718051,0.4473604066,0.6626787799,0.3550900298,0.6181037684,0.121724877,0.4724143577,0.2716605872,0.5415312938,0.1018292089,0.0701064525,0.5454932013,0.6177303534,0.6034467579,0.6664617625,0.6897423652,0.7038465056,0.2567020801,0.4148382807,0.1216619667,0.3725265787,0.5738617382,0.0570440428,0.0387085036,0.4081274358,0.4461936696,0.4365104064,-0.1307418332,0.5378489007,0.0336735488,0.514974542,0.1444241716,0.2072425555,0.5933471671,0.5638523471,0.3026293909,0.3611668011,0.0438386289,0.2006620897,0.6352968307,0.6228716893,0.6010098122,0.5885851194,0.2063257149,0.3030457049,0.104822519,0.4482791869,0.4194524572,0.5335219045,0.1995584358,0.6627292115,0.6634079855,0.413500487,0.2808848322,0.6673045242,0.3215578082,0.5083334901,0.4591845751,0.4328044399,0.6476741551,0.5623397051,0.1409031616,0.095497462,0.4464200028,0.5975026983,0.5791924497,0.0074838508,0.2609015989,0.1016149038,0.5463736082,0.0384184193,0.5207710018,0.4001710636,0.4264874458,0.1102072691,0.6386080494,0.5207718916,0.7206726884,0.4118964371,0.0435406876,0.7101256786,0.6228346196,0.3998449864,0.5158495264,0.3333995345,0.6185407217,0.5384207793,0.3322560529,0.4197460968,0.1383979976,0.1998368638,0.3331297579,0.621736925,0.6672964319,0.5518806997,0.5823984684,0.6726574288,0.2321522514,0.2563230822,0.2887013864,0.6883167425,0.5595240403,0.6715149466,0.5420236955,0.1560077474,0.5562631235,0.701323017,0.6793103733,0.4280321038,0.4085596115,0.138116129,0.1056032722,0.4117493768,0.2533502523,0.0052493658,0.0000319713,0.1098212087,0.5078965034,0.6874204606,0.0901727148,0.3443703607,0.3783958814,0.6094808213,0.2329740395,0.0408426542,0.4678138245,0.037865623,0.661515853,0.6173295462,0.5326030338,0.2804747405,0.6550815523,0.5918535583,0.1341181185,0.2092571257,0.5857465409,0.3788143148,0.1813809287,0.6189490617,0.109485237,0.343191696,0.5242790959,0.5588125129,0.6629366785,0.1201541183,0.0817845984,0.5257978897,0.3104447754,0.4441431459,0.2969297,0.7136987018,0.3777378278,0.7215784452,0.1511718629,0.6196495475,0.0326270021,0.2549813117,0.1304257968,0.3275440422,0.1880130439,0.5236863653,0.4422210754,0.5481456346,0.6730237,0.7036772951,0.0117686986,0.1732806202,0.2993000474,-0.6466866952,0.4683490729,0.3222860309,0.3461338181,0.0639929885,0.7238615674,0.5641667953,0.0069038795,0.3241410415,0.2814996407,0.306034114,0.2638874805,0.3998303589,0.6961732201,0.5276214217,0.4184058427,0.2516524153,0.3592158558,0.4758596961,0.1983615834,0.3181802077,0.594504713,0.6126392419,0.4979725313,0.6357526385,0.4397942822,0.4713339557,0.6149941365,0.614762494,0.6511617964,0.0653037179,0.4850684364,0.2385152536,0.5262041775,0.6888791908,0.2393133162,0.2675752519,0.5732054787,0.3175349172,0.0909328474,0.4042091851,0.2092481648,0.5011666399,0.4811177493,0.2980759742,0.4453486625,0.0849676576,0.0868034418,0.6269595248,0.6183716086,0.0180355645,0.0405030879,0.5692816956,0.500205351,0.1828680885,0.1258683686,0.3247121261,0.4371255033,0.3837027996,0.184039942,0.151591881,0.7104831455,0.092811266,0.3252050132,0.1373630831,0.0812079585,0.6869169366,0.0271756937,0.4660348399,0.6138487672,0.4007059145,0.5374113226,0.5990984338,0.0374682215,0.6192411598,0.4982920693,0.4438326274,0.6876321748,0.0278087322,0.1247165353,0.5671731068,0.5728781099,0.0691987516,0.3088128124,0.6781468528,0.2454778118,0.5624408959,0.5044958523,0.1460942626,0.0516718343,0.0739937053,0.0667701458,0.3682797472,0.0620287453,0.4502785279,0.5888605593,0.6999206812,0.1573831339,0.3048630192,0.3962477181,0.0438703751,0.7094298641,0.4152982544,0.0773633981,0.5278726549,0.3924165317,0.0457955769,0.4105907694,0.0331311295,0.0982646322,0.3312264186,0.3629160797,0.1878730513,0.666549131,0.3796976167,0.1679632217,0.0485950612,0.423172153,0.5763541238,0.2437972054,0.4525009501,0.5107701134,0.4013254328,0.041877008,0.3690860295,0.087504958,0.0565330357,0.4943539923,0.7182078384,0.3125891659,0.0366286834,0.2726992286,0.2018648996,0.0237348218,0.6660413651,0.3468618083,0.0687384637,0.7232903774,0.474951788,0.5216818169,0.5925834234,0.116702844,0.581617341,0.2997197647,0.4743876483,0.1946422114,0.6533222467,0.1554962754,0.5780790867,0.4394303882,0.2997639986,0.4682165559,0.1876206424,0.2108045872,0.0157337572,0.1705425593,0.1134133378,0.5288687873,0.5494500297,0.5538260786,0.3840457897,0.4067822407,0.5480322363,0.5960947171,0.281059662,0.08062983,0.399597184,0.4377847878,0.4191515078,0.0280852184,0.5451509908,0.4493226333,0.1732297425,0.1366997879,0.4362847974,0.5859904039,0.0363248726,0.6130611534,0.3044076167,0.2450228809,0.1717049121,0.2139637027,0.1126011534,0.1832497895,0.2124266771,0.6097544361,0.236642915,0.7178334646,0.5014935972,0.1462026119,0.3098427393,0.52313424,0.309680591,0.3761142765,0.3490976999,0.2977879698,0.0692108826,0.0286369328,0.5755658565,0.3316536054,0.2611636932,0.6613374817,0.0831191459,0.5876975921,0.0532141069,0.3073315194,0.2643178945,0.3405250495,0.0200349846,0.3270525012,0.5716726174,0.2661580946,0.2153783127,0.6113180682,0.6606222212,0.5250753478,0.2863176588,0.6986372927,0.6856812191,0.0799349592,0.0156147407,0.4574743632,0.2690315124,0.4336326198,0.0045443523,0.1883191369,0.17398579,0.4372482624,0.1130856557,0.0634411818,0.2924336694,0.1638608315,0.0847020616,0.7207634101,0.1782231621,0.1252956983,0.0193556837,0.4102946701,0.5184591904,0.4479270627,0.5005672002,0.5384311832,0.2870012528,0.5057435922,0.177548696,0.4276799842,0.0971509026,0.4896788689,0.5804421652,0.3560336952,0.1768303788,0.1441667729,0.2444282072,0.2326418386,0.4707572014,0.3549405689,0.1590511424,0.7045358733,0.2907177369,0.5430298334,0.0365966647,0.6807884466,0.6463029291,0.3943354092,0.165789675,0.3930249875,0.5375165348,0.3201217121,0.3563527978,0.5469549885,0.5631101499,0.5114204408,0.6806607637,0.3968516697,0.5273048361,0.3149093198,0.3688844193,0.0853146643,0.2078998605,0.0947596766,0.4717127994,0.2581514614,-0.0320661265,0.2278949299,0.7113019977,0.3211370689,0.4401293393,0.338998467,0.0336340091,0.3715223771,0.1676349305,0.2110749639,0.6659717096,0.6603715823,0.0691157587,0.7091961771,0.1763529753,0.5041391537,0.6478197648,0.7047000942,0.3915268957,0.4851184439,0.5842219454,0.3378483159,0.7213225697,0.3090105231,0.0207283781,0.5231695792,0.5323385387,0.4322454351,0.3895393355,0.0971775572,0.4187055325,0.5198787219,0.6394074684,0.6256741014,0.4103062097,0.6839938016,0.4590110214,0.5454109755,0.1051156946,0.0718006071,0.4965942051,0.159154893,0.5350148187,0.3070502905,0.0002575267,0.5539915436,0.425615273,0.5260249826,0.3939384717,0.5484125581,0.1214517475,0.407549747,0.0547261565,0.1536598104,0.1279446758,0.3530900946,0.1610875279,0.2326109994,0.0648010225,0.2729214813,0.5113464036,0.44138772,0.393099195,0.2422735819,0.673886262,0.53648139,0.2486353514,0.5078602743,0.122093402,0.0977787001,0.543469781,0.1784450297,0.3214042718,0.5620003696,0.5482988153,0.5224614768,0.5873553878,0.5733762663,0.3821798944,0.3900854469,0.1330196222,0.5011230005,0.5695711338,0.3914793452,0.0070002399,0.2770348344,0.6686059204,0.3247885562,0.0515002592,0.3197128776,0.5954865289,0.6065182407,0.3323944902,0.339462276,0.6678504668,0.1419390529,0.2007383147,0.5231344708,0.5942718805,0.6757477052,0.7000048319,0.4722139504,0.5950188116,0.6917562855,0.1487452914,0.2928688981,0.1238517596,0.6076181488,0.1941114321,0.6063280002,0.2779983932,0.3066282007,0.2250455821,0.0671929498,0.6993565295,0.0693977418,0.4105741578,0.2461468693,0.0467180902,0.6897866911,0.4310995675,0.5921098296,0.0438162315,0.3447314903,0.5503290678,0.7078473132,0.6112081776,0.2856392296,0.6403191005,0.0769507395,0.4552359682,0.6178705054,0.4322127179,0.3653503746,0.3223681172,0.1069233958,0.1643294649,0.6972962219,0.0434758582,0.5976923665,0.1654693226,0.6517704849,0.7181778998,0.0404243368,0.019466035,0.3368306434,0.3099478952,0.6465856061,0.6317221242,0.3041613155,0.257948513,0.0917548107,0.531538911,0.0272395702,0.6364265713,0.1875029326,0.4056835327,0.2590622167,0.5626124776,0.181651074,0.1508765467,0.4397400782,0.4658699362,0.4198200356,0.1533052319,0.1705829744,0.3501785845,0.264168817,0.0806480021,0.1211921378,0.4083075207,0.1523382554,0.3471254585,0.5089082058,0.2966273363,0.543002763,0.6488646394,0.3723824263,0.212483954,0.5735860638,0.0743418161,0.1649235637,0.1751419369,0.293141552,0.1908311308,0.0928759631,0.4270278911,0.1536880584,0.5435284743,0.4764799566,0.2641343925,0.5027025021,0.1386085879,0.3555904111,0.2532143959,0.2114278797,0.3987668943,0.1092502567,0.3419278779,0.5029391294,0.6163043815,0.2226150078,0.2259637512,0.527900331,0.5875231276,0.1021153723,0.6444856643,0.690185801,0.0272689289,0.3022565191,0.4122714548,0.1017579441,0.4524197456,0.1353826631,0.6420705954,0.4200082445,0.6981759641,0.2723053694,0.2256890844,0.1936090753,0.2552128187,0.6183022069,0.3738002928,0.6393011829,0.3466168205,0.7057341066,0.3355684729,0.4620660184,0.1423403619,0.7185522424,0.5585569311,0.6991765633,0.0805886601,0.1372929267,0.0795736473,0.2045639078,0.2456855469,0.0412391699,0.0574460503,0.0021078293,0.3572884221,0.2452374232,0.6476902153,0.2189205989,0.2671400936,0.2438540397,0.3215286356,0.0899440925,0.0188791731,0.2971354312,0.5573171174,0.2577458958,0.7025879177,0.1543164855,0.5344566833,0.0600978798,0.6514925816,0.6229082339,0.5765902333,0.2817859018,0.0655723778,0.6201578516,0.6978058811,0.1329810971,0.5662822191,0.2523750749,0.6272006117,0.121735942,0.0557848569,0.6910088723,0.3570578366,0.0942223348,0.5904014737,0.141237193,0.3852360211,0.3159872933,0.3425226862,0.2747190928,0.4265074935,0.5458203219,0.5280998165,0.3859429383
   -0.6489498794,0.5467143969,0.346875002,0.6587911398,0.5245199918,0.5786866709,0.1405925789,0.3133474052,0.270983143,0.2546416729,0.2074514337,0.2712955165,0.365136391,0.1633072608,0.5459100776,0.3602749258,0.5574023981,0.3929197166,0.5472509823,0.6403060465,0.1554759508,0.5084006889,0.6709207681,0.4884835099,0.4461498494,0.385782597,0.1154054004,0.7095614421,0.20571561,0.1696361367,0.2474474369,0.2139100935,0.2910207374,0.4922330992,0.710912288,0.6331632284,0.1397149093,0.0998990531,0.7214987026,0.4343165167,0.5869185223,0.3772545824,0.6959306048,0.0959353005,0.4510906122,0.5576031408,0.7019709364,0.1692490164,0.5272742219,0.1024746562,0.6461679572,0.3172895294,0.6290386648,0.5265139657,0.1600505592,0.3613972749,0.4634376638,0.5025494552,0.6330590683,0.2238434522,0.5870295177,0.329744308,0.2161545224,0.2391964734,0.5868204801,0.0948256921,0.7202984021,0.6621060027,0.7063990203,0.3252250397,0.0355232244,0.2026320947,0.6634000842,0.354113086,0.4852893923,0.2475574715,0.3390410111,0.3536335355,0.5115114776,0.7204127257,0.0302846591,0.1842614326,0.0837049337,0.7097615841,0.5958906843,0.440152606,0.6669785926,0.6858037971,0.1459249359,0.4827434424,0.4805951383,0.6163645733,0.0255883566,0.5321223533,0.4411452224,0.3100006349,0.5644543902,0.7176614041,0.6527657433,0.0490904143,0.2498296362,0.1365325527,0.5057894977,0.0353676631,0.4152610367,0.0741602986,0.6256796291,0.5532082472,0.370273544,0.352889327,0.088034369,0.1848476252,0.2465945118,0.6803787292,0.5355355027,0.0913729991,0.4766871841,0.1010356856,0.4846112624,0.4439367503,0.7235984264,0.4522639597,0.5914542488,0.3176157287,0.6852681076,0.2792761942,0.3792880082,0.6283573098,0.6536408503,0.2604870312,0.4676459035,0.1595790792,0.4461093028,0.0383159697,0.4378635408,0.0209497902,0.6188506496,0.2686689124,0.4624642728,0.6388431018,0.139461544,-0.2217036404,0.0292451566,0.7192380914,0.548318049,0.3566357317,0.4161994332,0.3560585468,0.635389578,0.5533053454,0.2838380943,0.3122240627,0.0478903286,0.1446738626,0.5373886546,0.4069619654,0.2984539927,0.3852816484,0.3260851791,0.7197737781,0.334688117,0.1172377822,0.4920705663,0.6940129105,0.7027284859,0.2548869912,0.5298116556,0.021840363,0.2784104259,0.4498055462,0.5431885672,0.2359573319,0.5971742922,0.2091610045,0.720937165,0.2746567033,0.2621176492,0.1250593132,0.0068440762,0.4810695862,0.6264980042,0.0459129337,0.2872900393,0.6791655638,0.200790438,0.5561548381,0.0757781541,0.6590198485,0.1603883894,0.1212166988,0.0850520161,0.0344523065,0.7168821748,0.7125439655,0.1130115426,0.4929820433,0.3970396486,0.4591517232,0.4114529847,0.6836557168,0.7000827287,0.6562297462,0.6297924383,0.3946534237,0.5324772464,0.659323134,0.3718647539,0.5399250239,0.6130859513,0.1213433774,0.2379080347,0.3233863952,0.0738701767,0.3783848783,0.524982982,0.569647346,0.0571071811,0.7057038424,0.1530839902,0.1222191797,0.2521158564,0.3430765362,0.7189809788,0.1800990506,0.0466673659,0.1201231185,0.2763554133,0.6991323559,0.5708691404,0.4078246062,0.440945515,0.2746763699,0.3202637734,0.4793826342,0.0675585957,0.5270990906,0.4883142273,0.0530400096,0.4813985734,0.5632726667,0.3235701518,0.5893329933,0.2027932554,0.2465211083,0.4559770623,0.3751857686,0.5460991925,0.3762908641,0.3555567123,0.3778127431,0.4638428779,0.0541003243,0.3459110943,0.2746311267,0.681297701,0.0845256593,0.2743563166,0.1139538449,0.3660698967,0.1237153767,0.0052209512,0.0327802529,0.0569124016,0.4084375846,0.5924859454,0.4465111529,0.5107964143,0.7083189069,0.3318317835,0.2710205607,0.6112262818,0.7073760055,0.0950772384,0.0461979078,0.6540202382,0.2034586171,0.5461007247,0.4186106124,0.0372055148,0.4211927251,0.24934594,0.1458372973,0.7133267383,0.5115538463,0.5668449468,0.2727655962,0.105348356,0.0413317271,0.0242874844,0.0731964055,0.3407036922,0.2213685178,0.1780611836,0.4388421104,0.6627521509,0.3452160842,0.4531961116,0.6843819155,0.1280196355,0.5325258516,0.6317383707,0.5204083758,0.5898352502,0.2593393123,0.0199718806,0.1552386764,0.4291759588,0.45118372,0.0104636053,0.636619273,0.3469084441,0.4241010651,0.5643879969,0.1263547434,0.5062543506,0.0229452741,0.6853387782,0.4232113377,0.1989282031,0.135678981,0.0738108176,0.495343537,0.1505760164,0.0940902261,0.2512975834,0.0068122918,0.7155923292,0.1765974341,0.3957641837,0.4894319006,0.3159522028,0.3261889142,0.5912033973,0.3720530773,0.7228342119,0.2980092447,0.0750597751,0.6278876581,0.3096436821,0.2710472571,0.2870474399,0.7222573927,0.3906009054,0.6021784215,0.7124599678,0.3651075666,0.0417067128,0.5175735278,0.3161556328,0.0427139202,0.6446490862,0.3016517261,0.3117673749,0.1643135175,0.0614028108,0.3782960154,0.2156903216,0.104731648,0.4234733935,0.5655837118,0.1994340227,0.2546548091,0.2672807725,0.3669392533,0.512940604,0.0784715172,0.0091139063,0.2162318035,0.0713085328,0.1081930956,0.5342751728,0.4961668957,0.5696531181,0.6595139018,0.7131404245,0.0504541134,0.1365447019,0.6790852383,0.1561078614,0.108875828,0.0238283253,0.2630861499,0.0821921378,0.5609046686,0.5040034992,0.0261757518,0.4340609901,0.0616673091,0.5913030964,0.1031855271,0.0974750045,0.4925399999,0.4653090164,0.6771770467,0.4214880092,0.2837641659,0.094681811,0.347946602,0.3394908209,0.2255921298,0.5100057469,0.1391883474,0.6697985128,0.4189196616,0.4995932589,0.1801670562,0.4813200326,0.3796100456,0.6626095469,0.679893259,0.2718117133,0.561909195,0.4339264411,0.2702034718,0.3975951452,0.717448682,0.5150230094,0.7198186028,0.235340937,0.0076326835,0.1337929515,0.5485406341,0.1354283823,-0.5420572857,0.7078775564,0.696822063,0.2957775283,0.0887869578,0.5316855753,0.1244653082,0.7245457861,0.4166945019,0.7196062758,0.6087550043,0.3876627539,0.6809174151,0.1380741735,0.5773663753,0.4588223215,0.1081111032,0.3308788174,0.7035590554,0.04778685,0.4391301463,0.0753118015,0.2506317213,0.3165855167,0.2337238207,0.7109265967,0.2889045239,0.0808834416,0.1347914659,0.2483327449,0.7162739273,0.4617667455,0.318709456,0.528423957,0.6920083195,0.1230336523,0.6651850173,0.2741878761,0.3501396221,0.4055434826,0.0007296252,0.0744650341,0.4528196146,0.4221700769,0.5430741268,0.1198651862,0.1741565322,0.3612650178,0.1128646468,0.4610839161,0.0210274729,0.3830703329,0.0298530365,0.6551758952,0.1686456197,0.0564422308,0.4634082118,0.3681904446,0.0517567139,0.383357387,0.4033719287,0.157878068,0.6964853519,0.1486630088,0.2978388878,0.2445770473,0.0557389705,0.4956200222,0.0854983086,0.3930833335,0.6574202892,0.6963403811,0.3580766367,0.1200063587,0.7152860587,0.0841477319,0.4130066521,0.5379565471,0.1253812443,0.0182813906,0.5593739785,0.5714601446,0.3059896806,0.2506123279,0.6598001651,0.1878238147,0.1748334964,0.3579497123,0.5391690944,0.6146286761,0.500440537,0.4070746271,0.5326778825,0.2293653726,0.0349508079,0.119052729,0.3614228585,0.2508473779,0.0289250325,0.0150172274,0.2633177252,0.6999505303,0.5934946609,0.4802349917,0.2915483331,0.3528356947,0.5377608323,0.0319539316,0.2028261112,0.0095045505,0.2487820595,0.7168879298,0.1886274593,0.0053758176,0.5822061021,0.2387529597,0.5561919337,0.0825854004,0.4708399004,0.2483400979,0.693195869,0.3001488687,0.2817303435,0.4044898418,0.6249722125,0.405151462,0.1812097371,0.2297487305,0.5935200414,0.5604517302,0.1886509067,0.3742424465,0.0084210981,0.3992618102,0.3008225265,0.5898988428,0.1627173988,0.7084838361,0.5820601339,0.1477245363,0.043665114,-0.2082003955,0.1134306208,0.1997943226,0.1361718102,0.464398321,0.3287606622,0.472791138,0.3210672764,0.0854728349,0.6302461527,0.0615690012,0.68297422,0.0254387251,0.4354097461,0.3082404971,0.5203487707,0.2660391324,0.591594889,0.161590372,0.555508042,0.5284249815,0.1937733903,0.019165027,0.590737326,0.3721791177,0.6538097254,0.3919509101,0.4083342058,0.6046911514,0.1076593267,0.4955052343,0.4563427542,0.6215922345,0.3094484705,0.1725414442,0.6809781142,0.0208540225,0.591154074,0.1681394265,0.6092474867,0.6536202046,0.5510371269,0.2889820012,0.5737960825,0.5507446382,0.1120657817,0.0547731825,0.0580410911,0.0007397139,0.0895957493,0.4908802544,0.4764898089,0.206318262,0.26150912,0.318650251,0.6083560529,0.5655909645,0.6761713754,0.3540149589,0.2380320993,0.3414276116,0.0316253144,0.2852224505,0.5278686872,0.2517936579,0.2732667754,0.2140871868,0.351043664,0.3643657385,0.1976382404,0.2653642572,0.7127368138,0.4349642848,0.1390565794,0.6112683998,0.2522579656,0.6607880599,0.4488144649,0.0892572293,0.2441679949,0.1063239681,0.5829576627,0.3163608937,0.4495391809,0.4278855854,0.3750106298,0.3135992034,0.4637676292,0.4630348605,0.2156286544,0.4421676855,0.1390672156,0.5067517069,0.3686407264,0.6436891636,0.6201312829,0.3917232986,0.645070181,0.5704730949,0.2863273096,0.4518379435,0.1334820371,0.4453178138,0.227008328,0.4555577483,0.6230486301,0.5620013364,0.5713456213,0.2870154328,0.6496696949,0.601486717,0.2498697227,0.5448110784,0.0848264586,0.143525023,0.5343831176,0.1754599237,0.3973789418,0.3490694445,0.4950453065,0.4620562436,0.6244446212,0.1499729122,0.2114489904,0.1136579995,0.0277637537,0.3154032958,0.1838269471,0.5668912468,0.0063324868,0.0537320606,0.0811786472,0.4908216764,0.1198805564,0.6764539908,0.1734275679,0.5115256952,0.249791065,0.3724652253,0.325909274,0.1853882822,0.7233700011,0.2179206279,0.391927198,0.0810446948,0.4191695379,0.5993165204,0.3162219698,0.65396191,0.3669638152,0.086487298,0.0134642356,0.5322571656,0.5452010337,0.1591022137,0.1346569268,0.7194074937,0.4162226686,0.2464270815,0.1045735414,0.6554267253,0.500433072,0.6484286387,0.3343997957,0.3029712136,0.4501977317,0.0428338814,0.6772164098,0.0932063872,0.3126083345,0.5474715825,0.6609208828,0.3451616192,0.3526438428,0.6762056662,0.2186223611,0.1527534101,0.6044953192,0.6029692041,0.0961358576,0.1192528189,0.2488017324,0.322894974,0.1481552006,0.5049311297,0.5796562633,0.5554955729,0.040794251,0.5740530631,0.5227042074,0.3729097334,0.1542650139,0.4978852324,0.5818704018,0.6970953106,0.3045482436,0.0442364248,0.3817491855,0.1043154915,0.2770030886,0.2157286439,0.4839300245,0.1721634884,0.2340756375,0.029248809,0.0927401287,0.0785955132,0.4026331766,0.220104927,0.5709522969,0.0690298319,0.0873302823,0.4901663205,0.5924907415,0.640588166,0.3457005773,0.5439854339,0.1622462929,0.6771083167,0.1187298383,0.5526436294,0.1585734213,0.2166447499,0.2494606063,0.4134927904,0.2743038711,0.5944969687,0.097423837,0.3811930721,0.3346196633,0.4613865585,0.4917058689,0.3548305697,0.1303325213,0.4761534322,0.7117735191,0.1713219926,0.1289922004,0.1044967723,0.464319277,0.5480422356,0.7078187783,0.616219882,0.5178183032,0.3639878668,0.4707548384,0.1386389404,0.127063704,0.3478517636,0.4160689622,0.5932443546,0.3995277323,0.116623173,0.479782958,0.3870640782,0.4407625249,0.4473783875,0.083537655,0.6865386437,0.1342452964,0.6732120939,0.6460205616,0.302480705,0.4166116351,0.6400117275,0.5340172407,0.6023044981,0.1188470838,0.1530042751,0.6384974502,0.3516123507,0.3020423122,0.0938608524,0.1419811397,0.6563893478,0.464091362,0.5407622336,0.6753419242,0.5211542432,0.3006564329,0.7081327264,0.6638103072,-0.6283590053,0.7231638803,0.7080117206,0.3391729704,0.6387723059,0.3583316075,0.5242433729,0.0917921321,0.0756101116,0.0759646433,0.2365140732,0.5059347899,0.1325806238,0.2025353716,0.6032254483,0.0440818833,0.0831441915,0.1474166603,0.5635450864,0.4586840454,0.1098665692,0.4534745784,0.3772692537,0.2737455061,0.0917005362,0.4918246173,0.3019454574,0.567864018,0.6650283796,0.0057970489,0.173489394,0.1960045074,0.1102159633,0.1613807781,0.6230802843,0.0715530781,0.2858166339,0.2889891529,0.0581687629,0.6835614475,0.6832640638,0.1043173859,0.5146605284,0.6997963594,0.0573615947,0.3653702271,0.2843068786,0.2863208,0.0482665781,0.5943423996,0.3395869626,0.2378869926,0.3166177164,0.3627468819,0.104793542,0.5172928923,0.1170532404,0.4018235677,0.3966892727,0.1879710025,0.0707763952,0.4638007945,0.5966098008,0.2205812427,0.5045383762,0.2475768425,0.2194054534,0.3840253907,0.247543075,0.2591578327,0.644307664,0.5521606374,0.6169397818,0.2087116798,0.1788380039,0.0061121089,0.4240706196,0.5517754885,0.0673894054,0.2267718951,0.2621250388,0.5063089439,0.612565065,0.6911654258,0.6171118142,0.4546307833,0.1275620269,0.0236173213,0.3031993763,0.0578557503,0.4082172936,0.3673633654,0.319206238,0.2085643146,0.5349239466,0.1925046664,0.7068400706,0.4113390705,0.0527168727,0.7024454304,0.1996938981,0.0242393295,0.2300716262,0.6887558611,0.0455149124,0.3795542259,0.5615219551,0.4771644189,0.4682445653,0.6616003138,0.6986085564,0.5686434955,0.6940092072,0.2313469079,0.0356003903,0.3122578144,0.2319709479,0.0391117166,0.603733083,0.3099007132,0.2120416625,0.3957699024,0.6523852177,0.1244945457,0.1830334358,0.6505296668,0.4349975829,0.1258955174,0.3464982827,0.1206081665,0.6453309571,0.5997682811,0.2576891148,0.6895783429,0.5202946384,0.5760378885,0.0046500946,0.2577142831,0.3941860395,0.573460366,0.0423135106,0.4543073039,0.5844953741,0.353884282,0.3687114039,0.0258944325,0.4437729147,0.5183190205,0.4562678667,0.4732955104,0.5176587012,0.0935312235,0.46807035,0.2630056643,0.6317811545,0.0417561822,0.3467258619,0.2195447155,0.0215692333,0.1868426644,0.1397319722,0.4799816124,0.260423571,0.680532712,0.6657469409,0.711518285,0.0606951714,0.364378556,0.6582714333,0.415573736,0.1532418438,0.0818596814,0.0751925579,0.0934655195,0.5231516723,0.272385925,0.0242276785,0.2934449325,0.3681411782,0.0987029575,0.088393501,0.5279582733,0.2809332997,0.4595012258,0.3853398737,0.6908852694,0.5717111605,0.0227551721,0.3309919841,0.2914017688,0.2187713327,0.4675020607,0.2870498774,0.2091084493,0.1090847182,0.0208852442,0.2169927875,0.0563883042,0.555316059,0.3286769225,0.466489839,0.1936173626,0.0609207794,0.138943815,0.3125631303,0.0682999194,0.6400687737,0.3512773361,0.5998496184,0.5541834596,0.3334406633,0.7222744561,0.4671546669,0.6371771921,0.1638331285,0.0570003184,0.1266297619,0.6463991104,0.2368743235,0.1314759017,0.6746025592,0.4184221735,0.1765926647,0.2163336084,0.5022848616,0.5041647678,0.3117175731,0.3162367601,0.6560511964,0.1898810637,0.3125613068,0.5064926207,0.6108539212,0.0692072328,0.4428917052,0.5350745385,0.1390395495,0.4351041399,0.405831302,0.0009546456,0.4552443942,0.046209162,0.3604254181,0.2984676241,0.5380667632,0.0777540535,0.3583419327,0.6293881384,0.1432949459,0.2167732064,0.1047734874,0.1624308445,0.2214536154,0.2676730421,0.2798235836,0.1502231846,0.2229155177,0.6536739404,0.3916216963,0.0581141056,0.3856833787,0.6219703763,0.200061164,0.5174667046,0.1739473105,0.5808970268,0.0917176434,0.1003377537,0.3067723075,0.1608592388,0.2854073085,0.4178469283,0.0223169244,0.6834936658,0.5500949387,0.2974714473,0.0775778616,0.1311217763,0.4973146122,0.3979136563,0.0712540547,0.3495767763,0.677442315,0.1172481118,0.1152618265,0.2901726064,0.2622426427,0.5969953369,0.451974162,0.3619589203,0.6750129649,0.4946903474,0.6822527222,0.7091626962,0.3538815043,0.289179234,0.202066743,0.7088845128,0.6127953766,0.1723724842,0.4944421046,0.3055195927,0.6681279164,0.6421242284,0.1120141761,0.0430342109,0.3989094402,0.1990122957,0.1979823886,0.1750438939,0.0800775432,0.6794121258,0.7088629148,0.5986688176,0.454446829,0.1373968278,0.724052707,0.3959345137,0.4026882329,0.5443627813,0.7051959108,0.0784338948,0.2465837162,0.1702110764,0.4900865411,0.1877367817,0.6947679876,0.2391447801,0.6976931051,0.0624983829,0.074340646,0.2688432085,0.6732883989,0.6122525978,0.2538049401,0.323037922,0.4024169201,0.4865824097,0.4707409833,0.0990680066,0.4078748055,0.4829462123,0.5296153423,0.3577486999,0.3748797087,0.6771792835,0.4252294719,0.6181998496,0.1962350329,0.2605984351,0.0018199133,0.4959104961,0.4903519292,0.0578841531,0.1623963688,0.5229499203,0.0989185451,0.6134203881,0.175378588,0.1877964063,0.6938475543,0.5238232705,0.6165003958,0.4675446831,0.4789771019,0.629862306,0.4213314289,0.490100324,0.2835671467,0.334923822,0.6243644901,0.597271431,0.2047874386,0.1284899934,0.1795503218,0.6886416567,0.1495109494,0.0163293317,0.2920003666,0.328685581,0.4494573385,0.5384973907,0.3910636644,0.4323210726,0.2427205358,0.327182908,0.3177192996,0.0620600918,0.6517219556,0.4560090539,0.5597002308,0.6282053641,0.6851833656,0.0959679142,0.2884642702,0.3420468261,0.2150543294,0.2913510671,0.3516266713,0.1546545549,0.6087323166,0.4515835018,0.5976846799,0.6901529551,0.1239661979,0.1474784336,0.3196511736,0.1336807281,0.5949514802,0.4061366481,0.486821563,0.5139226887,0.2880613738,0.6312653508,0.1462006358,0.1293357592,0.2663973484,0.1081459408,0.121897383,0.3281047429,0.2080827913,0.5273647783,0.2316604104,0.364780707,0.1643190127,0.710460444,0.2950021456,0.2540752736,0.5873889072,0.6737685935,0.3085126344,0.3442267953,0.550910813,0.1305771005,0.0481007865,0.1965671832,0.0678358573,0.3547054302,0.5453872555,0.2528745593,0.1075106043,0.1156148291,0.6745175661,0.476848758,0.3042143889,0.2634792622,0.6343356122,0.3821522755,0.5820421865,0.3222714845,0.0796593527,0.4324831498,0.1409527431,0.1637590525,0.5125669852,0.5286635909,0.4155047595,0.2626430063,0.0967481557,0.6517311482,0.4444535492,0.5884514551,0.0248314859,0.341521375,0.4418203725,0.4169438957,0.2244576633,0.1889585096,0.7173504965,0.6929886386,0.0899657474,0.1760942497,0.7025202249,0.5218006695,0.0196492585,0.5928809155,0.7088340765,0.5144391029,0.1397614836,0.06021336,0.2307639401,0.4755718075,0.6531147151,0.4799379303,0.1122982801,0.1158483573,0.5574439001,0.1748103623,0.238082072,0.0564922189,0.6684162607,0.0986989468,0.5000893384,0.6040447263,0.1704483539,0.631048805,0.4412772173,0.3570725428,0.0190884174,0.7053164244,0.048585166,0.5880412999,0.0628057281,0.6827472301,0.2026906079,0.5925282674,0.5353730605,0.4297675245,0.0689504793,0.6803386063,0.4986519239,0.5947771132,0.3850400767,0.0755889273,0.5798885617,0.0963033762,0.4815315717,0.5438908846,0.4092984417,0.1424636901,0.5530238575,0.1031864328,0.6868084299,0.0110872514,0.711212225,0.7244657368,0.3757942447,0.2258452082,0.1130118486,0.6818088687,0.1777887167,0.0927168402,0.1827071633,0.6600799135,0.0681040075,0.4860944504,0.5610416799,0.2522838053,0.4614950727,0.6744746489,0.0275507886,0.3937694202,0.1372016484,0.4956824953,0.3894289055,0.2296976046,0.4485898589,0.0381389267,0.544332057,0.6445494745,0.6089285546,0.6727608554,0.4889686314,0.4021558095,0.1516049233,0.148613577,0.0122554029,0.4236036352,0.3372939603,0.7018243047,0.3572207729,0.4193563579,0.4395835926,0.333346657,0.377532353,0.2658225141,0.0807343301,0.6754988938,0.4118334277,0.303600554,0.1513533617,0.1653135477,0.0526192115,0.474213784,0.3437444132,0.2014943485,0.5089143834,0.3486495931,0.6543716351,0.357902777,0.5785027086,0.6344303006,0.5357184489,0.326990498,0.1758870551,0.227971525,0.5616945464,0.0882724138,0.5817957616,0.3116051476,0.3789320778,0.2613244756,0.448359202,0.2158092124,0.4835290457,0.224274787,0.4733394267,0.2978205241,0.3279858112,0.6381681278,0.1303247328,0.354292722,0.1633435235,0.3568502431,0.344108144,0.3340773427,0.1197668981,0.5845908479,0.50764144,0.1074514426,0.2609278067,0.2007117367,0.4453663687,0.289161735,0.5554690528,0.7007722517,0.0942887401,0.4991200707,0.1967461078,0.1541411142,0.6880764062,0.3567005475,0.0196579033,0.3054838093,0.3302675232,0.0357770715,0.3316516042,0.3409019527,0.5920283064,0.3638822864,0.6274391221,0.6885291712,0.547474105,0.5517240748,0.2588811024,0.5391593672,0.5713000239,0.6420553848,0.6391530046,0.1872394167,0.584387201,0.1372306917,0.3946741992,0.6829863248,0.5478976816,0.5643582025,0.7237684734,0.4422819261,0.605716159,0.5268693739,0.4573090843,0.3530247769,0.0433572349,0.463765202,0.3478250654,0.5855112587,0.1919870721,0.6700443055,0.208025674,0.205053709,0.4536280706,0.4986807041,0.6312794987,0.5279940953,0.3956292038,0.5977660505,0.0319503128,0.4898600724,0.2417553993,0.3665909013,0.4617725917,0.6156038382,0.3138709929,0.722941066,0.5687223449,0.7008885767,0.0695448363,0.3218253985,0.3957992369,0.3290057889,0.2142272707,0.0214683655,0.0586608875,0.2165379437,0.2635067401,0.5090192,0.0505732575,0.3364408428,0.2248635198,0.3484706202,0.5791383094,0.7104071795,0.0221949744,0.1560504856,0.2518972249,0.061461286,0.4618485686,0.3953420911,0.4450895619,0.4068414062,0.7018474402,0.5269651009,0.3553003669,0.5126476424,0.6699497787,0.5536410324,0.2641868564,0.171541852,0.4703845604,0.4885473339,0.1928812882,0.5491383204,0.5355104165,0.5544845426,0.2831834033,0.2747726304,0.4328350101,0.5560141324,0.3262910112,0.3173226271,0.5609373464,0.2359724557,0.2000929694,0.2028598665,0.4538764341,0.2831704755,0.2687753645,0.3951040744,0.6710162986,0.1511100456,0.4706181002,0.2971256396,0.0670889672,0.149031245,0.3216783454,0.5895666031,0.428905037,0.052091555,0.6927801016,0.5549401918,0.4627712364,0.4203167435,0.5245551492,0.3397155856,0.570044873,0.676083745,0.2619343194,0.0855063765,0.1017085916,0.5277580082,0.5514227691,0.6818044179,0.6674725171,0.6828487047,0.1432963176,0.1691289268,0.6135025514,0.4999871865,0.2160670862,0.6645501322,0.2508418726,0.6594317033,0.4394952238,0.2721683212,0.6612878726,0.3788798325,0.4306127229,0.1367151101,0.0055118449,0.0543317297,0.2143492755,0.4810987594,0.5952162485,0.2478485264,0.2919522923,0.7066339088,0.5844916128,0.6405401711,0.4141501366,0.070444902,0.290004358,0.0601273867,0.6549084141,0.480299531,0.3730711675,0.5569918103,0.0317882985,0.2293958453,0.2988103007,0.0856730808,0.0772076399,0.1203941628,0.2535957497,0.141882625,0.4954205612,0.2992963609,0.6837017402,0.0759977771,0.384059396,0.2421650293,0.3943489042,0.3442262141,0.0877930284,0.2602852267,0.0409105412,0.503582683,0.1233497301,0.0744612071,0.3731757983,0.0615393772,0.2668405782,0.632154466,0.3209540804,0.7120152362,0.048163011,0.2440400251,0.3499264158,0.383133351,0.2550553222,0.5627331387,0.0202076681,0.5966709578,0.710514765,0.3949982072,0.4579365635,0.6949921721,0.6805207369,0.1344334047,0.560468913,0.2895083247,0.7122956122,0.6652068412,0.1169477585,0.0643356781,0.2511732605,0.0481933298,0.0938799046,0.4794757707,0.7149657743,0.2696282364,0.601454482,0.0996651785,0.0814178787,0.0019824846,0.6374719008,0.3801222537,0.6395608498,0.3995203124,0.6019140201,0.5873308714,0.0152339883,0.1629215468,0.236675723,0.6893818036,0.105179713,0.6990846406,0.077773086,0.4162817448,0.4771737939,0.161262044,0.0503841634,0.21390489,0.5255317887,0.5168854294,0.3268731421,0.5306580878,0.3591603294,0.3678521939,0.5949327889,0.3918269444,0.627893596,0.3573663311,0.7046244208,0.0299783711,0.4861649383,0.2459096592,0.7237230503,0.2225761874,0.3887441606,0.5893777879,0.5842703596,0.6478915152,0.6306483851,0.3516009491,0.0478086213,0.5510829132,0.6957875009,0.4511110399,0.1027124723,0.2145795771,0.7065695487,0.2362250538,0.6080076355,0.5775668801,0.522856885,0.5721220963,0.6691480496,0.1232993514,0.276616233,0.6373746884,0.1646430073,0.1016440814,0.0675179598,0.0868754929,0.5938644555,0.5172278565,0.1145425386,0.398999216,0.1085777177,0.161447271,0.6312089444,0.6248595657,0.2297072605,0.6030313734,0.3188413832,0.4960644834,0.4180377272,0.7109376923,0.1796870678,0.6376336652,0.0186000766,0.6495304605,0.532510931,0.1651128032,0.6765669972,0.6862176348,0.3812754024,0.6870777801,0.397012154,0.2356729998,0.0283157779,0.0544414526,0.2433668729,0.1917456962,0.4933224098,0.617181964,0.3680169403,0.546004162,0.676278397,0.6583753551,0.2755018182,0.367746734,0.058138381,0.1692777768,0.4306647327,0.5643739046,0.03813493,0.4346852291,0.33064849,0.3071434349,0.6443850775,0.2789119286,0.5105424092,0.4026918023,0.4476984424,0.3609382058,0.5890894215,0.723716093,0.676928641,0.2984014766,0.3951171455,0.5277455983,0.6551043336,0.1123712467,0.6107544064,0.3245523312,0.0590872665,0.3482370462,0.2066565075,0.3333757769,0.6073524618,0.2311439218,0.2273898445,0.0271146564,0.2910650252,0.0530511375,0.0771037029,0.411735604,0.0835349904,0.1830323975,0.3745792568,0.6114125781,0.4726403206,0.3272948937,0.5460218596,0.0059631615,0.3652557519,-0.0009673175,0.399326757,0.6083884121,0.6367064112,0.5540649097,0.307963175,0.161765061,0.1752970373,0.0459840254,0.1625939226,0.681763217,0.1116166583,0.3602461713,0.4444462632,0.071916278,0.5036606568,0.4396467183,0.2093293255,0.6376922021,0.5460585774,0.1442865341,0.5270807897,0.3943485602,0.4896710192,0.5464242813,0.7113118403,0.0329478754,0.2066850098,0.4954006502,0.4404941926,0.6752570195,0.0669910183,0.5805847198,0.0694162181,0.4809459331,0.422042971,0.0991394783,0.2005194694,0.669575159,0.6046069797,0.4353955436,0.0443925393,0.6847222988,0.26836173,0.6073423777,0.3764823287,0.3043176584,0.0341726619,0.0313590926,0.5366062926,0.0623380424,0.0081655536,0.3012458576,0.1065180086,0.4630714981,0.1647238645,0.2880214165,0.6733483023,0.1809468204,0.6170893864,0.6164795158,0.028227505,0.4248590248,0.5580951003,0.5979000316,0.5639779542,0.648541023,0.6934024495,0.4698034877,0.2246839122,0.2994240979,0.6543717944,0.4647540777,0.4398987899,0.0715202494,0.2026762863,0.6434439491,0.1455236728,0.3038426538,0.1114231833,0.0970178226,0.6039981454,0.5399719661,0.3871361922,0.0558012688,0.3926510979,0.5090375267,0.5565378769,0.0045521249,0.7194235178,0.5060020972,0.2277644623,0.0106166223,0.640175639,0.5151681196,0.5270807637,0.5533048233,0.0494537872,0.2598113927,0.1806032989,0.0662454281,0.4670299469,0.14645163,0.2134588154,0.4383107215,0.4415105171,0.1553836435,0.1600608777,0.5293994206,0.6350608334,0.2618117306,0.1672444677,0.4682429489,0.2518023191,0.1997682428,0.6777947243,0.6536262014,0.3512245104,0.0584399153,0.0730772953,0.3821297479,0.2201083655,0.3742839327,0.2737463851,0.6579687653,0.0116444275,0.4793325512,0.2385040933,0.5300695729,0.4268257336,0.5121084894,0.6859245952,0.6343954498,0.2526914556,0.3123712035,0.6605608713,0.1268804175,0.2774184383,0.1883053555,0.2053953293,0.4711208858,0.2901514667,0.0306301883,0.6858322093,0.6473436197,0.588002754,0.7099245097,0.0783410472,0.0241791742,0.0819167005,0.3240535649,0.2865615142,0.6333573228,0.5007464174,0.5978604021,0.4133254899,0.4011965262,0.4239356137,0.5826679474,0.5309267395,0.2711775371,0.2677821594,0.063369243,0.6661085264,0.1511043759,0.5311327774,0.5973361548,0.2817333024,0.1961880513,0.0942898055,0.4323074782,0.3766081791,0.6390049637,0.0382757898,0.2235508928,0.1169034379,0.1932619417,0.6408270565,0.6047288037,0.3647903507,0.25951565,0.3941559824,0.6368481366,0.7164961929,0.0163174205,0.0890340574,0.0702589039,0.4226581785,0.1070232369,0.3488405031,0.1124659545,0.5458669419,0.3810616408,0.2597120467,0.0522181377,0.5980414163,0.393599444,0.642010494,0.6479438853,0.0213106651,0.1907547159,0.3715384643,0.335945357,0.2944838429,0.4434913178,0.1970392224,0.5951266338,0.6719349656,0.0139535798,0.7189361592,0.3953053011,0.4700559557,0.0462488304,0.3887754723,0.1349347999
