encog,BasicNetwork,java,3.2.0,1,1399412313128
[BASIC]
[BASIC:PARAMS]
[BASIC:NETWORK]
beginTraining=0
connectionLimit=0
contextTargetOffset=0,0,0,0
contextTargetSize=0,0,0,0
endTraining=3
hasContext=f
inputCount=140
layerCounts=1,8,141,141
layerFeedCounts=1,7,140,140
layerContextCount=0,0,0,0
layerIndex=0,1,9,150
output=0,0,0,0,0,0,0,0,1,0,0,0,0,0,0,0,0,0,0,0,0,0,0,0,0,0,0,0,0,0,0,0,0,0,0,0,0,0,0,0,0,0,0,0,0,0,0,0,0,0,0,0,0,0,0,0,0,0,0,0,0,0,0,0,0,0,0,0,0,0,0,0,0,0,0,0,0,0,0,0,0,0,0,0,0,0,0,0,0,0,0,0,0,0,0,0,0,0,0,0,0,0,0,0,0,0,0,0,0,0,0,0,0,0,0,0,0,0,0,0,0,0,0,0,0,0,0,0,0,0,0,0,0,0,0,0,0,0,0,0,0,0,0,0,0,0,0,0,0,1,0,0,0,0,0,0,0,0,0,0,0,0,0,0,0,0,0,0,0,0,0,0,0,0,0,0,0,0,0,0,0,0,0,0,0,0,0,0,0,0,0,0,0,0,0,0,0,0,0,0,0,0,0,0,0,0,0,0,0,0,0,0,0,0,0,0,0,0,0,0,0,0,0,0,0,0,0,0,0,0,0,0,0,0,0,0,0,0,0,0,0,0,0,0,0,0,0,0,0,0,0,0,0,0,0,0,0,0,0,0,0,0,0,0,0,0,0,0,0,0,0,0,0,0,0,0,0,0,0,0,0,0,0,0,0,0,0,0,0,0,1
outputCount=1
weightIndex=0,8,995,20735
weights=##0
##double#20735
   0.6489392069,0.1194570404,0.2236599356,0.2264307856,0.0857987703,0.1816773712,0.1024734772,0.4318806428,0.2133980846,0.6299095182,0.306695464,0.5344920533,0.2871487858,0.4235600918,0.2126885439,0.5895465235,0.0809563852,0.7028998283,0.553341794,0.0668417567,0.5715108084,0.2987615023,0.3851919639,0.4932727246,0.1828167772,0.4453427736,0.0542429257,0.1623483916,0.3272769011,0.3043860136,0.3504801882,0.3337077052,0.6794220688,0.4951588282,0.6086341415,0.4976330001,0.5010679479,0.6878309722,0.69537662,0.007455593,0.5610043725,0.1984150627,0.616791417,0.4924728336,0.442556017,0.243158397,0.525025322,0.2927815322,0.5007147498,0.6884093039,0.5488172394,0.0620394448,0.2802006475,0.5134691487,0.4444612692,0.4223390017,0.4283308661,0.1029585926,0.0126976814,0.1494478137,0.5697841083,0.3916458213,0.4236517535,0.2841807358,0.1674356165,0.2181026512,0.4872659458,0.0025687552,0.5493885198,0.4863996457,0.3121910471,0.0449447236,0.2996495066,0.6562357255,0.2810553646,0.4030634272,0.0608946965,0.5983344098,0.3003186841,0.1037218671,0.5969489261,0.3017761107,0.3963605271,0.2293259058,0.438366922,0.090696571,0.2199748459,0.2037753153,0.638526479,0.1822226266,0.4066160884,0.1749763503,0.5509347152,0.4699677042,0.3060441758,0.2557194372,0.3081242755,0.1205042965,0.5421206244,0.6496921779,0.6905746509,0.4415382396,0.5370081668,0.6346322198,0.1746128479,0.0967131884,0.094076107,0.2311460447,0.2003392972,0.1456564385,0.1104606579,0.6008226432,0.5164426313,0.3996204791,0.1692993986,0.5044712435,0.4687403371,0.2252080364,0.2059858461,0.0596007482,0.0574370926,0.5042048542,0.5506774138,0.5896053653,0.2505292594,0.0090648737,0.5889918569,0.1156831351,0.6274278074,0.3378589965,0.4702163113,0.3241861281,0.2630635369,0.6917857726,0.6608730643,0.1847079119,0.005567469,0.6774148827,0.5026296498,0.0160338392,0.1146157484,0.4033698141,0.1227778647,0.248745387,0.0988467704,0.3063749522,0.1256702048,0.4722485701,0.1525117435,0.1810989064,0.2760889083,0.6947974861,0.2921951223,0.5155407059,0.576606254,0.0914249609,0.5226426693,0.2842958983,0.0621965495,0.1605008809,0.6384001874,0.0255775407,0.0981734367,0.1788865687,0.5250277733,0.540554177,0.2861281181,0.5062679486,0.6946692977,0.4969732701,0.0758715393,0.0107963982,0.1705185781,0.1347085196,0.5443480936,0.5284470696,0.5742321217,0.3824481383,0.2874688315,0.2599192897,0.2646055077,0.2370391727,0.5267978512,0.663989801,0.3118709664,0.4813622341,0.701886992,0.2127791506,0.423486367,0.2682958306,0.5055535926,0.6561053396,0.2078921338,0.0158746247,0.469785257,0.6479102589,0.252106025,0.0705017212,0.2587153324,0.0099336525,0.0239183461,0.5551213943,0.5411559554,0.2892370626,0.6840925789,0.5556181949,0.1143738765,0.5977562355,0.0499141596,0.5110528564,0.1973509364,0.1885728531,0.0741570445,0.5501816741,0.1691802082,0.3037499187,0.1413310944,0.0164886105,0.6759276385,0.0473854301,0.3950994665,0.5078291621,0.3016676952,0.1362210325,0.100682925,0.6835243745,0.1424553928,0.4769216135,0.0301528887,0.5157607764,0.2289405676,0.5660719238,0.6965263748,0.5334183,0.6405443433,0.5303197253,0.2244664261,0.0729665133,0.4523851786,0.6469683248,0.5314869579,0.1820788211,0.2723766287,0.6019158016,0.6217626191,0.1975195585,0.1469286116,0.1639731885,0.4737608489,0.3430535671,0.1134706658,0.3822712148,0.6579070319,0.0801171793,0.2923753582,0.2662793273,0.571669217,0.6988625157,0.1786545482,0.1896339453,0.3372606714,0.5528300421,0.6484722708,0.3465153177,0.1009996437,0.4318034604,0.1019283088,0.6898424214,0.483312843,0.5569624574,0.6467267308,0.4633080667,0.215559284,0.1730094126,0.4960144232,0.4529152829,0.6031483433,0.653478034,0.253501764,0.326500363,0.3312438969,0.3374046468,0.4250479893,0.1993871223,0.4905251487,0.1147920238,0.5853493241,0.2378205224,0.1355031816,0.5100570322,0.0874593132,0.0533801165,0.5130281299,0.576688545,0.6860044108,0.3298837225,0.1270002452,0.2532083758,0.2386143904,0.4299652529,0.674796103,0.3048729415,0.5380646495,0.3022335122,0.1558897772,0.1485030824,0.7071897555,0.3266767812,0.1433638775,0.2175882972,0.6854994877,0.6109864577,0.5811711577,0.5622243351,0.5367080979,0.4526446308,0.5262053716,0.3953253972,0.3773423926,0.5677125763,0.192059876,0.695636362,0.3317177111,0.3515250522,0.0346709778,0.0563840509,0.5791538279,0.3373931661,0.1235174564,0.5754148258,0.4675733006,0.1457828319,0.6305385261,0.6683408243,0.6313548075,0.516594646,0.4600092116,0.6962089965,0.3569851122,0.6721888651,0.0322252465,0.6861678962,0.2244998724,0.2484217458,0.5321240682,0.3781256556,0.5949648204,0.2146306582,0.2581460537,0.396691491,0.0842730255,0.6866420056,0.6019867791,0.6311929419,0.0440816583,0.4137326738,0.6803792061,0.0366533636,0.6148195564,0.2146963184,0.6814505522,0.4611725976,0.6835184406,0.039953469,0.5230490195,0.0817977701,0.0558683099,0.6534437929,0.2122795439,0.5714496642,0.5721822774,0.2115173515,0.4274094923,0.0055009366,0.2747256761,0.5712919064,0.3855872815,0.2012794631,0.1708156176,0.0987464526,0.6908354982,0.5004792474,0.099772923,0.2540412723,0.4082849186,0.7002222826,0.5988687831,0.662872113,0.3525541257,0.1386120105,0.286991435,0.481374906,0.4956662942,0.5143491115,0.2614463455,0.0845753027,0.0568035107,0.3348835786,0.3810460444,0.1478903949,0.413592275,0.5075302381,0.0080763266,0.2048286168,0.4447960774,0.0082147484,0.5605901426,0.0734152409,0.3161231052,0.3895037933,0.1901966271,0.1804158929,0.0708696602,0.5482640961,0.4409814349,0.6504658723,0.1549345476,0.5603523714,0.1340062207,0.5805883635,0.5646467159,0.706475722,0.4711980733,0.3186916557,0.5024804586,0.4351483285,0.0758164422,0.1605117809,0.6759645868,0.2459602044,-0.275751524,0.6140000829,0.000541414,0.10552245,0.1061064856,0.3752925138,0.0556502988,0.1311562144,0.680072272,0.2941915718,0.4387930165,0.3058025326,0.0733047478,0.2251357253,0.4421814158,0.7018215315,0.5717893339,0.259243202,0.1241851416,0.0876031716,0.3169810335,0.3993098226,0.6192934447,0.1631489793,0.0980243012,0.7033737757,0.3868166107,0.3017666336,0.4383952445,0.3741665361,0.1417783501,0.1600374287,0.2124440106,0.5053708802,0.5596154866,0.5798776509,0.5917714623,0.6898145528,0.0318634483,0.5380848809,0.4159462782,0.5235407227,0.2442308681,0.3985433591,0.0199514416,0.0939750038,0.1827695658,0.3513975435,0.1133294982,0.5725331811,0.1708897337,0.0813319187,0.5118852912,0.1325151607,0.4814710619,0.3510351169,0.1020528667,0.6208712297,0.2353964279,0.609903,0.6331449706,0.1321125854,0.063775202,0.2359704983,0.070161852,0.6001209503,0.5718767357,0.5835145803,0.1185765804,0.4780275373,0.6490474974,0.4512329064,0.2244605894,0.4920627305,0.3405580305,0.2003002046,0.6331759692,0.3265241263,0.205029422,0.0406184553,0.4417143956,0.4082809542,0.4440862211,0.307437944,0.6414804494,0.2020445715,0.280113373,0.6935361313,0.4502805686,0.5540390289,0.2379871614,0.3603261539,0.0481564244,0.2323609699,0.1222678567,0.3307022198,0.4682292412,0.4359584793,0.4820519923,0.0181285725,0.6384177305,0.567922396,0.5670790708,0.2093018791,0.4818711396,0.3994574595,0.113963013,0.0531325339,0.5909155828,0.0621030393,0.3963679164,0.0198625757,0.0750455587,0.2417837602,0.1566354507,0.5582067063,0.6777233622,0.1134679896,0.6969749652,0.3417742024,0.1871738284,0.4708891213,0.5660982057,0.2924734254,0.1948287219,0.1644962327,0.2760710863,0.0609542361,0.5477605595,0.6010807696,0.137300478,0.472962945,0.5926548708,0.6303461177,0.1468777515,0.6637190903,0.1986266468,0.4105960634,0.5353127291,0.1721239298,0.1735049308,0.0550734581,0.4960530646,0.3966763047,0.1750373335,0.3265298553,0.0812961731,0.4700083908,0.3097421118,0.1480925165,0.6937542281,0.4987625233,0.4963634592,0.1191840295,0.0095324157,0.6171191882,0.5163210813,0.555843784,0.3084808686,0.4619628313,0.11970531,0.2339403087,0.6622159793,0.1626497865,0.3471922065,0.2499364291,0.6858488111,0.6229506474,0.1697880429,0.32904199,0.0462384279,0.5961677142,0.0000424057,0.5007884041,0.439715286,0.0440446697,0.2889250579,0.4120816998,0.255667037,0.2282431727,0.2088557431,0.3932293642,0.3852483054,0.5328482052,0.1320165658,0.2082774685,0.4687662745,0.3460875629,0.0518338563,0.1167066532,0.2605003471,0.1452841236,0.464063396,0.3788401865,0.1231010121,0.3992598344,0.7070329086,0.1735058449,0.2817879338,0.152643948,0.6245175116,0.1578185776,0.5598356879,0.6064042689,0.6520034638,0.3894636638,0.1715005854,0.6546934204,0.6570000821,0.3492060641,0.7037677053,0.0301409852,0.6318537268,0.6597076116,0.5409698052,0.6567818652,0.2550250036,0.2194167475,0.2680200243,0.3484018733,0.6979338743,0.5708240057,0.3317177775,0.1516184296,0.3379674812,0.4210038404,0.0166526056,0.175244537,0.1886881039,0.1868876598,0.5211975068,0.5042319656,0.4726118021,0.1278288057,0.1526616092,0.4515003465,0.3449107552,0.2054510352,0.3434706305,0.3258784945,0.4388092143,0.1626559828,0.2056770881,0.4348081952,0.2017247224,0.5768373666,0.1348205966,0.5254517026,0.2192760353,0.6522796067,0.4221316831,0.1957063045,0.0003669036,0.4065193037,0.2488362597,0.4635142982,0.6787844269,0.3774742332,0.5793377096,0.1511947803,0.2778077127,0.0084212729,0.5686976749,0.671999561,0.2774723911,0.1939267047,0.1301310995,0.4111877088,0.585225954,0.4760534891,0.3532622431,0.0979793594,0.3755884564,0.301402114,0.2132032202,0.0515335861,0.5442144249,0.5746197306,0.4603921828,0.1404593864,0.6333471002,0.4803779033,-0.4957945684,0.1537191203,0.4486615972,0.1620575057,0.2312479018,0.2445092141,0.2572989584,0.5262724116,0.5330028797,0.4328716366,0.2172983621,0.3598868449,0.6612539238,0.5157765722,0.4379425348,0.4182358222,0.2028051858,0.037251159,0.6479313283,0.099560299,0.1081836849,0.0235796079,0.6615636921,0.6467184443,0.425432765,0.5035186002,0.4548708136,0.2042162383,0.1963483454,0.2223478538,0.2114727103,0.4622906143,0.6571635435,0.5119453661,0.4934483011,0.0806793754,0.0046647847,0.3851121732,0.0259162819,0.503207839,0.55692078,0.6550788587,0.490460364,0.6659019473,0.1014742716,0.512092748,0.2573912731,0.1113218957,0.2283061777,0.4111558985,0.0393328417,0.4771833723,0.5471653416,0.3825791977,0.4122957574,0.4075149436,0.2201096561,0.2122973005,0.1807032951,0.1848550827,0.5864216942,0.6308860249,0.609732846,0.2421689032,0.5782707704,0.3810415376,0.6469743015,0.0724775576,0.1215919151,0.5478557941,0.5463394829,0.705530781,0.5491086636,0.242984875,0.093396896,0.4797550182,0.3969381685,0.2631871334,0.0294366931,0.6998024814,0.0012896934,0.1909469359,0.4275152936,0.5950756318,0.0813748964,0.2355662305,0.1496647802,0.3225119135,0.2624632911,0.4261627999,0.2009114446,0.3694018194,0.1498975543,0.3823977911,0.0829312609,0.5962727663,0.1145539774,0.2166169596,0.5337011854,0.5635196271,0.6200594119,0.6485826342,0.3044936334,0.3240463997,0.6140836715,0.2704890164,0.3730497477,0.3768905923,0.0594050028,0.0226567788,0.461928658,0.2538360708,0.6404610555,0.3531675425,0.6522718714,0.0915711393,0.4396491164,0.4134229027,0.2055190111,0.07128146,0.0327009834,0.0692833352,0.1850631209,0.0167718487,0.2165093463,0.6837303815,0.0952775676,0.1785774486,0.3801818033,0.2616996764,0.3771365424,0.6832304004,0.5696017478,0.385788473,0.5910765907,0.5212607442,0.0986750351,0.5274547715,0.525114726,0.1866540918,0.2284341408,0.1580389798,0.1489883561,0.2586177717,0.4746610952,0.5946574395,0.4300529598,0.3724820926,0.6248178427,0.2962036046,0.0125705188,0.1215231484,0.4995323317,0.7054326159,0.2581144541,0.3711847602,0.7016185765,0.3358998055,0.0419617398,0.2516012099,0.3707854182,0.5862466479,0.5347224447,0.1782111603,0.6338761572,0.3670099022,0.6223945662,0.6890012602,0.3542730536,0.3133797959,0.3673811836,0.240675898,0.5352896827,0.0379882444,0.318472227,0.4967672247,0.3337687806,0.1705851157,0.6873768268,0.2254654002,0.2748446148,0.4478420723,0.4119301052,0.2048015773,0.5829655488,0.3224096582,0.3134865804,0.3208932059,0.3176291991,0.542552867,0.6657475323,0.3673155533,0.2136933431,0.5943058473,0.5003759768,0.0839132881,0.1323505897,0.5734714238,0.6464191818,0.5618665311,0.5785526639,0.1183128815,0.4513311497,0.6693122963,0.1128769041,0.3986340699,0.5295178097,0.4963431923,0.4994832286,0.3295246104,0.5227023875,0.1294083336,0.3622267068,0.4597257578,0.4597118922,0.0991259528,0.1827304828,0.0702627187,0.2133894642,0.0421334319,0.5118386057,0.6685112691,0.5530407053,0.6136818831,0.3368306536,0.128222697,0.2138714474,0.0247737738,0.6676184206,0.4217767999,0.2577116612,0.3787329035,0.2228236714,0.6420301911,0.2217951436,0.1657383023,0.202723047,0.3020838201,0.2259189614,0.4465100074,0.6727451568,0.5378041687,0.0241310623,0.3530862635,0.5218571671,0.5207067411,0.0894669826,0.5889787719,0.5449611036,0.5300004172,0.1665948831,0.5617403728,0.3543708654,0.563942561,0.615178694,0.4896501763,0.1052701492,0.0404984054,0.1280770955,0.6603824852,0.7027951893,0.4226447422,0.4387837527,0.511913003,0.1572354105,0.5710660595,0.6128424354,0.6058698455,0.551230142,0.4132961619,0.4669503004,0.1612609999,0.1186076355,0.5596843206,0.4253681746,0.6508647027,0.1053235903,0.3253723192,0.1128766176,0.3440092278,0.5475425422,0.2891446488,-0.1714727109,0.6740122862,0.0071160642,0.4306953351,0.5887523131,0.2778378251,0.1526484808,0.6218055982,0.5785558101,0.2367222917,0.2047523242,0.5874775274,0.4200037568,0.3643107931,0.1906946185,0.2306292721,0.0475465623,0.3662777867,0.5452188079,0.0835554347,0.6523993406,0.0824756667,0.0137963485,0.5234908235,0.5509666287,0.0066303274,0.0930013768,0.7053172923,0.0967344175,0.1287477184,0.614715074,0.1403597105,0.5401146995,0.2957972721,0.2801705892,0.4066392814,0.0741209601,0.3072087607,0.393835741,0.1427592267,0.5018750094,0.2568464814,0.4962607709,0.0853203462,0.1415775932,0.3251632169,0.0552707163,0.1656154081,0.5241131413,0.1153871178,0.354667057,0.1355911108,0.3475498927,0.7158521821,0.4823715303,0.0732752582,0.3247828739,0.5533644235,0.1405477908,0.5120476385,0.4799457796,0.2654105616,0.416418079,0.6415038671,0.2746171036,0.1680829192,0.5534500598,0.0929112021,0.0032488055,0.2802798188,0.2183930902,0.5943040445,0.674264011,0.1130153534,0.1385655885,0.0135964272,0.3871111146,0.1071955833,0.0462999671,0.5583805948,0.3537642481,0.4231603835,0.5842028731,0.5947188617,0.107723392,0.4057328347,0.5408058866,0.0242759653,0.1944493663,0.2646784484,0.5132213543,0.523846102,0.3402267434,0.3984017544,0.5154383598,0.4150227063,0.6761909299,0.0268340621,0.6361285893,0.6052390172,0.3836471247,0.1596558021,0.1066919413,0.7139141317,0.1378050684,0.4549617566,0.5310118964,0.0701279799,0.4740425416,0.3325755949,0.6171008324,0.5651120827,0.6197033082,0.0056563589,0.1284875451,0.4518858111,0.0917118431,0.5450727015,0.4422655138,0.5618662084,0.0583404206,0.4884687318,0.3072533343,0.3051709472,0.3537869842,0.1541930164,0.4319482275,0.4956487138,0.5437582155,0.0582491377,0.0877145768,0.4868741838,0.4109316603,0.0523412208,0.3100630453,0.1465431926,0.1699590966,0.6634318466,0.4199823107,0.014769783,0.427789635,0.6260906602,0.5913998907,0.1250187942,0.0022822255,0.6751840729,0.0887479859,0.4088306606,0.7033311776,0.705745792,0.6842766163,0.4565086597,0.5804358907,0.1652878235,0.6202531393,0.3439821534,0.4463729761,0.5873615702,0.0028887943,0.5826940475,0.2648982095,0.0723448514,0.2752373964,0.3321276748,0.6279834667,0.3124226752,0.3926208705,0.2837868945,0.6641917449,0.6071146294,0.1768537669,0.3499450271,0.2856344446,0.3940587689,0.3762255663,0.4822406488,0.6318923183,0.0781858017,0.1194114994,0.3407688323,0.4903291332,0.2821700325,0.1908947264,0.1690096573,0.3867403553,0.5765154025,0.2180153589,0.6474724464,0.638095463,0.4309158923,0.510058957,0.3777529869,0.5078873981,0.3081268956,0.0853763946,0.3396987125,0.1893508493,0.3747395169,0.4046745437,0.2082861275,0.317634174,0.4054104263,0.456046216,0.2818705675,0.3070450877,0.4298295077,0.2800429207,0.5381484819,0.3453029004,0.5676957838,0.0320739699,0.5661120782,0.0257759607,0.3162193903,0.4773570422,0.0610146759,0.6944842928,0.121724341,0.0844077072,0.2442351649,0.6192453167,0.5045529974,0.188295973,0.3785422924,0.3698773524,0.2445998498,0.5196706403,0.2227392081,0.1081345406,0.6704398361,0.0619775278,0.0709124369,0.6257784415,0.3724867921,0.3092090697,0.213966372,0.6401352095,0.6978544789,0.4624746478,0.6364259528,0.3514256913,0.1283495126,0.1304567437,0.3968778142,0.1695469182,0.4273774378,0.5690791294,0.2370900014,0.6956697275,0.1545757825,0.1759023399,0.4934669075,0.232546263,0.3275588583,0.0670359506,0.6785806695,0.0572567927,0.4936621551,0.0440731346,0.0253550785,0.1578147756,0.3729270185,0.2817131783,0.2983438548,0.631517304,0.4174721602,0.5567413176,0.0706555391,0.4442615709,0.3946468378,0.3401601844,0.0030936871,0.0256766209,0.1611182813,0.276351639,0.4961329194,0.5110922301,0.2750747748,0.078583069,0.5680917844,0.3733977134,0.1227599826,-0.5258744169,0.5988133373,0.136695017,0.7141920855,0.5662186814,0.6733048184,0.1215536388,0.5233918336,0.2718848268,0.3952454621,0.306262842,0.4011398365,0.5488708923,0.2567787818,0.557264912,0.3510865266,0.0891044438,0.703049523,0.0945066569,0.1083552509,0.3493503433,0.1690164069,0.587418254,0.3966404947,0.5871525722,0.3406788257,0.1689426099,0.477164481,0.2882645468,0.1706730889,0.5988853905,0.1407187725,0.7240911089,0.5549969872,0.4757402536,0.0240096357,0.4489281661,0.3977720027,0.1514750233,0.1883666647,0.2255845694,0.137031399,0.1555912922,0.0777748809,0.0896568769,0.7226844988,0.5423186411,0.3735593287,0.3260666155,0.3998745154,0.6668509004,0.3351818361,0.2640421676,0.5970534367,0.2568961991,0.5161857602,0.1392258339,0.2159207347,0.2218011506,0.0839377259,0.3384011349,0.6938254739,0.509172656,0.1179084388,0.4669830428,0.6499852668,0.4548986282,0.0204229871,0.306217378,0.5953509303,0.546832435,0.7161224441,0.2068895615,0.4732171515,0.0135907496,0.4951413635,0.6764912513,0.0084879017,0.2866577147,0.2935358958,0.4302914199,0.2814787315,0.7040344674,0.1770873511,0.5959989057,0.2916922407,0.4707047239,0.5036073253,0.2034648406,0.4914262032,0.5197269272,0.0346221525,0.1227930178,0.3597650361,0.1421622493,0.5186486045,0.311792095,0.4232961842,0.2731062643,0.3081502544,0.4220246207,0.0671021628,0.1228575856,0.073702923,0.0469072895,0.0594956827,0.6961548967,0.0856593268,0.1873495138,0.4216459653,0.3263281718,0.3785700723,0.678857949,0.4481840146,0.4142008797,0.5716805329,0.5503101,0.3151186763,0.6761483974,0.4534322845,0.4106373179,0.3526218532,0.3023532716,0.2688227751,0.4650933347,0.5136466381,0.3523494841,0.4026607889,0.6009037849,0.7061893816,0.3362600303,0.2034503036,0.2696761654,0.4539405802,0.4221506571,0.1178883037,0.4381728233,0.3334342213,0.6103951451,0.5257376038,0.1242310748,0.6914329937,0.5895173748,0.2114559237,0.2148725754,0.6608216366,0.2496324587,0.4519002249,0.5131357839,0.6833791213,0.5583857312,0.5602393901,0.1740663289,0.3395245618,0.4486921772,0.6449973558,0.5758279418,0.0270246852,0.0072415206,0.7229405437,0.2116690375,0.0419488183,0.6517460089,0.060494787,0.3651247446,0.3228432287,0.055823553,0.1488716076,0.0970766419,0.16720505,0.270537185,0.4933983375,0.2602249683,0.6183440527,0.5842146357,0.6284445503,0.0564143358,0.4774059964,0.3919225054,0.3384794182,0.3698412078,0.3444276557,0.2734117202,0.564174601,0.2935985293,0.7158633508,0.1070306859,0.5899203529,0.0415993804,0.0346936307,0.6165584862,0.5534222359,0.3811427018,0.7143958341,0.4042554322,0.6035791002,0.6757279239,0.311586422,0.1031724015,0.0721651096,0.3590744471,0.1285467823,0.4687598775,0.4844307831,0.7193574435,0.0939703221,0.4923089141,0.0375527,0.4855719409,0.2962450566,0.4184348918,0.3125010476,0.1798674967,0.2380585127,0.137178337,0.1029035091,0.3899630159,0.0194886232,0.0324594395,0.3797329982,0.2704287113,0.1510224537,0.2654801756,0.0242765257,0.0103158461,0.4547003257,0.6134857339,0.2651723778,0.6606129702,0.4781262368,0.2656943893,0.1160471045,0.5282413314,0.3966677981,0.6273213516,0.5583378657,0.6119796501,0.4904366476,0.2695252961,0.3451016428,0.0690671626,0.4048898842,0.6003498885,0.34468945,0.3077400016,0.0107807422,0.4960024574,0.6951500676,0.1461649668,0.3204139206,0.3044931817,0.4268325121,0.3171890405,0.6687720281,0.0567208836,0.5378971675,0.5765785217,0.2827674579,0.4467838905,0.681898892,0.2174783917,0.0067146715,0.2784382794,0.0051464218,0.6596080304,0.3097360033,0.232570425,0.4410184224,0.4771899854,0.420310937,0.3769478939,0.0108531147,0.6613611776,0.2103714824,0.4813995976,0.0808398295,0.285065256,0.7131758959,0.3279620989,0.6540280422,0.0050170293,0.3326041622,0.0788796157,0.0228991955,0.1418210222,0.5883033127,0.581799156,0.0901291531,0.3502278997,0.2023708894,0.2394222727,0.0442660529,0.0855334426,0.7210504763,0.0523433058,0.4907626877,0.1718875761,0.2691042935,0.4502453378,0.5338863858,0.5556470786,0.0933825413,0.5183816233,0.3371230232,0.2615075239,0.5513228929,0.538488525,0.2588339066,0.0292635502,0.4270485757,0.3764768649,0.3337522796,0.5976592801,0.3094426798,0.1811285877,0.6141075112,0.4230884247,0.1789693998,0.0238938631,0.3751754014,0.3946551818,0.1536196177,0.3452650256,0.4055193782,0.25427656,0.6266249989,0.7230148386,0.7115772791,0.2672367724,0.1990761337,0.120864209,0.2036794213,0.6939690012,0.3429508381,0.0093003799,0.3367910168,0.5542815591,0.3901928586,0.3978541931,0.6811956496,0.5184395246,0.2259565825,0.6639800892,0.3061427952,0.1779180846,0.5941404746,0.3179706129,0.5558312122,0.3781726474,0.0960478419,0.418631677,0.2939511783,0.5957273528,0.4215626258,0.1687218916,0.66879576,0.0038602203,0.6870454787,0.0795919232,0.0865482976,0.005959906,0.3634068213,0.6381963209,0.6044516719,0.4304198768,0.3831022576,0.5025308026,0.4843909894,0.1296081722,0.2130921268,0.133113055,0.5443828949,0.2966433123,0.1649362635,0.3623266542,0.4435655883,0.2145964459,0.3514327882,0.0204495654,0.2007281134,0.1144514017,0.6789602368,0.3183221601,0.5209677901,0.2233531919,0.05063272,0.2785872271,0.6328059818,0.3021913722,0.1792546479,0.5024427687,0.3890930089,0.5391436861,0.187643788,0.1317789608,0.4293592916,0.7121827821,0.0981714056,0.1934301045,0.1221438943,0.2108175299,0.5348808355,0.2942947759,0.3996649772,0.1370630961,0.5275611861,0.0199366325,0.6334598447,0.2878097485,0.1063103454,0.0061405693,0.6417671734,0.2619669084,0.7056297766,0.6901704865,0.2758594892,0.124635478,0.5164237049,0.3522696243,0.1427582648,0.5821236574,0.2066813998,0.4037102042,0.0777042359,0.095636883,0.1633521077,0.1582622981,0.5455269129,0.7178737961,0.3380411829,0.5338918322,0.1233240255,0.4120959679,0.5855432447,0.6678649896,0.6695407136,0.6350104315,0.3536905139,0.3444789461,0.223853497,0.4181035461,0.1131412659,0.5818923142,0.4610945614,0.3368825491,0.6790228405,0.1185357105,0.0773935415,0.0222643325,0.1518121062,0.2019066507,0.5980177246,0.0508337385,0.1421845371,0.3521336172,0.0995011048,0.027558948,0.3078799783,0.2465009818,0.1084078708,0.6625390376,0.4941324655,0.0749489419,0.6608664683,0.4784196982,0.0784477483,0.6683343241,0.3454435163,0.7073424473,0.4994014251,0.4416929146,0.5507640527,0.6762608023,0.3563792255,0.630459039,0.636831073,0.1868246687,0.4937823964,0.3405687541,0.32787079,0.3450947123,0.3567576232,0.2566176399,0.1147079533,0.6307838649,0.0534793579,0.6773647339,0.4998358083,0.159854213,0.255710647,0.6005770323,0.1089264364,0.4330424046,0.6075778183,0.0930554329,0.607560928,0.0313276424,0.4347446772,0.6363042623,0.2176308506,0.6240681112,0.3518637981,0.5863939976,0.3953921688,0.249247106,0.0074094175,0.4041671229,0.2042140174,0.1672129167,0.1847464566,0.3607463988,0.0788136724,0.6142640295,0.3869994555,0.0505953376,0.471991278,0.6550289424,0.4092539003,0.7058697006,0.528269634,0.1223291649,0.2562509963,0.6332134024,0.5755623183,0.5801889757,0.0329353761,0.2455630275,0.0181306004,0.6714300023,0.3878559014,0.4172025313,0.4851651463,0.1451956531,0.5266978639,0.0987206087,0.3243960416,0.3131904515,0.6884294371,0.1489723252,0.0746705184,0.0485789458,0.1316045837,0.1736357226,0.3288383134,0.1860453889,0.3006842157,0.5182323507,0.4617968145,0.34620216,0.516273532,0.3535669474,0.4278469697,0.1378275879,0.1774592243,0.5810727435,0.1331708024,0.5915379505,0.6340867802,0.2086807651,0.6171501806,0.2855600647,0.4710452592,0.2967542398,0.7226306518,-0.6733224478,0.6705731032,0.4777145805,0.6851081714,0.5613033932,0.4906742359,0.3601033045,0.5098329624,0.2806208899,0.7196921993,0.3170489907,0.2513193726,0.6262871822,0.4605337531,0.6693390706,0.2970776213,0.2252935122,0.038370777,0.449453428,0.1943144069,0.5413941364,0.1410587948,0.4007456142,0.0939870875,0.2461008605,0.0093301071,0.0464231789,0.6670555079,0.5879036928,0.4347817525,0.6674414365,0.0281375472,0.5340699687,0.3456923166,0.0143953644,0.5071888318,0.2639891566,0.5014695127,0.0435441135,0.2271408463,0.5369473827,0.00662391,0.1561871617,0.1296874686,0.2894960567,0.4921510372,0.2468449095,0.400159588,0.4268651137,0.6967225428,0.3399204323,0.0187168558,0.0304263947,0.6138902322,0.2963251094,0.0281245482,0.4251775709,0.1258987144,0.0356963175,0.1695329295,0.3394270479,0.4711373932,0.4259511325,0.2532112505,0.0947677091,0.0955630075,0.1885131537,0.2113142117,0.2353847027,0.635330435,0.2348502799,0.0376266356,0.6165573127,0.2720077254,0.6999672952,0.1231171093,0.681598408,0.599061618,0.3903382851,0.3723777764,0.1955538471,0.1747706232,0.0252534961,0.1861315058,0.6224593703,0.5051019564,0.7031193029,0.0417052497,0.478732484,0.182479457,0.6726710692,0.4470005066,0.3509828689,0.4440240894,0.6279569209,0.7121756647,0.7148208095,0.5166078148,0.6441977626,0.1482552052,0.6302943535,0.7223939899,0.4477576421,0.1386439539,0.0763079895,0.2454574964,0.3471430518,0.6638009789,0.6764486795,0.1584448196,0.1299973392,0.3204482939,0.4644592493,0.7074187702,0.3019712958,0.4305397716,0.4666966549,0.5206747253,0.2772026862,0.335680326,0.1239547317,0.5302600912,0.6849956015,0.2796291307,0.6910602231,0.0258673009,0.3475438621,0.3243183259,0.4816363975,0.0607633789,0.148090764,0.0443930785,0.3727096661,0.3278397558,0.380124751,0.488480891,0.2201191106,0.5685828237,0.2406551291,0.1349137321,0.3405677623,0.2040799097,0.3133026233,0.1886794555,0.0884735989,0.4479300609,0.1858541593,0.1961360738,0.6146685324,0.1728882039,0.5926000963,0.2207879012,0.0748068969,0.2489189012,0.3013412566,0.2002952259,0.2502699721,0.4658660516,0.6945648378,0.6624923114,0.4779820385,0.270861119,0.6293626816,0.0788211913,0.3913640219,0.2028970307,0.3508638421,0.6371112744,0.4682683667,0.0113235678,0.3763264842,0.7065072124,0.5882721826,0.5334503214,0.4615424327,0.7227689446,0.2355434491,0.2442503754,0.3174554244,0.5302227485,0.3697862335,0.0471212048,0.1425161904,0.2143966153,0.6774127311,0.70509739,0.3513391488,0.4444754579,0.1128647601,0.0131950346,0.3114907238,0.4812121295,0.5620973893,0.3200535377,0.5237757828,0.6914355059,0.5102294611,0.2913918806,0.4678600356,0.4633827229,0.7091701106,0.5713650994,0.2437413497,0.5748532502,0.1174927105,0.3742917195,0.1585024418,0.2639917198
   0.2574250142,0.4445266519,0.0225552267,0.3561969188,0.0696780693,0.6241920128,0.1242435538,0.6928887789,0.0015827073,0.5903668777,0.0965051406,0.5317279732,0.5832014406,0.3987360989,0.4784909342,0.578129372,0.4051395464,0.434321395,0.6265749066,0.3968638014,0.1460480708,0.0930301311,0.7023275861,0.3683426405,0.206694109,0.4273001513,0.373561355,0.1609136579,0.5035243925,0.5294143822,0.6204425447,0.4264688446,0.2680720337,0.0593610957,0.3550972324,0.1793190514,0.4240656597,0.5588365216,0.2532657574,0.0001818276,0.090271028,0.5674253184,0.318498457,0.4787597554,0.56893909,0.4454068374,0.2477088074,0.1350020571,0.7099155777,0.4202220407,0.6997227962,0.3060274733,0.6374498155,0.658266412,0.4193038592,0.1995526442,0.3145189022,0.1257682913,0.4403814274,0.51345347,0.5968221533,0.3791759894,0.6461654844,0.3533321709,0.2775636761,0.4562493006,0.069918138,0.1725733132,0.5836286259,0.2155200218,0.5598435337,0.7141809296,0.3376297901,0.1209374918,-0.47735072,0.0183330006,0.0461222898,0.011868839,0.4606180236,0.4914462318,0.260005874,0.5493734198,0.6113195176,0.1271972845,0.5038629722,0.238115707,0.264879164,0.5321387382,0.1202780279,0.2480892492,0.4474712009,0.4431426154,0.5290266486,0.3853541963,0.7250168511,0.5811195327,0.2324693638,0.5335123319,0.4785580617,0.6192637837,0.0159038898,0.3094900716,0.4662903202,0.1412310085,0.4752933351,0.3908582483,0.0871581705,0.1749073051,0.530103385,0.4917761869,0.6951716601,0.3981811349,0.4016692961,0.4487771711,0.2060103095,0.1495319853,0.3126550542,0.2673443947,0.6089666038,0.5053814854,0.2476375493,0.7084825557,0.6425045973,0.3642901318,0.099081744,0.5055902974,0.0746778692,0.5591120875,0.237500846,0.0521602332,0.3342658848,0.3614494365,0.5624723737,0.0039674179,0.2209837229,0.5708913797,0.1142028664,0.6606979882,0.6972887787,0.6706723502,0.6517058889,0.4182649413,0.0199859615,0.1533554358,0.2800927275,0.3478773553,0.0818302575,0.5073066244,0.476066405,0.651706977,0.1693593044,0.191490492,0.3133159156,0.2335745052,0.1642780551,0.5166700389,0.2412373827,0.2394193024,0.3865906733,0.7008557112,0.2333023006,0.2484450407,0.3252348982,0.5057128808,0.7007890953,0.2646703312,0.3382158473,0.1329625285,0.6431666094,0.1031216948,0.4794620376,0.4134659096,0.6164687809,0.6766730797,0.1052598154,0.1189650344,0.2335722142,0.3314582985,0.3728879641,0.6254280549,0.6797300819,0.3125164166,0.6182706964,0.2450681504,0.1911384077,0.3740892483,0.221612726,0.09378409,0.3234429171,0.3058861288,0.3257280123,0.2660731924,0.5806771191,0.2768043365,0.49763127,0.3335723145,0.1393928202,0.1441317714,0.4941815827,0.5142377074,0.057212889,0.4319847694,0.2975853668,0.3414274771,0.3188329511,0.4716047242,0.5383376671,0.1437077605,0.2929349926,0.4989791189,0.4384861078,0.2965369138,0.21762863,0.0879499403,0.492920215,-0.6005044286,0.0070800702,0.2708843123,0.2020495885,0.1781590759,0.7030740479,0.1515525302,0.3637426942,0.499909753,0.6506537963,0.3604374758,0.0353581958,0.6446754449,0.24350661,0.4987985531,0.0545531341,0.3535527314,0.2947713292,0.0338627409,0.2172140692,0.6477437128,0.5382130332,0.0016270318,0.1217552395,0.6174243534,0.3125480466,0.5800462824,0.1838281096,0.2142473619,0.6837865597,0.0144469119,0.1646483477,0.3496025376,0.315596021,0.3040669599,0.4881769424,0.331586494,0.3879009545,0.7158375769,0.541909841,0.7019716275,0.4964369819,0.0471227551,0.1217052431,0.0297862732,0.2910288023,0.6359232454,0.2336409216,0.4205144499,0.2531522187,0.6084092267,0.2370742304,0.3621294876,0.690609084,0.4146563855,0.5280212717,0.0810794921,0.2826138365,0.4563229386,0.1117134474,0.5122258298,0.1434566234,0.4151410431,0.4629738203,0.3791791435,0.281790692,0.1222022166,0.3791990953,0.4426956725,0.6795393923,0.1261508715,0.5908048907,0.277847393,0.531197517,0.2720693725,0.4559400925,0.0268526086,0.4361565231,0.2177896363,0.6336460409,0.2737231572,0.5877045845,0.212161387,0.4767234314,0.0141943048,0.3872530742,0.3188848742,0.7087434149,0.269524739,0.0976040469,0.1395760807,0.1052212936,0.2097067068,0.5382838442,0.268982305,0.0306392996,0.5762539905,0.3957712434,0.4785556575,0.5446891986,0.5803660111,0.2963957405,0.451555048,0.2312689025,0.2467674258,0.6620003276,0.5260105465,0.3020840834,0.3062686621,0.5033998032,0.6220761498,0.3160970146,0.1763285354,0.7156176291,0.2614725975,0.0951999574,0.1271991318,0.449393269,0.4516380134,0.1868351403,0.4583070305,0.2311301898,0.6561606802,0.5671299341,0.4640424976,0.0446181343,0.1120429596,0.1114389996,0.5183635805,0.2922421247,0.1725772123,0.5835831777,0.3032769692,0.1048422792,0.1347264478,0.3818107821,0.5796538651,0.3301692277,0.5554806451,0.4441249295,0.5637700211,-0.1580253323,0.6823109004,0.5048725549,0.2922751042,0.3519062324,0.3891915946,0.0167066258,0.6182502182,0.4786185501,0.5528759043,0.3545616316,0.6935580384,0.4166529893,0.0367448611,0.1148762692,0.0278974499,0.1161035784,0.0440646405,0.0923907261,0.6189563157,0.3771342547,0.4241670662,0.3902083676,0.3261939748,0.0550358848,0.3830428629,0.1964000472,0.6190558136,0.1832380031,0.0689314302,0.2464703331,0.4191676749,0.0635783053,0.5862582149,0.2190175025,0.063835071,0.5015344177,0.0089741412,0.0363863796,0.3797802254,0.2342175949,0.0457290229,0.15167725,0.1271246348,0.6849278047,0.3645643478,0.7082971853,0.3146714661,0.3800141786,0.0917412472,0.4786898462,0.1452700806,0.0097743059,0.0022858397,0.2513005906,0.016644755,0.648920724,0.1385673816,0.0847426464,0.4055212982,0.302441448,0.0744345069,0.6968847725,0.221518874,0.1184904648,0.1543967909,0.063489747,0.6710263737,0.2819293143,0.060882114,0.4582819142,0.6680639654,0.4666758354,0.3486201706,0.6266440313,0.6090329657,0.4072888028,0.5019751532,0.6311176466,0.4931189435,0.2412221628,0.0281397816,0.248754981,0.4935434741,0.2172380965,0.6869445612,0.3991590896,0.1489294462,0.238621705,0.6562624083,0.5629474043,0.0098083121,0.0617928343,0.0477743668,0.3792190124,0.5852863355,0.0765118164,0.2002831142,0.3999991517,0.4208235019,0.4531277811,0.5873730971,0.2888354508,0.6963775455,0.3067124785,0.1171794612,0.2521944818,0.3091474632,0.4208184532,0.6006848687,0.7064162783,0.0147495386,0.6674536722,0.0985578897,0.1917566647,0.6688702325,0.0636462275,0.584941383,0.0209394696,0.0382222014,0.482769211,0.1113987753,0.5603303552,0.4966820409,0.3438969877,0.3578751356,0.3292204737,0.6574860956,0.1468265633,0.4464549267,0.4242831609,0.4697480476,0.6028651251,0.6660258442,0.6877220102,0.6609393945,0.6368006452,0.0943893326,0.5742742012,0.5728074365,0.2587580964,0.1012146233,0.5412859009,0.5973669495,0.3546359866,0.4773699967,0.6252378688,0.1978357612,0.4522416869,0.6795756256,0.0749811493,0.6571559806,0.3817199359,0.7157929753,0.258403206,0.7191028559,0.1358551955,0.5226177097,0.3698374881,0.1918697756,0.405798513,0.5222198239,0.3252676781,0.5756543132,0.1386985561,0.6990013033,0.6233260498,0.5972419143,0.3924801787,0.1653731274,0.4398804987,0.6302103612,0.638252194,0.5336657018,0.0288277362,0.4132508351,0.0501764567,0.1810112011,0.0191710464,0.0469924994,0.1321106991,0.6844075978,0.4872266547,0.6822000751,0.6461574385,0.0620435928,0.4854018277,0.0948971434,0.5579519517,0.5465423895,0.7038571398,0.3540954957,0.1348474133,0.4175819133,0.7249173424,0.1068484098,0.1865674225,0.532894485,0.6861495467,0.1428199993,0.2964525497,0.2192181509,0.5582808037,0.4637263774,0.328184131,0.2129026948,0.3062834047,0.0610176366,0.5311833017,0.5131453954,0.3276480441,0.0968754768,0.5879845086,0.1543517642,0.4295260418,0.6979689267,0.2703361144,0.0526422276,0.1166538524,0.1144166865,0.37183561,0.2643901627,0.0620831781,0.3572892851,0.2402103101,0.3933061669,0.1239249961,0.6827936452,0.5945946269,0.66047133,0.5571622501,0.65675526,0.2476178226,0.4669368028,0.2668744402,0.2307530745,0.4497941676,0.4059016217,0.5435576038,0.0169751232,0.0388246632,0.7144766856,0.1743162694,0.4230524456,0.2340866902,0.503206877,0.2295276116,0.3313239831,0.5381070493,0.0570835952,0.1825785956,0.2282897791,0.3717799054,0.3162305713,0.5591463339,0.0800895785,0.0527947248,0.3471209652,0.505332372,0.294309788,0.0187731929,0.7030952132,0.283186584,0.2689729918,0.5171464353,0.4904159549,0.27953739,0.5930068636,0.2567909962,0.4929167799,0.7142238279,0.4432126954,0.5957683026,0.3201932346,0.5466431416,0.5830130727,0.3916590152,0.6761282882,0.5612581202,0.642808837,0.5084377027,0.4023554538,-0.191296824,0.4428047547,0.705738233,0.4032789237,0.4030613545,0.6905306547,0.1105147568,0.0863571078,0.0667480101,0.657749963,0.5408370905,0.2498891209,0.2832711013,0.713217938,0.2252404097,0.6481023166,0.5402082145,0.3265041696,0.3482454924,0.105400655,0.1969206395,0.4518296965,0.0019195616,0.2483996566,0.5193755688,0.5346443492,0.5705329741,0.2548822399,0.3666915189,0.1730268156,0.6588630811,0.2435202443,0.3739251382,0.470833619,0.5531336954,0.6255987764,0.5639110002,0.3751673421,0.0458684625,0.5070239827,0.6368417003,0.2474757454,0.1398784041,0.6033347374,0.0860522393,0.5634776333,0.3500787462,0.0362276005,0.4332097244,0.6391748207,0.2615760167,0.5543500812,0.1837826238,0.4510487563,0.6898842386,0.4440893862,0.4107812191,0.285694495,0.4583336787,0.5689390749,0.034651161,0.59724881,0.1838791242,0.6916302512,0.6349063865,0.5143419843,0.1593849202,0.100493923,0.0214261187,0.4015793022,0.2805497239,0.6032761351,0.044987536,0.5623098016,0.5733907077,0.1798137015,0.14900141,0.2540844218,0.3917049555,0.4325169163,0.6251569088,0.2428200606,0.5977178771,0.6387440265,0.4689631094,0.3217199111,0.6329823595,0.605002295,0.0441310473,0.4496736231,0.6406722188,0.1866582687,0.4101027213,0.2337676205,0.2758190999,0.1462861812,0.2094489007,0.0527379475,0.151121288,0.1130845343,0.6207959936,0.4849210448,0.2756003828,0.4593629437,0.6254825904,0.2457351848,0.2114610205,0.2435286899,0.233212076,0.0296103504,0.2932483262,0.269092092,0.0121061084,0.0333007264,0.2515339297,0.6119129543,0.0441914647,0.6757098218,0.3878373956,0.3636202842,0.0910669951,0.0824440405,0.6020276229,0.014703647,0.5344355366,0.0610806274,0.3355227788,0.6867248102,0.5523469914,0.4382556499,0.3075361994,0.1966760108,0.5073748587,0.1369547906,0.5885968972,0.0719689448,0.499465877,0.2646238494,0.1049395247,0.6696193421,0.1349226071,-0.3624886176,0.3679839855,0.3890535957,0.0994860056,0.7005183539,0.3498577106,0.5279996811,0.0510660769,0.6698310741,0.1661604763,0.3755995055,0.6956591969,0.5012934951,0.5336634045,0.6021020543,0.6430774459,0.4894166758,0.1654886391,0.1412050544,0.3716462841,0.421131659,0.6884760038,0.1956109639,0.070216339,0.1963707775,0.036078145,0.5292897966,0.2662632699,0.5674589971,0.0828040171,0.2394624986,0.5983264495,0.4356782097,0.682531074,0.557406929,0.1363730967,0.5196835426,0.3941798454,0.2200066659,0.3882897928,0.3519556409,0.7135691331,0.6888923167,0.2797505977,0.583502264,0.4222336493,0.3507386835,0.2683509291,0.4889988262,0.1688651225,0.2909692859,0.2805058726,0.5578621219,0.0432184796,0.3339600654,0.0902514727,0.1894981489,0.288755357,0.2953494878,0.4490768855,0.549592117,0.1068582703,0.0178574175,0.0587730076,0.6469274436,0.6213380715,0.5041731604,0.4076985665,0.5753663204,0.38581748,0.184280015,0.1259397617,0.2878177972,0.0187968099,0.0193059746,0.3307845796,0.2228417748,0.0448259787,0.4334851217,0.1493637134,0.5253417456,0.2794303008,0.0273535414,0.3788531742,0.5492527512,0.2017343775,0.0152014567,0.0697538826,0.2232000581,0.4959166867,0.3773983959,0.5722607331,0.4249368491,0.3574184058,0.3851533973,0.2690492556,0.1739094656,0.0827545876,0.4236372717,0.6316963326,0.0147413818,0.2317733482,0.470832592,0.2764731662,0.6439550869,0.3562820607,0.2833948378,0.2188275075,0.341613158,0.5955906977,0.4666715968,0.6974396571,0.5997901492,0.5231577249,0.2925762654,0.1917745223,0.3855035363,0.4951438718,0.4289347562,0.3688397399,0.1584580743,0.0677635284,0.2476557185,0.5953320388,0.60350178,0.0499881183,0.4261130838,0.5045575693,0.011255656,0.131240943,0.2045850982,0.7140867833,0.1839143167,0.0570314579,0.4801038646,0.2206751452,0.4519364497,0.2819064883,0.4353982253,0.1715227196,0.1833754366,-0.222153966,0.1650423223,0.6428368484,0.6467931522,0.310770868,0.5000211446,0.2394921258,0.2222817468,0.3341044138,0.0873878756,0.172358289,0.4155431837,0.1887350185,0.4726844164,0.3528216949,0.525061213,0.0589683471,0.4006608514,0.651574136,0.44688483,0.2051178877,0.2921263656,0.2332489799,0.2437415716,0.6981404144,0.3913059886,0.1160898127,0.6796252161,0.5878598479,0.6375578757,0.0794351767,0.5881566503,0.5418090446,0.4528487944,0.2136498995,0.3873164015,0.0870333062,0.2118532796,0.162881003,0.4380824533,0.5181870491,0.6953035662,0.7141159146,0.0598759825,0.436073836,0.4480073252,0.625710839,0.574711111,0.6466080945,0.0450220921,0.1258983257,0.2809096022,0.5816498409,0.5553569072,0.2821286399,0.2184324979,0.0271871096,0.59660904,0.5861406437,0.2322346415,0.2866999285,0.0853777469,0.6581316759,0.1974578651,0.4831823133,0.4053336617,0.1451027574,0.0886910538,0.2607282653,0.2727733533,0.6560206432,0.4225773837,0.3756433723,0.1484231526,0.7057436818,0.1452208038,0.655725502,0.6649073211,0.0432581668,0.5539651221,0.0983921326,0.6798968202,0.5985364538,0.5767269661,0.6725188104,0.0614575533,0.4153872235,0.599691321,0.3342997616,0.5914640274,0.4150900948,0.1113151562,0.0281945628,0.0902173607,0.4406519393,0.5423379562,0.4404921563,0.1726976481,0.1449795773,0.0554512707,0.31592573,0.4993120335,0.5039877604,0.4468490697,0.1605060023,0.2162467377,0.6486454747,0.7118217098,0.1189272626,0.0824687526,0.1427586047,0.5085863106,0.0660612213,0.2484263569,0.2008794615,0.6167520435,0.4011834096,0.6568277366,0.1287351183,0.6818476487,0.6632997263,0.2216616416,0.2254819752,0.5035340579,0.6214047102,0.0916779988,0.2027613666,0.4355439593,0.2796275576,0.4596064729,0.4409406593,0.3014589412,0.2799851274,0.4510092343,0.3282816345,0.0891649798,0.0052291739,0.6282410835,0.0757391731,0.1412745677,0.4858316445,0.6597740689,0.4584968672,0.2874073728,0.2146777538,0.1378384524,0.2387089232,0.5657844956,0.3112264461,0.5774140909,0.5195523199,0.7040216525,0.2058824861,0.3865290127,0.5356758121,0.226191276,0.2877559168,0.3776211937,0.317996836,0.6970211301,0.34736093,0.0105368964,0.6085279691,0.4033159322,0.1973971481,0.3828810797,0.7123409804,0.4677863567,0.5049156304,0.5928294712,0.0505312842,0.4938818445,0.2486237552,0.6524575077,0.3183336766,0.007587645,0.3024733487,0.5799886618,0.4850987988,0.6899148004,0.4056908774,0.5678671065,0.3276006303,0.5478292776,0.4267870913,0.297666442,0.7238177468,0.7049189312,0.0720413505,0.6345781378,0.4694480366,0.3589169107,0.0160921226,0.5279045713,0.0307569277,0.2602130448,0.5100623038,0.2037256262,0.5083484439,0.1287193105,0.5822329486,0.4976688618,0.0462832664,0.699754305,0.2331679745,0.679583889,0.0964296433,0.701157532,0.2665354924,0.5840856433,0.4558004771,0.0315687006,0.618002036,0.0298928003,0.1336673568,0.0666736795,0.1187584116,0.7201671335,0.3485474394,0.7057255708,0.0077690928,0.1297450484,0.2679757651,0.3033668313,0.0356271118,0.1690880811,0.7144439277,0.3099169125,0.44340845,0.0660150164,0.4013683269,0.5416962178,0.6096635038,0.1654672171,0.0825114495,0.0832921375,0.5801484135,0.1962092898,0.4718084034,0.0668040182,0.4897815043,0.2261524008,0.1407655675,0.3418849335,0.0138783735,0.603386365,0.2131513093,0.3214736677,0.0657397357,0.1436299188,0.6509921022,0.6752705377,0.5398430589,0.2497144863,0.0517174922,0.5552226994,0.7153472309,0.2774303849,0.135728897,0.4757453422,0.1995430563,0.4119254031,0.1284269246,0.1750530698,0.6369957011,0.1916859053,0.1421765049,0.6186548462,0.0829451312,0.2099215391,0.4179079598,0.00533492,0.0737714353,0.2191768811,0.1918066451,0.0422881396,0.5254262568,0.5019101048,0.0212348941,0.6467825275,0.6358580294,0.5614020067,-0.3106469057,0.0109312346,0.5027840333,0.6941488758,0.4165814148,0.6566658538,0.2876658655,0.6921364928,0.2201731172,0.0199795109,0.4310949079,0.0252059879,0.2297766686,0.354285713,0.2504012065,0.5629317227,0.4953096977,0.6647247688,0.0576945254,0.5629335915,0.4494657721,0.5585908033,0.368854713,0.2142510467,0.116097035,0.6948898264,0.7144297378,0.6318501889,0.0347922054,0.2490911649,0.2808461907,0.3784191039,0.1164197223,0.3133533778,0.3562841735,0.2016381223,0.4777289827,0.2231079801,0.7042669743,0.315504652,0.5508565425,0.4791612924,0.4460443587,0.0655310066,0.355700525,0.4246513454,0.063098761,0.1817857496,0.0284781553,0.4837494546,0.4179929338,0.0234353322,0.2494954939,0.555989337,0.7089599137,0.1835952616,0.2767051725,0.6014864459,0.5941695515,0.0156188862,0.149836928,0.7115679463,0.0179481528,0.5530229625,0.1246850132,0.1184951032,0.5260027682,0.3574423258,0.6632414903,0.4055285334,0.5609408846,0.0368931833,0.4595557623,0.0788845441,0.2195881371,0.3074951095,0.6552014791,0.3465521631,0.4867073397,0.1986668029,0.556733158,0.689776722,0.2817844422,0.1839800236,0.1032982965,0.6178054799,0.1288676637,0.5345710325,0.4486690353,0.1862361682,0.1061844136,0.0979374979,0.435706163,0.7034418472,0.1164675131,0.042824584,0.2478846601,0.6882003458,0.6507987874,0.1555791286,0.6130278698,0.458053514,0.5312480803,0.0367791169,0.5740601001,0.6574144623,0.4118432244,0.6369422096,0.4453817106,0.5716083855,0.6838867109,0.2734876451,0.4396039237,0.1532276582,0.2098349825,0.1142152767,0.3383132645,0.5385432297,0.7130698205,0.2295327259,0.0066569852,0.3081284977,0.6789173608,0.5316134562,0.620232629,0.2976161015,0.5913506406,0.1336480979,0.5816324967,0.3796682121,0.461549681,0.169141153,0.1596176351,0.2880171357,0.2796769284,0.1727020224,0.195878145,0.2676051351,0.3913896648,0.5531334463,0.6878561825,0.148555358,0.6028632854,0.0946449191,0.7059195557,0.6131021519,0.274596917,0.6218442747,0.220105669,0.4773422062,0.2486741266,0.1630128706,0.4693641535,0.0295917023,0.4413045413,0.2206507064,0.4813536672,0.3935227487,0.4277582789,0.2479687422,0.4948908162,0.0734516149,0.1161081623,0.3755558445,0.490241204,0.2867131079,0.6321350353,0.5464951515,0.6604273576,0.463093761,0.0658480481,0.3025013213,0.1201087446,0.1928632684,0.2926453229,0.3541467772,0.4826764424,0.5932298106,0.4858095437,0.7182302297,0.6553899567,0.154223004,0.2877348762,0.1938497915,0.2485523407,0.3675833606,0.4948930512,0.7200959563,0.4200076877,0.1458163845,0.6126719199,0.4609830622,0.6758266558,0.0809497717,0.7155462295,0.3385809559,0.4141514316,0.6162837534,0.1265322076,0.0773555985,0.176717659,0.7130917632,0.44344551,0.0182429062,0.2699288372,0.0201768245,0.1246751345,0.2782808204,0.5818371016,0.3770502481,0.6722373711,0.0664840664,0.5499947895,0.4030685425,0.6130311839,0.7094992218,0.4566190061,0.2493241872,0.4900044157,0.3902293969,0.0388695163,0.3755508234,0.0962927381,0.5722194092,0.2829091225,0.133785897,0.6507899311,0.2967368987,0.0627270267,0.6778965357,0.4464443042,0.3322480264,0.4507135223,0.2499580657,0.0249722078,0.4914992562,0.4990433503,0.5837344208,0.4706190979,0.4156153529,0.0169218454,0.6373354768,0.544695792,0.1605403325,0.5996102999,0.5549957598,0.411477774,0.0207365737,0.0182118148,0.6259632379,0.1843809836,0.3344339265,0.5281204555,0.6362980714,0.6365216331,0.0835851754,0.0784898901,0.2796217184,0.1071854923,0.2575780685,0.4199665703,0.2115068994,0.4336731365,0.1106528196,0.4372933063,0.0980595636,0.0788187522,0.4980749699,0.4795303631,0.5756071913,0.1111461263,0.5302419794,0.6775317296,0.5220503072,0.6655136466,0.6094744725,0.0103279285,0.3539116642,0.3539726587,0.639440187,0.3900735442,0.0657370659,0.5742902682,0.3662595941,0.7061605923,0.0873018742,0.222335146,0.5341496807,0.6676247153,0.5089604572,0.6743065115,0.7235504729,0.1336721731,0.5769084128,0.434186162,0.36269399,0.4255884047,0.2078728811,0.6703580896,0.1076407503,0.6760717729,0.0671091216,0.6271892124,0.5769033638,0.5827676356,0.2723968546,0.6986851949,0.6791535795,0.6519622625,0.6030576328,0.5056353021,0.5095231032,0.3100818551,0.6805085426,0.1581000504,0.2338213167,0.4931029632,0.7233670783,0.4562884337,0.0395706056,0.1930329928,0.5632371428,0.0610025329,0.6985388561,0.4845643828,0.4148746011,0.298998348,0.5867609456,0.5044139248,0.3971206946,0.4983619055,0.5484759938,0.1088956356,0.203582825,0.0952524008,0.407109398,0.3686269535,0.3963990215,0.0167579564,0.2900249709,0.5154183991,0.367093977,0.5927806292,0.3724404946,0.1545194206,0.4557534306,0.3774350182,0.3003347109,0.2146584551,0.6339439632,0.3404660375,0.340348288,0.1879885403,0.6493457405,0.044424916,0.2265979633,0.3845922044,0.1913817365,0.4669393484,0.4844638881,0.6592858403,0.022896584,0.5384518191,0.6277515163,0.0992013661,0.1798747727,0.0166954254,0.3816901946,0.5297446498,0.2986250192,0.6644561682,0.471042815,0.4040368979,0.156667324,0.4511803263,0.436742445,0.6754358007,0.2648235029,0.2114277867,0.230490922,0.0873080398,0.4961900343,0.3958123394,0.2535279658,0.0081066581,0.1600053405,0.0973512168,0.2113733236,0.2583238064,0.3967737321,0.3281100895,0.3465775571,0.3255759364,0.0105254818,0.6163432365,0.584594279,0.2192283995,0.1982935665,0.1007649053,0.7143375542,0.2927206049,0.7169444647,0.3514993123,0.369134796,0.6541336735,0.2182193513,0.6556115734,0.1295119795,0.4689976626,0.1872549833,0.6737010191,0.0335669843,0.6099117023,0.09722697,0.436404209,0.1829310554,0.1462117771,0.2011609114,0.6237396694,0.2413610717,0.3044290805,0.6513640225,0.3943741049,0.1907911356,0.2984024915,0.7128149633,0.5132734843,0.3232435461,0.2248078301,0.256958881,0.4804074638,0.2712843431,0.296481645,0.5393771903,0.129697091,0.2411517048,0.2122756248,0.4553816936,0.4300952833,0.2045388639,0.1514716079,0.3592613526,0.0909233856,0.5626743405,0.2360071369,0.1137309399,0.4256089411,0.2843287504,0.6524465252,0.4994758307,0.5743755315,0.222202303,0.3887484489,0.4426235407,0.3002394426,0.4061388073,0.4729116499,0.6757430913,0.5275676378,0.0029431901,0.718902385,0.5697366212,0.4836229744,0.6283174134,0.3778846785,0.328574542,0.6489403966,0.2762077627,0.2447404154,0.5316582163,0.0903184165,0.6808839756,0.1901491371,0.5552143711,0.5562149826,0.5695473032,0.4788901604,0.4470632319,0.0632306691,0.2622018792,0.460817412,0.1168590453,0.3198508422,0.0148165536,0.1186489523,0.043656245,0.6107751893,0.7155331353,0.6664439348,0.6614801057,0.0420434961,0.0839715719,0.3706867404,0.7171625553,0.4867029146,0.1569854849,0.439205123,0.2263923904,0.0447787337,0.32445778,0.6767689876,0.1543947001,0.0415963896,0.4130299231,0.3658579595,0.6755621088,0.0608506914,0.4669639518,0.3207407609,0.1899868688,0.0042429068,0.0729376192,0.522775272,0.5217278928,0.353934872,0.7051215185,0.548966694,0.1626629279,0.4599187522,0.3535330411,0.1716891823,0.6012026742,0.6236006221,0.1046599724,0.5674095018,0.4289522606,0.3230089419,0.6196352125,0.0466136462,0.2151998251,0.7090783175,0.5323109762,0.5388527717,0.2651853156,0.6832723509,0.4680664243,0.1419101479,0.6908847009,0.0353897562,0.4712588817,0.2299794178,0.6752686995,0.3582107498,0.0841640986,0.5957379647,0.1397649384,0.178232025,0.2538444277,0.2680409748,0.3233935845,0.4461165093,0.1879617697,0.3917267875,0.3549428921,0.6023032898,0.540296282,0.0954502756,0.547798349,0.0484870246,0.1678948449,0.3853887621,0.5604753882,0.2886795325,0.7086334589,-0.3852023666,0.060669768,0.3189554193,0.4326683757,0.6646364017,0.0420882092,0.0194023115,0.3764221264,0.558715103,0.0037751917,0.0951499101,0.690222855,0.5637970725,0.6883533685,0.268724785,0.2048626629,0.3668292766,0.3274849765,0.6332057919,0.5470100689,0.4048585563,0.6527246474,0.7089925525,0.4924192414,0.1547565237,0.5487078519,0.1633195904,0.3002850259,0.5952210755,0.2592419918,0.2689287753,0.597387375,0.0744839238,0.7209627688,0.4995408159,0.7025569752,0.4188628783,0.1224834928,0.489127388,0.2346348923,0.1214807026,0.0813964117,0.2584202624,0.6586298663,0.4894132374,0.6396096041,0.5978567542,0.2472910408,0.1623666636,0.4477865189,0.1828830399,0.6987431186,0.687373164,0.5912401027,0.4672428588,0.6354462572,0.1276248037,0.590523702,0.5645661603,0.6735761111,0.0880005688,0.0206862885,0.2355084959,0.3315574612,0.4401733117,0.6175776297,0.6702755746,0.6023515145,0.4916179307,0.4148074761,0.0652226202,0.4929433119,0.0313019816,0.0594176807,0.107412372,0.0087205153,0.1212491798,0.4670945475,0.0630527219,0.2103509117,0.354007129,0.3526748256,0.0690572144,0.6873432321,0.4912526865,0.3878596004,0.567801571,0.5433929406,0.0551144767,0.1229861891,0.405240699,0.6217780276,0.3217417889,0.3520188764,0.2941985553,0.3432155481,0.6811900227,0.1295799356,0.2506061339,0.3124557246,0.5901836726,0.6107273071,0.1532958892,0.1357710204,0.4655592395,0.1082710144,0.6930157961,0.1709842683,0.033589171,0.0971681913,0.447422505,0.0640783741,0.5597566007,0.3871037443,0.1722949143,0.4500421711,0.4792127925,0.6901818562,0.3482697933,0.5487767331,0.3941509651,0.3008292947,0.3101247556,0.1312679785,0.2294512347,0.5507716947,0.046177752,0.0045735062,0.3672984268,0.114683603,0.1701638606,0.0766337482,0.3174807632,0.0110341644,0.3387813497,0.0847654695,0.5137343865,0.2965277115,0.6377308458,0.7019393493,0.0464479699,0.6143637622,0.4096600313,0.1013197155,0.6596407051,0.1343441783,0.1813000444,0.565639666,0.4649840737,0.6165723358,0.5301166132,0.1570606576,0.5056174531,0.0528189682,0.4219712094,0.2720561223,0.5310757237,0.0538307256,0.6452105861,0.0760707355,0.4325238806,0.5616342505,0.2351411987,0.316022881,0.6287407846,0.0077222044,0.4894479798,0.2535863678,0.38189352,0.3763277319,0.0737115997,0.5311914462,0.0024155291,0.5655417325,0.5324715331,0.5758649467,0.1449113772,0.0596088987,0.6756810249,0.2837114117,0.2354785467,0.3288860636,0.3357851417,0.2681316337,0.2243318247,0.3087231088,0.0792943721,0.1845912713,0.2500939708,0.6929058965,0.5097760956,0.2597029643,0.4395547312,0.1490294263,0.3017024922,0.4741347669,0.3934197034,0.2210097525,0.1385976475,0.4097288472,0.1527097129,0.4752459435,0.411199705,0.1149293819,0.7247889602,0.6004045856,0.5756470717,0.0715695522,0.5491388044,0.4343670033,0.0391084313,0.0860013323,0.5542435866,0.1607301896,0.5882815532,0.5030200282,0.1600119679,0.4309246297,0.5760451322,0.0490496533,0.6628901124,0.4294946634,0.6434271271,0.5593856343,0.3763284169,0.3363228672,0.1803831518,0.2185923627,0.3898932123,0.6188435165,0.2249989158,0.4924844423,0.1770720292,0.5191468315,0.6624981649,0.1449608026,0.080945841,0.0787488855,0.5361666925,0.5791089669,0.0839466153,0.4419456885,0.2555536242,0.0782043427,0.7204558358,0.6521636079,0.4657063599,0.3376538876,0.0040801632,0.6285176947,0.1259295712,0.6101636814,0.0024717351,0.3238231938,0.7094940896,0.6471562497,0.4584566072,0.2091732621,0.4469257651,0.0990047911,0.2299449894,0.1919429254,0.6632114511,0.38704011,0.1966830568,0.5614759679,0.4735775498,0.4390351798,0.1042465903,0.5637794981,0.4392951504,0.426479384,0.0584257882,0.3650173021,0.559273926,0.0133353797,0.6600993285,0.5902354521,0.2382687177,0.4179003768,0.6435020347,0.2017945278
   -0.3903918908,0.7078898712,0.6710159937,0.0826837053,0.3631221104,0.1358135935,0.3877881558,0.2078738531,0.5338057029,0.2106811473,0.5405884145,0.1610284904,0.2706462562,0.6050139745,0.0982426027,0.5686893902,0.4363718671,0.4627531891,0.5193846176,0.2884560312,0.3109638095,0.4434764549,0.6025940516,0.3286262843,0.6930280918,0.2215353654,0.2978330682,0.3068571983,0.5608408697,0.4301475154,0.6547172585,0.3189163187,0.0049814065,0.0654101174,0.6804150027,0.314904131,0.0394461661,0.4831431913,0.2425584101,0.2358737054,0.6287913439,0.4899306509,0.251129487,0.1138430499,0.5016603916,0.2456806028,0.123769406,0.386970477,0.4069133195,0.0327633273,0.4256677658,0.1273535811,0.3314400921,0.1553686257,0.1978898934,0.6748026269,0.7218318637,0.5457160795,0.5604449186,0.0819159162,0.4965008584,0.0537708932,0.2303522594,0.4475264383,0.2149308724,0.082972118,0.5022472315,0.6172085399,0.4727547316,0.5510851179,0.0985269739,0.1250347046,0.1290444149,0.4655006751,0.5878622428,0.1246559506,0.6611456906,0.2145299294,0.5370606856,0.6153834208,0.1802029406,0.2012460574,0.1615872626,0.3228678636,0.4451347301,0.6842032976,0.4650002532,0.3430141669,0.3028514024,0.1836418135,0.21069612,0.1779738116,0.0722596166,0.0948879355,0.2111739039,0.0436970789,0.5893192881,0.4621203923,0.6720932734,0.0168132529,0.2214923498,0.3228329574,0.5565522066,0.2821759741,0.627404428,0.6416010243,0.5482580146,0.1544568868,0.5508994197,0.0967683081,0.0211401948,0.0345669772,0.3463683717,0.6959378755,0.4500760168,0.2933055721,0.151696373,0.5799054078,0.2557335994,0.5079524555,0.3120325861,0.6118963582,0.1139477408,0.3311056355,0.1154773603,0.1756521005,0.574181298,0.4221634329,0.3181007952,0.3621112875,0.3002885902,0.4959080973,0.626044126,0.450323714,0.5508553391,0.3414573003,0.3781669811,0.4364683599,0.5330861364,0.3575863574,0.3966844249,0.4956629478,0.0581892653,0.4682100526,0.4275113819,0.4420406467,0.2747555832,0.0725608975,0.653841986,0.5344572593,0.0782728233,0.4219620449,0.3011207301,0.7144931724,0.4345798854,0.1481729924,0.0961190525,0.2305818353,0.5522837683,0.2815000531,0.2853573965,0.4627650042,0.1148601154,0.5453326773,0.0705657583,0.5327159162,0.4146181634,0.1734981437,0.5465407668,0.6531146461,0.3586262645,0.1193548151,0.231427177,0.6813682486,0.0638222469,0.2234233608,0.096440465,0.4408667108,0.0135165095,0.4807807276,0.6601295055,0.3007212817,0.1773703988,0.6902516016,0.4868645866,0.0694170609,0.1891467136,0.4105353972,0.5011940413,0.0087284422,0.3855650476,0.1123779519,0.0277785433,0.1325586496,0.6097042215,0.5019313735,0.0284923085,0.4767530128,0.0508218176,0.3506347652,0.0370005854,0.3301674068,0.3507659676,0.1755468357,0.1848526954,0.2588341362,0.6792933713,0.0399392114,0.576690889,0.303426125,0.4024894164,0.5757190843,0.3456617659,0.1434472452,0.2461297256,0.2010474164,0.2957603417,0.2410047745,0.606566026,0.2081520005,0.314436758,0.2074302688,0.353237163,0.2607641411,0.6756237335,0.5792023026,0.3740519676,0.0905514909,0.412092326,0.5881152331,0.1849707742,0.6180161763,0.6550201738,0.3003423298,0.4449373352,0.5623159577,0.2292573377,0.4925555748,0.718645937,0.5188052166,0.4226363063,0.0413476118,0.2310044347,0.3614253846,0.4180318344,0.2961182886,0.0442235022,0.4885286434,0.7158302192,0.4524173542,0.6929522118,0.0561663043,0.4784705123,0.1616069803,0.7120310385,0.6227073545,0.0983284515,0.2048585273,0.4044174122,0.4982257833,0.1793556662,0.3937598458,0.173356999,0.7214359562,0.1225516039,0.4038582685,0.19249028,0.1976658124,0.1065689355,0.2234610325,0.0983443204,0.4575147242,0.182681441,0.58878783,0.0190337704,0.0524726757,0.6394059093,0.5990842801,0.1973991944,0.1249577492,0.3033434707,0.6908943673,-0.1488428976,0.1167320345,0.2867640117,0.0652379193,0.3655755094,0.5204110615,0.5589381871,0.294741521,0.6211891909,0.1032970193,0.2976170236,0.5461466448,0.3435080978,0.6913018277,0.5029306503,0.5088867631,0.3986522935,0.2699659161,0.1618438073,0.1489732195,0.0475957429,0.442470934,0.7173967164,0.154731337,0.0747258972,0.2446226194,0.7053422918,0.3189826761,0.2776742496,0.1713399205,0.0726180728,0.6433988456,0.0494448794,0.0524253489,0.4832204437,0.4735299928,0.0659605935,0.2098929344,0.5965418363,0.0097618724,0.192256812,0.5379223406,0.3621216572,0.5578540723,0.1650261658,0.5827433051,0.1286319766,0.2629901141,0.5908786446,0.5562602399,0.1826027361,0.2403723493,0.5993614477,0.0963931942,0.248641705,0.1835208455,0.1835260614,0.0913296231,0.579748072,0.3248950411,0.6905658756,0.3824271719,0.5904658862,0.2638484276,0.3248944268,0.51124325,0.0167087292,0.5360740463,0.7205417607,0.3944831287,0.1426826909,0.2622521156,0.2133726655,0.6043243424,0.4719247544,0.3432299162,0.2274612439,0.3970065686,0.213300867,0.4761456487,0.2942373473,0.272759832,0.5949026403,0.2420444739,0.4381036042,0.5830568406,0.2917690587,0.6194330167,0.2037335778,0.0124289387,0.2859737367,0.3697446825,0.3927114016,0.6690557357,0.7022239432,0.52163389,0.479870109,0.4419927101,0.2283767851,0.0370358556,0.4297327845,0.4693111568,0.0178610331,0.5214850608,0.0434562789,0.5244217416,0.3864802713,0.4910305805,0.048575391,0.1841368359,0.0426810271,0.3341606784,0.488081474,0.5569218194,0.2149484255,0.352017305,0.5545669699,0.0418259,0.1667248102,0.4285877316,0.1181970684,0.2332154957,0.6043446655,0.1787290668,0.5919717912,0.5663226761,0.0648205484,0.7056777078,0.0138178203,0.3921626777,0.5184585645,0.1663355614,0.4078793017,0.5728273152,0.1590253782,0.1513762871,0.3475310393,0.5695519312,0.313816074,0.5428992332,0.4147909496,-0.2666870192,0.3234737009,0.5945704241,0.1679626162,0.6044706101,0.7083372059,0.6334844129,0.1052037226,0.0807149577,0.3922292432,0.4775931753,0.267297079,0.2299594492,0.3252326666,0.7190394615,0.6521783342,0.3333486649,0.4108297145,0.2606768951,0.2299423298,0.1858879356,0.7207136834,0.1212177946,0.2081780706,0.1938642279,0.2037992051,0.6546234475,0.5197526497,0.5966301206,0.4296975555,0.3537292016,0.1017303624,0.5559803679,0.1871391077,0.4374782402,0.3403262484,0.5140515411,0.3533481164,0.6076168146,0.429529889,0.1231976597,0.4600497004,0.0671331875,0.3129170947,0.5321575419,0.2097599906,0.5748218224,0.7055119366,0.0588797747,0.4674679069,0.0794835287,0.3439024064,0.4089475904,0.0324070757,0.4154541722,0.3803779702,0.5857330502,0.2559952706,0.1214888305,0.6386216714,0.4907456016,0.5780785543,0.1830157896,0.027538097,0.596045973,0.1761808796,0.2988788162,0.2218504982,0.6874246749,0.3130601922,0.4779608412,0.546975432,0.6380960081,0.4163079141,0.1731869728,0.559150282,0.3551750591,0.6054455893,0.4800690832,0.0952729818,0.3984755213,0.4838210183,0.3510254631,0.3001383459,0.4493034699,0.4764727239,0.5686375698,0.2337222975,0.1101124619,0.382118204,0.1874101938,0.70288565,0.0638956765,0.1528397372,0.2423460369,0.3359952065,0.2689098895,0.3356716459,0.5343720049,0.1464173516,0.6857964292,0.2115157854,0.3606749916,0.0865164674,0.0244119571,0.4486263325,0.343191228,0.5536958573,0.4902213698,0.6934376443,0.0561567115,0.350835278,0.5923865095,0.4130137506,0.0398133151,0.1437395267,0.3446734535,0.392872459,0.602511067,0.1320751193,0.6394668136,0.289154641,0.1192086027,0.0487284667,0.5853059318,0.3362625465,0.424175888,0.5615192145,0.5024098365,0.6615143772,0.2641641147,0.3024744733,0.4428870317,0.4175165129,0.4212035995,0.2221463361,0.3792398555,0.654561889,0.1243862158,0.0459910842,0.5744171374,-0.0712536464,0.5318613401,0.3672434238,0.2904666765,0.4511145286,0.1724821638,0.2987489307,0.6359434968,0.4387827298,0.5431357813,0.3445877061,0.3629121016,0.6339494444,0.5095266382,0.5739945358,0.6918422557,0.717595098,0.2118945237,0.7006007697,0.1699658824,0.2796921708,0.0251036258,0.3768338513,0.2089862976,0.1588097233,0.4670884206,0.4387374007,0.3942760357,0.2661775837,0.673449324,0.1266307569,0.1678961704,0.6441773369,0.3931721761,0.4678908708,0.108073999,0.30702905,0.0541258448,0.5774559217,0.2264189214,0.3431259854,0.1043462201,0.0776522902,0.5512088379,0.1629727014,0.6262088613,0.7167573222,0.4563542812,0.4438019584,0.2214752208,0.2890792105,0.3628720173,0.4325526777,0.2531077702,0.1049073078,0.6762969364,0.1684591248,0.4472170437,0.5552362976,0.0360069472,0.6816488032,0.0210708151,0.1971771262,0.0121947047,0.4028749685,0.6413327255,0.1221404467,0.1878101756,0.1039799554,0.1922639812,0.0961260215,0.2235585228,0.1932860029,0.0027917403,0.3138906155,0.1755015745,0.2848685375,0.2938663947,0.4924169705,0.5612598241,0.2767508669,0.298666198,0.5613034749,0.1420817721,0.394885338,0.6720258272,0.0022293452,0.384967193,0.4364566364,0.4072092338,0.0285488371,0.3311387302,0.7015128629,0.1202082308,0.1973035728,0.5693301931,0.1344051585,0.0800774896,0.1951288032,0.3928466325,0.0119750686,0.3260499793,0.2726157928,0.7105015613,0.4528117552,0.5536677096,0.3060845148,0.134288767,0.3973484666,0.5064298731,0.1857404697,0.2031180136,0.4807900496,0.6980665257,0.2642351582,0.4479251755,0.0976310736,0.5889391891,0.1018189336,0.5619056726,0.3180698153,0.6260905341,0.3393100221,0.4327160051,0.6479995492,0.2977886025,0.1126277134,0.0170179621,0.569149106,0.2110989455,0.3028121301,0.6815378746,0.061562973,0.5373643038,0.0286310003,0.5994799492,0.7101097205,0.4477338618,0.0535897587,0.4101854029,0.646866633,-0.5401855974,0.6744877748,0.2545357696,0.3419118141,0.5428917814,0.3546324838,0.2144689999,0.0322815528,0.0958983581,0.3231276557,0.7139403125,0.2737757796,0.4839544608,0.3074468766,0.6687239524,0.1393037664,0.3146407724,0.3889814053,0.4018192927,0.5615471584,0.1587094329,0.6991958688,0.213023193,0.1388758889,0.3677466966,0.6002152703,0.5671156196,0.0587224299,0.0605169548,0.059439194,0.3085707717,0.5186855605,0.6544870906,0.30857826,0.0810166668,0.0436518823,0.0917742152,0.1757280084,0.6418084297,0.6114163106,0.0026482993,0.2971257175,0.2034606243,0.1647349554,0.4115097853,0.2908221116,0.6959313577,0.3960423883,0.7061174175,0.3525195753,0.1957371773,0.5069407901,0.4775840844,0.7191047039,0.2598632607,0.1619599724,0.2920642946,0.3774334966,0.3698095332,0.5594922088,0.591903816,0.5435840093,0.3278226328,0.5088273226,0.5221519463,0.6723378254,0.3402927763,0.5488276758,0.2862525306,0.3415390642,0.2227031926,0.2602283662,0.5003423018,0.0978247943,0.0053471191,0.6301502988,0.3951679633,0.0388201335,0.0104695551,0.2026533332,0.4034065253,0.4368639576,0.0867897106,0.1385061627,0.6154457841,0.3028375424,0.0504692248,0.4383929812,0.4728689406,0.077435126,0.691314965,0.0067705626,0.4864241987,0.1122727272,0.5850913487,0.3515645472,0.3925847603,0.2004928001,0.1617481545,0.0368167707,0.3041005429,0.0012696545,0.1025933971,0.2156823073,0.0065431834,0.4299387752,0.2942914452,0.2950168845,0.1137167797,0.3529675299,0.0899975008,0.0267259766,0.3373259246,0.2406371789,0.2490772563,0.1312225315,0.1827849075,0.2518110018,0.0443139173,0.0287409468,0.4211917411,0.1221607655,0.0955517659,0.1040532311,0.011464759,0.4099133678,0.1485108953,0.3287968419,0.1600335962,0.3029917611,0.3083254947,0.6742150179,0.3699895431,0.0861955113,0.1939598321,0.0800167489,0.7178569758,0.0972340483,0.3888522524,0.4106535481,0.7065803284,0.4653357301,0.1908092423,0.5184234058,0.6970600494,0.3920317297,0.6947348953,0.2613804538,0.4038663516,0.4900420013,0.3123842567,0.3673483046,0.2889235566,0.3727845688,0.1373520708,0.3179138618,0.215574908,0.0749809991,0.1764444688,0.5852660001,0.3937747293,0.0687235727,0.7185243386,0.3386434904,0.3965412547,0.2114913215,0.5480177767,0.0818793786,0.5660143059,0.178512263,0.3270973365,0.2495790549,0.1970211931,0.624779318,0.5777231491,0.4660423688,0.54563243,0.2437694126,0.3568733484,0.6479754613,0.6729778651,0.6823659077,0.5492197792,0.3626220705,0.1670346527,0.0454438502,0.5024010958,0.6150181109,0.6177611062,0.4796040157,0.7116724789,0.6250587685,0.5939299342,0.577465688,0.4051351349,0.4771308266,0.2569669202,0.1102421806,0.0071004571,0.618151379,0.5833776518,0.4082364348,0.4480846837,0.6583193563,0.6990213691,0.2747348328,0.1340630521,0.0089070688,0.5172634208,0.1002449292,0.7047038664,0.2747910774,0.3680116828,0.3087927308,0.2662386551,0.3803967251,0.2902311948,0.7088540218,0.1296608069,0.0295287165,0.7038157335,0.0480465306,0.5574655408,0.4396957218,0.5291689344,0.6913262707,0.4358584147,0.3679432715,0.2389939491,0.5235928256,0.1143758642,0.5267604879,0.1221953731,0.0893411152,0.4294815972,0.5400080251,0.577311873,0.1147779624,0.6792717075,0.4058027383,0.6199690333,0.0002095615,0.1130076888,0.044666062,0.1201844167,0.370449536,0.616649943,0.607390844,0.6977494699,0.0362679596,0.6905293466,0.4878439407,0.1536344332,0.3588693126,0.2355428233,0.3672086775,0.3054003264,0.2789682952,0.5688662341,0.2654955339,0.2297809432,0.6464370063,0.5030577463,0.6168274706,0.2317869587,0.6376289597,0.6819194321,0.0446188219,0.5665294624,0.4788906066,0.5905697994,0.358949524,0.3948955487,0.1310411228,0.0152841031,0.2138532921,0.3644461403,0.2007640566,0.600457556,0.3211006376,0.3502882782,0.2417117097,0.4307392319,0.6625310386,0.7001198241,0.1008373896,0.0492714592,0.4073560535,0.6157498384,0.7205232187,0.420547779,0.375652292,0.5324189268,0.1052909737,0.2680992791,0.1286054137,0.6906705535,0.330810423,0.298888391,0.314738615,0.6447177528,0.5706670026,0.2082936923,0.4959076652,0.7072403904,0.6991518726,0.3609440405,0.1831143801,0.071177089,0.2591312646,0.7022461203,0.241578544,0.0539757695,0.0190702825,0.6952695736,0.1596394348,0.1927283704,0.0873569367,0.5036017348,0.4432749402,0.2712281828,0.517745758,0.0893927821,0.0123170757,0.6882716603,0.392304804,0.244323893,0.6262010504,0.1205758185,0.1160729315,0.2639660254,0.5120295804,0.713862985,0.6677963334,0.1710259181,0.0561259827,0.642414165,0.5313847119,0.3298372356,0.6455500625,0.0100682945,0.0298211417,0.1839092182,0.713602514,0.4895774603,0.4403002878,0.2341148107,0.2615541339,0.6201444921,0.4755553641,0.0056918635,0.6444205952,0.4390313004,0.5123989925,0.2360129361,0.5610557574,0.6560517014,0.6793655747,0.3897969901,0.6446403855,0.6326406937,0.1719942473,0.3129878296,0.1010252586,0.0114182342,0.1569361469,0.6571624225,0.2851229101,0.3846856926,0.2085937134,0.6783656024,0.1145223538,0.3940941273,0.4530705913,0.3598604587,0.0701326944,0.4229917581,0.1576882247,0.4220529276,0.5002394877,0.360953842,0.3420972633,0.7234639774,0.6004944331,0.3603345871,0.5841333536,0.1690022833,0.6473634063,0.7218848118,0.3398328464,0.2510830266,0.6703141674,0.3273549357,0.2774906124,0.3284020081,0.5890642182,0.3288623144,0.1007696108,0.0826178932,0.0333108567,0.6513672386,0.304465659,0.465688452,0.334657323,0.1550708052,0.0111176057,0.076888052,0.4285500038,0.173078931,0.2143389692,0.4347186104,0.4878168499,0.3934437251,0.3408854266,0.1224586098,0.08695821,0.5008689798,0.1554002749,0.4629815922,0.1880120017,0.140362925,0.201262717,0.334939334,-0.5307584615,0.4787799951,0.3620522597,0.4646127067,0.1960167134,0.7097524705,0.1851547302,0.5061633837,0.2379013106,0.132838548,0.5307784108,0.4875600484,0.2717442414,0.02624991,0.4224655876,0.0770901138,0.615491787,0.1847312149,0.3341582336,0.0316442273,0.4781303938,0.5345984151,0.4660031995,0.087563237,0.0118356396,0.081588733,0.3279520802,0.6818841207,0.2727887297,0.3077811358,0.3536718822,0.0355500436,0.0884684398,0.5725156797,0.5121167373,0.0043116967,0.3076899849,0.3057085912,0.1984575529,0.163361189,0.6094535001,0.3653529434,0.5142456613,0.3651094843,0.4360142004,0.0050033789,0.1898944891,0.290602865,0.1502168194,0.508379852,0.4691685358,0.6786835188,0.6593015333,0.2112786211,0.1713923533,0.2727403434,0.6432034519,0.5918223253,0.3994336267,0.1841263571,0.3269238837,0.140018118,0.31453751,0.0939441738,0.2857790112,0.0512990901,0.4335802502,0.0218446892,0.5081295534,0.6885351816,0.2418737749,0.684776149,0.1254574252,0.6330383851,0.0294994741,0.1658046866,0.135211723,0.6225432005,0.6572999314,0.2102139622,0.5086597958,0.4607894311,0.3526641549,0.3253776179,0.6275706897,0.1378377351,0.1221174438,0.3338362046,0.017969959,0.0567676754,0.3624569595,0.5593651817,0.5308522116,0.3334972935,0.1002338411,0.1626547235,0.2771964187,0.2418910521,0.5458951972,0.4266692958,0.3195530029,0.3669868172,0.3958883954,0.7176347359,0.6058023208,0.3026804322,0.1385097017,0.0302553211,0.7101492991,0.0440317155,0.6454284482,0.1724126175,0.0424279457,0.6425879443,0.683952378,0.6911491396,0.4927253178,0.549278238,0.5011700805,0.1672286896,0.5085848833,0.5389649898,0.68436544,0.2698983061,0.0703650607,0.555940854,0.0284573398,0.177412601,0.713992265,0.6620542616,0.3568572894,0.0886983466,0.3984217488,0.3620626998,0.5680226103,0.6060132539,0.3174399835,0.6146430612,0.160394031,0.7054526286,0.249755839,-0.0730161781,0.6958429579,0.644278814,0.6814765625,0.0610380447,0.143485416,0.2297944566,0.7145163413,0.3408448105,0.2227101698,0.3297624938,0.3428980243,0.5929184074,0.0928369582,0.3505939202,0.6440958508,0.4441584343,0.7019390934,0.4598289087,0.1807384485,0.5848649286,0.6444272989,0.0455282182,0.2870527711,0.5366456829,0.5218681363,0.000818869,0.0878761662,0.1287319015,0.6237110269,0.633549269,0.0898037696,0.6072993249,0.244681133,0.2413608975,0.3150825681,0.685590229,0.565923625,0.3279537058,0.6700631717,0.0146521917,0.6774911155,0.4645233154,0.5334438201,0.228545722,0.0691195899,0.1380153437,0.0002008092,0.0579736408,0.2728468589,0.5510656376,0.7196146072,0.0591623109,0.0186445525,0.3646095361,0.6974145946,0.4573254712,0.0874088699,0.0019547795,0.1730065632,0.503437028,0.5988449001,0.4734211535,0.6156816567,0.3959428474,0.0537472896,0.4531856257,0.5822440814,0.5823320772,0.692094829,0.0824766905,0.3031437374,0.4567036538,0.232629534,0.0833476815,0.3856220977,0.2547198388,0.0956116179,0.4323275798,0.1573158644,0.5154380235,0.5902679041,0.4022422288,0.483312912,0.3861362645,0.3666211863,0.0873030065,0.1750147772,0.4375090355,0.2777793599,0.4057264907,0.206837838,0.1289224846,0.2877238069,0.5520219681,0.1470520753,0.4532896466,0.4719948174,0.3979632529,0.340378271,0.2824150391,0.2543334474,0.6860191955,0.5044731177,0.4448977888,0.5150536663,0.2557698044,0.4386605621,0.3537987058,0.336223618,0.314146157,0.5786626691,0.4584355974,0.4762889831,0.2958304267,0.3470696372,0.4263053347,0.1512830791,0.2548204642,0.6458684625,0.5863701205,0.2364139587,0.034133392,0.0576455184,0.2688438863,0.1690783178,0.6724735533,0.5301418173,0.7214286062,0.6034455846,0.4603734319,0.1925483626,0.6299751925,0.6173595875,0.5669836452,0.0475221724,0.1395185766,0.548698295,0.4032093794,0.5118186399,0.2380404292,-0.6216037515,0.6690184171,0.2292351486,0.6762187566,0.0606055622,0.2231871825,0.5498919931,0.3392767602,0.2189389378,0.5891081862,0.0920639257,0.0390861962,0.1666789315,0.146045366,0.1402698767,0.50621159,0.3249870918,0.1034436397,0.5837788525,0.4122342261,0.5569943959,0.3094428169,0.6696329015,0.086191825,0.5243994135,0.1376902063,0.6822675858,0.4041157868,0.4999300197,0.3504931207,0.1073268971,0.2621562114,0.3945613377,0.6416975906,0.5394231206,0.2084381918,0.220372151,0.1685242623,0.4176698836,0.4287477329,0.3611936836,0.7059142594,0.6367541437,0.7192592787,0.0918952123,0.0530228475,0.4594000697,0.1717368002,0.6738595465,0.6504086158,0.6039584319,0.0022357215,0.2517536421,0.7234573066,0.5937824581,0.1912774285,0.001236821,0.197489899,0.0826885007,0.1322245718,0.5282137347,0.3832151525,0.4449128893,0.0417024375,0.1526733694,0.0728999043,0.5732790418,0.6061040056,0.0258916836,0.5741653193,0.4430236056,0.1687939379,0.4090460742,0.0588444887,0.1319981829,0.4053824821,0.2469474514,0.1679187959,0.5592953389,0.6786145095,0.6595562981,0.4812609508,0.523351404,0.5081757909,0.5791335675,0.5201154568,0.6992097787,0.330513242,0.0906558353,0.5171653332,0.2036891332,0.2817175163,0.5432158439,0.0360859731,0.1512691051,0.1533577936,0.1090684099,0.667050197,0.3547163724,0.2217419393,0.1687879429,0.0864924201,0.1955420239,0.3120432989,0.0579746824,0.2401539112,0.6063275141,0.4815829868,0.2008814623,0.1587218264,0.3799428842,0.0619498999,0.5720959904,0.4607445671,0.427548312,0.0432587628,0.3953132832,0.1943144139,0.1827727894,0.6582160885,0.5927218757,0.0549175424,0.5911701305,0.1137998673,0.1431948963,0.6883159505,0.5577513555,0.3907405978,0.3503935845,0.0898201927,0.024098329,0.2832282331,0.0451201326,0.0095250806,0.0390554833,0.1030909793,0.324610253,0.2113312514,0.215162091,0.0918126741,0.3362374924,-0.430887483,0.5693536147,0.0270126709,0.1490515437,0.5140853129,0.5274415083,0.7067786541,0.2213441708,0.6611769643,0.6873396,0.1269465102,0.1617988768,0.25423813,0.5751807756,0.1396374898,0.1849784914,0.3636422577,0.3021225809,0.3769617708,0.5046806458,0.0247939716,0.6264130704,0.2716699461,0.0958311213,0.2379932089,0.1295982164,0.474397231,0.1086491204,0.4167640834,0.6006525281,0.6274185878,0.6090729034,0.1358908514,0.0765475795,0.1260887072,0.2588317392,0.522805371,0.5877449096,0.4268959287,0.3233450212,0.00491758,0.3143483062,0.4991998504,0.2106009628,0.5464246609,0.1940596791,0.1722257331,0.1843308002,0.3140344399,0.2636764419,0.3584652499,0.0649723661,0.6335809989,0.0046900185,0.0069178743,0.7027356838,0.4477436027,0.3198076196,0.1719782053,0.1875485824,0.5523463679,0.6549697943,0.2439082695,0.2154218595,0.5104094924,0.4521717263,0.0932629975,0.4143532345,0.676675814,0.2619507913,0.2128401822,0.4242834215,0.5610882474,0.145195108,0.3882922527,0.2937380724,0.5607285412,0.574713326,0.4601437182,0.2485041932,0.182296019,0.7030043058,0.0047073011,0.3445349603,0.2732628376,0.4770948564,0.4640677696,0.5406467385,0.0171348124,0.2446107978,0.0390280895,0.1410151714,0.4159711186,0.6169748194,0.1613938357,0.3396399824,0.564137252,0.1783127384,0.1850415925,0.0937474568,0.5566573548,0.3337233957,0.7111583959,0.3221940618,0.2268236036,0.0666678358,0.3577760081,0.1988940184,0.3403420039,0.1432852712,0.1019979593,0.289480409,0.5974480325,0.0333483741,0.2897211022,0.087012982,0.4711732953,0.0168742889,0.4203523047,0.1868350411,0.305167883,0.3133480628,0.2293340004,0.5328263478,0.2141609355,0.5489796833,0.2690815577,0.5576914137,0.27367672,0.0568390051,0.2519620604,0.2423546368,0.5745770499,0.5138324814,0.3935494933,0.689684302,0.6308109344,0.5788624857,0.2254980939,0.0438435218,0.0145228195,-0.3565803441,0.7181997442,0.1436485454,0.1502043281,0.2995875137,0.4789224723,0.6848144158,0.203724162,0.2920258282,0.5348148861,0.1105806776,0.5845591998,0.7077352771,0.5025760922,0.1978934296,0.3248365346,0.4450951945,0.7122444745,0.4977694308,0.3026530603,0.0772365639,0.4417901243,0.6051086407,0.6934943904,0.3189721867,0.4523312119,0.4289798104,0.2564089575,0.4334904362,0.1746934821,0.5547567327,0.3771559607,0.5372368025,0.1519372709,0.5979198326,0.5263782283,0.5109693664,0.3732491779,0.7015412093,0.5086107425,0.3832657233,0.357776352,0.2943107728,0.6824459743,0.5611136936,0.700915119,0.2369569982,0.5162231444,0.5208657586,0.0347350019,0.2319054401,0.6994191987,0.0914795738,0.633704841,0.1408068887,0.0545042724,0.1318672271,0.4502516739,0.0094533526,0.073594695,0.2546686633,0.5960668248,0.6251930843,0.0208553609,0.2798494626,0.1292750238,0.2462331065,0.2191851784,0.3072225222,0.559139148,0.0026503161,0.5765111224,0.1102271522,0.597635084,0.0360246089,0.176631619,0.2195849363,0.6817177552,0.2159256477,0.0721937157,0.2338927123,0.0291301384,0.1237159241,0.5011979219,0.6701882755,0.053771091,0.5182655544,0.4105746061,0.2672180455,0.6779331331,0.6355440457,0.6504042961,0.5398016157,0.6608626587,0.1324289177,0.6289968912,0.1621394762,0.322700709,0.5039916312,0.0252241873,0.1802086574,0.6643478267,0.4416546261,0.5504181071,0.6383480615,0.4929084826,0.1084544275,0.6737165211,0.0586859986,0.4315693588,0.3476977005,0.2743478682,0.3863428612,0.6160715348,0.1322872769,0.4201090839,0.5143269692,0.6974467316,0.3668190294,0.3147283969,0.218933374,0.3417065521,0.6953662478,0.1708106291,0.5669000198,0.7009701195,0.0344744839,0.121498209,0.6001320709,0.5726036456,0.6516948508,0.0199530477,0.4265630173,0.6956505363,0.2012661962,0.1553616031,0.1910000564,0.4416078663,0.0234675195,0.2918719317,0.2065011945,0.1629618867,0.2295230714,0.5390330823,0.3326981878,0.7060886719,0.0224975277,0.6344380136,0.574534405,0.0561352641,0.5853488247,0.3667549596,0.2640985528,0.2836302448,0.3672498192,0.610532298,0.3837847509,0.4194185091,0.4729300071,0.484874796,0.6843241553,0.3894426317,0.3113521066,0.3401983022,0.2816224607,0.3823840739,0.6433676983,0.4100163121,0.0949971393,0.4610039864,0.5538016639,0.6524422032,0.4480613373,0.3336436506,0.6622502929,0.5368489446,0.4448390908,0.6930082532,0.4817747482,0.2114902032,0.3750977005,0.7034633742,0.4056567152,0.6645644955,0.3476332497,0.081600123,0.6063720304,0.3162902924,0.0779803187,0.1827577659,0.5074281045,0.5554450514,0.010261823,0.087500167,0.6538848961,0.6976535351,0.1352384821,0.1515743089,0.2875808945,0.4435505625,0.1301499529,0.2789789193,0.6348924837,0.2749945528,0.3110303922,0.3183717603,0.5748146992,0.3179903789,0.4075183047,0.0526047676,0.0672462264,0.3374806046,0.32040903,0.4838104959,0.1634704281,0.612278472,0.5985356868,0.4067936588,0.1372286069,0.5441917164,0.6781946121,0.3192782334,0.2068117481,0.5862138665,0.6904052128,0.6496250525,0.7117700728,0.0736651592,0.3031305873,0.1089030345,0.573513841,0.2949581178,0.5864523818,0.3318146962,0.249183694,0.4811970231,0.0578288562,0.509047232,0.656359099,0.6188781581,0.5957199387,0.1985846269,0.3108189666,0.4772158002,0.5569626453,0.2857126823,0.6249894466,0.3599062183,0.57711506,0.4863549192,0.6040359718,0.5770095962,0.1610398346,0.5985175151,0.0210019187,0.4686985085,0.1203377437,0.1475151062,0.3993157844,0.2210527464,0.7046761574,0.6512608533,0.2019041829,0.2679301129,0.151658921,0.0426714941,0.5911269653,0.6027419685,0.4087457094,0.1666551406,0.6432966824,0.4494791172,0.0075586403,0.2683631241,0.1283056622,0.5162591294,0.0166390157,0.3941625902,0.3192697447,0.2488605056,0.153810457,0.098263676,-0.00200121,0.2742445918,0.5162825726,0.6172043801,0.3341525931,0.3114902957,0.6047003303,0.4953796514,0.0884772988,0.6454233405,0.7219879932,0.3599898166,0.5342915382,0.4670143339,0.5064945122,0.6322499668,0.0625723695,0.6220514005,0.2708891689,0.2719125181,0.4134086111,0.6631092153,0.1796618247,0.3416233373,0.5619305164,0.1837853562,0.7173227583,0.6499440604,0.3033904899,0.4387604848,0.5692970111,0.2971931089,0.4055911013,0.6280256602,0.4903922239,0.36648983,0.4739436425,0.474954108,0.3105269059,0.6070496379,0.3659602841,0.2941181183,0.690577859,0.6017584247,0.296735591,0.5150618337,0.2239097861,0.1340968317,0.6015385341,0.3685225247,0.4496207231,0.5573960963,0.5360794866,0.4560294828,0.5820456052,0.4892655085,0.2771793939,0.1070216268,0.6424164544,0.065104641,0.4071146417,0.7155221305,0.5998332355,0.6959074197,0.5304190941,0.1494014326,0.1137679831,0.2553162708,0.0776093592,0.3369163495,0.3551556096,0.6116170704,0.5213124981,0.1515960152
