encog,BasicNetwork,java,3.2.0,1,1399180148351
[BASIC]
[BASIC:PARAMS]
[BASIC:NETWORK]
beginTraining=0
connectionLimit=0
contextTargetOffset=0,0,0,0
contextTargetSize=0,0,0,0
endTraining=3
hasContext=f
inputCount=140
layerCounts=1,8,141,141
layerFeedCounts=1,7,140,140
layerContextCount=0,0,0,0
layerIndex=0,1,9,150
output=0,0,0,0,0,0,0,0,1,0,0,0,0,0,0,0,0,0,0,0,0,0,0,0,0,0,0,0,0,0,0,0,0,0,0,0,0,0,0,0,0,0,0,0,0,0,0,0,0,0,0,0,0,0,0,0,0,0,0,0,0,0,0,0,0,0,0,0,0,0,0,0,0,0,0,0,0,0,0,0,0,0,0,0,0,0,0,0,0,0,0,0,0,0,0,0,0,0,0,0,0,0,0,0,0,0,0,0,0,0,0,0,0,0,0,0,0,0,0,0,0,0,0,0,0,0,0,0,0,0,0,0,0,0,0,0,0,0,0,0,0,0,0,0,0,0,0,0,0,1,0,0,0,0,0,0,0,0,0,0,0,0,0,0,0,0,0,0,0,0,0,0,0,0,0,0,0,0,0,0,0,0,0,0,0,0,0,0,0,0,0,0,0,0,0,0,0,0,0,0,0,0,0,0,0,0,0,0,0,0,0,0,0,0,0,0,0,0,0,0,0,0,0,0,0,0,0,0,0,0,0,0,0,0,0,0,0,0,0,0,0,0,0,0,0,0,0,0,0,0,0,0,0,0,0,0,0,0,0,0,0,0,0,0,0,0,0,0,0,0,0,0,0,0,0,0,0,0,0,0,0,0,0,0,0,0,0,0,0,0,1
outputCount=1
weightIndex=0,8,995,20735
weights=##0
##double#20735
   0.4081733699,0.4605908889,0.0487357518,0.5212067469,0.0579479389,0.1843883935,0.6104623102,-0.3096373874,0.1423586239,0.568409666,0.0629165687,0.3639306195,0.6085187981,0.6792043565,0.0608351082,0.4712456658,0.623158065,0.0274530531,0.5614961378,0.0125412964,0.2386201115,0.6684874022,0.4093993523,0.0522042868,0.6249124265,0.256336029,0.4468524531,0.0402260622,0.545732879,0.6359528815,0.6747605925,0.0197171306,0.6199312359,0.2035509838,0.1513452228,0.5688777046,0.3479616197,0.1028541569,0.6013199071,0.0825172045,0.1719615358,0.6362468341,0.0414437983,0.2669438513,0.5929218937,0.2150839432,0.2540638798,0.6672512244,0.6667145584,0.6010927691,0.4085434332,0.2667276031,0.0036571301,0.3319479585,0.1866785761,0.2209606759,0.2842245177,0.4466530852,0.6061963957,0.3703085608,0.6018051534,0.323860966,0.668740058,0.4745672675,0.5577934526,0.5190905282,0.3975321951,0.4784799571,0.6634415199,0.6186972682,0.2852902833,0.0397986296,0.0342817716,0.4360098571,0.365913092,0.4802170792,0.3969077107,0.021749312,0.0779369213,0.1870863148,0.413776942,0.4717148568,0.5487133543,0.535211734,0.3823425593,0.0292676668,0.4095323839,0.692580832,0.328501324,0.3764245174,0.1805468212,0.3104691367,0.6721866056,0.3998901041,0.6254568276,0.0195494046,0.3644978693,0.3568102951,0.1901223693,0.1681980042,0.1118085989,0.0274139751,0.4052188886,0.0809221387,0.5192331648,0.6050964529,0.3351909873,0.3816993047,0.5854351234,0.3006757193,0.4559429713,0.3916569261,0.5674033331,0.2001991743,0.0726376327,0.3117880138,0.485886534,0.5059785214,0.3767606116,0.667321698,0.4985254807,0.640614921,0.3716627023,0.3635294292,0.2131363194,0.5576676918,0.2181432393,0.5814506582,0.49673915,0.2816854914,0.3064601268,0.4931535503,0.09631069,0.2573961909,0.3711052174,0.477427291,0.1106919135,0.1975959897,0.1871857377,0.5692199864,0.4128920686,0.0756162128,0.2770358759,0.6199193166,0.6976169426,0.2878597196,0.4519391514,0.2617831603,-0.5120487091,0.1087128083,0.1753555846,0.297327089,0.4974132838,0.1153674583,0.6256789606,0.5695417984,0.4483265161,0.4308220386,0.3464755308,0.3935492488,0.261887778,0.6857935343,0.7000483093,0.0450384628,0.419016629,0.5584455064,0.2927631085,0.4484637404,0.632297838,0.0066130503,0.3675618862,0.2493493265,0.1195399303,0.1822076456,0.4776632989,0.5685038518,0.3178860017,0.2843456298,0.2386251543,0.3650764985,0.5217363155,0.6583614955,0.1932094011,0.2714239002,0.0467608769,0.0788495122,0.1199381999,0.1127666549,0.3658343531,0.5419206052,0.209352312,0.0129504117,0.4027896083,0.2751422608,0.2572485089,0.4818342903,0.645651558,0.6244661736,0.5812527846,0.6735020639,0.2943503512,0.3856604574,0.266106529,0.4820876937,0.5662174215,0.0468487443,0.4934723618,0.0095982339,0.1390531884,0.2023840336,0.5888920864,0.3659617002,0.5034116325,0.0145296413,0.0994733179,0.1577727321,0.5398346061,0.701775608,0.1370691368,0.6550866066,0.700355296,0.589667654,0.2335024077,0.707599279,0.1816350383,0.41232738,0.2804181622,0.6782215326,0.2282864702,0.344620135,0.3081674147,0.3041140829,0.4043058925,0.6670967854,0.6795326491,0.5050297015,0.207303792,0.3214073342,0.5668447482,0.1058750581,0.6615243289,0.6903772696,0.3174175394,0.4004581179,0.5540637308,0.4329858721,0.1317587659,0.4729552074,0.4840334599,0.5545693842,0.2283371165,0.6195027603,0.285093611,0.0429437616,0.2109595795,0.1815533113,0.3196573909,0.4092720597,0.3407246293,0.2808054691,0.2250721549,0.4417288033,0.0011537448,0.5413798786,0.1881676307,0.1776080195,0.063554218,0.6231548635,0.048903834,0.0169970687,0.6828935693,0.6440837951,0.2351090848,0.5432595797,0.3564688526,0.3814764329,0.2185971516,0.0654216362,0.4313954293,0.6697259667,0.3481682592,0.5507600848,0.2328239339,0.2980425376,0.3888745051,0.3318896911,0.4531765835,0.5442612609,0.4359007369,0.4501709273,0.6965860278,0.6016015057,0.2288401609,0.4489344217,0.3580974283,0.582971927,0.3068942851,0.1409362079,0.1897780684,0.3074853619,0.2669123961,0.2033810108,0.3927071798,0.2852822462,0.3942858476,0.069183046,0.5846887699,0.2712311159,0.5436754349,0.2522044528,0.556138592,0.1414036814,0.4892151953,0.260055875,0.3446644022,0.0391420925,0.0033384207,0.1184646541,0.2833987659,0.1319493921,0.2124245766,0.433809109,0.6307766102,0.0105899722,0.4417354356,0.4127980406,0.4289600792,0.1358659164,0.1620809265,0.0796775544,0.6232854113,0.0201805268,0.5515156949,0.0780520701,0.233637289,0.5415045282,0.0141562256,0.3748679109,0.3823178819,0.531102399,0.5626986227,0.2162257569,0.5899208862,0.1135091557,0.6761138545,0.0772465695,0.6479350227,0.0320730363,0.5349518804,0.6816189334,0.2554742538,0.4122042154,0.027160424,0.0562507487,0.5139687571,0.1526825281,0.3783109995,0.6444545366,0.233850666,0.6869059216,0.3476716337,0.0729097853,0.4756375077,0.3778908019,0.6291419987,0.3107378061,0.4878465273,0.7025114269,0.2908112239,0.6990099294,0.0736639552,0.6195549933,0.3464074566,0.4517681276,0.3006609662,0.034472847,0.5008120875,0.0195682264,0.1191943768,0.2688186083,0.0275055738,0.1231559693,0.2913288156,0.2896499335,0.3446226494,0.4929399117,0.4967371432,0.2755807953,0.5852618494,0.2286220188,0.0095588672,0.5626417145,0.31053903,0.3520789074,0.3353308093,0.0729660548,0.2520642555,0.1771771787,0.1183054277,0.0379646925,0.6717793575,0.1819219572,0.4176280934,0.5066962053,0.6819495356,0.6124417137,0.6049139398,0.5319691114,0.6765576073,0.1211121219,0.0662578495,0.6833990835,0.338416385,0.5273985975,0.1252823713,0.5262399497,0.5742714372,0.2231962074,0.088809526,0.2526540987,0.2798234353,0.678642953,0.3433352194,0.1037800646,0.4472981189,0.3645378991,0.1169163766,0.3602906763,0.075249428,0.5487265411,-0.5190163172,0.1770509308,0.6423042399,0.5224223517,0.1462879504,0.2368910422,0.0902050358,0.4157602475,0.2413888487,0.1585224391,0.2548542358,0.2948855309,0.6464469012,0.0490516834,0.29652923,0.392557457,0.6356124875,0.531225529,0.2357173823,0.2602375522,0.0451595879,0.2342791679,0.1342017193,0.5416073887,0.3547282646,0.6289082187,0.119784705,0.1439271792,0.6365563045,0.4942007501,0.5812649248,0.6712376656,0.0767553613,0.5675798532,0.269476316,0.2946029903,0.0691075313,0.3786239826,0.5381313357,0.015368801,0.429687797,0.1223354222,0.4080446846,0.3723220184,0.4014776432,0.0214422476,0.394127996,0.0159035264,0.3849847819,0.2971561342,0.3013755138,0.6860652629,0.1707640457,0.4766292454,0.268870462,0.1180903334,0.3136559343,0.0266792054,0.1067678703,0.4384095486,0.3964470176,0.4408253772,0.4728368474,0.0899675394,0.2585350188,0.5007093794,0.2140167185,0.0890088857,0.256621628,0.5224178742,0.5522025985,0.5507208952,0.4791272238,0.6779963171,0.5815705942,0.3202409563,0.2285836382,0.1319589541,0.5584208714,0.6682126305,0.1461050625,0.3839366779,0.4577838083,0.2029884947,0.1419991894,0.6381150097,0.5527100873,0.6809586098,0.1771413695,0.5920038073,0.2645296274,0.1771644897,0.3544642449,0.2188899833,0.2114398821,0.0421399775,0.0578759793,0.6033225352,0.4999153315,0.0234948696,0.2407594937,0.0855944936,0.5758558001,0.6154201399,0.6729832889,0.533825794,0.5020616242,0.6352565189,0.4311132919,0.0564301952,0.2298677502,0.3966719808,0.5068459609,0.660739299,0.0933584873,0.1213830005,0.5054867633,0.6728699543,0.3707986174,0.3226396845,0.4328906143,0.0045522353,0.2040838221,0.5025092135,0.3536876002,0.1277665444,0.0549569067,0.0583743596,0.547204705,0.2490688717,0.171315858,0.2707215575,0.1024154682,0.0042820461,0.6966137392,0.0009861137,0.3616043601,0.6954581123,0.2334815771,0.0764460695,0.0759690659,-0.4277503456,0.03755171,0.6521981778,0.3626204555,0.6449592665,0.1733961396,0.0073293788,0.3054017649,0.4820900259,0.6990442802,0.626802169,0.2811297216,0.2296423191,0.1458443672,0.4618993011,0.6979569549,0.4431755663,0.4021802486,0.4199434187,0.241768882,0.1154376242,0.6758375778,0.3435057741,0.3168738111,0.3440871228,0.6800500803,0.0690820788,0.4917576101,0.6790992151,0.410723841,0.6734427013,0.0774834014,0.141052289,0.1030126203,0.3178500619,0.5547871424,0.0186204775,0.3239428715,0.6056755506,0.5666095198,0.4526202778,0.6778878104,0.0313333602,0.2526761259,0.2712349668,0.532147832,0.6851510357,0.3558906449,0.5805400927,0.1853699319,0.5346956785,0.246362338,0.6594953706,0.1979792491,0.687012695,0.3570882281,0.2176084791,0.181203526,0.0424072578,0.6350453488,0.5806141718,0.5212637909,0.1356225752,0.0705667906,0.564294354,0.650922508,0.5616531201,0.5885300147,0.0320276424,0.3518976716,0.5523712899,0.1474798436,0.0435982483,0.0418337511,0.1451209949,0.0358770766,0.459138609,0.3976306833,0.1411382205,0.3109356078,0.5651814273,0.4088437071,0.3296170876,0.3521320839,0.0612754967,0.2365295739,0.1896126031,0.313600416,0.008792548,0.553036539,0.5710133201,0.4525553601,0.4828739488,0.2034504716,0.0542861894,0.4298874612,0.0092800662,0.66781787,0.6395058795,0.4967699914,0.1162855721,0.522970237,0.3622269503,0.287720229,0.0995343456,0.3068363526,0.175727135,0.0299846447,0.5254858448,0.1758404452,0.1699132777,0.700689308,0.5505718352,0.0572440409,0.4012470725,0.2794170414,0.1523894354,0.2928697829,0.2593642234,0.5625157014,0.2257511164,0.444165948,0.3780953105,0.6271633921,0.0405516803,0.0124501287,0.0863392488,0.2077156557,0.0766745066,0.2872687075,0.2637132263,0.0423360276,0.3516476237,0.5974931766,0.2059441501,0.1062913463,0.3722590289,0.4567549027,0.0520811408,0.2367905221,0.6978491572,0.5735965158,0.1747077849,0.2630637258,0.5140366177,0.6988243535,0.2141515806,0.3882386722,0.4555300264,0.5444980063,0.5603777158,0.1913330575,0.5310281097,0.0916127254,0.1812069234,0.4242973566,0.3717605999,0.2342468036,0.1231954664,0.2177995865,0.685795344,0.5133070995,0.0195764393,0.2269777905,0.5643261179,0.4632785836,0.7037858654,0.0845440007,0.0595094407,0.6150307352,0.1756347002,0.0395072536,0.1306163687,0.0184932951,0.5893574196,0.2186834552,0.1299054861,0.6192224139,0.0258327917,0.4368486077,0.2091965552,0.4372179954,0.6050068686,0.5708067851,0.3689109159,0.1126214179,0.4027476609,0.3987334256,0.4487616464,0.5868895515,0.5077360487,0.6183109274,0.0364889535,0.2821151451,0.5398377488,0.009245545,0.3105496543,0.2361264253,0.3477083687,0.0484257535,0.6503577213,0.2154337527,0.6391686647,0.2884917021,0.4823975294,0.198506216,0.3447962383,0.5229609326,0.2397083577,0.489442647,0.1498983366,0.6471179609,0.5698691966,0.2939672753,0.1038957329,0.5866879272,0.4799885117,0.4739287161,0.4774944135,0.3102591667,0.0542976457,0.099189254,0.2993262438,0.0918346095,0.4268357785,0.0893396005,0.4369792931,0.2977940867,0.4576647015,0.5377823477,0.1989174805,0.1673268228,0.4305190246,0.6090432175,0.6230493006,0.5958351605,0.4435141618,0.2797791489,0.1913802195,0.5544058794,0.2410356215,0.6937183216,0.3966799634,0.1081861883,0.6034553956,0.2619045921,0.2032720795,0.5664847077,0.3343739519,0.348279082,0.4669748714,0.0559757805,0.0761870533,0.0060546089,0.6848635873,0.1713904639,0.0523553327,0.1164761037,0.0913512647,0.3143639121,0.6839017187,0.1121549566,0.2453042893,0.0009828063,0.5218685722,0.0409056195,0.0983264138,0.3563904719,0.3781024615,0.636109633,0.5202803737,0.6901816328,0.6224300672,0.2544177585,0.4010988899,0.3261416805,0.5521605715,0.1467443642,0.6409053045,0.7052924835,0.001161306,0.2777821218,0.1392257207,0.0702524089,0.1401770028,0.4331002032,0.049705711,0.5165368075,0.5982053366,0.6640951977,0.6481670535,0.5223888918,0.7045779991,0.0071597599,0.1951151922,0.5630168113,0.4524458242,0.1609016147,0.2876856921,0.6560458776,0.0456911231,0.182994252,0.0721226985,0.5101234797,0.707145908,0.1931850188,0.1279806452,0.4335818737,0.3102257346,0.1343378203,0.6285012141,0.378870691,0.0659393723,0.2559343649,0.3024375256,0.4825348302,0.679030749,0.0978938052,0.582807307,0.0453033873,0.1030828852,0.6331251754,0.3527578863,0.0546736059,0.2561549961,0.126240166,0.4480713403,0.1737536179,0.2920853751,0.6455051467,0.0450657494,0.6790685066,0.0492159183,0.4263854808,0.5014573028,0.017396156,0.123344492,0.6813525382,0.5548192432,0.3843951257,0.206506891,0.270108736,0.6213435177,0.4733589148,0.3061598752,0.1164829778,0.544550942,0.4526033588,0.2104820546,0.4474380297,0.153559271,0.3729660827,0.1965249011,0.4423693709,0.2906440369,0.7066973408,0.6773399027,0.2161227717,0.4047474538,0.4276478402,0.1263073354,0.3851692727,0.2204967323,0.6810743897,0.6212937501,0.4615307607,0.4717147106,0.3268034058,0.4517395036,0.4971955822,0.2732058448,0.0672069858,0.5449089725,0.1159383741,0.0065999582,0.214062608,0.6733474719,0.0997387793,0.286172964,0.5224702902,0.6004111928,0.035936549,0.6914193247,0.2009037306,0.0275055208,0.1548902466,0.3678906976,0.4604052244,0.2794593044,0.3222245826,0.5023874752,0.2716044309,0.4174544528,0.2687563061,0.394615941,0.1708656281,0.5879460797,0.6668306734,0.5745737628,0.2717618826,0.6625140805,0.209623508,0.0754790786,0.0158708767,0.6124715415,0.0040948268,0.6474575371,0.5598654218,0.3233666326,0.1767436518,0.4982294921,0.1771441422,0.4369132179,0.4367694057,0.4176499376,0.529866549,0.3076478085,0.621032963,0.43749557,0.6716008989,0.541244474,0.0019145367,0.1693846377,-0.6855969768,0.2524456895,0.0794248363,0.3593853227,0.6439274833,0.4635425372,0.4565408779,0.5001450523,0.2114005319,0.0697169931,0.2420060765,0.4348931467,0.4019101777,0.5953522855,0.1716387084,0.6272776801,0.3900203638,0.6484739732,0.398507056,0.4042514347,0.0644432051,0.1153066267,0.2182191358,0.2031340053,0.3004748406,0.100282007,0.0350552299,0.4327757254,0.6728873794,0.2625814556,0.4212181632,0.2658377689,0.6818951681,0.4413412612,0.6569414517,0.1274640917,0.7080204466,0.5966199869,0.3522617881,0.1515770848,0.4986564927,0.5550433799,0.4664854803,0.4223023852,0.2186683299,0.5568752986,0.2120428708,0.2699039693,0.2149977313,0.2311595039,0.4818780111,0.2307114043,0.3820806264,0.4302265493,0.3630011917,0.3274199287,0.2422015685,0.3282848315,0.1867216841,0.5127623545,0.1984520971,0.6411772143,0.1723060318,0.6620710084,0.7022764363,0.2407400807,0.1393515858,0.3052453873,0.1799231493,0.6366795593,0.6321751517,0.0285747057,0.1315766477,0.5587628939,0.1463248053,0.6253900932,0.5960465429,0.2690158103,0.1777129848,0.0352252644,0.3560268415,0.1382234698,0.6396418919,0.4337479154,0.1477315418,0.2351086674,0.1342679839,0.5082313011,0.2958227906,0.1821692408,0.5755612782,0.2044607222,0.3978140474,0.4873696253,0.1501236975,0.6973040266,0.0716894795,0.5621104192,0.5822936332,0.5515981102,0.4383552148,0.0633776139,0.4090982204,0.3881675101,0.7085912508,0.618776757,0.6861153317,0.2199709378,0.5380821748,0.5126689508,0.0432348178,0.244995956,0.1422155854,0.1849245676,0.255463672,0.1055643922,0.3377971311,0.0520684008,0.2009396743,0.1619209814,0.1926784533,0.3798084776,0.0072202245,0.5729858042,0.54765114,0.5694523036,0.1030253031,0.385234686,0.193116133,0.2804722315,0.2994799958,0.547944184,0.6030285684,0.4669591966,0.7057859629,0.1971095397,0.2768306172,0.2592890177,0.2684842333,0.5177204978,0.1452143691,0.4540514459,0.3152416436,0.0101852101,0.5253204912,0.4788368146,0.3732333148,0.151484101,0.0467626859,0.231076175,0.0348494561,0.5761187758,0.4895529787,0.6200674472,0.2153420155,0.2874834657,0.3330717006,0.2232371606,0.127646597,0.4439773848,0.1523733849,0.5746715785,0.3614242107,0.3615414386,0.5096012875,0.6655378269,0.4616520106,0.2371335843,0.6806369424,0.5635290898,0.3981435997,0.6613085111,0.0088126653,0.4864666766,0.2599054099,0.0189782662,0.5963382707,0.0495720599,0.1343442067,0.1181293946,0.2779447344,0.5087776486,0.5344533759,0.1289854033,0.5808876931,0.0707205849,0.1687193365,0.1087008684,0.0579362593,0.2193691278,0.4373387349,0.0986620618,0.5768432226,0.0219995651,0.3982135082,0.2649044578,0.2401717726,0.7054560784,0.6974209205,0.5902971514,0.5883739948,0.4014166766,0.2996858544,0.0271646114,0.0618433469,0.7071778817,0.6626119795,0.4300190669,0.0845805595,0.010686549,0.6477535143,0.2789345977,0.6640309777,0.4737506989,0.3034821623,0.566995571,0.5180278312,0.2131056014,0.7118256323,0.3063496664,0.3113169364,0.0107323025,0.5867398187,0.1413664646,0.4239952887,0.0261908879,0.3847645631,0.0113631957,0.5602095797,0.2417379594,0.1592744203,0.4810641527,0.3029157658,0.0900086291,0.1984603235,0.0843820076,0.0611222855,0.5610948861,0.2425785744,0.3972389733,0.5877369166,0.3765297658,0.3395363087,0.2751989207,0.7198042564,0.2130498506,0.0875246855,0.4113183243,0.1091590576,0.6165699194,0.6848406895,0.4332050252,0.364945648,0.2371900027,0.3279328452,0.3711404202,0.4775420261,0.2746174634,0.4319180588,0.4673574617,0.6361758036,0.000426433,0.5712277855,0.4751223809,0.227077169,0.1591869094,0.4318401067,0.6337127348,0.2508549151,0.6459139968,0.2254026539,0.6765709016,0.4568801981,0.6861278386,0.6358196457,0.1138751328,0.5510045258,0.4148885387,0.1404040089,0.1478759539,0.375979856,0.6954002067,-0.3711284429,0.0056413243,0.3776966935,0.3355656465,0.6478909786,0.1159150319,0.4985360895,0.1779650016,0.0336712485,0.3499724649,0.2853276009,0.5216104766,0.4664024804,0.5085916023,0.2354817266,0.2986338884,0.0166271178,0.5787472078,0.0320153422,0.1357017828,0.3951046572,0.6127549559,0.0148516714,0.0832049652,0.2246125317,0.6214960583,0.2941791542,0.4771604114,0.6724388195,0.3471957878,0.1156148709,0.1967402872,0.6819335623,0.0906047913,0.1556095006,0.6818079764,0.6363134169,0.3859984028,0.1835024077,0.4911970114,0.3962957211,0.3972564462,0.2313617638,0.3585900523,0.0768279098,0.2739672571,0.6780154053,0.6615435319,0.4737905164,0.3286798818,0.4387600427,0.4640028592,0.4035043853,0.3834777552,0.4295884179,0.4780899552,0.3761652052,0.4536412964,0.4629702071,0.4229952839,0.3045436168,0.6906986885,0.6204598905,0.5949458859,0.2172720528,0.7229766431,0.2686471517,0.5635468339,0.3359443336,0.4076628791,0.303857548,0.0397599104,0.4223973358,0.468330903,0.3658971389,0.2595240763,0.6033348077,0.5125011995,0.6639700908,0.4490218888,0.4075496336,0.0314656156,0.2697839113,0.4864414256,0.5357351212,0.5242012141,0.5932895912,0.4639672455,0.2925232936,0.5371857685,0.3002405331,0.0970045772,0.504812247,0.6285740033,0.4272215731,0.1408817281,0.4158967275,0.6796721599,0.4481444274,0.6848329776,0.1484318155,0.1392154114,0.4008692719,0.6037195591,0.1277582005,0.4505355626,0.3666929244,0.2788712417,0.0409888595,0.1369728906,0.1532215921,0.3015225115,0.4178366697,0.1637118038,0.3776074981,0.5264037845,0.4815969182,0.1839799165,0.7092152835,0.2916571117,0.6150134904,0.7171916281,0.662384142,0.7182625922,0.0542960416,0.2189416872,0.3993370666,0.6948971505,0.604812626,0.3356246816,0.3409914696,0.0509697104,0.4214742971,0.0677573796,0.2876505786,0.380793874,0.6137186783,0.6227113844,0.4971542139,0.6958654487,0.0630534148,0.2277666325,0.0532467528,0.5206722097,0.2174027242,0.1264094194,0.1625078455,0.0756630813,0.4636455184,0.6386117951,0.2585770935,0.4993380928,0.586671413,0.2108348331,0.5585786756,0.0882298665,0.5713114452,0.4231524872,0.288887469,0.2381000637,0.3884025749,0.350160491,0.4451050592,0.2861263987,0.492104744,0.4620824365,0.2821423981,0.6833629556,0.5950993806,0.0243222773,0.4116766793,0.213680785,0.0335494725,0.6898499416,0.3219795029,0.1975338777,0.2811078464,0.647698707,0.0489321093,0.0271880883,0.3711203215,0.2832830093,0.4996127589,0.7235568477,0.4720029497,0.4180674339,0.3976704976,0.3075048796,0.6146435826,0.6817775255,0.5558448541,0.0679073732,0.6632114387,0.5346608685,0.3255891092,0.7052963444,0.0867106799,0.0817121534,0.171084541,0.4892258708,0.3609053209,0.081910685,0.3177268052,0.1410794313,0.6280457572,0.3012915904,0.4274026598,0.1479037447,0.05075132,0.565726708,0.5174514038,0.0131931895,0.5254585474,0.683741761,0.6216029903,0.141824259,0.5322858074,0.6620727247,0.3403008229,0.4457243593,0.1201295982,0.2976327284,0.0177099445,0.5724914157,0.4631212122,0.3518105144,0.637930134,0.093887308,0.1771921039,0.1432652191,0.5307225602,0.6005877081,0.1151215116,0.4401961991,0.1437612832,0.0535536455,0.3842418628,0.1559416424,0.7135765096,0.2277005754,0.6720859158,0.3191371336,0.5928525337,0.2753725498,0.4516485359,0.4812188847,0.606520924,0.2719472532,0.1821583842,0.6373526898,0.2826182033,0.2699928503,0.6676326438,0.0000903632,0.2067821548,0.0871116979,0.5121583426,0.3212827943,0.2564336056,0.1188980529,0.3926594461,0.4914701542,0.6030545214,0.00769003,0.6742445145,0.050508094,0.3387325782,0.1621001066,0.4104825509,0.3455587494,0.322207568,0.4553892415,0.6616250505,0.5428014178,0.1392642707,0.0906741827,0.006318633,0.3558776027,0.6462215278,0.7011534524,0.2280938353,0.138505259,-0.6009632522,0.5288524201,0.1281075141,0.0649308511,0.4817742581,0.458078929,0.4322435019,0.7061145032,0.1102929835,0.2195891201,0.2381662398,0.3023618519,0.7042620121,0.4103726294,0.7203539329,0.6159532422,0.6774335454,0.2375342334,0.573766043,0.1800804408,0.3715507769,0.1402435801,0.4565306431,0.1196877355,0.1611228092,0.0041088847,0.6871135401,0.194906557,0.0157689281,0.0725493569,0.2121152002,0.4205875852,0.3248808079,0.5169418064,0.5446439894,0.0657808191,0.5722087705,0.4604659144,0.4831253808,0.3803679312,0.67460087,0.656084596,0.4947290737,0.4180646697,0.4635317215,0.0436808447,0.0366669796,0.0657791955,0.6974282953,0.1663910002,0.2199364626,0.2051532227,0.0651045642,0.0924942201,0.6194434326,0.215213041,0.3848265454,0.6170990808,0.5970128443,0.0676476114,0.4789479734,0.1534637776,0.2876948975,0.6647206413,0.5609455994,0.1718397597,0.2415093347,0.2571373556,0.4035040274,0.2743473657,0.583004011,0.2289771991,0.3677970652,0.6632153618,0.4497382458,0.0616670065,0.1437622262,0.0123010401,0.0237825632,0.7140137915,0.3172704036,0.6881129562,0.5254623747,0.0500532389,0.2330878708,0.6638670673,0.2246004455,0.5162383295,0.6474257031,0.1068161547,0.4671788434,0.6568614556,0.4481200226,0.6581355551,0.3763434236,0.4261767858,0.1299247279,0.176747317,0.6174674418,0.2380818709,0.1033475508,0.341131639,0.2355909545,0.2025366552,0.6567490677,0.4113968323,0.3847019068,0.2597285415,0.6932591315,0.6541909704,0.0463160753,0.1958050228,0.636008586,0.6877784051,0.5041578407,0.0826416476,0.5288593473,0.6945587854,0.501286191,0.0022481806,0.2911508463,0.6285987575,0.4341487224,0.2455333245,0.2026081016,0.0528845273,0.2306351354,0.0883063236,0.0805008487,0.0690091045,0.0676950178,0.6978791517,0.1893567723,0.401179786,0.0887557202,0.1791240422,0.4658780571,0.2481962881,0.6185303397,0.1945801209,0.3529704904,-0.6825927401,0.4871664622,0.71378479,0.5630828257,0.4713125503,0.4466851479,0.345009537,0.4323712661,0.2672466798,0.681927068,0.0732658645,0.6398265118,0.3966690993,0.6240614473,0.5867596201,0.0368747526,0.168316846,0.403670726,0.0474525209,0.5552765934,0.1556692588,0.4145259294,0.2668175314,0.4877282857,0.1630108215,0.0487122835,0.2822615412,0.1945152804,0.1211875211,0.0069581713,0.264256198,0.1468029192,0.5057973517,0.1818752462,0.3369835918,0.1558531844,0.1459398322,0.4652988603,0.3955596014,0.4349107573,0.0166388048,0.5578183912,0.6075614105,0.4050778661,0.4491260019,0.4678730249,0.6273810156,0.0402863025,0.1155761319,0.4992292516,0.0791539868,0.5931997537,0.709716931,0.4667927546,0.5249805159,0.6834733041,0.1537943788,0.4760908231,0.6550147478,0.1143499979,0.6323918571,0.4244495079,0.2476684754,0.1262821211,0.4505076031,0.5606178417,0.4343205767,0.5126684912,0.3573720344,0.6701761173,0.0575246499,0.5045306059,0.6203114375,0.3155407722,0.5515436094,0.7007674313,0.7169832622,0.3733075758,0.5649954089,0.0581643057,0.5359741106,0.5038054282,0.3359333135,0.2887240723,0.6224696146,0.6376974254,0.3150638281,0.3267909943,0.5756824585,0.6626989209,0.6902294609,0.3984638196,0.6482591323,0.5501486185,0.5516645899,0.1473976028,0.1604947946,0.5445393427,0.2366908043,0.2214752324,0.3076858226,0.0767353535,0.34877357,0.183066308,0.2953854618,0.5546640415,0.1412384161,0.0866268896,0.6253922094,0.6774978926,0.2850625871,0.5592740031,0.0552647647,0.1244858053,0.3509247785,0.231659617,0.5881407107,0.4924747761,0.3885723217,0.4710281901,0.3434283835,0.3901680969,0.6175043172,0.6065029604,0.1669823098,0.7123599118,0.0136270746,0.1035853234,0.1503484933,0.3251712565,0.2821333013,0.6915072912,0.3053845412,0.0451391686,0.2420077972,0.3147394396,0.4531342416,0.3112900584,0.4044568802,0.6704181187,0.6013011393,-0.2032576239,0.1547445218,0.0588526819,0.6209992247,0.4835606775,0.3982376428,0.4031610218,0.6684986757,0.1030906895,0.2566601732,0.4158802301,0.654189957,0.2195885488,0.3708529215,0.0762872129,0.4665016459,0.6628206376,0.4117046047,0.3399975265,0.2854831788,0.2490892548,0.2410908511,0.0638716898,0.1458504963,0.6495899219,0.1325902966,0.6051515871,0.6576369331,0.3389291072,0.6688019983,0.6135418269,0.1366546596,0.6380239826,0.5477343328,0.6995695452,0.6936273926,0.1932279246,0.1340091626,0.7033021591,0.2142619286,0.1339286739,0.2983046375,0.4330747646,0.0368265078,0.5121326474,0.0879522363,0.6721547317,0.0828994187,0.4328587053,0.2790889638,0.0736117848,0.3153780581,0.6090078246,0.5487044241,0.3561118902,0.5736824652,0.1295105954,0.4116157983,0.2621635254,0.2920643072,0.0443185486,0.6018597166,0.5957733657,0.3837773585,0.2538022375,0.1000733598,0.235933237,0.2212780343,0.3133773542,0.319342632,0.2096389745,0.1432295706,0.6584650022,0.4240198652,0.3224462298,0.459725077,0.6309655504,0.0655288928,0.2876512148,0.3970249941,0.6456886298,0.5019704154,0.3455240334,0.5881042144,0.1658633509,0.5926476692,0.2850694536,0.5754238965,0.3232086677,0.2202682072,0.2683606771,0.406251918,0.4057244934,0.2572289628,0.3091933505,0.4056994804,0.0866633968,0.6736011117,0.1532747835,0.7197802154,0.063719743,0.3736362147,0.2428073173,0.3236532311,0.1572310227,0.3711570759,0.3247461044,0.5672238484,0.4998916724,0.1708834432,0.3073461842,0.5251654058,0.1093967575,0.6718378165,0.6281838161,0.0455412534,0.6533802634,0.7079960985,0.5985737154,0.6547740997,0.6804359275,0.0112128999,0.0336101974,0.6695144185,0.5461857522,0.3018389688,0.2094519766,0.1341153499,0.1823931305,0.1731514824,0.1901781796,0.4579258842,0.6938471297,0.4600956346,0.3619132682,0.0394939889,0.4982586542,0.1804920018,0.0402920426,0.6997141445,0.1678401189,-0.6136214652,0.1972463255,0.3676473394,0.1175591748,0.6951120035,0.6899632683,0.2010770781,0.5866826121,0.002486878,0.1614758763,0.4878910273,0.4328799161,0.6655288568,0.0301012099,0.1304946242,0.2892407107,0.2491056342,0.5477227984,0.6080310657,0.2145122077,0.0480256642,0.2936929417,0.7012615331,0.1076376113,0.126787241,0.3424066495,0.0872658114,0.4964219059,0.1289502942,0.4295022989,0.1183858851,0.2797869007,0.1760514261,0.253140294,0.2129791656,0.2293533735,0.4086183373,0.4655648269,0.5968014196,0.1294349264,0.1642615951,0.1996145835,0.3857288606,0.220792967,0.6154800498,0.25777555,0.3337481742,0.7204933619,0.4991225606,0.5839439195,0.0428030363,0.4310782105,0.6472115541,0.5803856578,0.5347761016,0.7216376757,0.0295760842,0.1597934785,0.7032693828,0.5313075408,0.1184708196,0.1935218223,0.2124559043,0.5535162535,0.7062721412,0.1793340286,0.5232803086
   0.0321529693,0.1014960397,0.1077165988,0.2431824755,0.3410747545,0.023953531,0.0232753206,0.0370651229,0.2751615658,0.4000684515,0.3413448314,0.6409716314,0.5795697931,0.209242584,0.1567948438,0.2325561158,0.6073260919,0.3816378651,0.0283800014,0.5686695881,0.1011449045,0.21060402,0.1546358521,0.3972628847,0.0948786141,0.6964552357,0.3127797528,0.6361892395,0.6131175963,0.5416969542,0.0241219327,0.4506991649,0.3602603842,0.4932454604,0.2201548472,0.690329775,0.4298842097,0.4501546192,0.1834317117,0.3334128693,0.2314619796,0.1503801675,0.533744348,0.2598629844,0.084856693,0.4219930868,0.7098113452,0.0811990032,0.6298949721,0.143761802,0.4267302667,0.2990639812,0.6314640172,0.0083543542,0.6536896018,0.0434662773,0.5964715215,0.6317576397,0.0650407705,0.703253866,0.2786203471,0.7216125482,0.5713959643,0.160865565,0.344030026,0.7176142017,0.0964456373,0.5787509505,0.2633950711,0.7243762893,0.0080786128,0.2991740768,0.5750019411,0.1568165251,-0.4054467538,0.4542696044,0.5886304747,0.1227838714,0.6975919415,0.1919687633,0.537192931,0.6569494608,0.3539898863,0.0008982239,0.5165643198,0.3244518567,0.3220304765,0.6265079548,0.3724363899,0.4731573136,0.4762384129,0.2372133199,0.0369162888,0.6817606208,0.2877945945,0.4370328934,0.4414746073,0.1135180979,0.4909905136,0.5234882828,0.1594834016,0.1733439837,0.3958986929,0.0042761977,0.6418026732,0.1673136801,0.3600878189,0.4092783694,0.0625770466,0.4555465873,0.6002347278,0.386768168,0.0158997537,0.0061437243,0.2153091895,0.6266623685,0.1871631766,0.2705548235,0.4976634667,0.4435090618,0.0291573274,0.4879229983,0.701101201,0.6033068399,0.2436702473,0.3851724677,0.4277834693,0.290059,0.5751126018,0.19724939,0.0449743786,0.2028985551,0.1336021523,0.7077282923,0.2648713023,0.0323486002,0.4265154475,0.3171485583,0.7071396792,0.5290877573,0.3669901612,0.4178680007,0.1424175409,0.3073883184,0.2542052192,0.0516128439,0.2093259052,0.2606714793,0.1883032382,0.5228793999,0.2804762751,0.4640994945,0.7158652992,0.2319636097,0.3862617007,0.1203210262,0.5065180511,0.4588427144,0.1679307853,0.5508703706,0.6255513945,0.2896272522,0.5953943829,0.7047664614,0.0524504387,0.1152207427,0.4336632661,0.405036995,0.3961770944,0.0645837068,0.0639613144,0.1149716615,0.1982680815,0.7140545473,0.0446621995,0.1980184604,0.1751392741,0.6964457532,0.6517914998,0.181570143,0.6985161237,0.3316662363,0.5042739175,0.4447780804,0.4032900866,0.4767146718,0.0392046779,0.5309908484,0.6998510734,0.3362419469,0.6242636313,0.3927189451,0.381208353,0.5759302216,0.3378352321,0.5273603458,0.6940798357,0.0378858992,0.4328124752,0.4127547512,0.0349540433,0.2083973824,0.0166898173,0.3005767389,0.5452384016,0.5379899328,0.3301388916,0.4187444599,0.1026841096,0.1365303046,0.3050363707,0.228882376,0.5051238711,0.513130164,0.638605917,-0.7245964274,0.4956920838,0.2412658418,0.1282036419,0.600997733,0.7105888489,0.2068641009,0.3491182061,0.5610714131,0.3944687437,0.2710697321,0.2232221807,0.4635686397,0.6383910605,0.3529612785,0.5732450434,0.0770203078,0.1959210134,0.0106548429,0.2799032111,0.6421620132,0.1746776987,0.3384753764,0.2630567563,0.415184938,0.53312732,0.3678651578,0.6899181478,0.1520445089,0.5117245611,0.0963520949,0.2227777139,0.2078915535,0.2966405228,0.5321209582,0.3635447993,0.051347424,0.3652393396,0.2464631863,0.4362202643,0.258440842,0.1185332097,0.3169478967,0.3837689976,0.6896798019,0.5904128718,0.2612896681,0.5703325136,0.3437832881,0.558080776,0.3019625389,0.2439363218,0.2410226296,0.72506163,0.4149609127,0.6437902459,0.044863394,0.3625530701,0.5476182042,0.4269649991,0.4155760136,0.1754707074,0.402952889,0.4811494101,0.1630053261,0.3578726982,0.287601408,0.6103372339,0.0462879478,0.2633958825,0.0285776802,0.3801101319,0.0117012497,0.5764492269,0.4599068401,0.365960485,0.2108979112,0.633373465,0.2821882799,0.5246848667,0.5574399261,0.1652691982,0.2416646607,0.7034842231,0.4974998143,0.3792110351,0.4197131174,0.4840972547,0.3597180529,0.3716667392,0.6885647318,0.6360480146,0.2849399354,0.6519801573,0.606261052,0.3185262043,0.4476422792,0.2082448184,0.4801809186,0.5323115619,0.2367676393,0.617073178,0.2927903341,0.6432000383,0.3697928365,0.6850850204,0.1352127682,0.2699720055,0.1138928868,0.5636573098,0.0787085396,0.6339319086,0.4670326983,0.3217960127,0.060522737,0.691446688,0.0696342512,0.0457661045,0.4915693838,0.3899695315,0.219002416,0.3655618978,0.4587668571,0.3652487241,0.4445872704,0.1448902586,0.7232624228,0.4734802302,0.0999152182,0.6148669749,0.4234636383,0.1420554104,0.3360772218,0.2713306232,0.5433788439,0.3280727136,0.0575651157,0.2867357217,0.2579769163,0.6200772234,0.4742929978,-0.1239364206,0.0899304953,0.3606425883,0.2382889628,0.4178783323,0.3589351234,0.2952557376,0.1651991243,0.2950051185,0.3955310765,0.3245750851,0.3349677241,0.1205218799,0.3379885638,0.1776578445,0.7212427284,0.3139413431,0.4369404867,0.6014652361,0.6427849006,0.2243298027,0.0616453341,0.5325362743,0.4264804811,0.2570797422,0.4550009876,0.107113498,0.1121030879,0.4614192607,0.1193174711,0.2408950386,0.3460625446,0.3911161522,0.4439468518,0.6821295639,0.6469469325,0.4627066749,0.1361452138,0.0287432407,0.5880777068,0.6513987818,0.2939429881,0.4530854924,0.2483382521,0.5121087232,0.0548003474,0.1182659234,0.1639259845,0.5368067461,0.2753523181,0.164965797,0.566834044,0.3618626077,0.2648134036,0.439014966,0.7219826649,0.273684469,0.0093684325,0.2573836947,0.2236966486,0.3947122096,0.2650047093,0.1161194108,0.1076153648,0.373727614,0.0521342213,0.7203453417,0.5527711563,0.173051137,0.0767829888,0.3852958903,0.316824939,0.5177508609,0.2486612157,0.7184918982,0.5611200823,0.4736427458,0.1055690952,0.0375894717,0.20585833,0.3288541965,0.0713942246,0.23008348,0.1464210532,0.5848358584,0.4049365985,0.2337410115,0.0620874555,0.4288949306,0.5383570958,0.327080085,0.3341437446,0.2280687465,0.4793472184,0.1770420699,0.3634682372,0.1780118918,0.2356086212,0.3542615974,0.3560511071,0.4186031089,0.2174983103,0.1219986562,0.439964777,0.2806262962,0.6296579052,0.5987082182,0.2746511215,0.6623145899,0.5541374108,0.0965847325,0.0310125364,0.4938957027,0.5044524558,0.3683640927,0.6359255453,0.2187466658,0.4640388026,0.3007397694,0.3880369311,0.2594707804,0.1472094445,0.4335807892,0.2408923532,0.4646795934,0.1258138443,0.6232592578,0.3020323264,0.1086003341,0.5563242393,0.1129379409,0.5593408425,0.4977078222,0.695479593,0.5262611601,0.0210804356,0.4216181379,0.5294649483,0.4952606352,0.1101341617,0.0550900867,0.0889488656,0.0025496774,0.0985941855,0.1053280761,0.4724445597,0.0908090386,0.0215338726,0.0744917065,0.4230622623,0.3170363197,0.5230970629,0.1085402577,0.1962658848,0.5673301664,0.1076193726,0.1063194614,0.1192419197,0.5240680431,0.5855887784,0.1988599828,0.6306551981,0.5247285795,0.510486065,0.6704303529,0.5028112022,0.4367885996,0.1218358197,0.084752532,0.7098018631,0.4026667954,0.2092614592,0.7025464799,0.6057051401,0.6017618687,0.047614627,0.1949058788,0.4463438146,0.4631741161,0.5567033742,0.7211801631,0.5571678139,0.1654657308,0.2862228565,0.5087983307,0.3615922418,0.0770109737,0.4309473784,0.0475280608,0.0032866937,0.2268973186,0.6203558334,0.3645627959,0.6739658373,0.1974774782,0.227536408,0.5220122625,0.0478656867,0.147633455,0.0296405125,0.1760777607,0.2031457579,0.2094010381,0.191575396,0.336455251,0.0609981297,0.5773574486,0.4084987045,0.3713071365,0.2047952762,0.1013599319,0.5256258694,0.2150846079,0.4620233273,0.3036211166,0.436114313,0.2966931092,0.4032396851,0.236601784,0.0130003876,0.1247334096,0.2852042828,0.3212787733,0.3587402633,0.0136930287,0.0510199393,0.6063459437,0.2294966863,0.4082134321,0.272235997,0.4174883763,0.1929470584,0.1181954728,0.3470834664,0.1801471642,0.1182655542,0.386790915,0.6624965432,0.5799920199,0.1450829359,0.6960327904,0.3757666051,0.0498831634,0.6909677844,0.7116727022,0.4368281018,0.138640767,0.6211111928,0.7090954506,0.6644932481,0.4673766493,0.6415921333,0.6975591099,0.60102527,0.0589559375,0.1074276106,0.012990179,0.3585740618,0.1856858318,0.0980665569,0.1813434369,0.4986562329,0.2099674586,0.2617895454,0.5872750553,0.2981573753,0.1690396041,0.186954569,0.402187471,0.2540611397,0.2882944003,0.179096887,0.1148459503,0.5337388258,0.1398418034,0.0456556308,0.0307877346,0.1480266833,0.2090299071,0.4109731135,0.2343129736,0.5769590623,-0.6995687842,0.3493103215,0.0605223686,0.2374640407,0.3061770974,0.5167599781,0.4848826458,0.7126142449,0.2045912352,0.1212654383,0.2730286793,0.0859569761,0.4163706802,0.2102073053,0.6301596192,0.7036426531,0.4644908453,0.6077711745,0.6283263315,0.103633781,0.0015044425,0.5695867153,0.1465450035,0.3787823669,0.6042138826,0.4477424305,0.0815539031,0.3749079088,0.1968730713,0.5099468853,0.5216330964,0.2475370679,0.0716377362,0.6317280101,0.0126633667,0.285414356,0.1509307459,0.5759526533,0.2360076564,0.4683746321,0.6716453279,0.2177469589,0.0576689972,0.2653079804,0.5082409756,0.1896570783,0.0388055829,0.3031174407,0.6398578878,0.2104117466,0.4167147476,0.6210317126,0.2379498179,0.0490743854,0.0512303724,0.3717710109,0.2486962545,0.5593196555,0.2404305009,0.5855945321,0.0219316619,0.5253740588,0.1446129349,0.0512325684,0.3439874009,0.0690626106,0.0060707092,0.1735367144,0.2178132639,0.1404948723,0.7179152267,0.6713445118,0.0467017837,0.4926996211,0.0229289442,0.3565526486,0.4472549834,0.5637125771,0.4557106763,0.6879641955,0.0356949049,0.3085354428,0.4404989507,0.1576267899,0.064511307,0.091901133,0.1565028249,0.375434797,0.6050264864,0.1188088752,0.337496364,0.3200675672,0.3918794054,0.5433330155,0.1480477253,0.4052551527,0.5491555872,0.4566630219,0.1774876893,0.1843286267,0.362988443,0.4653897321,0.0169672222,0.6135165707,0.209999695,0.5247359834,0.4957692724,0.6921748698,0.6009527236,0.6737523959,0.1342842979,0.3649167559,0.5987418146,0.0436531083,0.0155184734,0.5136574203,0.6834216337,0.462064706,0.2889027815,0.6521486942,0.1134996478,0.0436440415,0.1982742834,0.029328475,0.6332274365,0.7101201097,0.3492836765,0.2741061244,0.7073512453,0.0640940065,0.2103091375,0.5257350598,0.4510321919,0.5687844257,0.0782138573,0.3721181269,0.0101746791,0.2843680909,0.5497655326,0.6465071658,0.3894557842,0.3596261116,0.4828963853,0.603285963,0.475256976,0.6120971926,0.4038434705,0.2992869553,0.4985581301,0.0183901815,0.5620855979,0.1424107493,0.0891637631,0.5387928019,0.0919924783,0.6455498374,0.329283902,0.2698686649,0.171714993,0.2068499954,0.4292961359,0.1281979717,0.5533141145,0.5840462262,0.5879150556,0.30323327,0.3327179905,0.6290319225,0.5959485526,0.5086208044,0.7194615425,0.4719733263,0.0140706033,0.7224528118,0.462673006,0.5862307959,0.1131783756,0.2463359653,0.3219553717,0.079340834,0.515115261,0.6015860082,0.1708355622,0.0006539177,0.7172103118,0.1117146265,0.6359837632,0.43291557,0.4142514975,0.4092027418,0.3847176369,0.4796271495,0.0329834108,0.65020245,0.1949386123,0.5335310677,0.0849733496,0.7076500771,0.2079602352,0.4960559678,0.0518645091,0.3563347243,0.094814437,0.4160207245,0.1917308994,0.1650994538,0.5935222321,0.7199609765,0.5689278637,0.2548169829,0.3320083605,0.4478364498,0.4936215124,0.2253455648,0.7172642386,0.0608505528,0.1302498146,0.5698018577,0.7059237444,0.7215419408,0.0977158025,0.0316834874,0.6739737688,0.1446033503,0.391424462,0.7250115571,0.420031276,0.2267602892,0.2299147513,0.1896511748,0.3692324699,0.5974967879,0.5428505816,0.3208025915,0.123272305,0.0193399028,0.6204283609,0.0526878057,0.6151021948,0.3230311549,0.5452039518,0.3658560922,0.1628837386,0.2838004599,0.3612897569,0.2265756554,0.2913530767,0.5594505468,0.1932200384,0.5967170247,0.6034026996,0.2202946895,0.4967657585,0.4153365609,0.2936814161,0.6111033142,0.0610854302,0.5020837953,0.0461029788,0.4416652272,0.7127663298,0.3161287749,0.5165714968,0.5328545325,0.411931608,0.2476468689,0.6164950385,0.4959693838,0.0762297773,0.5747351402,0.2296744627,0.5729688121,0.1364071428,0.0540094442,0.5634282581,0.2644196046,0.3543563334,0.2693718129,0.0603242185,0.4138595216,0.1420406076,0.3872590844,0.647917116,0.3881353662,0.472757814,0.6245238573,0.3503502804,0.7062382227,0.568255126,0.4269993319,0.2678068106,0.6841365961,0.5840065223,0.1827203999,0.263577883,0.1465426831,0.2370685568,0.4345826037,0.2892593652,0.0431933031,0.3173287576,0.2003240201,0.0262446357,0.3826947987,0.4044557568,0.0477328425,0.2609337843,0.0331338263,0.6165576679,0.0566258303,0.1620568311,0.0331011058,0.5556475614,0.6623217097,0.2105253047,0.1095130986,0.6260112658,0.3545971343,0.4666894203,0.6186140291,0.2743088802,0.6643147092,0.2557623861,0.072508623,0.1191340631,0.3915085714,0.1975221251,0.2537456377,0.3674914673,0.0118697639,0.3802490749,0.2099681953,0.0172923329,0.0636985808,0.4105420437,0.4348754281,0.2352914166,0.3925811745,0.3523986886,0.6250628446,0.2537451513,0.4977714196,0.130687482,0.6840193593,0.2578205811,0.4148396967,0.266170736,0.7031362617,0.2202964653,0.0572412869,0.7028283688,0.2221314559,0.0246511447,0.7017049216,0.1881621002,0.5787788005,0.6890757473,0.6836627331,0.2201403764,0.6469659,0.0916187572,0.5800990643,0.477488567,0.1190964249,0.481986419,0.5545042212,0.7162867685,0.1460672272,0.628166402,0.1459941883,0.175283332,0.547375149,0.1955344189,0.7069203231,0.2286474143,0.4130212057,0.6517922155,0.6382186301,0.4688698014,0.2347895214,0.0898060338,0.5219554447,0.0330784196,0.4816713055,0.2771520334,0.5856916538,0.1127680506,0.2990226662,0.460985048,0.6539664647,0.2451659206,0.4593068871,0.6120113218,0.6023223287,0.3262593643,0.2976299118,0.6705465994,0.2647628574,0.6731923606,0.6133447202,0.4644248363,0.1539673874,0.6110473533,0.0175882542,0.4370464618,0.2583320871,0.0593892853,0.3011986263,0.0840520471,0.2594077729,0.4707168183,0.3389790979,0.6513672158,0.463373132,0.0800274356,0.6891702348,0.5873194484,0.1632106571,0.4404951784,0.6829355947,0.4324202458,0.646631955,0.3519985028,-0.0676724636,0.2249697042,0.129562636,0.3680051999,0.1622161121,0.3742804615,0.1931818825,0.6059571163,0.4907211402,0.4342154045,0.2078146278,0.3184797571,0.3071100915,0.3625338997,0.1728722988,0.2619991211,0.023496434,0.7169789686,0.2299044115,0.232254111,0.1691751083,0.0979416528,0.0910653184,0.328128466,0.2318807668,0.7250576281,0.6799147861,0.4448335329,0.1668222676,0.4947177046,0.6569535145,0.3955116674,0.1015247579,0.5586607124,0.6315654515,0.2850759707,0.0366280962,0.6762593006,0.1541064248,0.36424369,0.0235003815,0.618146187,0.007965452,0.124960479,0.3654701566,0.7005935231,0.4600107664,0.036198995,0.1155124818,0.3546223413,0.5465508817,0.1081585767,0.6814337361,0.0249070274,0.5097342796,0.0449210474,0.5419185186,0.5224140829,0.0334193347,0.5683049292,0.3154143074,0.0285491453,0.1393979223,0.5222967898,0.7081823453,0.664990518,0.6579406011,0.627357003,0.4499841446,0.2413006219,0.4438051487,0.6093944759,0.1878701645,0.4256753168,0.3090496818,0.3475146207,0.1521828328,0.5846200271,0.0165556311,0.6498324775,0.0706884118,0.4030583654,0.3542169719,0.3890662276,0.3975132319,0.3603842759,0.4000968036,0.3835396344,0.7007519219,0.627763301,0.5353753973,0.5593105338,0.5425839599,0.1310652987,0.1724304464,0.4178956484,0.6573521805,0.7197080717,0.3823849421,0.2692887839,0.1659558516,0.4890313512,0.0622961178,0.656687127,0.5614836864,0.1650878309,0.6205221594,0.4706025518,0.5241510026,0.5957426795,0.3324219668,0.4258442542,0.2445352594,0.2341943639,0.4052178374,0.2995346206,0.0510707418,0.2780477899,0.1325494719,0.140164404,0.4764735658,0.540680145,0.1763931977,0.690863461,0.2648396884,0.223131173,0.003432694,0.1856192872,0.3279489113,0.1026002634,0.5269967795,0.5745193632,0.1944592063,0.070996636,0.1925063185,0.1246246489,0.275926444,0.6193116265,0.7143221063,0.4554961626,0.4037591551,-0.4064650543,0.6758943641,0.0626393312,0.3143989246,0.4326537001,0.6239733208,0.0778904382,0.1636520412,0.01637241,0.26092561,0.3945528979,0.6417613601,0.4538477054,0.0255408345,0.260010844,0.5109596471,0.6390443315,0.3012528112,0.6815046705,0.3501739277,0.0098711786,0.0175787779,0.3149010018,0.0079889734,0.4062978001,0.6092238321,0.0403634253,0.6007692728,0.6275722942,0.1383715222,0.0554942103,0.6545989074,0.357971024,0.7116713284,0.159085584,0.0959614784,0.4227526009,0.0284027729,0.3367666635,0.252267378,0.7037195009,0.1975395405,0.6300655724,0.5725290324,0.3756548443,0.2087389663,0.6194402621,0.6368664197,0.321494513,0.0636979493,0.4048115493,0.3372118674,0.4466129824,0.3465733202,0.1977172328,0.465585659,0.5212759222,0.6202342333,0.5006813484,0.4574143027,0.6495310377,0.0868092025,0.487873349,0.1618379543,0.0015409207,0.3995994141,0.3711026938,0.5410298032,0.627660916,0.4583546965,0.1546281537,0.3937032245,0.0138135354,0.6952655943,0.1110248038,0.3787608849,0.1592304443,0.4193397666,0.4137292511,0.2978352265,0.4990059927,0.2326593269,0.5464506445,0.6988125426,0.3011621904,0.6903422616,0.3227027102,0.3917446146,0.0471266325,0.1887443337,0.6896816327,0.0908722099,0.709514339,0.3754660871,0.4859308823,0.0705203017,0.3856753089,0.0746944753,0.199837225,0.5657149562,0.4589536212,0.3332312763,0.4246308437,0.0695234403,0.3300468959,0.7097086839,0.1665108152,0.3160359177,0.4379146005,0.6099930394,0.4238252479,0.151690627,0.5680235435,0.2390299196,0.0666068335,0.285263244,0.5013408752,0.4592286623,0.7209481663,0.5881071506,0.2233541003,0.5119437493,0.5280829623,0.5719301041,0.6974792515,0.2243751409,0.5089589301,0.2285099498,0.4067309925,0.7084504581,0.6862746119,0.5862438171,0.1131969193,0.1932916057,0.1332736615,0.0929556505,0.4126345269,0.243858092,0.1290998592,0.3783395246,0.1162697644,-0.3534417294,0.6161688351,0.5678421654,0.6826306935,0.530105332,0.380592578,0.0138442175,0.1004908667,0.5786069187,0.6247939296,0.0497949704,0.0064659972,0.4299571587,0.3283486145,0.5800089777,0.1261166371,0.6718675045,0.6071607745,0.1616186195,0.7189707263,0.0005388176,0.4859428471,0.434862621,0.3743733149,0.4455982553,0.0718324548,0.3661683364,0.2997461215,0.4734306374,0.7063842594,0.0721623712,0.5687244758,0.2072592067,0.2737022216,0.5176074696,0.1746587045,0.2022256985,0.0738964311,0.1502264076,0.521439289,0.6003236077,0.094459094,0.3396759646,0.3365999914,0.2675785827,0.6311029167,0.6188030901,0.2446902691,0.6436110192,0.6433030198,0.2300208245,0.0698675464,0.2541864384,0.1015475197,0.3576255878,0.4221457087,0.0164006337,0.2027360755,0.7194329692,0.5887300431,0.4277539032,0.2822852835,0.5473350658,0.5925614347,0.1535364598,0.4836133861,0.2715699361,0.5059796068,0.6159006605,0.675760623,0.6717542432,0.5548084403,0.3463223201,0.3756591735,0.716974411,0.6087935524,0.0560971282,0.0473866899,0.1617121505,0.5329673888,0.4544305033,0.6956550747,0.0653585144,0.5184897872,0.4795530884,0.495698607,0.0180226135,0.1723056198,0.260851955,0.1078277881,0.4812747698,0.4483257321,0.3782821475,0.1014468972,0.3828051602,0.2439864667,0.1861916572,0.2800225186,0.6524764976,0.4254426168,0.4904282923,0.2865053988,0.3617170395,0.2404066829,0.2832570115,0.0876144481,0.6986632724,0.4015871906,0.1118587171,0.5336947666,0.0546069789,0.4524831184,0.4153693811,0.1919171107,0.089730967,0.5076328084,0.280787397,0.4346256786,0.5824920252,0.6230603834,0.352220049,0.3430633724,0.4053590008,0.1630601559,0.3323531351,0.2079739147,0.2554948702,0.5045881027,0.1486778794,0.2194504191,0.2939743551,0.0088913294,0.6067441712,0.4388307631,0.4358044418,0.5790097435,0.6280938715,0.2941389526,0.6266952417,0.6617658548,0.3458161508,0.1058525543,0.023836466,0.6539424814,0.3471879958,0.1250331927,0.3153740469,0.4447788748,0.2986229593,0.5395255984,0.4608757763,0.0317109104,0.1038801278,0.3487493736,0.4277680572,0.2331844171,0.1585313796,0.6415036585,0.5389517029,0.228486666,0.1253338964,0.3363785216,0.3321297741,0.5295716003,0.71491393,0.0877155837,0.3732051367,0.5248317688,0.6350003766,0.3290741315,0.2410729465,0.7194906648,0.4795159756,0.5511647969,0.7164185546,0.0150133405,0.00029881,0.3742455457,0.0507764822,0.4877002824,0.6588134262,0.2677030266,0.6551047843,0.4247093482,0.0719970917,0.1668160146,0.506163643,0.6558976316,0.6183882308,0.6391167465,0.5335852452,0.5222653814,0.2268135792,0.4555447319,0.5764405614,0.1589300873,0.2486604491,0.6588456452,0.4553381596,0.6856287409,0.2389702201,0.3293548323,0.3348043144,0.5607644567,0.4423727485,0.3964484554,0.1203229549,0.1109010224,0.3811384091,0.1080341246,0.6886812279,0.6867982854,0.3270044722,0.1510444748,0.1370793056,0.511164236,0.3891962567,0.1639289848,0.1899374774,0.3878582385,0.2286724471,0.1939834434,0.0536398526,0.6043952062,0.556802689,0.6855266532,0.2130328435,0.000792391,0.6714771788,0.4010875087,0.1349747638,0.6777440726,0.430436685,0.3236153591,0.2392485324,0.3805866951,0.2250812662,0.7063959616,0.3181336001,0.4392675113,0.1837806522,0.543791759,0.6987301273,0.58357988,0.2706403165,0.5900324338,0.1096301582,0.3800245406,0.5046709159,0.2107393462,0.5470976406,0.6147299713,0.2814123227,0.3449986372,0.4703050526,0.3722923461,0.6348735223,0.643313082,0.1394439853,0.1547363409,0.0273849752,0.5226407989,0.2123949402,0.288189037,0.1854260459,0.2272325235,0.5667955713,0.3173958493,0.6394654887,0.4887194072,0.6441588229,0.352783088,0.379481279,0.6372922047,0.2283389765,0.4407209442,0.2758125112,0.1038974321,0.4721232982,0.5773552206,0.5558762356,0.4927195125,0.3163702687,0.2253710527,0.6183621236,0.0219567273,0.1349178125,0.2500650723,0.4509259341,0.3104620644,0.4046467321,0.3116492806,0.0005170487,0.6312361574,0.1167850855,0.0928609673,0.1033434159,0.0186557596,0.3336374755,0.3687990395,0.6338676213,0.5712216041,0.4497717929,0.447815836,0.2857162841,0.20494013,0.0836642691,0.4779682875,0.2962929665,0.2884024983,0.0930989488,0.6397508202,0.0209125619,0.3268383239,0.4213419033,0.1691044324,0.6627821426,0.3235085974,0.135544461,0.4923986969,0.2506166625,0.3453966043,0.005809089,0.5305727525,0.1033008717,0.156816098,0.4449692876,0.0806004956,0.424850469,0.0970249083,0.0650225781,0.4885891682,0.5910202611,0.7189020706,0.5997394406,0.5086613062,0.3428529197,0.3267105991,0.1667078071,0.2893291433,0.5335552239,0.0776732988,0.1647960544,0.7096342137,0.1779435392,0.0601213253,0.5415465389,0.0176311616,0.6325060886,0.274612356,0.082757668,0.6697276782,0.5020761832,0.4015394757,0.4920888511,0.0213862114,0.022571695,0.6806528268,0.6053817383,0.6339844971,0.6813292262,0.3707762714,0.0057509814,0.1398998433,0.0060100942,0.5580977879,0.073792529,0.5336572461,0.7212111412,0.3046286052,0.2691570823,0.6169962688,0.2477843662,0.3394078339,0.4874694457,0.4312448248,0.2195563019,0.2489004883,0.4126683866,0.5094269073,0.0336980263,0.0167660862,0.6030458269,0.059844701,0.5936138326,0.5273332826,0.3227724864,0.4596747485,0.6966744309,0.4691092746,0.2690737747,0.0656591714,0.2507827843,0.2526855327,0.6874056785,0.2050961251,0.4215753835,0.6819111282,0.0009776274,0.4922869224,0.1094126253,0.6037317013,0.3223635133,0.2305144198,0.3759214173,0.6747295831,0.2858911465,0.2033627017,0.0747542947,0.2942019608,0.4351838057,0.4742301583,0.6867934563,0.553780604,0.2123142145,0.3962454716,0.6133083529,0.5720993977,0.2839433786,0.0559413088,0.4978066516,0.065929326,0.2768588954,0.2173440231,0.5453223145,0.2864969811,0.0511238219,0.0009063554,0.5680465617,0.3111780389,0.6238020031,0.263569735,0.4852125602,0.1731242888,0.1034587549,0.2387284897,0.5297995934,0.0250753337,0.657437916,0.4378715248,0.5116395574,0.1590189145,0.4929515929,0.4651628656,0.5067846939,0.0530923744,0.3473174227,0.095967302,0.4092877165,0.4983337667,0.384643803,0.1336470842,0.2974425332,0.0891716074,0.1019977953,0.4841450269,0.1284468602,0.3290927515,0.1785982975,0.2760371059,0.3863678242,0.2127696511,0.619114034,0.4808886336,0.4652277535,0.4746644174,0.5730570067,0.6063752722,0.5264645227,0.3609680853,0.6751211135,0.2744594803,0.520784549,0.0914234855,0.2485131659,0.0457934031,0.5174840531,0.4804561353,0.4262869365,0.2711064663,0.2815954699,0.1501406565,0.5600716519,0.2861478241,0.011250577,0.6597292636,0.5702169322,0.0181917496,0.1657028528,0.0893979011,0.4265269004,0.5888797307,0.1563598792,0.7231351975,0.2260185214,0.6575071382,0.4383432001,0.2659949149,0.3181987511,0.4777096582,0.6494830694,0.3999850549,0.1982489318,0.1023548284,0.681087015,0.5289658989,0.3448294529,0.3345329742,0.44468283,0.6380852105,0.3423404614,0.0443810726,0.4050453028,0.6532526176,0.1057655685,0.2412627543,0.4013449711,0.2859878063,0.2346695108,0.5684713534,0.6296880571,0.5737221999,0.169291934,0.4922516563,0.531419383,0.6782815921,0.2041824013,0.3939714567,0.6289115781,0.7169544539,0.1532257199,0.1317171572,0.6412404268,0.383254761,0.6889277786,0.637601587,0.1805670566,0.0089128264,0.1625579076,0.2039744365,0.2917935442,0.2613210397,0.2375809216,0.0226252179,0.433363179,0.1951422575,0.1936752763,0.4568318942,0.708927567,0.0058165492,0.6339770783,0.0963995503,0.3120902209,0.6363431246,0.2726281444,0.1742755166,0.5790575752,0.1507877688,0.2482785169,0.0416506096,0.0663894714,0.5551834046,0.6504487689,0.2180160759,-0.0999405786,0.5068964498,0.4086551982,0.0061741032,0.5447967421,0.5112674747,0.1095136968,0.6381624096,0.6464804292,0.6708428684,0.4584827703,0.1503749533,0.0097661728,0.1385136242,0.0431741201,0.7221123282,0.0939644534,0.4583526898,0.1291673936,0.19693189,0.6427603538,0.2377213942,0.3976813883,0.5553962091,0.3536228499,0.467508538,0.4843145107,0.0972649439,0.0871578079,0.0948106565,0.5772524347,0.4488974252,0.4191925763,0.2598963983,0.673442141,0.435322082,0.1196741365,0.6555364043,0.4656708523,0.5693571821,0.2679796026,0.5301184122,0.2422667317,0.6453394319,0.1839781496,0.4388392022,0.5248536933,0.3907608438,0.7064488534,0.5873718677,0.2494402454,0.5530114201,0.2631303271,0.258256481,0.1121018333,0.6660875449,0.0245634635,0.0576690589,0.2466512763,0.0535525562,0.0409855213,0.3703815219,0.5905332082,0.6481006703,0.605039909,0.1187197834,0.6878312049,0.6232136514,0.3378758991,0.6811748941,0.4094508435,0.1475808125,0.3820516708,0.4859355966,0.2103091942,0.2145615543,0.6596360734,0.3192305377,0.6941110596,0.2454027524,0.0617095263,0.1516931668,0.6168294688,0.097649202,0.6581598868,0.3178811825,0.182424633,0.2818923547,0.6362765769,0.6343389976,0.6620560193,0.3318209752,0.4302752016,0.2766247119,0.5860799441,0.5305779578,0.712537094,0.522612197,0.5368463336,0.6174067106,0.5642061003,0.3578252785,0.1258963876,0.5657030112,0.4554281439,0.0135774657,0.6919423164,0.2530616229,0.1235815189,0.5768949063,0.3072190702,0.1925914452,0.2754440526,0.2414232884,0.5784973544,0.5327402085,0.367179562,0.4026908127,0.421990577,0.5643017102,0.6983478268,0.5045040141,0.1635482028,0.044889319,0.4294005011,0.415851737,0.1298395196,0.3886950675,0.6100681547,0.3050390943,0.0083330647,0.3482625238,0.3737268446,0.7025897403,0.1955347018,0.4400673202,0.6778904369,0.2444802096,0.2295413799,0.5219749371,0.3821868021
   -0.0715021067,0.3432357652,0.0396529696,0.0764524158,0.3497407088,0.2951669766,0.6022239619,0.2532628257,0.4974113886,0.6207520648,0.5320246105,0.2085728965,0.3879651651,0.337625147,0.0173642008,0.6613769756,0.6002985297,0.5207687399,0.5094208406,0.2862511312,0.3824587406,0.4971840372,0.5190948891,0.5608774111,0.0773949564,0.4393787091,0.3490485781,0.2747394418,0.4488333722,0.0660951654,0.0840229091,0.5268761583,0.1102747035,0.081453771,0.4528182102,0.053348432,0.7020133695,0.5605430093,0.698624687,0.2520921617,0.3991552605,0.2060673492,0.2398903721,0.5063696588,0.7157322896,0.3503837845,0.1860072167,0.3546247783,0.4363523924,0.5086285545,0.0476546033,0.1112467849,0.3728879794,0.5645067114,0.0518596277,0.7041334343,0.619736442,0.3955145355,0.3014031931,0.3514491658,0.5006631448,0.1122703524,0.5957199384,0.7078770525,0.2404421638,0.1613326323,0.470894894,0.1059141325,0.4153070909,0.6265714835,0.3993844137,0.6530092614,0.4376133811,0.2602307218,0.5132908433,0.6817304452,0.5600037402,0.2567231448,0.0819876392,0.4822142891,0.0900661382,0.1697095672,0.4317375905,0.5542052678,0.4718015539,0.3798719158,0.2404763459,0.5377007347,0.3517211024,0.702125874,0.2865046332,0.3932627429,0.6236051238,0.1708092797,0.3539246829,0.2880634509,0.3620678924,0.0225230518,0.2762733325,0.7034891659,0.1900780288,0.5608836736,0.5353800571,0.6607546946,0.2010867562,0.6432436636,0.6884618095,0.6918067932,0.3711806239,0.1399375733,0.2195719773,0.5560539771,0.5088102611,0.6129482593,0.2484582985,0.6317012017,0.6087209467,0.5436542249,0.3836441803,0.0541976473,0.6985358106,0.3109088018,0.280716804,0.0221218486,0.592815054,0.6170658207,0.1260699944,0.5289829298,0.0494357162,0.6022245312,0.5214722034,0.698900076,0.1071062886,0.1597801214,0.3646818412,0.0390927972,0.3444030017,0.1974713725,0.1597989414,0.3078847438,0.545271735,-0.1857815499,0.0403536086,0.6784119037,0.198465124,0.2415832411,0.4614375661,0.1632034731,0.5102401509,0.3655100205,0.1252899881,0.5137741514,0.4103636178,0.4081192701,0.4350547935,0.209734121,0.5684658097,0.3602305498,0.4598868047,0.206676767,0.693113914,0.6874853557,0.3866727534,0.399723135,0.5063147566,0.2179502461,0.0036450799,0.2105744786,0.2272234841,0.0341843123,0.1084611638,0.4190959735,0.1725859184,0.0444634369,0.3896664547,0.1489772768,0.1585445608,0.6230418416,0.3838581399,0.0323839056,0.6694880707,0.6750399205,0.5260050014,0.5584720938,0.542829162,0.5402637847,0.7189835706,0.3210312203,0.6602327959,0.061889776,0.624714238,0.1105808391,0.373629971,0.7002844476,0.1694370873,0.4699379422,0.1462775025,0.3537321876,0.138691651,0.4615411995,0.0845346987,0.4750421577,0.3362151397,0.1665194776,0.3186083585,0.2447479812,0.3730904547,0.6041060358,0.2968133842,0.212573234,0.358826673,0.4542650376,0.596280635,0.2873932355,0.239722662,0.4845169019,0.1917885907,0.722273281,0.0203544638,0.4149603972,0.6730667604,0.4598254325,0.6346948738,0.4722192413,0.5188243011,0.1375554758,0.4299666368,0.2877187283,0.3462110626,0.6414072807,0.4690798462,0.1296119485,0.477829003,0.35031338,0.6314638845,0.0597662843,0.2346698601,0.3280516779,0.1954399854,0.6355604309,0.3760889156,0.5857097703,0.2701263507,0.1488046359,0.1491579961,0.6268039475,0.5734772504,0.1695515191,0.3860507568,0.1012168006,0.5026753663,0.1008161453,0.0342539942,0.147953103,0.5526596583,0.025484285,0.414950246,0.2685446272,0.5924984314,0.1102605474,0.6074598143,0.5241838943,0.506409981,0.2473081078,0.4772739989,0.1041295366,0.141114397,0.198805404,0.2762485107,0.4849458768,0.5552924284,0.0174788428,0.4171805439,0.5244748624,0.4097052316,0.0466644481,0.3235596932,0.3793216384,0.576357541,0.0817554917,0.1847418432,0.1521995784,-0.4096560389,0.4764570797,0.0772121711,0.0638924404,0.7004495414,0.3242499854,0.6008551826,0.4871105043,0.6285865856,0.5192947936,0.2174641769,0.0839172791,0.5554173603,0.2909195633,0.3760658374,0.0049806552,0.5494798995,0.1273759074,0.6516619583,0.3041403728,0.0453556153,0.4888856954,0.557967086,0.4369707011,0.3510036498,0.649920972,0.5955398664,0.478922116,0.2863917834,0.294803106,0.2074519114,0.0789042881,0.1683065627,0.4466144738,0.7053779771,0.1811808507,0.6002255786,0.0891805729,0.6422531909,0.6465070867,0.0210734112,0.5975932458,0.0350162876,0.0418175877,0.7006041972,0.1867042609,0.2351732489,0.7129464631,0.0115265589,0.3179854785,0.3520470234,0.6313870741,0.7107668589,0.1911435927,0.3686120793,0.4319080148,0.1790172577,0.2992133301,0.0725171103,0.5731120114,0.5329728536,0.4092583064,0.5444730436,0.3720636796,0.172665694,0.4739828176,0.1379799106,0.0085219807,0.2725148239,0.613068139,0.713032417,0.6748562438,0.5350950089,0.6376562637,0.1059062599,0.4901466179,0.699308475,0.3229269104,0.059667873,0.4024675798,0.3200976908,0.2124488456,0.6135235699,0.5336247535,0.0108394453,0.6142336633,0.5235148653,0.024722433,0.451348619,0.1485233843,0.2756106735,0.0207173982,0.0199728475,0.3804064363,0.2986240029,0.0228755468,0.6560834846,0.7104019703,0.6382941267,0.7206203547,0.2652446001,0.4702159142,0.4572520073,0.3719076682,0.468580906,0.6807915885,0.3604536802,0.5303511198,0.0560600345,0.292885937,0.156341871,0.0430481891,0.4765857358,0.0694610245,0.5840015134,0.2456069179,0.3656836184,0.6716329954,0.3036522567,0.2004262736,0.1650977116,0.6194498658,0.1266198811,0.5212587343,0.566789142,0.0770744979,0.2089597965,0.4440501427,0.495628557,0.0344762215,0.6453478606,0.2188088877,0.4137652873,0.5592011904,0.2078746507,0.1122354163,0.6864322845,0.6877793046,0.0420274381,0.2679320036,0.453672443,0.3574042608,0.2223140336,0.1594525519,0.5949840539,0.0928600161,0.4227699253,0.672069675,0.0302289563,0.3834222802,0.3562537027,0.5817016937,0.7062354737,0.2122181986,0.5432339595,0.2238197124,0.2031369702,0.4720375301,0.3797226127,0.1452019565,0.6132547874,0.3465268754,0.1396006024,0.7005044538,0.2324593281,0.6251321712,0.2113383444,0.2794232377,0.6838951798,0.1656749283,0.2174509238,0.0880030533,0.388978291,0.1870905145,0.0652221478,0.673786714,0.1860302027,0.4663263268,0.2304766241,0.1705892253,0.102822198,0.3897843076,0.559717777,0.4040284486,0.5533218108,0.2991733342,0.5137357254,0.3447441439,0.22296913,0.6628158289,0.3660284418,0.4667708511,0.1751400873,0.1675903705,0.3887168548,0.4566628375,0.2127870869,0.3140889947,0.0334152349,0.1563874473,0.6324167125,0.151348017,0.6674987763,0.1121369435,0.141944068,0.3262081941,0.504702796,0.2037180916,0.2483841487,0.1190709531,0.6106941645,0.2175200843,0.1127212028,0.1954907218,0.2452642065,0.3972483662,0.3146033433,0.6726170571,0.6044871659,0.3642290427,0.0921422614,0.1498055265,0.1659904663,0.61798851,0.2238070546,0.0220950319,0.2488789956,0.3535101557,0.4020222401,0.4088519726,0.3218064333,0.6227347502,0.7061909026,0.3002620349,0.5844283792,0.5616481765,0.3997274767,0.2090216529,0.1042616399,0.6180287067,0.4650474099,0.0237074959,0.5121753027,0.3779789164,0.315221183,0.2214234267,0.0501723552,0.4975206095,0.6949039198,0.349978737,0.1223572535,0.6556995026,0.5140144392,0.5705472323,0.6689804153,0.1476269919,0.2400364451,0.0251812092,0.6240315639,0.3434692291,0.6135734566,0.6201700299,0.3991273495,0.5070621288,0.5899917208,0.5074384009,0.1759480728,0.1267148974,0.3368725182,0.3480489101,0.0610752698,0.171064374,0.2068169999,0.1490664657,0.3284420035,0.7086102394,0.5423212351,0.4116362151,0.3265596706,0.6411620145,0.6438025203,0.0105725444,0.7145021868,0.220424777,0.1499851411,0.3637873208,0.6594299694,0.145735717,0.6872636548,0.551906576,0.4046194533,0.508270116,0.0934439883,0.4599143183,0.3880771443,0.3720387393,0.6185925615,0.5342594049,0.275024524,0.3179838601,0.2276887808,0.3517860269,0.5752867764,0.5963110086,0.4421760779,0.2200443458,0.1026156714,0.7158922873,0.6849770121,0.4720025707,0.456597052,0.2894758813,0.0359952874,0.2627450765,0.1687227333,0.404617477,0.4979665208,0.4920686341,0.528264655,0.2757689062,0.6612163504,0.1871409795,0.5642573348,0.1078995772,0.2685763578,0.2955191309,0.6172976788,0.6795794897,0.1968751678,0.5417079678,0.6806784099,0.5725196595,0.6141707371,0.3870447458,0.3011866037,0.6034186001,0.0272764615,0.6587398295,0.0889830974,0.6711784912,0.6314913476,0.2901507827,0.5244597506,0.3103166107,0.3574964573,0.092310566,0.4696422859,0.096026503,0.0749002281,0.1935158956,0.3644294498,0.3388973881,0.0717362384,0.3830938013,0.4610426597,0.4365852141,0.4249900289,0.410261911,0.4833704697,0.1373060263,0.0269732306,0.3545958993,0.1303663919,0.067386615,0.2049055152,0.6471289203,0.3305774773,0.4337543295,0.1538523375,0.0811303657,0.0455507937,0.2064285652,0.3871922805,0.5366866106,0.2689681226,0.6900448261,0.4970806441,0.5683194493,0.4124423852,0.5287604228,0.3829528617,0.1664033183,0.4031500839,0.5693085993,0.555589311,0.1460361489,0.1213514891,0.6085724156,0.0935514033,0.2448304976,0.3946987542,0.0274906565,0.1658066339,0.3573784675,0.0793978169,0.4396673155,0.4816131703,0.2761489749,0.3807827169,0.0708980727,0.276627987,0.2265304995,0.1581857069,0.7169743081,0.3753983489,0.547105219,0.3929638494,0.6022182765,0.695656256,0.0283209386,0.2969701848,0.1173056268,0.4546075127,0.133813753,0.2051829016,0.6604952434,0.0442181839,0.3312535364,0.5294734059,0.0515337948,0.1667322494,0.7207757066,0.2709296574,-0.2058835698,0.4393513197,0.3958078151,0.6849946738,0.7111246576,0.3348818734,0.1003709928,0.2399880069,0.5330229989,0.0232085108,0.1910957062,0.695744319,0.6940780414,0.4693724233,0.0107380768,0.4282263489,0.107869084,0.1505814372,0.322154813,0.4481708759,0.3490739606,0.2808362107,0.2153325198,0.1928002654,0.4231301231,0.5654722948,0.1426417994,0.472786446,0.4561164379,0.5709083762,0.2189060042,0.3991120769,0.6658366264,0.3130472568,0.3101727951,0.5973862446,0.3707950705,0.3081334708,0.4648069415,0.6687212162,0.2705173407,0.560108432,0.2695566278,0.3961902454,0.6657214934,0.6558618106,0.1158374422,0.4074237618,0.5867693376,0.6024627725,0.1843402789,0.3726764505,0.2558461686,0.0696628437,0.3045802678,0.4664657276,0.6242283162,0.2733371595,0.3399354984,0.0945646038,0.655282093,0.2953938604,0.1659126921,0.2956936282,0.3383583931,0.3937925283,0.6498261311,0.5579383732,0.4634209857,0.4965312443,0.7013912224,0.1317227044,0.4466870209,0.3388719897,0.1770449351,0.1100452565,0.3420379282,0.4296266911,0.5250517757,0.54190314,0.2739379632,0.6762986359,0.3901435373,0.2721303437,0.4934457929,0.4111630222,0.3531826596,0.5279458418,0.3818494793,0.1619402599,0.1008785457,0.2771758668,0.3867280878,0.5033605975,0.6501898042,0.6504026865,0.2423146247,0.4874775449,0.6684010849,0.6522250556,0.5082737169,0.0774739423,0.2287434238,0.4128965624,0.2476533616,0.4504238354,0.3528044064,0.0987828042,0.2929284689,0.544704521,0.1579355134,0.3556181886,0.1295271947,0.5560021717,0.3911392705,0.5623509746,0.3512057526,0.4483029168,0.1108778676,0.6350083186,0.5422832151,0.0836024046,0.5910274081,0.0311193122,0.6108484069,0.5725505222,0.5698383386,0.3753716746,0.2448125582,0.0132550073,0.1260627959,0.6449851155,0.6753100014,0.6481245256,0.558367975,0.0840084335,0.3501819019,0.0086145709,0.5445915881,0.4151065148,0.1812183737,-0.6941609076,0.3301947822,0.1757931337,0.4630536672,0.3138665098,0.2081056485,0.123483881,0.0187686721,0.5799621721,0.4972104921,0.4368097442,0.7121765335,0.0242226863,0.0130480749,0.5916945616,0.3842347322,0.1184710122,0.1374061078,0.3618927518,0.6617325219,0.0493961367,0.547897499,0.4963663337,0.5168686029,0.3172832339,0.2306465657,0.4822114337,0.0444538293,0.4168472001,0.0246626935,0.0142171681,0.0776986791,0.4082986477,0.0975764246,0.629425263,0.6395145754,0.596765859,0.3297583547,0.5326366809,0.1335764883,0.2691979779,0.0784665403,0.6911684705,0.0976962012,0.1096518485,0.4396917354,0.2700158381,0.4408101671,0.4737279965,0.6653171064,0.1669664,0.6041888905,0.4843880867,0.1372440841,0.3343074439,0.0561026841,0.3060888936,0.0842103172,0.2664681628,0.3393200968,0.3890480203,0.16249613,0.3972639569,0.5071561023,0.1552968271,0.4828377213,0.1456266464,0.4170901011,0.5930459667,0.3424729777,0.3257091788,0.0593487501,0.3836932927,0.4276892643,0.0870786099,0.700426548,0.0682035846,0.3250687834,0.3625551337,0.4279049784,0.5474510142,0.1816916032,0.6823329338,0.1320256799,0.249916495,0.4727042019,0.6082074637,0.3315500029,0.1276162286,0.0048058062,0.307352478,0.7224980338,0.5788677744,0.6524575422,0.009139905,0.50024208,0.661215061,0.1822102144,0.6158971836,0.0158343914,0.5315987835,0.641892803,0.3177525501,0.6967448306,0.6414462034,0.0635911334,0.2251555297,0.5424624931,0.3247521071,0.2499002281,0.3647308485,0.6745165766,0.1174999596,0.1046953652,0.4584462763,0.4131511495,0.6357333261,0.3337496116,0.2484341398,0.4972432779,0.1992550525,0.2063452723,0.0563450769,0.4529519453,0.4135261898,0.273648692,0.419956177,0.1775258507,0.256979414,0.1549442179,0.1829947961,0.3676537531,0.0113277332,0.7000763953,0.4028225519,0.223819111,0.1383445002,0.173144374,0.6272762538,0.125479977,0.3755192227,0.466980124,0.6172784514,0.5151095988,0.4033615183,0.4957849393,0.1863792143,0.4384124985,0.084018448,0.584858671,0.083165754,0.1801540319,0.2854802167,0.5177957459,0.6227616771,0.0345610676,0.1849899946,0.006492227,0.3602628596,0.6142371082,0.5198727022,0.4174966911,0.7140821435,0.6469745585,0.1376476321,0.4145305918,0.1608672,0.1698557537,0.2324759142,0.3633665343,0.4538523098,0.369300387,0.2447466675,0.3293706789,0.0578622664,0.4204505257,0.4694362186,0.5702865318,0.1095213104,0.4441029425,0.0422706122,0.5391468107,0.6353248993,0.5686249972,0.2973571227,0.5765050977,0.0553244302,0.6956265962,0.4218405708,0.5294081301,0.0896495914,0.2605486524,0.5920166578,0.6447538503,0.2270220494,0.3335951413,0.0390763119,0.1882319155,0.3710514652,0.0680996744,0.3582312289,0.3955890396,0.4023900293,0.006592849,0.6723568847,0.5351911125,0.6803197596,0.683982499,0.3359578743,0.1144117328,0.5171621189,0.4397101651,0.1202437533,0.3044798764,0.1007993436,0.6060435598,0.5481853281,0.2028152489,0.4074120874,0.4239187315,0.7172794747,0.6219268944,0.1454378408,0.2449399967,0.3819352667,0.2273915704,0.000949517,0.006526091,0.0914586973,0.4657857912,0.3554724218,0.2664187757,0.5480399025,0.6507142855,0.4364413447,0.4103584331,0.5823032007,0.5896531163,0.5728018398,0.2894874087,0.6454532191,0.358411042,0.2439133427,0.3672507903,0.6796653644,0.4102771751,0.4845944781,0.6172972361,0.014980944,0.6811124438,0.4806082983,0.3351034651,0.1887202049,0.0999870222,0.272660507,0.4319053382,0.3216579179,0.68597159,0.2657397041,0.1436697599,0.2474320866,0.0005743117,0.5802080695,0.5683569583,0.5096455888,0.6003115562,0.5964399535,0.4506093418,0.5334032608,0.5339890421,0.1898907493,0.310932132,0.3350404072,0.680118141,0.4264645882,0.4418923954,0.5291959877,0.165302832,0.1404334005,0.3153207762,0.5824422481,0.4209690936,-0.432623153,0.3452149783,0.2941157516,0.031921805,0.7107774099,0.0118456686,0.5799605719,0.2896810578,0.4236601267,0.102786857,0.7226271471,0.1043869934,0.3616072701,0.5057732294,0.3349681883,0.3595983301,0.5415257408,0.2341290111,0.5502639184,0.2062159742,0.1042118938,0.2421076025,0.2912106864,0.5658276527,0.4649823752,0.2235639436,0.6018716938,0.547641354,0.2694840006,0.6146780358,0.5909606724,0.2265159477,0.2811395828,0.100461508,0.5780788896,0.2351358153,0.0359306901,0.4476965364,0.4568944039,0.4587507226,0.1774595333,0.1843484828,0.6877079297,0.3765453944,0.1047638138,0.5179177959,0.665103581,0.246260389,0.7229556227,0.6746226868,0.3109420982,0.4542031943,0.3896319096,0.3087508151,0.6595521225,0.3021613552,0.6921417549,0.0453019015,0.5623394358,0.0244659157,0.7231315824,0.5503848457,0.1683105419,0.0453081393,0.5245135524,0.0883185679,0.4004855912,0.5798159632,0.4359822733,0.6261992474,0.1350499137,0.020619735,0.1145947767,0.2499280112,0.0422970007,0.4155107882,0.0975305462,0.4111975687,0.1360130409,0.5205595084,0.1130543868,0.3435576913,0.2410422788,0.1791301319,0.1857440435,0.3362069351,0.5112093409,0.3989229137,0.1473989675,0.4474353622,0.6714258382,0.7051864402,0.3379356263,0.1792150748,0.216280983,0.2493753599,0.6047228963,0.0293117973,0.1212161751,0.2984816035,0.1141483384,0.1671034254,0.4366602918,0.5246296362,0.2972966927,0.6973289558,0.6450386032,0.2614802344,0.2109703306,0.1756774901,0.2569944762,0.5815787894,0.6417980533,0.4789349639,0.6136531008,0.0865769662,0.3442388565,0.2486777845,0.5912281171,0.4680903922,0.333747218,0.3427597094,0.2062462199,0.1728959318,0.3524717026,0.0365466353,0.1282963711,0.1969615635,0.2123193942,0.3506849485,0.2907356688,0.3774197724,0.3769104624,0.0130591121,0.586543642,0.1356144801,0.4842222378,0.7164021497,0.473454488,0.2951206266,0.5062438335,-0.0212920914,0.318348782,0.5202039755,0.2122932735,0.0232557127,0.1054218101,0.0925572886,0.4553665106,0.024608067,0.4469919713,0.4595446218,0.4539662301,0.4390436831,0.4124976274,0.1755415965,0.0288166833,0.049345464,0.0392208754,0.6012993427,0.2885013901,0.2156079038,0.2968118429,0.3282122004,0.5756731816,0.3001982772,0.5072292887,0.0363190124,0.5333939185,0.3518976946,0.2926279629,0.5924406054,0.5724857312,0.5636112494,0.456977423,0.6779436151,0.4005332516,0.2697181128,0.3351117647,0.5365855355,0.4065832065,0.5585085552,0.088842687,0.627786001,0.0796538417,0.3164788315,0.3865446566,0.2702448442,0.4319655078,0.0807358041,0.3558524251,0.2794758988,0.6634209975,0.0845689085,0.0931186557,0.2165958374,0.481203651,0.5854523792,0.3947737661,0.1338623646,0.261277281,0.5721558857,0.3530828601,0.4609498069,0.4962671966,0.3696285054,0.5523707391,0.6618871878,0.5586012902,0.2627587894,0.4313549247,0.6754339279,0.672186074,0.3531698409,0.3816894344,0.2296396623,0.5512460227,0.0373130373,0.390287231,0.3507020634,0.4138910209,0.6558577474,0.0184053111,0.3340811515,0.0512270101,0.1071573213,0.6588280001,0.6971623837,0.6639101155,0.2551568606,0.4758639893,0.0235353772,0.2082950317,0.6184876748,0.1705477621,0.3325539455,0.5620469371,0.5888373721,0.0290330422,0.716398914,0.0758058249,0.3565253147,0.4834850614,0.258774638,0.6087871138,0.3698074325,0.7173072169,0.0289953762,0.0329790181,0.4864724438,0.2712696136,0.4552749362,0.0303860375,0.2432650093,0.019326192,0.5394989754,0.5772919624,0.1454327318,0.2885920976,0.3287473395,0.1548101161,0.5652423781,0.2210584873,0.1338851713,0.4101803684,0.6118886022,0.6624558247,0.2119898279,0.4087600014,0.4179852333,0.0156434509,0.3755011908,0.0959532386,0.1534407193,0.0976123184,0.5609597573,0.5578216382,0.3577008574,0.4936701419,0.6319380171,0.3515304151,0.2677234963,-0.2097100651,0.0312186738,0.5134452517,0.6942539564,0.5770523975,0.2603826628,0.1591857277,0.7037308052,0.4907562739,0.3226010653,0.0889815763,0.336367823,0.6399137112,0.1524894216,0.0757668774,0.7152930483,0.6645364964,0.4819962564,0.5431423569,0.6920253579,0.6094578833,0.1971431034,0.3398619539,0.2498024713,0.0345828381,0.5180425426,0.5035969466,0.4411662207,0.0504226228,0.278016014,0.2381076178,0.0326169508,0.3754087256,0.280795479,0.074037924,0.5359392448,0.6665060452,0.2765671989,0.2970750965,0.414009295,0.4644676952,0.0449041729,0.2788067094,0.5321346553,0.2310526307,0.533615629,0.346663916,0.4771155171,0.1550395643,0.7143238204,0.4085956354,0.1684339904,0.4974468192,0.0530091701,0.4600605893,0.5369215925,0.403478514,0.2975805859,0.3629272159,0.7123677599,0.335338819,0.0642916502,0.3542152128,0.464374073,0.318718708,0.1623301773,0.0382602117,0.0480082757,0.6314732442,0.4383721528,0.2675710435,0.2288265027,0.4598649957,0.6772143306,0.3194000876,0.3167946693,0.5404637434,0.5614206061,0.7118739474,0.5315279604,0.0344993261,0.112331,0.2610863685,0.6946085165,0.3844676382,0.500213076,0.1264745583,0.1338480757,0.486702969,0.6988294587,0.4560556832,0.2802673859,0.5766212983,0.6488852918,0.5220655478,0.4430602377,0.589402262,0.5491973373,0.2875331222,0.7195671901,0.6273739452,0.4037896438,0.2006569183,0.5441124708,0.2435091074,0.3564070068,0.150174545,0.5457400719,0.2986959268,0.2201846245,0.6797436901,0.1291275215,0.6364872479,0.3103160411,0.3257349464,0.2290119814,0.0763792781,0.7085316746,0.0185494817,0.4019814436,0.1966539233,0.5587756346,0.7085654968,0.1266087885,0.4873836998,0.5861058636,0.0368745689,0.4680920919,0.4638029104,0.593451647,0.6812833788,0.536377522,0.6956181474,0.5569599444,0.7121565133,0.678676043,0.645699176,0.3731453464,0.0725450563,0.1857861223,0.6165826813,-0.246099468,0.1809035895,0.6500874314,0.4196519784,0.3774920732,0.1346918235,0.5465943166,0.0953409898,0.194673552,0.0980641604,0.164324659,0.2633839062,0.140652065,0.0345775891,0.3419933079,0.4759723602,0.6440644116,0.3358933523,0.4608363764,0.3830914076,0.0719413218,0.4854633818,0.3266222113,0.2940998643,0.2073363206,0.542041356,0.7104474778,0.2130297212,0.6743956382,0.2237704385,0.16823575,0.2101612811,0.5809042112,0.152494603,0.5968016158,0.6422422649,0.7050431857,0.221749409,0.6225116245,0.5758006002,0.0126855026,0.2386793185,0.5329684064,0.4280999658,0.3528447811,0.2521330459,0.4438409683,0.5872764805,0.3269308884,0.5972324234,0.64909405,0.1920872342,0.463410063,0.1578067864,0.1358663284,0.1844270105,0.321034153,0.1752208812,0.5934108183,0.0188792212,0.6232762703,0.2320825064,0.1717370686,0.2338222185,0.1922352339,0.4030846873,0.194759868,0.065825058,0.548122672,0.3724942016,0.3492253331,0.3417701629,0.4998990438,0.3116241161,0.4909196825,0.7185486691,0.6987875603,0.0277701017,0.6007883133,0.3504750511,0.3796740795,0.0463186415,0.4574232692,0.4599654576,0.4056905674,0.4137737511,0.1342021885,0.1495417194,0.6322717156,0.5675737947,0.1809728802,0.6785419431,0.6653435643,0.5034014652,0.6624743141,0.5929525449,0.0873075583,0.5594703277,0.3735144529,0.7175325963,0.1000354254,0.2311945207,0.0839919442,0.5162857066,0.6544633522,0.4526701904,0.631861887,0.0050905013,0.3087420781,0.6047800376,0.1377758464,0.2583700361,0.398042633,0.4436392773,0.4793476814,0.3565035356,0.0359789924,0.0234845742,0.2543826802,0.518375464,0.5618456393,0.6029679006,0.1557691931,0.2707966278,0.5504176695,0.0635913749,0.0396000381,0.0636138737,0.4418159402,0.4696160752,0.4786353477,0.0557573854,0.5722593204,0.0889756482,0.3776401279,0.3355102704,0.5947632093,0.0600940755,0.5548570494,0.5392574171,0.6031642004,-0.5843806439,0.5733195461,0.5274092155,0.2455806977,0.051980182,0.2799552466,0.0605122926,0.436350559,0.3162857108,0.0112420812,0.2460441845,0.3168936762,0.5327629614,0.2401593839,0.4174066216,0.6362936415,0.3831986259,0.6637481076,0.2192549687,0.4815802538,0.0617318748,0.5158495153,0.7207213653,0.1048571877,0.4029834671,0.4343362796,0.3956190269,0.5743771285,0.5996742181,0.0660828484,0.3460568945,0.1607135634,0.3715882027,0.1362761693,0.0389961794,0.2016321441,0.112491948,0.0055317531,0.4489564132,0.3599646723,0.4396604134,0.6778525885,0.2513769588,0.7216459498,0.520554705,0.4886078637,0.2163665118,0.4731420168,0.6816843316,0.5638449665,0.111768891,0.1714923033,0.1097873688,0.6758697275,0.1621476232,0.0102686375,0.0465364124,0.3783847512,0.2797759321,0.1783229021,0.6143314439,0.5618568782,0.300552547,0.6447925892,0.13486113,0.0662873929,0.5381341448,0.5654825548,0.6248015412,0.7241828304,0.0667645088,0.3900520095,0.0509211235,0.3914736805,0.4093869939,0.3288657891,0.0933556236,0.5859034121,0.5085286217,0.4697947435,0.6644386566,0.553346837,0.5607802242,0.6354508843,0.279715621,0.315361288,0.027255043,0.3211471932,0.541760627,0.0765680879,0.7172945501,0.6011881378,0.3419996321,0.0666032035,0.5084901742,0.5838317888,0.0689904755,0.2182693829,0.136115018,0.7166391359,0.6593082248,0.5968464359,0.254570424,0.0286944066,0.0147409999,0.3180305471,0.3507772242,0.6892218449,0.6746610637,0.0518155972,0.3488727066,0.1155709468,0.5404846188,0.6505223906,0.6475759444,0.4066876752,0.2575020561,0.0197939712,0.5019013953,0.5955313232,0.32141996,0.3172230796,0.1228906745,0.5802032985,0.7135881666,0.0544975791,0.4939585714,0.2101045865,0.6981069115,0.6493853213,0.0471862617,0.5318465173,0.3010655909,0.6565358746,0.3056497959,0.0429382237,0.3813748249,0.1206382499,0.4427332449,0.1995563413,0.3221585068,-0.5044313552,0.185408323,0.0091375286,0.4963198676,0.3057701479,0.1915190091,0.5611738912,0.3334112993,0.221834,0.6342096642,0.178152963,0.0492751836,0.5448569153,0.0190156381,0.4862459513,0.3567833091,0.1248593362,0.2934870228,0.6786336627,0.51584579,0.4867076008,0.6292632024,0.5330907894,0.5995026317,0.6167775096,0.0556382458,0.6412984543,0.7216158315,0.1357581773,0.0504058502,0.4599814691,0.249115645,0.4661697021,0.1433181621,0.4429098176,0.3510457846,0.2605221137,0.2323011252,0.6053713133,0.7172025657,0.0010234452,0.2897806545,0.0933327055,0.1450866172,0.4017978059,0.4873846902,0.0697873254,0.0326315708,0.1103250842,0.2811314423,0.566786847,0.0820165552,0.6019145424,0.506526401,0.0414426884,0.0736849149,0.6625317633,0.4780887832,0.5566995516,0.643039746,0.1048947017,0.3305776135,0.4847222844,0.6498139497,0.3832385906,0.6658372598,0.1687394683,0.1179334416,0.2365379745,0.0677355584,0.3464664022,0.3094827655,0.4156436354,0.1127444332,0.0431159127,0.6663524236,0.000834319,0.1526895149,0.0138735751,0.0019158624,0.1908615059,0.4496981651,0.5318045004,0.4993641052,0.6660789644,0.2242033697,0.5882342594,0.1006566403,0.5218034538,0.1104196634,0.6616004799,0.487536241,0.2630274328,0.6802718104,0.5211900308,0.3320168477,0.0096519286,0.4358216398,0.4209361068,0.0221274138,0.4322341304,0.2740328978,0.4935928883,0.0052439224,0.0392220701,0.2178004197,0.6627424351,0.6461848698,0.379141821,0.6984947054,0.0426469959,0.4734168372,0.4639159994,0.598404779,0.172970142,0.6213184567,0.0114911983,0.2834418174,0.0805799802,0.3329775173,0.1688385302,0.3629432446,0.512912404,0.0346794172,0.4328826626,0.4426947331,0.2491470553,0.1564725164,0.20349311,0.2798001179,0.4187826902,0.699637025,0.2997020072,0.1061686414,0.539743782,0.3774921315,0.1052693911,0.5138435826,0.1562081406,0.5130717165,0.5077492302,-0.5704744179,0.1117525542,0.0580131564,0.6958546851,0.7018281928,0.1511146942,0.2422274091,0.1250686326,0.082619708,0.2008754743,0.0987428355,0.708608056,0.1319402738,0.1542500719,0.2869834359,0.0256414173,0.0693161203,0.0617570372,0.1313590854,0.1664544832,0.0018187099,0.3018328652,0.6770170784,0.4036117896,0.1555842273,0.4507181859,0.2673134487,0.4063610833,0.4837286334,0.5400566084,0.3410282559,0.2834886276,0.4384112284,0.3297327939,0.2052649146,0.2546878998,0.0098412778,0.1385113227,0.568278845,0.0715577866,0.6656901425,0.2097439233,0.7080403058,0.366533535,0.020964445,0.6491715758,0.3603993213,0.3983834308,0.2877884645,0.3524740946,0.3137642626,0.3678042637,0.4746187677,0.6207484958,0.5586810336,0.1105066292,0.1131293099,0.3599069856,0.6312733127,0.4505524176,0.5956205332,0.2906185973,0.4564851189,0.0764849626,0.5625544403,0.3355607184,0.3943413544,0.3995311682,0.6797333993,0.575804904,0.5188136471,0.0746680447,0.4003188672,0.3572127078
