encog,BasicNetwork,java,3.2.0,1,1399516798603
[BASIC]
[BASIC:PARAMS]
[BASIC:NETWORK]
beginTraining=0
connectionLimit=0
contextTargetOffset=0,0,266,0
contextTargetSize=0,0,70,0
endTraining=3
hasContext=t
inputCount=140
layerCounts=18,36,71,211
layerFeedCounts=17,35,70,140
layerContextCount=0,0,0,70
layerIndex=0,18,54,125
output=0,0,0,0,0,0,0,0,0,0,0,0,0,0,0,0,0,1,0,0,0,0,0,0,0,0,0,0,0,0,0,0,0,0,0,0,0,0,0,0,0,0,0,0,0,0,0,0,0,0,0,0,0,1,0,0,0,0,0,0,0,0,0,0,0,0,0,0,0,0,0,0,0,0,0,0,0,0,0,0,0,0,0,0,0,0,0,0,0,0,0,0,0,0,0,0,0,0,0,0,0,0,0,0,0,0,0,0,0,0,0,0,0,0,0,0,0,0,0,0,0,0,0,0,1,0,0,0,0,0,0,0,0,0,0,0,0,0,0,0,0,0,0,0,0,0,0,0,0,0,0,0,0,0,0,0,0,0,0,0,0,0,0,0,0,0,0,0,0,0,0,0,0,0,0,0,0,0,0,0,0,0,0,0,0,0,0,0,0,0,0,0,0,0,0,0,0,0,0,0,0,0,0,0,0,0,0,0,0,0,0,0,0,0,0,0,0,0,0,0,0,0,0,0,0,0,0,0,0,0,0,0,0,0,0,0,0,0,0,0,0,0,0,0,0,0,0,0,0,0,0,0,0,0,0,0,0,0,0,0,0,0,0,0,0,1,0,0,0,0,0,0,0,0,0,0,0,0,0,0,0,0,0,0,0,0,0,0,0,0,0,0,0,0,0,0,0,0,0,0,0,0,0,0,0,0,0,0,0,0,0,0,0,0,0,0,0,0,0,0,0,0,0,0,0,0,0,0,0,0,0,0,0,0,0,0
outputCount=17
weightIndex=0,612,3097,17867
weights=##0
##double#17867
   0.6655859925,0.05199114,0.628020008,0.7171680103,0.4368467957,0.1398712971,0.5737680702,0.5197527219,0.4753301801,0.527807271,0.5617988767,0.5949722588,0.5692826573,0.550834499,0.0001226249,0.7115353217,0.3418876547,0.1956827552,0.1465036826,0.0174241001,0.6922396415,0.1731226192,0.4676429759,0.3825653181,0.4917436213,0.7095864541,0.4952050457,0.6218028527,0.7231033496,0.1039647498,0.5478431866,0.1315726017,0.6285584624,0.6131249203,0.0971402809,0.6236711197,0.7125896752,0.4765965068,0.075175404,0.1007027556,0.2507570286,0.7201412349,0.0045556229,0.7422586871,0.0716353811,0.1065312425,0.1638066028,0.6626739972,0.6843737545,0.7195520144,0.2159902859,0.2496360948,0.2584030194,0.5515395676,0.1742750119,0.6141076034,0.22397508,0.1479362994,0.3283580955,0.0603938937,0.1360366433,0.4989768888,0.2431337517,0.0886951557,0.5299671136,0.3646861003,0.2624573339,0.5051665607,0.7263122469,0.7397939369,0.7209650635,0.5711042564,0.1151825364,0.5591792763,0.092378184,0.6374761053,0.6001004094,0.709233934,0.6801954973,0.1502615394,0.2797525103,0.7437333925,0.4760952371,0.4000391599,0.5273369158,0.4018739615,0.1209605276,0.4240035594,0.4656891557,0.587186293,0.0611410681,0.6663809606,0.5249713537,0.4058382071,0.0667299039,0.1765024813,0.420465188,0.5911845782,0.0913887926,0.1170671769,0.7148908943,0.5809746718,0.2443064634,0.1437236466,0.1829022809,0.1566824802,0.0649947911,0.0673862009,0.1360921122,0.3726052789,0.3047332451,0.3735472604,0.4797479985,0.1812634258,0.3621862046,0.3637993872,0.7484831789,0.1471095973,0.1051069634,0.5868298153,0.2389090443,0.5601720108,0.6265802741,0.3863090244,0.5258073903,0.0892745048,0.0741967816,0.7278964704,0.2593983075,0.6111792573,0.3309589684,0.4286640835,0.7120611452,0.2222849878,0.5974605702,0.7586532226,0.2562026899,0.0068670447,0.5579677985,0.2206943509,0.1330942753,0.7468612995,0.3058261619,-0.2711124683,0.2176810386,0.2647354478,0.1437969824,0.6756062559,0.4992350934,0.5677614355,0.1735489496,0.1804178675,0.5043976647,0.2041039556,0.0162210366,0.3236532863,0.524263159,0.4148520007,0.0266482515,0.672746848,0.6211980769,0.2211176175,0.1463147116,0.7484778642,0.1399992421,0.4572475914,0.0598900833,0.2549825195,0.5791932657,0.0620887771,0.2886484188,0.4406481061,0.6015552122,0.7152738851,0.4154962615,0.7427094154,0.6048446123,0.0128498571,0.6941045173,0.1575882551,0.1304174152,0.6204318369,0.4157448767,0.2986818581,0.4562423409,0.4311297385,0.687252362,0.3158919104,0.1127107063,0.3354618242,0.7494239753,0.1596263473,0.5554471264,0.0518680603,0.0211637034,0.0828180648,0.6267424797,0.5641954386,0.7165421792,0.0040908644,0.5043314477,0.5163246087,0.522095511,0.2167928774,0.6966840935,0.047699934,0.2829357922,0.1808069427,0.6083839837,0.4769283693,0.4130776367,0.0228150948,0.6425006903,0.0002472709,0.1877075931,0.6327382176,0.0783615493,0.011588751,0.4609274821,0.0144800541,0.2908916765,0.6397268872,0.3673754546,0.3312176429,0.1908248543,0.5969656136,0.2938424713,0.1607483007,0.6641349217,0.2045651803,0.1864482016,0.3999774339,0.3847861974,0.5013467582,0.6184989671,0.2360043361,0.2550236064,0.2077823207,0.3587963534,0.0079004398,0.5091408826,0.0689330267,0.6896107994,0.0941855827,0.7154874228,0.3750084528,0.5617739948,0.7014743605,0.6137044047,0.4372309456,0.3091989138,-0.0310355208,0.5432421797,0.2999551395,0.5971788058,0.2533919274,0.4927247219,0.6715920241,0.6421607007,0.2995767888,0.322799923,0.7519248821,0.2395378451,0.4923518804,0.6204732954,0.0087354826,0.6015462246,0.12855901,0.0027358838,0.0367598758,0.6921703216,0.0054866375,0.2361066784,0.7055326007,0.1680996676,0.6657506434,0.0007202719,0.7369287146,0.1349418454,0.7489304651,0.6690800633,0.3478984653,0.1867747541,0.2194369477,0.6600980541,0.6000567624,0.3260477507,-0.4498625929,0.1745433403,0.6154362434,0.5170215484,0.0503109863,0.0847008643,0.7385900013,0.4227908943,0.0865424945,0.1348248902,0.4836054254,0.1214397573,0.0224962752,0.4356019961,0.735283146,0.6763485382,0.2690924763,0.1676934756,0.479548491,0.5900852811,0.2745262479,0.3253830688,0.5343363267,0.1352124312,0.4926091422,0.0999510303,0.0152339893,0.3660762259,0.0896272855,0.4715929464,0.3449661881,0.0064941501,0.0105520121,0.3889335179,0.3721642103,0.5248180142,-0.5466013231,0.6244777537,0.6002451435,0.2253740524,0.5151182139,0.3544605928,0.2949409328,0.6437530629,0.010673132,0.1297557527,0.4086930136,0.5023749822,0.1297834506,0.6047185691,0.183531608,0.6813192059,0.6869141187,0.2555689946,0.7160694789,0.6094377707,0.5746816663,0.2898774572,0.7029980243,0.6848879978,0.3640032016,0.5303322701,0.3680697617,0.1686767811,0.5625474028,0.5005620205,0.0357061584,0.2044802573,0.5396400134,0.5034767131,0.0201122125,0.6745118752,0.2706304577,0.2703630453,0.262958109,0.2378332366,0.5665948694,0.3143397589,0.1873678279,0.5252939558,0.3015108572,0.6741234114,0.1558231546,0.0958555691,0.1512727913,0.4753962871,0.4115011226,0.5960275734,0.3134135603,0.0655912087,0.4220371177,0.7427843359,0.5933426606,0.7067599027,0.6381798548,0.1225052034,0.5216722226,0.1207895765,0.5862994636,0.548403283,0.6896588286,0.1257014736,0.0169990112,0.0489460645,0.0292943092,0.0380385929,0.2679714251,0.699292824,-0.1867821763,0.5256661518,0.6695541759,0.0611316229,0.6640888132,0.4585311446,0.3524539278,0.5138145113,0.5026199544,0.2476287053,0.6315070285,0.0054531051,0.4672162256,0.1510549977,0.5012996448,0.2873107839,0.7398331483,0.4923217546,0.5923477464,0.6446033633,0.001751119,0.5730851903,0.2621612271,0.6409629208,0.5804809203,0.5703741105,0.6689778715,0.4084422332,0.0418826655,0.2133076447,0.6031409708,0.4408601541,0.3759148714,0.5232995698,0.0719948515,0.1687372432,-0.5311856344,0.2794759349,0.608799148,0.0977131852,0.0356932472,0.1362181491,0.568980239,0.1724645365,0.1162867495,0.2210677896,0.2042725595,0.5489416527,0.5492485702,0.2514055316,0.4174526079,0.0238404962,0.0566087339,0.4760286456,0.2291667396,0.5589540031,0.1955672137,0.3371882117,0.544861235,0.6506760203,0.3012160614,0.4188296608,0.4808912816,0.4763398089,0.529385866,0.1188327146,0.1605205381,0.5492124356,0.5169339035,0.1703874836,0.3319672913,0.2828858865,0.2669576686,0.3644773299,0.1612676867,0.0439381865,0.565190817,0.6987508163,0.6434241165,0.4526467725,0.6309234741,0.3859729544,0.2444830011,0.1638885753,0.1784140288,0.6243188437,0.5730116295,0.6666793402,0.634143152,0.630547081,0.1205368033,0.3841668247,0.6670743905,0.4774457208,0.5241898379,0.7270569582,0.6565700456,0.7124589093,0.226063008,0.430200261,0.3111160437,0.2983516663,0.6600070819,0.6133254188,0.5211404734,0.1220283886,0.5652995744,0.1466878617,-0.2987368002,0.1886634376,0.5351720504,0.6094221832,0.6913986444,0.6899473481,0.2915946044,0.7312010179,0.5399050484,0.7103075993,0.2762337846,0.3417730838,0.4947310563,0.2072647109,0.0719118256,0.1958622917,0.5147763005,0.2172348036,0.1344346447,0.3131612421,0.0736702702,0.18811193,0.3586736942,0.3989501823,0.0752821082,0.0575846206,0.7387024229,0.5984675972,0.0909435642,0.0975904606,0.2683485371,0.6728643072,0.1641578086,0.6898831229,0.4938365964,0.6663881226,-0.1051201462,0.6523771992,0.4379020777,0.3239344945,0.6312644931,0.0303931413,0.4210738382,0.6858836931,0.0386464361,0.2812935621,0.5166334564,0.5904362497,0.0760665777,0.2253459552,0.3622430752,0.3117485628,0.4032568002,0.1426951514,0.3571725632,0.6300340363,0.0245057395,0.388745558,0.2602897784,0.241689144,0.6092194072,0.6473969326,0.4967946838,0.5141307941,0.7296367077,0.0954856404,0.6841609901,0.6417466742,0.2125023034,0.7093759414,0.7460473024,0.1076885922,-0.2892512583,0.6582313542,0.7509030542,0.5939242222,0.2301035276,0.509956818,0.4455642906,0.3603211247,0.4517172071,0.514523162,0.136808282,0.6325710435,0.4871965848,0.4017109337,0.3465937233,0.0618380302,0.0897170913,0.2158377756,0.6738889023,0.7585608656,0.0548860754,0.1533681481,0.188353444,0.2806983557,0.396857734,0.062198002,0.1816287022,0.1724319172,0.3071506874,0.6497332487,0.6564807659,0.0507918722,0.6044377474,0.1814100604,0.2165108723,0.6032865784,-0.0313945687,0.1404698823,0.0595975238,0.4026163273,0.0056759867,0.1652781443,0.4047439127,0.1166988068,0.1691909352,0.1117197599,0.4908080759,0.4678908924,0.289099229,0.2606178296,0.1632986123,0.138918991,0.1871902317,0.4515800964,0.6719720437,0.6786700039,0.6674126477,0.2399864304,0.4456149603,0.0929136893,0.2386976474,0.2831925491,0.4754157137,0.192635021,0.190820544,0.2936883608,0.2484013547,0.2649837435,0.072720951,0.1576330059,0.4892618415,0.2132247537,0.2145831105,0.0067310675,0.4198108764,0.3810206838,0.5021208158,0.4463523616,0.4564226748,0.5531345486,0.4693897731,0.0066164677,0.4956956145,0.0902666622,0.1155426971,0.4453216485,0.1992304145,0.2761453577,0.1842333716,0.664930044,0.5890808068,0.6289845613,0.5530366326,0.1269964651,0.1097093286,0.7170679289,0.283111011,0.6173743497,0.3496192324,0.1641081558,0.2563689594,0.0320877014,0.6790270885,0.5260440937,0.6515798683,0.2604265108,0.4503973238,0.229890799,0.2409874394,0.1325461547,0.7237813191,0.5534945945,0.6462793989,0.1010086135,0.4600327506,0.629021252,0.6959361523,0.1542304289,0.0426693142,0.489000518,0.157571597,0.2220586147,0.3986145312,0.2469857095,0.5433675592,0.349486087,0.6376582173,0.2833410408,0.1925126387,0.6827605595,0.2036617645,0.5439368573,0.4898681094,0.4210385146,0.0814180475,0.4187601098,0.6565433951,0.6468955821,0.3540564423,0.1440667191,0.7117970216,0.3744942898,0.2557730037,0.4319553533,0.5611228935,0.1086675318,0.4557779789,0.5474636747,0.7033368058,0.632617848,0.3711263736,0.4337038015,0.1768720218,0.1682850248,0.1421029811,0.5818962984,0.1624099567,0.4016110816,0.0692659054,0.2425506873,0.4170812979,0.2031150688,0.1968053118,0.3917369484,0.7102059261,0.0919888649,0.2995374042,0.5082398763,0.0758578232,0.0384754781,0.5200656992,0.2834942956,0.3229900618,0.5242675544,0.1530986731,0.0740764811,0.5669666417,0.6768141035,0.3457347663,0.5527538979,0.5249145586,0.6714642303,0.5441051441,0.2139106053,0.0076089779,0.2740286338,0.0642861393,0.5002536218,0.1769428902,0.2933529443,0.034281726,0.0505631416,0.6543940221,0.6475945211,0.6161228737,0.1842414272,0.6976746611,0.0085776166,0.6862149388,0.0513930959,0.1204328226,0.0158068178,0.0692423611,0.5391908187,0.6017775912,0.3725008104,0.0359217141,0.4854788416,0.3231810218,0.1410611116,0.3390591427,0.6209544759,0.1412183606,0.2398424626,0.6947580476,0.3227992144,0.5413639391,0.2623560768,0.1515753108,0.4966887705,0.195009762,0.0305830346,0.0464946795,0.0305033696,0.06118417,0.4664036,0.7238598537,0.0702035017,0.3585211942,0.2358150805,0.0190494654,0.1219261513,0.7254806978,0.5072586057,0.3931796741,0.5198896693,0.6310456843,0.413781808,0.5014112608,0.0181454995,0.6200982036,0.1532377178,0.038653002,0.4810593729,0.2373567921,0.4281003651,0.5510999032,0.4930526964,0.5111897512,0.4206890589,0.0809891335,0.6463334885,0.5596002707,0.7089821366,0.0533357607,0.6370023479,0.6429818571,0.0742066614,0.2253432483,0.4464844347,0.1917147811,0.7117960861,0.5689842935,0.3429675328,0.3038270959,0.0313022522,0.0399389829,0.1171341659,0.5080401187,0.0867422681,0.6101003786,0.354974817,0.2324649213,0.4462540494,0.1201736783,0.2831408419,0.552409387,0.6292735602,0.6507549111,0.2039025858,0.0193396397,0.3647454853,0.0896793679,0.2142886629,0.007619378,0.6367750614,0.223710742,0.431618626,0.5172664284,0.3894106314,0.1845370245,0.5088438,0.4668891545,0.7305874953,0.5694509756,0.222642168,0.1021708258,0.5418347613,0.0944656983,0.679748865,0.568337965,0.6170982634,0.7116654121,0.1584297603,0.3217317166,0.4113304748,0.7024761341,0.7141422814,0.6223713245,0.3234474225,0.0574624339,0.1087622461,0.5667548513,0.4886587051,0.5556310728,0.3950982918,0.1412206916,0.4792455075,0.1834791116,0.1341528217,0.6550644709,0.0846220927,0.4413561295,0.669206951,0.5864025491,0.0821773391,0.1261244361,0.673763994,0.6402712098,0.6740700506,0.1689890522,0.4806538725,0.0574652777,0.6800898656,0.2995200583,0.6868551504,0.184797967,0.1228730024,0.5627753402,0.3519018017,0.7072161537,0.3097652695,0.15347547,0.7010909096,0.1113672274,0.2631344533,0.2895369385,0.6080946731,0.5091239649,0.4861784299,0.644466501,0.2298332822,0.5325830262,0.3859409502,0.158985891,0.0017475089,0.1044593704,0.3765417901,0.6825493206,0.5623431756,0.5436689248,0.2216262598,0.4693147304,0.6784031566,0.4054637548,0.3482291837,0.4683587594,0.5478348462,0.5515933943,0.0745229441,0.7219121087,0.5680121611,0.692660907,0.4401950553,0.5148868014,0.4279036724,0.0940695246,0.6927297155,0.1660925981,0.1321645173,0.5002970446,0.1128359006,0.0622921341,0.2335633477,0.4262478427,0.4822378953,0.0282631497,0.5013344544,0.6668217529,0.6600554851,0.2510532658,0.4979888126,0.7158278553,0.3788997168,0.3628762487,0.4157629483,0.5843851378,0.0678634447,0.6640430086,0.2098010637,0.4385307617,0.3628526256,0.1125464586,0.304192798,0.6489929568,0.4833015517,0.1263759554,0.6156463565,0.1287820764,0.5065337409,0.3111631822,0.6611049263,0.6852840072,0.0344666443,0.3159765103,0.347702411,0.1892891731,0.4832684374,0.2373441588,0.4790194265,0.0334485948,0.5807381199,0.6113276852,0.5488869739,0.5932044781,0.4851976684,0.076791532,0.2035985644,0.0146220151,0.5563278199,0.0364369874,0.0695149923,0.0778515361,0.0551790949,0.2691312052,0.6069138557,0.1010708979,0.4356646738,0.253017965,0.2695821163,0.2413560023,0.3590781979,0.4189553398,0.2054350265,0.6592920044,0.6625740765,0.0516453986,0.3580771709,0.252901554,0.1430737572,0.0984341722,0.6616634471,0.2782178617,0.0552599524,0.7001614047,0.1650235926,0.4762100484,0.1082920221,0.3706220904,0.333576153,0.1824128803,0.6738006833,-0.5995552995,0.1766090353,0.3487300643,0.42385511,0.6278694801,0.508475993,0.4283311696,0.2809438063,0.1314914736,0.6314303346,0.3467069924,0.5871188146,0.2533070943,0.4348190267,0.0152834877,0.1088305616,0.7303735751,0.187054837,0.375101054,0.7133868504,0.0680505886,0.1650756987,0.7068578761,0.5930088063,0.4958981361,0.0055206069,0.3619314634,0.5756190459,0.1838344741,0.2114542942,0.5496903666,0.6345798051,0.1001906171,0.1422470382,0.1830803118,0.2634875697,0.6390367541,0.456926653,0.0841937257,0.6695320293,0.2101233738,0.3469892606,0.6465388051,0.6234785224,0.3330957761,0.2116419396,0.2376581786,0.4343000623,0.3401246402,0.6307342029,0.0844782497,0.3529101128,0.2690447514,0.0159887598,0.5331306765,0.1760284519,0.6681808041,0.0824422258,0.4339138471,0.0613504536,0.3591545405,0.0839091344,0.5398222054,0.2471735878,0.5809130113,0.7048462284,0.0472552509,0.2299363451,0.5904772037,0.0383194738,0.3101919257,0.1621373344,0.4177484339,0.3920107735,0.0017693293,0.0679523423,0.5923482995,0.3557810623,0.1518064028,0.0898134197,0.5483025675,0.5978952981,0.0445412102,0.0313166848,0.6696854581,0.2299051932,0.2661896964,0.1066245885,0.2023983172,0.6668387142,0.2631173363,0.6411321595,0.1853211642,0.0035900428,0.2345265506,0.2843975817,0.1292080987,0.3246140328,0.4525613666,0.7351842224,0.4058025427,0.3019228017,0.7236142479,0.3856622309,0.0896305153,0.3445307551,0.3808492826,0.6788020842,0.6974130961,0.4923051196,0.395442615,0.5334269134,0.0454556532,0.4248420601,0.6562888719,0.0432357925,0.7103885167,0.0189494253,0.3361678457,0.255539081,0.1000251511,0.1260796307,0.4024073999,0.0650318758,0.0157328247,0.4512369454,0.5184333033,0.3552296997,0.3209869159,0.0633934176,0.6498910206,0.0263248562,0.0996523782,0.3777712802,0.2445670026,0.5221766121,0.2869175428,0.7330924187,0.4451211509,0.4471785988,0.5482500694,0.5021224107,-0.5365338574,0.5119771869,0.5931201775,0.2190598188,0.1084305241,0.3887152022,0.5875080553,0.3932532031,0.6403555669,0.3860171074,0.6348320762,0.3100234795,0.4828039125,0.6534575448,0.3888526852,0.1960282146,0.4618760357,0.6431428419,0.4266881517,0.5474355841,0.4543602594,0.5498591351,0.4170726762,0.1701103397,0.4165705908,0.3127760403,0.4084392443,0.4137845361,0.3653739081,0.3756835215,0.2273666715,0.683803199,0.3580603046,0.1008883182,0.7357603748,0.5964063589,0.712913828,0.6013298624,0.5118301889,0.3182123161,0.2734967826,0.1890484296,0.2661586949,0.3377555287,0.4397354636,0.7018690255,0.5962599575,0.2318213595,0.0431048824,0.1461959563,0.0529394407,0.5872345516,0.0446489884,0.0342005114,0.7111246282,0.2890711103,0.0736114607,0.4957237376,0.1419261992,0.0231723803,0.1942689242,0.3939711482,0.1328717822,0.6265765004,0.2077708247,0.5092657123,0.0074324067,0.6565335589,0.6951334465,0.4968803574,0.1511846075,0.6822047254,0.3880901653,0.2391985311,0.6280786931,0.1425779594,0.4504681526,0.0625731798,0.3807066125,0.5327930824,0.1087298882,0.2565462086,0.4953928255,0.4003106874,0.6829309806,0.4316228128,0.6869708944,0.6935196995,0.5019179997,0.1098131098,0.1264029217,0.4600438517,0.6322995394,0.6137713215,0.5591759287,0.4768601859,0.5693142449,0.3867485825,0.3766788119,0.5612580758,0.1612231409,0.3697374064,0.4665898199,0.2504305729,0.6105618377,0.1886703747,0.6556053649,0.5187584847,0.3191802644,0.0188619058,0.3453482701,0.6755566896,0.3088668751,0.4228886638,0.3839033381,0.5992811128,0.4636188824,0.1054733931,0.1206641485,0.2544962375,0.4752483368,0.6722632285,0.5892834213,0.0783296518,0.2955092044,0.558614618,0.7253374414,0.1794936264,0.6983656217,0.4156710204,0.5108224645,0.6146906857,0.6212189129,0.6368326046,0.5772132197,0.1460747641,0.0603869877,0.0913714185,0.4691490192,0.406509644,0.5190987105,0.397380845,0.1046878076,0.645397338,0.1622886014,0.6252607107,0.3494879723,0.6275762751,0.5568331236,0.1944694551,0.2349973218,0.1851311016,0.3119585222,0.2301263557,0.1675846632,0.1653319461,0.5320461902,0.0506192912,0.1969421983,0.376032026,0.6891126661,0.7226221783,0.5349843923,0.5274837657,0.2775091441,0.1928232223,0.7012240412,0.3372020877,0.0262733142,0.4381549523,0.2877895072,0.2528608101,0.4728660586,0.5469752367,0.2269910288,0.3536816134,0.3056938865,0.3516049677,0.5106838551,0.3251617341,0.5889109463,0.1140344919,0.1041689117,0.2899607042,0.2244137514,0.1158349929,0.0685610411,0.2934650028,0.1122302717,0.2813961471,0.4921013684,0.5412711576,0.6061684001,0.6835402827,0.3469728037,0.3381402028,0.5444804279,0.1046781801,0.1254613352,0.232143884,0.1982155748,0.1667638568,0.2631385266,0.4013452292,0.6993847518,0.5016537614,0.1295020703,0.0758569086,0.2447355008,0.7043378074,0.3534400851,0.2054344334,0.0988083127,-0.0611167287,0.6072846173,0.5536640617,0.325461191,0.1033171177,0.3132664581,0.4843604772,0.4133433816,0.6482402089,0.2433203554,0.2497776734,0.5370735043,0.3858680836,0.3257058585,0.0454967321,0.2322598866,0.1256632146,0.5145227706,0.0986686648,0.2389712643,0.011195274,0.4973198936,0.4022769147,0.7259481716,0.1182548819,0.0811000165,0.3370969028,0.7079971021,0.0627889716,0.2680711935,0.4432931067,0.1786196915,0.3470063135,0.4647867036,0.7045018946,0.0825490681,0.3764760991,0.5830653224,0.6112032184,0.4779322055,0.1932715707,0.1176198645,0.6265372074,0.0924447424,0.0654108903,0.0143365961,0.1617970328,0.2251813918,0.5487471865,0.5663092647,0.7194802793,0.0667104292,0.1434083337,0.5085959255,0.7165609555,0.130377002,0.6076465314,0.6306991074,0.5091212622,0.2933132376,0.2403653081,0.3244411706,0.047326541,0.1429128869,0.0986701529,0.5601916579,0.6983454619,0.165379119,0.7359012891,0.5137898619,0.7216569314,0.4764707811,0.6996378733,0.5560563682,0.0899456969,0.2996571405,0.4637842211,0.6698552513,0.2404672233,0.2431793052,0.5617669126,0.4258215956,0.2859463381,0.3217834259,0.2085655893,0.3540555016,0.1847907215,0.5037456369,0.3582690663,0.6718178281,0.5370208183,0.3993978135,0.3058106857,0.7042091272,0.6349511714,0.2739566469,0.4230498945,0.3447554653,0.6503515622,0.0588460779,0.7261682711,0.1740152306,0.0719640716,0.2210003328,0.3977005912,0.4338323833,0.5895246513,0.5253408456,0.424092249,0.6320909144,0.5338967344,0.2061314631,0.469069408,0.3913002454,0.3136071363,0.0717193326,0.2808641331,0.463476291,0.3087098256,0.2325077206,0.5179302539,0.613579452,0.6407850802,0.0309845402,0.1627181979,0.1077774208,0.0810604753,0.3322350712,0.3116308103,0.3180315439,0.2142835898,0.2789259821,0.6837289974,0.7274526803,0.0275229861,0.3851329136,0.3753608756,0.3233558708,0.0347890186,0.0008273052,0.5624987969,0.450965337,-0.0216334958,0.3093762079,0.4149125964,0.5409549001,0.6947245206,0.5921171082,0.5305409446,0.1843614559,0.142657741,0.5118177015,0.4491122367,0.5805272637,0.4644758243,0.3622193587,0.6308009997,0.2371324957,0.3437576477,0.4604956301,0.4200873298,0.2737157308,0.3553661801,0.3538516046,0.0230324259,0.1241576969,0.5193363405,0.0541972349,0.1254255404,0.0496427354,0.374142165,0.2681851701,0.4956698276,0.0966742145,0.5660666062,0.546875651,0.0274561064,0.5438120709,0.090251801,0.4939923721,0.3385244607,0.1934533363,0.206795797,0.4958923717,0.733115053,0.269501724,0.6189342623,0.6465087409,0.0289217776,0.1521978303,0.0082972946,0.0624995161,0.5949171147,0.6754964608,0.151954755,0.6717649254,0.1255944231,0.0229338971,0.3669367376,0.6641078017,0.6418094837,0.1121965689,0.3919796309,0.445655596,0.6711647725,0.0363457469,0.4443981257,0.4184969575,0.4562853602,0.3911525047,0.1882808203,0.6093764397,0.541091435,-0.4305159596,0.6926761859,0.7336808873,0.4665432452,0.4635791588,0.7262469188,0.2022605713,0.5163743543,0.385438833,0.2716384627,0.548249231,0.5300805571,0.5346637098,0.4095697909,0.0936564877,0.0484667248,0.3778333652,0.73131779,0.5723798527,0.3351376291,0.3451189171,0.4734607978,0.0419241128,0.6995868654,0.2854016323,0.265755873,0.2943550891,0.7022789036,0.5755946063,0.5724730297,0.2233708693,0.7033388409,0.4108162403,0.5894009342,0.160405986,0.6336852267,0.3112973245,0.5942168441,0.5827432595,0.625317958,0.6123391238,0.0640378005,0.1621437366,0.6077581013,0.627138928,0.0943305289,0.3786694901,0.5180147047,0.1005497692,0.6507926161,0.2429200909,0.7065988914,0.2342812783,0.1886796793,0.4815667491,0.0802667153,0.3795078165,0.4740107476,0.0173863547,0.0233685383,0.2448803266,0.4028550251,0.1185668529,0.2591329535,0.4952820738,0.6762579445,0.6379417519,0.2982922328,0.6817737425,0.1020090924,0.5653440311,0.6105963416,0.4518821503,0.192422988,0.0423295297,0.7138102059,0.2663761718,0.3152250892,0.4829157438,0.0066223454,0.1163451219,0.1256890679,0.2502166691,0.4223683854,0.1550868484,0.4797850656,0.1863673121,0.5840077204,0.2671151204,0.5592505446,0.6359271745,0.5244173757,0.6950820839,0.280732137,0.648279408,0.571648309,0.1039508527,0.0712284229,0.6322314995,0.3441935433,0.3392234968,0.0063860013,0.162607542,0.6759566425,0.4511507165,0.3031654867,0.1535633951,0.7102986673,0.1521560162,0.3893081819,0.6165437533,0.5676494764,0.7123194639,0.4412753266,0.2041190527,0.6192255132,0.5849347196,0.1404435799,0.151358812,0.7187589822,0.6496459008,0.5314429379,0.4286359543,0.3570817784,0.2102651859,0.6153607966,0.7303715563,0.5497778633,0.5694542775,0.3283307752,0.1219014385,0.0353113567,0.4027854123,0.7226449252,0.3985613689,0.3465928308,0.3081571527,0.4478024689,0.559496501,0.3556543814,0.2481946297,0.7192636294,0.258230374,0.5980134982,0.5427424119,0.2559723096,0.0681514941,0.0836839616,0.0268583019,0.5806113242,0.130848487,0.6900121545,0.5599113436,0.3688006886,0.6876671829,0.3602846262,0.1333462517,0.1747387044,0.7075555612,0.5498515963,0.0585957664,0.1449483783,0.5356894032,0.3880401452,0.1528038427,0.5532020798,0.3232719559,0.1797338007,0.2246788216,0.6234611568,0.669660563,0.1454346771,0.0532860978,0.6997816127,0.5727238438,0.3049107422,0.2373336655,0.7113465313,0.1890005306,0.1893738787,0.4820002793,0.4648172464,0.1638639935,0.1805977794,0.2799496145,0.3867369486,0.6388855275,0.574200591,0.073991633,0.7122879529,0.2365093613,0.5696981926,0.2185774508,0.5638812223,0.4551602379,0.3630254742,0.3859470708,0.7285409118,0.1032934062,0.2027246534,0.2337960118,0.4974010404,0.1435158524,0.127783103,0.5295066553,0.4904133168,0.5157660291,0.7284088201,0.3018867663,0.4156146219,0.0371769908,0.4444077605,0.5861839743,0.4498282677,0.0743018428,0.7334305482,0.0241509846,0.3179944698,0.6473883758,0.6207186687,0.6653524028,0.7305781053,0.0434700081,0.0997684013,0.4873235124,0.048909637,0.3392016272,0.6057794336,0.3261969181,0.3216726314,0.613874995,0.0651703394,0.4480196759,0.052145973,0.7150890146,0.3759510682,0.3227619186,0.0266561308,0.5579981041,0.0022699025,0.6759543706,0.185400277,0.0776832368,0.114639238,0.714152393,0.1678809291,0.6281376247,0.2171823028,0.279444415,0.0498368195,0.4518432993,0.2680226214,0.6131424434,0.4762452964,0.1815859888,0.3677919506,0.6891120768,0.055081867,0.0679191593,0.0066953142,0.6117312223,0.1843769028,0.2693991492,0.2249141966,0.0185933367,0.414734211,0.1005383764,0.1719933656,0.2686425306,0.4245722719,0.0962451159,0.1094975812,0.4746516751,0.6068903212,0.1424391378,0.0310398642,0.1667347355,0.5109720904,0.4559229654,0.7325663081,0.1201867601,0.5453573109,0.528830983,0.1792894099,-0.5190741069,0.4907823675,0.6818029516,0.1393056623,0.1319655086,0.4725137425,0.3530087119,0.546370828,0.5741493591,0.4393137669,0.13912784,0.3722471532,0.6977442912,0.4512553524,0.0828025329,0.3204695446,0.7176792258,0.4142225072,0.0043242397,0.5655084709,0.1239931357,0.5175807682,0.1962415675,0.1623626009,0.4339058622,0.0131514322,0.5241190529,0.5003586758,0.1260009076,0.5300749076,0.6954186111,0.63609009,0.4882079671,0.3454471876,0.1784518964,0.5399618785,0.5715181942,0.4096091544,0.6498875149,0.5414993948,0.1206468756,0.3656691421,0.40940475,0.2476503648,0.2744465707,0.1737517675,0.050929732,0.4909598119,0.5176595523,0.3219362562,0.6142200039,0.3866122019,0.7344600366,0.0909719286,0.5503700117,0.317810806,0.5407731812,0.2162322237,0.6893577601,0.662974815,0.3284289823,0.7273666315,0.3687949747,0.4459085453,0.2962007025,0.5061761563,0.6107301554,0.4878207189,0.521339923,0.6333423376,0.1998305919,0.3776906593,0.3273644449,0.678333837,0.7123344879,0.6436558518,0.1872672476,0.6488789372,0.2976594268,0.4270585386,0.5988936391,0.3449249681,0.6178494584,0.2426093244,0.7127982411,0.423022205,0.0508945754,0.2973532867,0.678871971,0.3351812742,0.1191798926,0.4866143,0.5511190627,0.1768274239,0.4829672249,0.4526094402,0.5008140349,0.700256504,0.3247505841,0.4109506201,0.0579831832,0.3018832105,0.72916888,0.1555378943,0.5344954535,0.0994256614,0.6385799899,0.1719939805,0.0648372944,0.4083243041,0.3458186952,0.6030135823,0.3788794826,0.4829570456,0.5717763114,0.3746760229,0.659124663,0.3568323757,0.3428767483,0.2261573092,0.1298037908,0.5499469,0.1063070905,0.1122421309,0.197657942,0.101466653,0.4342726789,0.6027773187,0.2215468642,0.6765321805,0.6162022961,0.2573720938,0.6548455325,0.5095873937,0.4949430467,0.1544201006,0.0443426686,0.2151199616,0.4342777336,0.3160493552,0.5516307787,0.1445346123,0.4533305581,0.1185964055,0.2428609918,0.6541508231,0.6942682977,0.170310531,0.3469610385,0.1196947011,0.0080823205,0.3366677519,0.5282959136,0.32610156,0.4387848975,0.5448004934,0.4329375765,0.5943039525,0.3663114299
   0.1420612125,0.4867313412,0.4132556357,0.6735794111,0.6350068852,0.0448467809,0.6513856369,0.2982249772,0.6693300697,0.0034929046,0.2059921201,0.4091272512,0.3568285343,0.4260872444,0.2258425147,0.0648142759,0.6698648092,0.5261446431,0.2584135569,0.3194162686,0.1318131242,0.306216931,0.725428609,0.6703616935,0.1983323148,0.471716358,0.6019619781,0.3730749848,0.1441794267,0.6568644363,0.4349704727,0.6931096975,0.2050526956,0.3620210564,0.5100578521,0.0702466002,0.4533856669,0.523717741,0.1265941602,0.1074230264,0.246605854,0.3138066216,0.5991402464,0.5285986209,0.5842363544,0.5310986633,0.6051269116,0.1222873578,0.393437729,0.6805342458,0.1344140594,0.4812583859,0.3465247559,0.644403203,0.0729764157,0.0286549964,0.3408602846,0.6243129335,0.2680522877,0.5277372207,0.1379674634,0.3174899652,0.0363155537,0.3334572033,0.6975070599,0.6277159166,0.5546204913,0.7041504789,0.6412487749,0.4985540873,0.2268430821,0.2845365149,0.5623464262,0.4098848693,0.57617921,0.1902579018,0.5371670574,0.5238958392,0.1761192345,0.1690259453,0.4149095898,0.0978272316,0.2818420881,0.0537759878,0.6141272959,0.0519635314,0.5821318739,0.540023974,0.3792400098,0.16790795,0.1954036676,0.5423984285,0.0077144088,0.1717871635,0.1563000885,0.2846657449,0.308569913,0.2754863773,0.6193536936,0.0839869401,0.6835460799,0.213453529,0.3163477592,0.049640571,0.2206570637,0.2206540647,0.6206555426,0.3936261259,0.3736008495,0.228884023,0.7326588441,0.0489987775,0.5343046816,0.5903727643,0.7136731033,0.1761975041,0.0215900324,0.147026781,0.0461628765,0.6114773707,0.2687617548,0.0649576289,0.0832534635,0.603198588,0.4240306344,0.4934225424,0.057536194,0.0157269374,0.3894810543,0.5539340881,0.7327760026,0.2653952146,0.4978581225,0.2945523814,0.0880731484,0.5483203153,0.5195622593,0.5785969255,0.1942773714,0.202381355,0.2154028712,0.4381243642,0.0649887101,0.0258369199,0.2509525683,0.2180854279,0.2831355119,0.0247581692,0.3845932996,0.4301432856,0.1362143319,0.7053514273,0.2712147317,0.6139545362,0.6461651458,0.2064674052,0.4740293812,0.4755844842,0.2697758413,0.67283481,0.1787339066,0.3606083687,0.5350125312,0.0324173049,0.2855192861,0.4791800705,0.531072302,0.0020323137,0.3539588183,0.1307421348,0.0160934428,0.0189254617,0.4137120125,0.2135743695,0.706077745,0.3980559835,0.7089532756,0.5560702948,0.1136269474,0.1332963574,0.2989359467,0.0513857981,0.3320206521,0.0546741337,0.3687303423,0.6618918588,0.0934915754,0.0524063918,0.2281901637,0.0776508134,0.3812144835,0.3678358243,0.3125434805,0.6558028866,0.5903545528,0.5195688551,-0.6401004242,0.0020753274,0.6631116966,0.0896620634,0.1403491686,0.5349623529,0.106958934,0.6242377201,0.5255039159,0.2652208985,0.4502650171,0.5619244329,0.1985137874,0.1534008329,0.5845017703,0.006192852,0.4231387415,0.4980401958,0.4438638212,0.1908941707,0.5982152535,0.6832047492,0.3670901292,0.4405295456,0.5454526066,0.5159562813,0.6962719848,0.6978747944,0.6276573726,0.2228079783,0.2015779675,0.7074218521,0.1911468903,0.3751359601,0.3391894498,0.7296496661,0.0339177918,0.0568404274,0.2275348757,0.1924307741,0.6836875582,0.6215564563,0.7313462596,0.4678654387,0.1520084459,0.6960361309,0.7103922349,0.3342594031,0.1075031977,0.3652237962,0.5672631681,0.5545374718,0.096958519,0.1510548914,0.306662587,0.5856938747,0.1165408814,0.5701526802,0.3951321595,0.1926652934,0.357700286,0.4499432388,0.5636826043,0.4670239844,0.4224262695,0.2500960468,0.2982839174,0.2015364031,0.5391412211,0.6071471482,0.500405454,0.3972467627,0.2054323212,0.6935889543,0.455341276,0.0515612067,0.2770794703,0.0973627839,0.6505348802,0.2394420743,0.0990635877,0.6212276397,0.4853111508,0.1817564546,0.0147162541,0.2480360008,0.0462906683,0.3276634998,0.0561246333,0.7128718673,0.2962314245,0.4658995958,0.7230521506,0.7225739535,0.0005591205,0.1060765775,0.3718094533,0.0394554081,0.1848049091,0.606932344,0.3586284839,0.2339996358,0.0068977765,0.4981622902,0.06697245,0.2594412274,0.3279853249,0.3221188317,0.5021021782,0.5022919061,0.7198557192,0.5954175672,0.2753535261,0.4828424839,0.7280708851,0.3114692834,0.7181392006,0.1327505451,0.4397866427,0.5518479456,0.5779074288,0.5040250693,0.6475625259,0.0307550508,0.3401256093,0.6274922084,0.4328517042,0.0992305959,0.7150768196,0.0932801457,0.4365219621,0.2581085082,0.3178545108,0.5285749418,0.7233224976,0.0277284686,0.4072262466,0.6330686932,0.0016198924,0.2155231033,0.1598807494,0.2730931509,-0.0822981296,0.1675888346,0.5081782933,0.1030496196,0.1337323063,0.5483701551,0.6522619919,0.0187512,0.4607462868,0.1117991316,0.0632488803,0.5880512437,0.5750397137,0.0830680472,0.388895518,0.1320003356,0.0369734845,0.2660286677,0.2296771311,0.5330650351,0.6742514142,0.2436721636,0.1092927789,0.2219764127,0.5942547278,0.2598308583,0.4249489726,0.1253198909,0.5615044213,0.2604539268,0.3013493249,0.152312111,0.1124638041,0.0383891055,0.2385611519,0.4969421647,0.2221330542,0.3653607067,0.5414135061,0.0187690928,0.6784946521,0.3005449193,0.2056793303,0.4564522938,0.660869603,0.1580201191,0.3904124745,0.6835842779,0.081205112,0.6059088313,0.6170359402,0.5332418432,0.4850768774,0.1312823884,0.3759690093,0.0132956255,0.0464261696,0.2862192447,0.6694192978,0.7361930095,0.5679992613,0.5364468851,0.3016162931,0.0356713629,0.4132431869,0.11551352,0.4452233284,0.7058768138,0.1782631561,0.0536274574,0.4095264869,0.4318748894,0.2899031644,0.6683782918,0.292454952,0.0768055414,0.5507367691,0.5991884892,0.0602089407,0.6019299445,0.1623617135,0.1079106486,0.4619040806,0.7326932101,0.389687844,0.4827301908,0.5603017095,0.2170739856,0.5855448299,0.2209144309,0.3599405594,0.3017732128,0.3840570435,0.289115447,0.5419012889,0.347920843,0.6362373605,0.2430997319,0.6418789594,0.3010467093,0.1210780676,0.3838935704,0.4669244306,0.5536434449,0.2270993717,0.1800676,0.5078928219,0.2329504202,0.4274666879,0.0564117969,0.6093516401,0.2291918211,0.2548243832,0.1633305075,0.4229020379,0.6750813879,0.0479487147,0.3978336057,0.6194198718,0.067825815,0.6313453632,0.240061884,0.0447631982,0.291196858,0.0585853736,0.6753785866,0.1202873126,0.656918537,0.1134724759,0.0240829,0.4774790859,0.5982284475,0.1375986448,0.2423728953,0.7082828057,0.3502786572,0.5575200425,0.0291283328,0.2655211445,0.1034057253,0.4593910201,0.532492219,0.5555356145,0.6361326155,0.7342741936,0.0613043019,0.5059917094,0.1156542787,0.330945106,0.3977538576,0.7151831823,0.1545669637,0.374419497,0.542375126,0.025293753,0.5312402554,0.3398147515,0.3280877682,0.6383654962,0.6812449005,0.6844834307,0.2996123011,0.047629945,0.1648722158,0.2376007631,0.3426169093,0.6947081626,0.7076583452,0.2774975348,0.0079662409,0.4067066454,0.1792078074,0.4328309614,0.0939940429,0.7227103504,0.3029655654,0.3761285411,0.0332267895,0.4679538177,0.512169374,0.4218451445,0.337126347,0.351848208,0.62063012,0.1889178647,0.0207533586,0.4373658067,0.0068014274,0.1904253095,0.6789061323,0.5978638556,0.0089913377,0.3679781235,0.3937547103,0.3901291965,0.0854440323,0.4924231219,0.493232979,0.256407054,0.6525643199,0.2358517965,0.2174414278,0.4280969411,0.2105637445,0.3051703049,0.4955973198,0.1702821986,0.085504929,0.4298702698,0.0624576941,0.4039830042,0.0716890578,0.256181652,-0.0607979667,0.6437400842,0.2840700539,0.7023134734,0.2733201212,0.0436850128,0.0549151053,0.3785663201,0.4182276363,0.2919998673,0.2100824109,0.4741129906,0.6976188588,0.4822608585,0.5732237056,0.6214209082,0.7320796592,0.3794729775,0.4616346971,0.3498252998,0.014662974,0.3120120536,0.2835099573,0.2055746256,0.2591324155,0.4724830514,0.2642440287,0.0398325713,0.3510895743,0.0464573655,0.0285715808,0.2003649958,0.347661807,0.1387954004,0.3610178953,0.1033956155,0.2244457477,0.3656951218,0.3781673214,0.6247469676,0.4498202744,0.2527043558,0.5044691182,0.3808649826,0.2822947689,0.3139830236,0.7121081946,0.499009502,0.4351645774,0.594431962,0.321474273,0.6874953307,0.0907888406,0.3315382044,0.6077449267,0.6198285527,0.4567539646,0.1908435886,0.7234388603,0.6877640533,0.4978898256,0.4572414354,0.0595022965,0.1778418843,0.4670377041,0.4003571996,0.271962955,0.4720441156,0.504021837,0.4254278289,0.3975310248,0.1559224364,0.1919249839,0.6184352681,0.2426870036,0.5957119663,0.5876858915,0.4628742955,0.5919483268,0.109354161,0.5555477079,0.2312654326,0.6458263257,0.5248886341,0.314112781,0.3032678719,0.0156363639,0.5498751881,0.3676268771,0.0081420962,0.5778376267,0.5089058281,0.3333044167,0.0123322989,0.5108894677,0.4523159955,0.6812670614,0.7260100867,0.260399291,0.3001563288,0.6461352761,0.5091329219,0.0528475103,0.4629176245,0.6907191213,0.6861092621,0.0975884568,0.1096561587,0.457797094,0.3802544806,0.6821163683,0.4216495822,0.1545875692,0.5950228208,0.3674471127,0.5331013934,0.7031565108,0.4971014512,0.5371210062,0.276304934,0.6834489348,0.1629795425,0.1929438049,0.5757362257,0.202107758,0.1447578632,0.3915469261,0.3856709055,0.6243814074,0.4152518822,0.5132308308,0.4531853218,0.1542193984,0.2232514297,0.0509543439,0.6162681905,0.5531794353,0.1200951145,0.4943054248,0.5636122838,0.1978026104,0.5437824154,0.4939368557,0.0306862089,0.4820241764,0.6973055168,0.5694011274,0.7307061308,0.3744642767,0.5207512253,0.37517282,0.6226027338,0.2698444557,0.2778883075,0.4435099441,0.3187556829,0.6936986264,0.2245150834,0.7047977226,0.3258983956,0.1772841927,0.4848113984,0.4652946138,0.0051902276,0.4867949867,0.4168661589,0.088515303,0.4788742084,0.1652533982,0.3453250205,0.2243303645,0.2883077497,0.6599292414,0.3753408464,0.5893464353,0.0827250588,0.4025175262,0.5365873128,0.1992839314,0.0932203071,0.3568748138,0.5977790451,0.3218824962,0.1940979104,0.4765946904,0.1080304718,0.6832054879,0.4961080781,0.347098566,0.7238167991,0.5999771317,0.7332574243,0.1416513315,0.4127810821,0.4974174257,0.3591948809,0.5990825627,0.1329670534,0.2048560348,0.1594304662,0.2023736459,0.2327490011,0.3990178562,0.3118503407,0.3040417792,0.0253982905,0.1825177891,0.5478281194,0.1074945713,0.1438216896,0.0687534758,0.0290519584,0.6981361708,0.5689669581,0.0480489545,0.1657503413,0.0578519289,0.4740143475,0.5807619518,0.4555452536,0.1683148373,0.6746814827,0.3363003239,0.0176071565,0.1520621981,0.2221708007,0.1362311641,0.7140021403,0.0334511795,0.3720813533,0.1095018411,0.1962506259,0.3240903533,0.0700977473,0.4860140447,0.2408080608,0.543536855,0.1320734827,0.3106680527,0.3586660322,0.592282929,0.2851107264,0.4089325238,0.6748450278,0.7015261559,0.5860216805,0.4686636382,0.4163925185,0.587077599,0.6964694869,0.6672924109,0.7358124729,0.2306309738,0.4659440877,0.0120169257,0.6610485377,0.4546079681,0.5391638301,0.1204655156,0.343372945,0.7210414351,0.675303076,0.166777371,0.7294556064,0.2622371968,0.5614603839,0.4215785637,0.21718168,0.2282769403,0.2913740017,0.3884159405,0.6793311665,0.3714751661,0.4026046203,0.0828728604,0.320829823,0.083062495,0.4282730628,0.4007379733,0.2659205674,0.2725485949,0.6335709142,0.1218413339,0.6968488427,-0.5687430543,0.405553597,0.6870990915,0.0587747648,0.1872585711,0.6260753304,0.2325273663,0.322851405,0.1298442509,0.3102715984,0.3551084603,0.1208080574,0.3567433961,0.5380364898,0.6976092551,0.1136078895,0.6222482172,0.6574402848,0.3177831474,0.2570782686,0.4796015181,0.4218784073,0.4009686033,0.1755946504,0.3128309456,0.3485172432,0.0334954304,0.1330751524,0.4770032082,0.6932656467,0.6328274705,0.0164649703,0.4292754404,0.2034605368,0.5347444526,0.6923080831,0.263178831,0.2807881431,0.2600856129,0.2854049126,0.0628065423,0.3777401049,0.1469141015,0.3859115545,0.066148166,0.008309119,0.4233688812,0.3856239827,0.2547305674,0.0445483534,0.4141155767,0.532317115,0.0817863413,0.5340111042,0.2828250915,0.4773129386,0.2486565425,0.5418538593,0.1638504739,0.4314528732,0.6378552126,0.5566736466,0.1329985393,0.3711385759,0.4335806553,0.1115660475,0.0146594456,0.6021142259,0.546387597,0.4473626686,0.4053021395,-0.4537224449,0.1741458755,0.2104871236,0.045559729,0.2905060614,0.3445923253,0.4464482983,0.7266331127,0.1621633861,0.2661913544,0.105005296,0.043178988,0.6221172719,0.3697130542,0.4253109076,0.4409081846,0.4714477494,0.0550832674,0.0974414169,0.1430617109,0.6496356924,0.7362445725,0.2950220651,0.7114691849,0.6726814802,0.0596494309,0.0383733875,0.6022138277,0.2467159198,0.1574223947,0.3284055294,0.4052370393,0.5508480013,0.5074453484,0.5845927529,0.3605414106,0.4144312581,0.3111532137,0.1095295582,0.2377658608,0.6754717413,0.3641631578,0.1170286585,0.1247317148,0.5890211038,0.5405164898,0.1641021794,0.3835927736,0.0455179677,0.1511686286,0.3018325164,0.4263341861,0.0883819868,0.2678467503,0.1977539291,0.5074961633,0.5902147084,0.2457202769,0.3207011364,0.0193538369,0.7082618707,0.172537502,0.5733311132,0.3093154474,0.1629065087,0.5355072358,0.4865860868,0.1667876875,0.2985172255,0.7315440902,0.5859482099,0.2964984978,0.0374790364,0.1185423868,0.0579341605,0.6649124352,0.4751437228,0.5880401247,0.5351583802,0.0211606017,0.0750385709,0.3423962302,0.025236555,0.1512366409,0.2548792985,0.3436875036,0.0482828388,0.5178084555,0.5739026436,0.6679094669,0.4700987546,0.1696549652,0.6092700687,0.6152452001,0.0224941715,0.7044404637,0.5412023522,0.5937400269,0.6929573862,0.1304388677,0.194424374,0.3192129739,0.27145822,0.2455109554,0.7203110094,0.4410059166,0.1790821318,0.6821614549,0.2568626956,0.5958517327,0.6123656659,0.7194439657,0.0076916933,0.6096500186,0.1295627211,0.0555396648,0.0763964631,0.0833006372,0.0568094105,0.5409776094,0.5898610743,0.5752147414,0.3127957418,0.5280555173,0.5782076949,0.5778624043,0.0001591614,0.1783368383,0.4916920044,0.5517761706,0.1690696142,0.3634411757,0.0527138162,0.3217499848,0.5493506095,0.4760962699,0.2820660018,0.0932426557,0.0284700267,0.5266755242,0.7200975395,0.2143772032,-0.0723781673,0.1806608376,0.6512199801,0.3804975223,0.1163344111,0.0294494831,0.3884831189,0.5519351504,0.5867190359,0.3772321198,0.2234187147,0.606998337,0.5860215027,0.3446456868,0.3433484658,0.3030372455,0.207983608,0.4650425993,0.0191579118,0.1934449514,0.2599240804,0.4765055964,0.0124628091,0.3173166335,0.5647013505,0.223957466,0.403952515,0.2064810285,0.0740403266,0.5553976128,0.0870680513,0.0876683073,0.6265844321,0.0541103385,0.4512922463,0.4129418853,0.389163274,0.1074700137,0.356515847,0.6235475415,0.102304984,0.2315887979,0.0996448776,0.403770969,0.277741808,0.3141320521,0.4616175025,0.3965651221,0.6546701881,0.2307538163,0.2187881944,0.3061089096,0.403123554,0.4317400018,0.3739265153,0.5040885529,0.1002828955,0.4160101908,0.6559363038,0.5451973144,0.5871425531,0.1448856288,0.0400475265,0.5634855841,0.3641378041,0.6489879663,0.1203583664,0.2981323297,0.6600400519,0.3247393067,0.6967293825,0.2221703193,0.3517978092,0.6394398997,0.5024435866,0.234438943,0.3788736591,0.616835836,0.4409391718,0.4235300861,0.6429286533,0.5544396414,0.3643566147,0.1658996432,0.1535067633,0.4003326847,0.6312528958,0.1923389595,0.1884379491,0.5808567956,0.0413590045,0.447665176,0.1702535226,0.4607766509,0.1910453936,0.0365859561,0.0091232323,0.4811820465,0.5654530455,0.2785690641,0.0130550877,0.0125352604,0.5231442321,0.1528592355,0.2114035464,0.3631665441,0.4504373639,0.6603215705,0.3408872525,0.4835064849,0.631918502,0.5635895915,0.6278473294,0.4562924897,0.3304015591,0.4733123192,0.4232421316,0.23552609,0.4722743016,0.3928956129,0.4176714056,0.0331872056,0.3691954836,0.2835938659,0.6688486039,0.6526869401,0.419561199,0.1622776881,0.080027429,0.1238938796,0.0721160754,0.5348553727,0.702418184,0.1945248005,0.0877155654,0.3442785201,0.1328985474,0.4199427198,0.2094931663,0.4419256301,0.3206606233,0.5301500779,0,0,0,0,0,0,0,0,0,0,0,0,0,0,0,0,0,0,0,0,0,0,0,0,0,0,0,0,0,0,0,0,0,0,0,0,0,0,0,0,0,0,0,0,0,0,0,0,0,0,0,0,0,0,0,0,0,0,0,0,0,0,0,0,0,0,0,0,0,0,0.6249271059,0.4161413495,0.2712064291,0.4278960296,0.2481352591,0.474896592,0.0156846579,0.0965403725,0.3651446584,0.6711847978,0.1118484246,0.6810715579,0.0199179851,0.6798288884,0.0989952165,0.3567786575,0.592149189,0.5671882667,0.6490723215,0.7201081924,0.1058278105,0.2506186947,0.525963138,0.498255289,0.1102050306,0.5596990922,0.6730116249,0.1138155368,0.6451432293,0.3391569387,0.093194809,0.0560644727,0.0682092835,0.1172036621,0.6237986196,0.3133235404,0.6245307152,0.0046460636,0.3557338122,0.3365331007,0.2568391774,0.6699936075,0.5576130451,0.2619642228,0.6037937907,0.6382148906,0.3090809533,0.711169672,0.0275841989,0.0563406213,0.0068910758,0.5107514847,0.4703155756,0.4656640825,0.5319740507,0.57644625,0.5668764927,0.566820768,0.481630313,0.4638582771,0.5906937207,0.5978111599,0.3094254709,0.3528257684,0.387948085,0.1935515345,0.7155971626,0.2569007422,0.4770963136,0.2626434395,0.2986304282,0.1278147092,0.6167504086,0.3694880826,0.1965181188,0.1904612301,0.0897813692,0.1632592463,0.3905723642,0.5007587699,0.0286917236,0.1653257599,0.0017092935,0.2020591707,0.4187967274,0.6154070256,0.6397461634,0.2655371013,0.381151947,0.4879863842,0.2429436643,0.5970346261,0.168269975,0.059592994,0.3265860755,0.1790650272,0.194610696,0.1541086773,0.0988604728,0.3882243531,0.7000191808,0.4446893688,0.4995305227,0.5968645473,0.0528359262,0.5276235009,0.0995003008,0.5982244149,0.5461801152,0.1839150823,0.3711187005,0.4196918179,0.1004574833,0.234050356,0.0138285997,0.5760861122,0.6671816774,0.3016747009,0.4915154658,0.6461948571,0.1809317334,0.6092200266,0.302864369,0.0939995584,0.682413371,0.5035036442,0.548371488,0.1324686453,0.2500709095,0.1480038298,0.1284927579,0.6875727861,0.3950196759,0.3248678956,0.0262224097,0.2024900088,0.3238386958,0.4146742283,0.2413620192,0.6052741299,-0.5348849223,0,0,0,0,0,0,0,0,0,0,0,0,0,0,0,0,0,0,0,0,0,0,0,0,0,0,0,0,0,0,0,0,0,0,0,0,0,0,0,0,0,0,0,0,0,0,0,0,0,0,0,0,0,0,0,0,0,0,0,0,0,0,0,0,0,0,0,0,0,0,0.491052222,0.0370712002,0.2985390522,0.1210736113,0.5981252115,0.4908875332,0.2816088843,0.5366926173,0.5223313819,0.4847801318,0.2332374598,0.1853301534,0.6480890635,0.641547259,0.0721562301,0.3646618508,0.3440994609,0.616085262,0.2519112366,0.6778747216,0.6383149266,0.371819986,0.3101406838,0.5982786924,0.1322315478,0.367916475,0.3963307503,0.7083784052,0.0575641439,0.2850540082,0.2148100706,0.031131224,0.020024439,0.1010986838,0.1197048858,0.5286724703,0.1881012283,0.1694016181,0.2995330103,0.3278506179,0.0303191011,0.098741753,0.004765926,0.436507482,0.6450943778,0.304731541,0.1196961153,0.4004753789,0.05523153,0.6664511002,0.401493421,0.5186022152,0.0915009668,0.2497345052,0.6985060026,0.2505080744,0.6078785428,0.2440420265,0.6402339377,0.4916836939,0.4998847786,0.5463497889,0.2237199321,0.6373366839,0.1999009034,0.6639226993,0.4916616283,0.5237484285,0.0816418725,0.6923762579,0.6514432658,0.2670143832,0.5319074277,0.0089790262,0.6744397028,0.4903257632,0.5923165095,0.6233156446,0.4610080739,0.3130324273,0.5584967527,0.6051122554,0.1134033977,0.3518936578,0.0629067153,0.1366635112,0.2166719401,0.2846620916,0.3561496632,0.695389298,0.0981339568,0.1895801204,0.6344652171,0.2526399144,0.1487758237,0.4662608146,0.545840946,0.5780129393,0.4173028626,0.0598120151,0.0204070023,0.5837905382,0.1748182529,0.3548791999,0.5202459381,0.053104899,0.1441440792,0.0089648447,0.2424537767,0.676075012,0.6946387736,0.021531055,0.3489446632,0.2820909234,0.054306791,0.0478913039,0.3607063481,0.4762254322,0.5095904283,0.678359891,0.5918978552,0.2536902795,0.2298923953,0.066597926,0.7104465268,0.3115266282,0.6626312564,0.1927588932,0.2044052833,0.5995149182,0.2936654529,0.5712998024,0.1583052084,0.2269940785,0.086477491,0.395367846,0.112829885,0.2630880711,0.5174345864,0.2554984047,-0.3472192592,0,0,0,0,0,0,0,0,0,0,0,0,0,0,0,0,0,0,0,0,0,0,0,0,0,0,0,0,0,0,0,0,0,0,0,0,0,0,0,0,0,0,0,0,0,0,0,0,0,0,0,0,0,0,0,0,0,0,0,0,0,0,0,0,0,0,0,0,0,0,0.1484529879,0.1547814078,0.6367459498,0.0168570568,0.5692077466,0.0642880877,0.3069133603,0.1627837532,0.3557101084,0.0548519923,0.5729725288,0.6877650227,0.3935447651,0.3498492806,0.2776079772,0.2482038028,0.4872660199,0.4376653493,0.7055521524,0.4008274933,0.2264571228,0.0410669874,0.109331892,0.1038658327,0.5293834103,0.5107396789,0.2049134881,0.2968132888,0.6348304365,0.1404437661,0.7178855116,0.1901693233,0.2070391649,0.6178606476,0.3860008305,0.4558070048,0.2884849158,0.2624564181,0.0501116362,0.0355728549,0.5903596211,0.1614250817,0.016237986,0.3959632839,0.3412171389,0.5814469231,0.4682816086,0.4640684758,0.3654425055,0.3859000714,0.5655323762,0.5725647602,0.4898946235,0.2989075648,0.2029504958,0.3077073291,0.3243340291,0.0742452883,0.0021346448,0.1900098066,0.3565683202,0.2545416136,0.2427626275,0.324632769,0.2250315218,0.5306927035,0.0989180211,0.5295416736,0.5366220404,0.1682390929,0.4846339156,0.5254496912,0.4939282501,0.325266279,0.4421321269,0.0857442868,0.0010741458,0.6628375527,0.277510577,0.3813301137,0.4980353728,0.1420603921,0.1385712922,0.4557852297,0.4313321916,0.194023225,0.6340933241,0.0225571604,0.4476372316,0.0105796901,0.256334061,0.2548302025,0.1039382306,0.2842986365,0.5143319547,0.7166020693,0.4606350762,0.2425584478,0.2147429428,0.69180195,0.5310471174,0.1677714401,0.6903613751,0.2089482517,0.6021792264,0.2594351015,0.2801552094,0.4396922526,0.176142298,0.3760190244,0.0202190912,0.3373109483,0.1210369065,0.4995712807,0.136177332,0.1875432086,0.2546519438,0.340407914,0.165503522,0.494640294,0.057080153,0.5080394471,0.2732535042,0.6416353278,0.1860259952,0.5215218965,0.3332566313,0.4848848969,0.586444179,0.2019880278,0.1347650648,0.2924212808,0.1304721372,0.2744063617,0.6027187693,0.417481242,0.5257969199,0.661464723,0.1253952681,0.1657048846,0.361209157,0,0,0,0,0,0,0,0,0,0,0,0,0,0,0,0,0,0,0,0,0,0,0,0,0,0,0,0,0,0,0,0,0,0,0,0,0,0,0,0,0,0,0,0,0,0,0,0,0,0,0,0,0,0,0,0,0,0,0,0,0,0,0,0,0,0,0,0,0,0,0.1563624282,0.1074315897,0.6198558793,0.1034391873,0.2544020086,0.3365443597,0.5883462888,0.3290247695,0.2467828274,0.3353040129,0.398210908,0.3480986034,0.1240628212,0.5690608838,0.4340492554,0.3149441605,0.6602744242,0.1779012208,0.4297998491,0.5639209677,0.0555052568,0.6414029419,0.1147930897,0.371136692,0.5127519088,0.5680363688,0.0404996421,0.5915313941,0.5532844799,0.1517347708,0.3834790305,0.0967483886,0.4393958129,0.6467326385,0.2842144902,0.3040681082,0.4449832519,0.6506966884,0.0172742335,0.3722135207,0.233966382,0.0515788224,0.1092929543,0.5125730069,0.4310289987,0.3737528933,0.6825046953,0.2773694593,0.6769910071,0.4518513515,0.4971183348,0.2551297398,0.0914685938,0.00356881,0.042753672,0.5756029185,0.0399650225,0.3577356902,0.6109974076,0.0558945953,0.5740787303,0.591721609,0.5325713912,0.3501902505,0.4664116392,0.5015507285,0.4797235953,0.7166499951,0.1136992714,0.2043219392,0.0663067441,0.2574045851,0.6463636196,0.4692995014,0.3872682095,0.3721290193,0.0189280946,0.365926217,0.4024997306,0.0649042755,0.4478498442,0.6333935637,0.3086707843,0.6579995258,0.6995996003,0.3643781319,0.5156975753,0.6929192304,0.0552773431,0.5276115801,0.0263189488,0.5502252361,0.6809933189,0.2321277476,0.2333958516,0.2306697698,0.1567386088,0.1386744966,0.0196328467,0.6305658768,0.1860210463,0.2078362354,0.6115220069,0.2788633165,0.5222799092,0.667258593,0.5152882367,0.3055580935,0.2235123815,0.5369642586,0.6904954308,0.1848300358,0.2681041506,0.0485233453,0.5949129699,0.2710020531,0.5677674783,0.5994577196,0.5562444205,0.2113356006,0.39580061,0.3496658987,0.1591520991,0.3257604332,0.1949382741,0.1408766673,0.6070448317,0.2252329136,0.717269468,0.3267525004,0.5117075666,0.136702053,0.3143505225,0.5127286875,0.0956639573,0.1548452683,0.0524666846,0.721075802,0.2289187052,0.6350616455,-0.555998007,0,0,0,0,0,0,0,0,0,0,0,0,0,0
   0,0,0,0,0,0,0,0,0,0,0,0,0,0,0,0,0,0,0,0,0,0,0,0,0,0,0,0,0,0,0,0,0,0,0,0,0,0,0,0,0,0,0,0,0,0,0,0,0,0,0,0,0,0,0,0,0.4003199534,0.3613885858,0.7081165415,0.1086698214,0.2674812156,0.4784758599,0.2970387631,0.1101420786,0.1791671096,0.3077065015,0.1376832068,0.642132345,0.2537416934,0.2175516245,0.2241888901,0.1914866759,0.3586817928,0.0029579192,0.3370496741,0.3814041812,0.2936168634,0.1241341122,0.3705565727,0.2316654579,0.6777064632,0.3205099462,0.3756038427,0.3327872363,0.6271878818,0.3820396511,0.4713194762,0.182330249,0.1027589051,0.4251932243,0.497823248,0.4962412095,0.4660001939,0.7106521604,0.6473347632,0.0247624083,0.3249395205,0.1441076739,0.1061694489,0.6827856432,0.1201408731,0.3873076517,0.4482108766,0.2996209662,0.3789175157,0.0089356883,0.1255795606,0.430338151,0.3934075805,0.5200428215,0.3278972155,0.5639881468,0.4936637802,0.5961092409,0.1239494021,0.4110019251,0.1287984487,0.1852973511,0.3467903569,0.4236255532,0.272858229,0.085297467,0.2257330742,0.6875264955,0.1826259388,0.5941620503,0.4551332578,0.031497138,0.2950384283,0.6821626126,0.7185416823,0.0158747317,0.638906356,0.6037297774,0.3987626274,0.0102797907,0.5294502411,0.09645635,0.3702650972,0.5712214873,0.6246801421,0.2626295056,0.354924358,0.2154058215,0.6890428141,0.0076624036,0.4271770216,0.2864902434,0.16535606,0.3974927964,0.6999963321,0.5434145841,0.6067613042,0.1327929553,0.5184015377,0.6317155659,0.0917248046,0.1372876868,0.2129182522,0.6766694654,0.3448187555,0.0873756628,0.2920982554,0.1174648736,0.5200875796,0.2253911808,0.1357689395,0.1652967664,0.6485891136,0.3836330863,0.5852090586,0.2682547915,0.0504734848,0.6673261334,0.0462811202,0.4275956781,0.2077463571,0.5843608231,0.2737055184,0.4825243706,0.1730158264,0.2032495108,0.5401989576,0.3286067991,0.077460693,0.0270837514,0.2835980097,0.2270676665,0.0706115131,0.2236952634,0.4821887628,0.2670974227,0.5379716596,0.2193486449,0.4469085012,0.496201583,-0.2989311593,0,0,0,0,0,0,0,0,0,0,0,0,0,0,0,0,0,0,0,0,0,0,0,0,0,0,0,0,0,0,0,0,0,0,0,0,0,0,0,0,0,0,0,0,0,0,0,0,0,0,0,0,0,0,0,0,0,0,0,0,0,0,0,0,0,0,0,0,0,0,0.0529689813,0.5761515615,0.2973228693,0.3845650389,0.2491551662,0.3220839232,0.2541768989,0.0066101584,0.2892745095,0.6528639803,0.360925175,0.1615551457,0.5466651696,0.1257891843,0.3557986808,0.6164696657,0.0436180021,0.6218760602,0.0612014754,0.2107454362,0.2078637091,0.268115494,0.2010271156,0.3333411902,0.0763770153,0.0620570451,0.6433431512,0.4597293992,0.6908233611,0.3283355085,0.700876549,0.3048291018,0.1990681617,0.2643892586,0.4795492999,0.396969612,0.012893201,0.653433478,0.6143043719,0.2747078779,0.4147129373,0.4543447839,0.0716248728,0.0256883546,0.0006331186,0.561645082,0.1941916293,0.6501917872,0.2976638554,0.3054778087,0.2935024455,0.6042914509,0.2580774641,0.3018597588,0.2844587061,0.5801891269,0.6745296327,0.1107834669,0.1451288729,0.5535984001,0.3227969436,0.3903359995,0.3436812295,0.5032356321,0.3031417475,0.2607187987,0.4695500377,0.130745883,0.6321923386,0.0638217905,0.4940991821,0.4865595561,0.6308019536,0.4140376816,0.0615131542,0.508868781,0.3185264174,0.3764042535,0.6086473071,0.2894850308,0.1444476334,0.3711194184,0.3605885688,0.3996885726,0.1335456721,0.3301708491,0.4525475812,0.0490907906,0.4135760024,0.5104544836,0.4669381689,0.0306438894,0.2231653058,0.5866074585,0.0254206537,0.6664341468,0.6483711074,0.5509108876,0.4766525854,0.0999794285,0.6922850517,0.6233272916,0.1518324974,0.2657692127,0.3483865693,0.6337731744,0.286544685,0.1096674467,0.0919696941,0.6359994865,0.6623129161,0.5972146498,0.2132374452,0.2401212126,0.6810165609,0.6564278041,0.1298462198,0.1834004213,0.1813867697,0.6337459657,0.3259639384,0.0198930781,0.7057840725,0.0101432472,0.5516459803,0.1852635876,0.2764149693,0.2525686566,0.572665943,0.2442786541,0.6665645464,0.0226731399,0.0712086684,0.6316353287,0.3053683195,0.2713480273,0.5051507248,0.5970045483,0.0673191569,0.5120570388,0.0354536873,0,0,0,0,0,0,0,0,0,0,0,0,0,0,0,0,0,0,0,0,0,0,0,0,0,0,0,0,0,0,0,0,0,0,0,0,0,0,0,0,0,0,0,0,0,0,0,0,0,0,0,0,0,0,0,0,0,0,0,0,0,0,0,0,0,0,0,0,0,0,0.2526283853,0.5094767324,0.4430939216,0.3631367783,0.427917412,0.1869394951,0.4121676833,0.3080192957,0.2484492965,0.0496609875,0.0801620104,0.1019718821,0.2158015794,0.2481860226,0.3465184326,0.351365225,0.6501739782,0.6777929477,0.3856815081,0.6678965935,0.1167822952,0.1248242218,0.0221861522,0.1772746225,0.4307482788,0.216202913,0.5354300492,0.3981869978,0.3138744203,0.3446860714,0.6162681594,0.187736038,0.3994250952,0.6070576388,0.6590425362,0.5293767823,0.1263801219,0.4287297769,0.1390736325,0.1006644823,0.1559926523,0.6344502574,0.5165186066,0.0634512562,0.2339115568,0.3944026924,0.2445010689,0.4471095169,0.0438789249,0.6063137857,0.1640189981,0.1085420428,0.2835492732,0.3300515791,0.5659288636,0.0375211199,0.4608386796,0.2833047554,0.4245160952,0.4695031272,0.203537096,0.343197149,0.130422673,0.4038046496,0.4467073748,0.3849186556,0.4376880226,0.3068643863,0.0175121874,0.4796093786,0.3295727007,0.2631341356,0.5343696979,0.1442892023,0.567358884,0.431688606,0.3493425191,0.3905122093,0.4978255229,0.029856346,0.5991216716,0.1595808204,0.3644095938,0.6548423919,0.2164906933,0.1487744267,0.4197455088,0.503806811,0.2180625774,0.4879380106,0.2242458046,0.2209439287,0.4353049485,0.1874951999,0.456286626,0.2476567047,0.5727282711,0.7044128711,0.4053720582,0.1572585514,0.2165553004,0.6794887809,0.2625003376,0.6757103318,0.6144567331,0.1698674311,0.6363978477,0.0540915552,0.6863762851,0.1349970847,0.1357695025,0.6373777448,0.5962749051,0.5400792654,0.1113534947,0.0128223469,0.3854459019,0.3910315038,0.5552335804,0.7020474908,0.2790370905,0.4620142013,0.0182894905,0.6389136888,0.4501867101,0.0912547037,0.7044388473,0.0109359736,0.225411308,0.0032086624,0.1030041137,0.6317343872,0.5601944372,0.0650854307,0.5574795576,0.4908780042,0.3443408459,0.0700325085,0.4324740475,0.3622433932,0.5702042175,0,0,0,0,0,0,0,0,0,0,0,0,0,0,0,0,0,0,0,0,0,0,0,0,0,0,0,0,0,0,0,0,0,0,0,0,0,0,0,0,0,0,0,0,0,0,0,0,0,0,0,0,0,0,0,0,0,0,0,0,0,0,0,0,0,0,0,0,0,0,0.1794489413,0.4657673256,0.2132829126,0.1309528233,0.290197383,0.2206169696,0.527636342,0.4718786431,0.6091188556,0.300206266,0.4343895818,0.1763016359,0.458403992,0.1907680396,0.3053779124,0.1059540936,0.4480824668,0.3839440026,0.5235803525,0.3723182143,0.0008919923,0.698283579,0.3310030701,0.353586241,0.4745467918,0.1371475255,0.6256943897,0.5196813248,0.1970019771,0.2837336256,0.1299647489,0.3405569203,0.4665289568,0.6375984171,0.3346780249,0.5679024286,0.3664567847,0.2291058445,0.0181036534,0.6492377415,0.4061365785,0.1636596509,0.5970712997,0.0620115125,0.3369366752,0.6659287333,0.3480740379,0.2810321637,0.6596742117,0.1077136633,0.3697247294,0.1584638795,0.0398714301,0.6626332728,0.5398364734,0.4624837016,0.0089443373,0.5854549524,0.6620058426,0.2081907486,0.2509908576,0.4675021005,0.5137201489,0.1674884291,0.6914565818,0.6036485202,0.6319928586,0.5674465628,0.0137496019,0.6561077179,0.1092694453,0.1574371849,0.2033595743,0.511723541,0.1708355049,0.38731922,0.1739279639,0.328213176,0.1907291188,0.0509415356,0.3090672703,0.3135550889,0.4996766178,0.2386361826,0.2654921496,0.2873417999,0.6615988515,0.5347762068,0.3839529662,0.584404382,0.256465127,0.1270528181,0.7015034599,0.72054829,0.1714637895,0.639452736,0.1223222231,0.6517225299,0.6048801746,0.229567733,0.035648447,0.3939495676,0.3139963578,0.3871369637,0.023296093,0.4240041886,0.6074152902,0.3190117838,0.3305316209,0.2305574194,0.6993502955,0.5392450801,0.5142854616,0.1656119669,0.3634669014,0.5175631349,0.6571335039,0.6075533847,0.3272832453,0.0102620578,0.0305609412,0.6331336201,0.0093726852,0.4281874801,0.0596087076,0.651308238,0.663830161,0.3535349695,0.4870640997,0.3966813032,0.1753708372,0.3674074474,0.4725639026,0.0515920026,0.2321968648,0.2071670025,0.617842478,0.338159484,0.2944585873,0.6659483861,-0.5043217346,0,0,0,0,0,0,0,0,0,0,0,0,0,0,0,0,0,0,0,0,0,0,0,0,0,0,0,0,0,0,0,0,0,0,0,0,0,0,0,0,0,0,0,0,0,0,0,0,0,0,0,0,0,0,0,0,0,0,0,0,0,0,0,0,0,0,0,0,0,0,0.4889716357,0.2932265651,0.2900699655,0.4113993067,0.2440375748,0.7189053107,0.2351763099,0.2396985682,0.3419453525,0.2418037016,0.032381138,0.3643971722,0.0101422773,0.3492057062,0.1070442505,0.2678564257,0.3325011423,0.4906276541,0.2969731808,0.3820204455,0.1171747141,0.4214211385,0.5180213647,0.6249981481,0.4276390455,0.4873214988,0.1311598851,0.4474215304,0.5454577667,0.024365919,0.4917774695,0.37169077,0.2437839833,0.6167075302,0.2014064957,0.312091095,0.3640835698,0.1259151685,0.3969704969,0.0833361804,0.2284786048,0.3244072243,0.4893629096,0.6903614182,0.4100231301,0.5975391083,0.1996280341,0.0039282205,0.3525693331,0.1312451728,0.2118363726,0.6843946313,0.108062465,0.1614435504,0.0197989048,0.7003267427,0.4421717526,0.2353987727,0.1704631713,0.0561936093,0.5882965427,0.7062712326,0.4021584662,0.4924207267,0.6875488379,0.1247169018,0.7015502335,0.7122033553,0.4618528972,0.2800771337,0.6122107545,0.7110102305,0.3248592102,0.1941820244,0.1220389365,0.5033270844,0.3802003641,0.3790628852,0.6658041276,0.4313378117,0.6043740009,0.0497701412,0.1910712027,0.0431593931,0.2132269955,0.656478374,0.7134108764,0.0321321812,0.2999505395,0.6270117258,0.0321477427,0.1335470862,0.2812496703,0.5368468705,0.2398309589,0.6398552048,0.3360981806,0.1153152389,0.5490723333,0.0375433445,0.217308662,0.7030438118,0.4419399956,0.4080291794,0.3756642852,0.5575257621,0.419887636,0.5261000581,0.0400130361,0.4904233742,0.3392676839,0.3070021128,0.6974191772,0.3236346137,0.2902361741,0.6523060525,0.2603463732,0.3908043666,0.4427641591,0.5309058332,0.5046008804,0.5124175594,0.2189763666,0.4775489317,0.1909381455,0.2887491608,0.567916275,0.557948853,0.5819381278,0.119133651,0.1425902131,0.5073282736,0.3008112103,0.1074590437,0.2058104422,0.2060802884,0.3598600692,0.4465974737,0.317086116,0.3199290702,-0.2048741454,0,0,0,0,0,0,0,0,0,0,0,0,0,0,0,0,0,0,0,0,0,0,0,0,0,0,0,0,0,0,0,0,0,0,0,0,0,0,0,0,0,0,0,0,0,0,0,0,0,0,0,0,0,0,0,0,0,0,0,0,0,0,0,0,0,0,0,0,0,0,0.3416161159,0.6657454375,0.649589419,0.5504676829,0.4526533747,0.3196281383,0.4946924213,0.6760593027,0.1348944038,0.4461420023,0.213188978,0.3316231658,0.2643082699,0.4234918748,0.5819233402,0.1315889675,0.120639344,0.0042025602,0.1444282528,0.6045162534,0.6848802685,0.6815219416,0.4682291751,0.1922067578,0.106973429,0.5261710099,0.3888387981,0.4971437179,0.4107060245,0.4493390997,0.4048166206,0.2643158404,0.6287472896,0.2412046021,0.207874564,0.4429810541,0.0700221919,0.5383687269,0.1976441333,0.395249814,0.251514384,0.6610788643,0.6208991876,0.0896347567,0.0084185627,0.2672017156,0.4034225806,0.0056900975,0.1754367275,0.673070816,0.0603197426,0.3981298735,0.5726940591,0.6209602309,0.6186002165,0.5097165939,0.4478349919,0.6094105285,0.0642416563,0.7131092349,0.1155459828,0.3754189442,0.2308133841,0.5282596042,0.4146425825,0.3539748387,0.4898711419,0.5253833684,0.5552761476,0.3641786243,0.6885630951,0.0017004527,0.3469183337,0.2606038491,0.7112554053,0.6757319218,0.1992301075,0.2201543993,0.5880215768,0.1034693299,0.6373958927,0.1280193963,0.3551648175,0.3723858685,0.6220033985,0.2441873477,0.3111469794,0.4682416763,0.193416502,0.3155333507,0.5249934726,0.2848053072,0.4522341228,0.3085063198,0.6591131161,0.4797038757,0.1623926265,0.6053091782,0.1488345202,0.5097171699,0.3335272828,0.1498161862,0.3093597404,0.7197291869,0.5455716915,0.5345805068,0.3074799176,0.4249713031,0.2113635294,0.5362038823,0.7128004702,0.1396292451,0.5264396716,0.0506463676,0.7157638875,0.4114844704,0.5840959498,0.6430373833,0.5300993855,0.5690358252,0.5322708651,0.2434227933,0.1306476061,0.5529574952,0.0541930483,0.1416504495,0.1294269763,0.0525006884,0.6198820993,0.4828816425,0.373178074,0.2622593851,0.4570473826,0.2536357353,0.0485263783,0.6999457674,0.0589943242,0.0141896071,0.1220519914,0.0774924738,-0.3062763784,0,0,0,0,0,0,0,0,0,0,0,0,0,0,0,0,0,0,0,0,0,0,0,0,0,0,0,0,0,0,0,0,0,0,0,0,0,0,0,0,0,0,0,0,0,0,0,0,0,0,0,0,0,0,0,0,0,0,0,0,0,0,0,0,0,0,0,0,0,0,0.3686657272,0.5944913223,0.635178117,0.2807246198,0.6986623686,0.1737438523,0.5570313252,0.4644888818,0.7139463866,0.5546640409,0.4187944278,0.5508978772,0.553360391,0.193600506,0.5989017098,0.6532440285,0.0967576342,0.3881346928,0.3845863495,0.4415745619,0.3931087024,0.3548284172,0.5765293693,0.2652896105,0.2905378479,0.2947854146,0.1442173224,0.264403988,0.6003253264,0.5172174859,0.7103515148,0.4843670896,0.6742059846,0.335280834,0.1502446013,0.1901899817,0.5852718435,0.6013581942,0.4281052277,0.6025550934,0.1069390446,0.5754131721,0.3369754665,0.4025837027,0.691505304,0.2219567999,0.3175903936,0.349434417,0.1108355368,0.1301706199,0.4194238946,0.4848021376,0.7091586099,0.1536533058,0.5188484359,0.4409830171,0.0064479039,0.6574019706,0.1169130382,0.0265030223,0.1625897444,0.445890303,0.4066106736,0.539255343,0.081441051,0.5490050118,0.6345332047,0.4536348645,0.6683550742,0.2857258758,0.2648542174,0.4884051856,0.1903031954,0.161657095,0.2572403776,0.327223908,0.0163337393,0.5584673221,0.0631504417,0.0494824601,0.1241976625,0.3663909323,0.1819504807,0.3491982384,0.2777846861,0.1344412594,0.0052681557,0.4740744809,0.333186637,0.688456721,0.0934048458,0.5800420001,0.471609177,0.1807863785,0.4852048296,0.6137340516,0.3203146784,0.6030316553,0.691514444,0.6946193788,0.0612250131,0.6716877661,0.7093474434,0.6464339075,0.1446798616,0.5170491061,0.2524229476,0.5731066382,0.0486066788,0.1488824152,0.4748330488,0.7052291905,0.5490597978,0.5909478857,0.6270761424,0.1474989228,0.1575270355,0.5842731517,0.3941862308,0.6354709877,0.29432408,0.0639424606,0.0183685542,0.4908223447,0.1588127926,0.6161092951,0.3661109203,0.0716255245,0.2867777716,0.648375202,0.5680963033,0.3793257173,0.5825931555,0.2968296148,0.6021148298,0.3698499639,0.4532259435,0.4214697492,0.5183222716,0.0559516284,0.7168375209,0,0,0,0,0,0,0,0,0,0,0,0,0,0,0,0,0,0,0,0,0,0,0,0,0,0,0,0,0,0,0,0,0,0,0,0,0,0,0,0,0,0,0,0,0,0,0,0,0,0,0,0,0,0,0,0,0,0,0,0,0,0,0,0,0,0,0,0,0,0,0.263242091,0.3186514306,0.0109142457,0.0322561698,0.1800325993,0.0607343973,0.2920320749,0.3216256878,0.0671497207,0.2083780072,0.5233336505,0.5855385,0.3883889881,0.3797727392,0.1774759789,0.1232606243,0.5849235452,0.5531581488,0.470724322,0.3898132332,0.2223632155,0.1090069353,0.1363796241,0.6634064192,0.4519863355,0.0100552855,0.6865745825,0.0780564282,0.2905518534,0.0947514395,0.2493177379,0.700371991,0.4603091434,0.2819550928,0.1043647766,0.6140284715,0.6925779826,0.1217097977,0.0184623532,0.1491660001,0.4531237592,0.4178049021,0.6760361167,0.1196863531,0.6857673339,0.2985554537,0.1195243084,0.4600466189,0.1294646956,0.0246856014,0.3659568461,0.5847401723,0.6395353716,0.4994097427,0.3707912849,0.2575969439,0.1986171446,0.5484646788,0.2898511545,0.3111910953,0.6430530768,0.0963869033,0.5965856814,0.426466978,0.5049391519,0.4542834656,0.2956469181,0.0789813038,0.4141048065,0.3987681862,0.4193367029,0.5397523008,0.5827350813,0.5224298855,0.0361063477,0.6895131913,0.2864666488,0.1281014487,0.6889653272,0.4553660722,0.344000852,0.2987045769,0.3948860206,0.030046249,0.3472535375,0.4153658685,0.0582883352,0.160679494,0.2253895906,0.1109111909,0.3080639907,0.1470765371,0.0270522668,0.6298969742,0.5974453313,0.5064827026,0.3011380065,0.1533158361,0.0780621982,0.3619276734,0.6260490194,0.443859889,0.4423410491,0.4360289774,0.2137905802,0.5879696924,0.0886732928,0.265667412,0.4515270542,0.6262709297,0.7191166347,0.2051111449,0.5118141789,0.2980680125,0.6063591908,0.5324525048,0.5636570809,0.2919375227,0.0494495087,0.0656046648,0.3910429818,0.0461599058,0.5961319738,0.4943169616,0.3422187815,0.0561666711,0.6316390265,0.6613695134,0.0055116148,0.0959174508,0.1548318327,0.2596284263,0.5103918526,0.5225786919,0.2846298427,0.0207061242,0.5406960147,0.5757665302,0.5214885013,0.1848993353,0.0936654804,0,0,0,0,0,0,0,0,0,0,0,0,0,0,0,0,0,0,0,0,0,0,0,0,0,0,0,0,0,0,0,0,0,0,0,0,0,0,0,0,0,0,0,0,0,0,0,0,0,0,0,0,0,0,0,0,0,0,0,0,0,0,0,0,0,0,0,0,0,0,0.1431161786,0.5832589183,0.2491543295,0.4735506422,0.0548486833,0.1342522689,0.0704170079,0.272488991,0.2775707587,0.0601173174,0.4068444124,0.3339160498,0.2488323044,0.5367029141,0.6305481952,0.0758163599,0.2054591493,0.0768244851,0.5800626655,0.3211076211,0.420169227,0.0383326319,0.5895813471,0.1719308235,0.38030856,0.6381391299,0.4861370066,0.5647711687,0.5746201128,0.1163164947,0.2519952072,0.0391327188,0.647807162,0.402694915,0.6644556774,0.2896897847,0.2657011497,0.659446182,0.2078241168,0.0571309014,0.5335743446,0.1716114566,0.0554613228,0.2618668069,0.2030022206,0.021739702,0.610248383,0.7073244573,0.2278800467,0.6578063688,0.5459218278,0.0853767613,0.3309255985,0.1591333527,0.1488170766,0.23310232,0.3534667652,0.6721555317,0.3764470615,0.139069927,0.4914434662,0.7069892251,0.5162156662,0.6394418966,0.2261555342,0.5999046381,0.3385621682,0.0834062558,0.5844794216,0.6718104932,0.6998402581,0.3424855775,0.2708545553,0.3466298701,0.6886824092,0.479448013,0.2061838511,0.614498675,0.2451002798,0.3052262682,0.0046186371,0.5957747626,0.0788583683,0.5326390148,0.0904686609,0.5475827488,0.5119040272,0.1660601034,0.4964345647,0.5256855605,0.047303733,0.3073199321,0.6438789205,0.4943315929,0.3418541478,0.0120328622,0.1898924108,0.4673883832,0.0313394237,0.0638235235,0.2599509747,0.0145319932,0.0517064035,0.5388195473,0.5748824496,0.1255419021,0.5163438182,0.3739068115,0.6090076406,0.3977871904,0.429449828,0.2924140308,0.1317408214,0.4830249419,0.3656949436,0.3565567033,0.3032819724,0.4173576562,0.1858241975,0.4129861918,0.6104482491,0.3723767758,0.5335338145,0.2154139074,0.3686018903,0.5297042582,0.5454594813,0.0621695361,0.0996806603,0.5247421222,0.5661189438,0.0080914355,0.3970388796,0.2794269124,0.5873310558,0.5307017928,0.1953722638,0.6677776609,0.454385021,0.4678486027,0.0878717318,0,0,0,0,0,0,0,0,0,0,0,0,0,0,0,0,0,0,0,0,0,0,0,0,0,0,0,0,0,0,0,0,0,0,0,0,0,0,0,0,0,0,0,0,0,0,0,0,0,0,0,0,0,0,0,0,0,0,0,0,0,0,0,0,0,0,0,0,0,0,0.5477024519,0.3167481735,0.1253291923,0.6412378455,0.6792523253,0.3768045597,0.333384644,0.6596483869,0.094107366,0.4903301453,0.3573852652,0.4528819645,0.3873989308,0.4324285163,0.6974056912,0.4178570455,0.555417393,0.6624740083,0.1201942989,0.1842001126,0.0051483875,0.4796692325,0.3669920637,0.6259113205,0.3316686428,0.7100497718,0.1816304789,0.1751688356,0.4794967379,0.3767816788,0.3228844289,0.2609156298,0.542673223,0.4489304869,0.0907433241,0.6240351936,0.3313754867,0.3788223162,0.1883634697,0.3027759132,0.2382176984,0.0736048786,0.0836115259,0.1269227185,0.173149,0.1831212675,0.1046494482,0.4854098402,0.0765128821,0.0021041006,0.5500729772,0.331784327,0.2948037989,0.3466716786,0.6646651218,0.2808717102,0.673724254,0.3320022039,0.4621876227,0.0007100842,0.7020338407,0.5988472907,0.2315108248,0.4888210014,0.0470061216,0.2936421094,0.6750907014,0.198097693,0.1815916113,0.5767726695,0.6934815476,0.5410199582,0.5263990202,0.4318348272,0.1520833896,0.6516373225,0.5300525906,0.0322450021,0.4172840135,0.5207307437,0.3345067639,0.325718846,0.0442192402,0.7055856114,0.6154897902,0.0689076802,0.2434296798,0.4812087324,0.0524344341,0.7113564446,0.4291775011,0.4269942456,0.4787835971
   0.6546544876,0.2031094215,0.6514023955,0.2532559243,0.2912651229,0.6710567931,0.4922224415,0.5048474175,0.6581568187,0.1730841796,0.5248168051,0.6783705073,0.0640855608,0.1117538721,0.3830229321,0.3567807242,0.3446854959,0.5478837838,0.058866906,0.6889789524,0.0468238541,0.3143918262,0.3744277248,0.3816479615,0.6742462265,0.6321341969,0.6198939139,0.1837339958,0.1405169811,0.1577015847,0.7103944747,0.4397259447,0.4195524416,0.5734745887,0.6031379057,0.3540114229,0.4744966288,0.5155352314,0.2023832805,0.6698382792,0.2390001153,0.570260019,0.3196897506,0.2208002631,0.3526589444,0.0792455127,0.2742664891,0.3058720157,0,0,0,0,0,0,0,0,0,0,0,0,0,0,0,0,0,0,0,0,0,0,0,0,0,0,0,0,0,0,0,0,0,0,0,0,0,0,0,0,0,0,0,0,0,0,0,0,0,0,0,0,0,0,0,0,0,0,0,0,0,0,0,0,0,0,0,0,0,0,0.6515907529,0.6490228718,0.6169784132,0.2305316117,0.1565162756,0.1394624112,0.4534591849,0.2947114152,0.5234789218,0.1576494842,0.0836477195,0.5558115962,0.6382458373,0.2457851802,0.3512739046,0.5937992024,0.6915084785,0.6300290162,0.1994772635,0.6881858211,0.7114551934,0.0354322579,0.2657162975,0.3235355246,0.2118596595,0.7053939046,0.551807091,0.5963417352,0.0787528789,0.3336729252,0.6575793283,0.3617985467,0.3219084402,0.1071185087,0.3340176141,0.295707513,0.2273788088,0.4170969557,0.2095176711,0.0099875974,0.3563639117,0.281843052,0.1533976478,0.6283420946,0.3908141513,0.0562598315,0.2954247467,0.5663690937,0.345001065,0.3037034672,0.520829881,0.2951546592,0.4076112487,0.7032716248,0.0560802447,0.0345376264,0.6663834428,0.5386330127,0.0692276816,0.237381291,0.2204661954,0.3702893908,0.371127931,0.2560691153,0.1358834767,0.0460750204,0.3358896692,0.6681878417,0.3703102526,0.0154437941,0.5625674088,0.3133417455,0.5808130186,0.5738562892,0.3125837273,0.047406667,0.0833392847,0.4684463178,0.7080588839,0.0170900847,0.159417733,0.598072549,0.2259683605,0.4218303838,0.5528136414,0.1359426206,0.254121798,0.6736773443,0.4333977665,0.5617684873,0.2776513581,0.6436990885,0.2723787347,0.2992296195,0.3957652871,0.6094164049,0.4311072658,0.2387751183,0.4574840316,0.2897904186,0.4854759119,0.4640309269,0.5518475846,0.4272957065,0.1856069905,0.3568862454,0.5084007207,0.4839412707,0.0311288782,0.3161169406,0.3713267824,0.6812946614,0.3337320897,0.5910420627,0.0230729671,0.2728799983,0.1761637313,0.4836336816,0.1251881412,0.0887484604,0.4172268867,0.6489408956,0.2761763053,0.3738645299,0.5180680072,0.2599404299,0.4564733711,0.4169090225,0.1505268991,0.5283716891,0.1960744504,0.3165641658,0.4152179936,0.0015338881,0.4765256865,0.5484953972,0.162911357,0.5353595012,0.7071599011,0.4368961695,-0.2716252886,0,0,0,0,0,0,0,0,0,0,0,0,0,0,0,0,0,0,0,0,0,0,0,0,0,0,0,0,0,0,0,0,0,0,0,0,0,0,0,0,0,0,0,0,0,0,0,0,0,0,0,0,0,0,0,0,0,0,0,0,0,0,0,0,0,0,0,0,0,0,0.2215305578,0.5916367512,0.654525958,0.3462773413,0.3894728797,0.1054871209,0.1570155766,0.1969621834,0.4030921503,0.0286081697,0.0615777221,0.6142922517,0.5308739803,0.1106973341,0.0405450001,0.1536093004,0.0160032466,0.1336062155,0.0005962401,0.4002551064,0.2652674494,0.5666790424,0.1395948383,0.2773580048,0.0705932484,0.1657661827,0.2361617977,0.6170713813,0.5515214718,0.6300430326,0.3187406358,0.0299900238,0.1157469717,0.6285494204,0.4025514892,0.4380477686,0.6563566441,0.6541374579,0.484268323,0.2403670036,0.1995014992,0.4995252746,0.457263375,0.1983758138,0.4495004008,0.5998557293,0.2705257637,0.6424445146,0.1734849795,0.154524941,0.6156051511,0.2505230614,0.0891907366,0.3652678604,0.08031551,0.2573231914,0.4479346051,0.3154635656,0.5887742813,0.2185035906,0.573394353,0.3908162252,0.505678917,0.103528193,0.5471737495,0.5197448683,0.2929520687,0.3901199989,0.1536791357,0.3556415191,0.2220865541,0.684420227,0.6546378227,0.0679860249,0.0479183755,0.6725478034,0.5498432775,0.4551088817,0.5666900482,0.5918260653,0.6934084747,0.2577844206,0.6287894717,0.65427429,0.2838230306,0.5496112312,0.6583685856,0.580664934,0.3274254528,0.3975270511,0.1070334169,0.1673874616,0.2552865931,0.5923679493,0.2898262928,0.3321048756,0.5626646668,0.4785415971,0.4718069615,0.6461706208,0.681356443,0.1517841354,0.5828022364,0.5580580543,0.5922823147,0.4741016499,0.4030779999,0.5426695603,0.452289854,0.0753045686,0.5150952636,0.1900376257,0.3061831189,0.1239843198,0.536587146,0.6089016381,0.0333864888,0.1417032048,0.5967237973,0.222832968,0.3050920575,0.3573976454,0.117600611,0.400500488,0.5649667732,0.4389346988,0.6196175202,0.7089694758,0.0984185422,0.4718072295,0.1992029377,0.007545248,0.6514739146,0.6752729725,0.2326726456,0.6704895979,0.396570217,0.5185122457,0.5801144227,0.2732414641,0.0338105754,0,0,0,0,0,0,0,0,0,0,0,0,0,0,0,0,0,0,0,0,0,0,0,0,0,0,0,0,0,0,0,0,0,0,0,0,0,0,0,0,0,0,0,0,0,0,0,0,0,0,0,0,0,0,0,0,0,0,0,0,0,0,0,0,0,0,0,0,0,0,0.4706707967,0.4508732857,0.0514625596,0.4358359108,0.4870120613,0.2260212796,0.7140570822,0.467463968,0.2478259231,0.0581646817,0.1287502107,0.2151197896,0.3272530542,0.2752768766,0.3078536398,0.0186848226,0.3581271757,0.5264945484,0.4220841557,0.3865660657,0.6998296063,0.2514077453,0.0028324459,0.3880064408,0.5874542947,0.0616990481,0.4268549608,0.6597553759,0.1951961783,0.653860207,0.2079621642,0.7123620033,0.2024933171,0.139818463,0.242044129,0.6458176539,0.0962694974,0.0239333556,0.4157407871,0.6705302362,0.3217571243,0.4543267119,0.1186667488,0.0325179615,0.5196045287,0.0181180526,0.3512869763,0.4769703751,0.4739400407,0.226099084,0.5776204161,0.2127399032,0.0918754366,0.4524589105,0.0574445939,0.391249862,0.1473972736,0.1965884733,0.5968199272,0.2887986778,0.6752629028,0.3756473797,0.1138158784,0.6929417551,0.440434113,0.5266399352,0.20670593,0.0377457399,0.0749721549,0.4834724238,0.4817588587,0.3659879177,0.3809142474,0.1057190173,0.303814487,0.2346085243,0.5797177628,0.202942218,0.2556167957,0.1325975649,0.7032898412,0.0704486258,0.6097352034,0.2912859466,0.0331176749,0.2724170534,0.0592716007,0.5042125844,0.6319617984,0.0803799706,0.4910180647,0.5648931725,0.1417295531,0.1774426872,0.3486879457,0.1288249161,0.0982887899,0.6126294731,0.320300443,0.2736751205,0.5215919378,0.186271972,0.6065964136,0.6158911948,0.516618345,0.184091128,0.5177494352,0.1782024453,0.5615618396,0.5918205212,0.2664472467,0.3887355053,0.3113768629,0.4020725568,0.6432835213,0.6051856158,0.3347059158,0.3275791435,0.2184542349,0.7025352761,0.328417984,0.1755988929,0.3688614132,0.002996132,0.6282104511,0.1916705758,0.3231000681,0.2444525078,0.5305209657,0.2862659192,0.0111092691,0.1199443998,0.1779638402,0.2191315723,0.0829551326,0.3716531617,0.5847499329,0.0116707044,0.6496541486,0.2650087655,0.1752183832,0,0,0,0,0,0,0,0,0,0,0,0,0,0,0,0,0,0,0,0,0,0,0,0,0,0,0,0,0,0,0,0,0,0,0,0,0,0,0,0,0,0,0,0,0,0,0,0,0,0,0,0,0,0,0,0,0,0,0,0,0,0,0,0,0,0,0,0,0,0,0.4052323967,0.4236696003,0.6508333696,0.533711271,0.1454041773,0.4290827617,0.0910745011,0.4352055147,0.4532434943,0.3859815495,0.6216665276,0.0878426265,0.2399628565,0.4189027442,0.2152743522,0.606637298,0.1729964433,0.0286098854,0.0752313963,0.3072356052,0.4479394042,0.3941437802,0.2733670172,0.607193428,0.1722736389,0.0968187979,0.4208258701,0.0767968602,0.4780419497,0.4364641452,0.679594957,0.287889231,0.4987490125,0.0153536398,0.5145782408,0.1628506354,0.6295412845,0.6242732153,0.1124934174,0.0608605255,0.1215708861,0.274248224,0.7075665703,0.4000908545,0.6687520774,0.641157983,0.4098522428,0.0220285809,0.322069819,0.3034663958,0.188824389,0.2714975093,0.4287951774,0.5907251666,0.4305655205,0.4500030169,0.0905367537,0.4303665099,0.2985915884,0.3359984689,0.4217355051,0.1569543583,0.3077395713,0.5046318341,0.669132089,0.098303342,0.6911089456,0.6959142966,0.2110137398,0.6452302489,0.176282528,0.0662486702,0.4829740479,0.579572125,0.6615307935,0.0922958728,0.409731276,0.188252544,0.007200741,0.4566745215,0.1249553751,0.3923851402,0.0927195349,0.1182248163,0.6409460578,0.0010010645,0.1455384227,0.6849912438,0.4402568248,0.6746860815,0.4306227977,0.4597690528,0.4078908957,0.0630815092,0.1645851935,0.4728575235,0.0270970714,0.4264598501,0.5047813282,0.1174007015,0.6220322932,0.3087089138,0.3234803518,0.5690560627,0.0937862793,0.6772634775,0.2301095265,0.2587372722,0.1094401814,0.4948000334,0.7153501806,0.42373747,0.2592283901,0.0161237798,0.1516000749,0.2044511246,0.3571003844,0.0352861598,0.5891869655,0.6888994984,0.091836076,0.1797435023,0.126925605,0.5981941602,0.1921985046,0.7132865264,0.5090708695,0.1528299016,0.4367407328,0.1675371262,0.6223023376,0.5721900035,0.5109040619,0.2102443787,0.092774253,0.7083801428,0.2047071811,0.1049264057,0.175419725,0.4338524951,0.5604602458,0,0,0,0,0,0,0,0,0,0,0,0,0,0,0,0,0,0,0,0,0,0,0,0,0,0,0,0,0,0,0,0,0,0,0,0,0,0,0,0,0,0,0,0,0,0,0,0,0,0,0,0,0,0,0,0,0,0,0,0,0,0,0,0,0,0,0,0,0,0,0.6499242266,0.1266783038,0.2216293221,0.3510535095,0.178313604,0.0772658751,0.6537072942,0.7215584143,0.2532501602,0.7166894,0.2498150422,0.2552485521,0.3494485734,0.0854835801,0.3819422769,0.6946418513,0.5999166652,0.3034606057,0.177057402,0.0334075595,0.2431854709,0.1897112254,0.3444412422,0.7079292642,0.1182401297,0.5506152859,0.0265606373,0.1276873613,0.2261525588,0.5395764871,0.7181850855,0.2997090013,0.165853705,0.6480198094,0.4746683002,0.5204962286,0.5448426712,0.4852193007,0.6407952589,0.0043521139,0.4560424536,0.1093799041,0.3176299945,0.6586889198,0.622999917,0.0253172845,0.416840918,0.3810874758,0.4511524775,0.4611044516,0.481146142,0.6317417445,0.0770026452,0.643865755,0.4482428748,0.2913049221,0.4347206217,0.0076124798,0.0314027146,0.7204539014,0.3020620413,0.5326526819,0.4768843356,0.2899457289,0.4837724677,0.571966098,0.1325595728,0.2209538187,0.6114713296,0.3022345269,0.0216581591,0.5808658719,0.0725364356,0.5538834634,0.3270519943,0.2370216709,0.4091665234,0.1077759763,0.3510043101,0.4840835301,0.497645812,0.0589107303,0.5581807902,0.1612015368,0.2954815637,0.3239351969,0.5751342706,0.0491014062,0.2286353481,0.0172720418,0.1662474224,0.1141791075,0.2373491507,0.0441667773,0.1048694484,0.2994782621,0.1659498107,0.4814866613,0.4228126885,0.1452507148,0.3302716812,0.1268636019,0.4220743216,0.2173519218,0.6122381696,0.5859619534,0.0304152645,0.1653266139,0.4793933824,0.3735172748,0.0086254384,0.3020975286,0.0842542633,0.6674591245,0.6150656536,0.4348951818,0.558373431,0.0868065767,0.2729957508,0.3490863592,0.5005317241,0.0100395409,0.4545468566,0.4450623523,0.620447773,0.6133945809,0.0861132927,0.2003767314,0.3702152964,0.4545573101,0.3247339071,0.7042855043,0.1948910336,0.7193579556,0.0126305732,0.1329031877,0.361338257,0.3167052031,0.0677475547,0.5787236657,0.0562309677,0,0,0,0,0,0,0,0,0,0,0,0,0,0,0,0,0,0,0,0,0,0,0,0,0,0,0,0,0,0,0,0,0,0,0,0,0,0,0,0,0,0,0,0,0,0,0,0,0,0,0,0,0,0,0,0,0,0,0,0,0,0,0,0,0,0,0,0,0,0,0.3598787508,0.7041601167,0.6163948153,0.3484397918,0.0379846945,0.0229853674,0.6674474362,0.4557152673,0.4440660982,0.3053306178,0.6320768192,0.4119390214,0.0449827447,0.71699104,0.3349424499,0.0578165205,0.0859603766,0.2333183102,0.4177150889,0.4028727315,0.335452973,0.161059547,0.6860700028,0.0630711432,0.2288457204,0.0091769701,0.2535930753,0.0826767876,0.6665697279,0.5525249683,0.3588620091,0.0670907569,0.3417777157,0.2427902718,0.0726283507,0.5849468072,0.4011154296,0.2776661707,0.5536430404,0.5852494647,0.3225085828,0.5830988715,0.5288194552,0.1892570566,0.1340262933,0.6905947711,0.5405274191,0.6258646948,0.4390453453,0.5511204163,0.5660611444,0.6676868363,0.1864323554,0.3190046919,0.4245686032,0.324263735,0.2597180406,0.5301520938,0.4195516385,0.237283531,0.6151049397,0.5593867611,0.7086416289,0.6356589233,0.5882987897,0.3679367433,0.401637432,0.5634167875,0.3499359796,0.2027802197,0.6411898703,0.2023949033,0.334447527,0.4416470956,0.4356948118,0.600196621,0.468146344,0.3281766459,0.4026312153,0.5150449357,0.6340584914,0.1149808521,0.4310627717,0.0227174124,0.1982465854,0.1517040714,0.0979534359,0.3613657988,0.5733182014,0.242141026,0.3292978053,0.5510142313,0.4036162585,0.6785145053,0.2485098939,0.4237570787,0.0781054349,0.6793705005,0.2755491705,0.1401226421,0.6132370044,0.7141270954,0.7191700058,0.1015866221,0.4558725055,0.5411666714,0.1061093218,0.445907559,0.3808211044,0.2782299406,0.248347225,0.5641312837,0.4732207265,0.4598784168,0.4098581768,0.5332262226,0.0594718159,0.6678851899,0.3719554301,0.0791191099,0.4641353845,0.5152337157,0.3860315974,0.4831471319,0.5888115976,0.6994268283,0.3951033574,0.3128143857,0.4462200117,0.6689647249,0.1677931997,0.4932312625,0.6287713841,0.3838221824,0.5515869055,0.6270311078,0.0497028197,0.6181352898,0.3085515974,0.0060435553,-0.2977870185,0,0,0,0,0,0,0,0,0,0,0,0,0,0,0,0,0,0,0,0,0,0,0,0,0,0,0,0,0,0,0,0,0,0,0,0,0,0,0,0,0,0,0,0,0,0,0,0,0,0,0,0,0,0,0,0,0,0,0,0,0,0,0,0,0,0,0,0,0,0,0.3804813903,0.3657732001,0.1513682173,0.3071324651,0.4905768539,0.6887419151,0.1383186256,0.6709380384,0.1862527545,0.3373353649,0.1697656709,0.3163905096,0.3783902714,0.559614191,0.5969394058,0.5552719217,0.3614382795,0.0967603054,0.2624401639,0.0092428346,0.4937029207,0.1778275641,0.4874815411,0.3478791676,0.5652621242,0.0697365679,0.5854215328,0.2341374117,0.3034230536,0.3356324066,0.3348105103,0.0199308127,0.5065461808,0.1591284289,0.4816923278,0.2011652408,0.2311011711,0.6012230054,0.6509068551,0.2680053719,0.2722182781,0.678723283,0.3943909747,0.4547417867,0.3140152839,0.1505079817,0.5027355103,0.0945859985,0.2845104891,0.1298104034,0.5231374346,0.2376204949,0.4859425915,0.2009609276,0.4349351781,0.0558001061,0.5965292548,0.4665388684,0.6684535461,0.6588521572,0.1207905167,0.0229249226,0.572702575,0.3106010829,0.1378388167,0.3705351011,0.1170973118,0.0038132813,0.4251974518,0.3311792458,0.0635675987,0.1036172994,0.3099323419,0.529737367,0.2093634149,0.1753822269,0.4603796138,0.6203811329,0.5893076296,0.4433092239,0.1942227253,0.3595755431,0.1431361548,0.1416489173,0.1225032049,0.2785667396,0.2635748672,0.3723783584,0.3998687115,0.4202842442,0.5616203123,0.0694296126,0.5010743614,0.5050610986,0.489606881,0.4979419815,0.2885802354,0.431215118,0.0677759003,0.3170053779,0.1524805509,0.6316993616,0.1877211687,0.2097928377,0.1919578542,0.2810393729,0.2947339146,0.5653696387,0.4375701948,0.6658551401,0.3277479869,0.4503378492,0.213407033,0.0680349918,0.7065949849,0.2182534168,0.0604181999,0.4071213882,0.0309988014,0.2684549537,0.375285399,0.4360213866,0.5628081671,0.6600211078,0.2551972458,0.1012432407,0.3220279398,0.1032143741,0.5582203547,0.3224875637,0.4048368547,0.0389681731,0.3975183824,0.5596129312,0.0418412889,0.3904873703,0.3030628908,0.2393736304,0.6551870811,0.2866678257,0.034723426,0,0,0,0,0,0,0,0,0,0,0,0,0,0,0,0,0,0,0,0,0,0,0,0,0,0,0,0,0,0,0,0,0,0,0,0,0,0,0,0,0,0,0,0,0,0,0,0,0,0,0,0,0,0,0,0,0,0,0,0,0,0,0,0,0,0,0,0,0,0,0.1314614153,0.363593429,0.1403560198,0.1694710738,0.6265869461,0.1502421418,0.0840481849,0.0236707331,0.5276343439,0.6185071042,0.3136287668,0.031396712,0.1516560377,0.4950118876,0.3397436148,0.2785460779,0.4831009271,0.0691359526,0.4100934042,0.6936612284,0.4524537173,0.6612545349,0.5815943417,0.5836274187,0.4413888136,0.2435778884,0.6732772738,0.2412694882,0.1885661972,0.3445206135,0.1993967084,0.3217103556,0.495149526,0.4599336615,0.1282663572,0.5252490595,0.4119530172,0.4702015239,0.6181960613,0.4781617491,0.6954703356,0.2761719126,0.3318649255,0.404517745,0.1538503724,0.2425781406,0.3323981861,0.2200615339,0.0347144441,0.4123433206,0.3614547687,0.1671678287,0.269938158,0.4132102435,0.1662496199,0.3380367992,0.6900172073,0.3665912896,0.4983005732,0.6055667803,0.5740520716,0.256789011,0.2282256756,0.0016558606,0.4832108693,0.5071837001,0.4924445194,0.6039725454,0.0044280301,0.4562813772,0.5131158871,0.1576615861,0.708995482,0.0071163407,0.1237675293,0.164025705,0.3664740032,0.4678409308,0.6899231134,0.38269623,0.3812555882,0.2074327665,0.5738016661,0.0993751919,0.6666621629,0.0418257838,0.5666291673,0.7158764266,0.0807156425,0.0856187004,0.2522936793,0.6346075844,0.2599541907,0.3252946384,0.0169993482,0.6946314254,0.5244112471,0.2701122852,0.5499538166,0.6024734961,0.3508409503,0.1517441843,0.2212625837,0.264266399,0.6401834902,0.4733685213,0.3692444558,0.5569333874,0.0625831089,0.6218768683,0.3156476299,0.1964244077,0.1097952104,0.6511902315,0.3164033006,0.3117109988,0.0656964053,0.2321527677,0.3222125172,0.5535803903,0.7011396199,0.5019327488,0.0967479673,0.3552055602,0.2390988988,0.5098112885,0.4853232702,0.2465012355,0.1688348689,0.0368303739,0.2552880054,0.1769390915,0.3863397746,0.4424920415,0.3097546202,0.1904295324,0.1024777327,0.5252439326,0.1027236917,0.4309015857,-0.5707679439,0,0,0,0,0,0,0,0,0,0,0,0,0,0,0,0,0,0,0,0,0,0,0,0,0,0,0,0,0,0,0,0,0,0,0,0,0,0,0,0,0,0,0,0,0,0,0,0,0,0,0,0,0,0,0,0,0,0,0,0,0,0,0,0,0,0,0,0,0,0,0.0219246612,0.0542098914,0.479484096,0.2155918969,0.2480446768,0.4433696874,0.1670506307,0.0706907398,0.2094178859,0.3987678163,0.2183633509,0.0937599583,0.5982155721,0.4195944896,0.024952135,0.3077428336,0.5210635251,0.5145653568,0.1720134224,0.0165285961,0.0050354463,0.336369971,0.0953307479,0.6091130899,0.6619397504,0.7169615918,0.6370658114,0.5853176454,0.2405280525,0.1413064057,0.096460381,0.2937151667,0.5523327971,0.1893223042,0.1074666941,0.3483877796,0.0590531135,0.0120061125,0.312332153,0.4719748001,0.4850685927,0.6488630872,0.4871122411,0.1746979093,0.3679374978,0.3025764231,0.4767932807,0.2501001291,0.4471661584,0.3083618287,0.2493814728,0.2186979589,0.5702159642,0.4462382307,0.4623548797,0.3413909414,0.705688537,0.1894838092,0.4179351015,0.0318083367,0.5362107535,0.199199214,0.3186458872,0.1972201774,0.1655142352,0.2866332798,0.0784792903,0.2900727842,0.4724606355,0.2972400491,0.2721550157,0.2055953382,0.0106661355,0.0606099981,0.1625340162,0.4584545413,0.5172874229,0.4984220926,0.0361582793,0.4816937017,0.1173196508,0.6041068195,0.5109383087,0.6024314372,0.629543598,0.3813976513,0.5679618069,0.221814247,0.4403193105,0.2289323774,0.6600986671,0.5850075635,0.0743403873,0.5119471177,0.0458930038,0.3294453344,0.2730866635,0.6601168991,0.5430181919,0.1696049059,0.3193566976,0.3276234525,0.5521792536,0.6574496355,0.0062835012,0.0730717619,0.3638079542,0.1218492063,0.1827910253,0.094297229,0.2772970891,0.7083942405,0.0890334755,0.6216977965,0.5279100998,0.2542483851,0.3955658876,0.0374260884,0.3593727432,0.5487877777,0.0141461507,0.5602843949,0.5259505552,0.6401069767,0.2855187258,0.0332178694,0.0918646933,0.3165153843,0.3291792911,0.4110145211,0.1789389052,0.1367542575,0.4991320214,0.538975804,0.5935080482,0.4889941435,0.032046303,0.134814384,0.3388131313,0.2483498371,-0.2785763982,0,0,0,0,0,0,0,0,0,0,0,0,0,0,0,0,0,0,0,0,0,0,0,0,0,0,0,0,0,0,0,0,0,0,0,0,0,0,0,0,0,0,0,0,0,0,0,0,0,0,0,0,0,0,0,0,0,0,0,0,0,0,0,0,0,0,0,0,0,0,0.5713300821,0.4149207352,0.208987352,0.6510375967,0.5220814697,0.3187183187,0.1703116643,0.0608826,0.2665412317,0.6503628011,0.5257931948,0.3483617639,0.5531747116,0.3313219407,0.0652309165,0.4708348132,0.5845231549,0.5035605282,0.1075767691,0.5313805083,0.6981446253,0.0762263029,0.2162391827,0.5696464665,0.1143064231,0.5153029264,0.0237301351,0.0126104083,0.6585306462,0.6724286648,0.4802507934
