encog,BasicNetwork,java,3.2.0,1,1398552964424
[BASIC]
[BASIC:PARAMS]
[BASIC:NETWORK]
beginTraining=0
connectionLimit=0
contextTargetOffset=0,0,0,0
contextTargetSize=0,0,0,0
endTraining=3
hasContext=f
inputCount=140
layerCounts=1,8,141,141
layerFeedCounts=1,7,140,140
layerContextCount=0,0,0,0
layerIndex=0,1,9,150
output=0,0,0,0,0,0,0,0,1,0,0,0,0,0,0,0,0,0,0,0,0,0,0,0,0,0,0,0,0,0,0,0,0,0,0,0,0,0,0,0,0,0,0,0,0,0,0,0,0,0,0,0,0,0,0,0,0,0,0,0,0,0,0,0,0,0,0,0,0,0,0,0,0,0,0,0,0,0,0,0,0,0,0,0,0,0,0,0,0,0,0,0,0,0,0,0,0,0,0,0,0,0,0,0,0,0,0,0,0,0,0,0,0,0,0,0,0,0,0,0,0,0,0,0,0,0,0,0,0,0,0,0,0,0,0,0,0,0,0,0,0,0,0,0,0,0,0,0,0,1,0,0,0,0,0,0,0,0,0,0,0,0,0,0,0,0,0,0,0,0,0,0,0,0,0,0,0,0,0,0,0,0,0,0,0,0,0,0,0,0,0,0,0,0,0,0,0,0,0,0,0,0,0,0,0,0,0,0,0,0,0,0,0,0,0,0,0,0,0,0,0,0,0,0,0,0,0,0,0,0,0,0,0,0,0,0,0,0,0,0,0,0,0,0,0,0,0,0,0,0,0,0,0,0,0,0,0,0,0,0,0,0,0,0,0,0,0,0,0,0,0,0,0,0,0,0,0,0,0,0,0,0,0,0,0,0,0,0,0,0,1
outputCount=1
weightIndex=0,8,995,20735
weights=##0
##double#20735
   0.052202482,0.5181812659,0.1268570355,0.5524053144,0.4318133241,0.3236607164,0.0347335438,-0.4183236442,0.7002730801,0.2820057436,0.1896075751,0.2434171769,0.3790394227,0.0828110043,0.535071997,0.4577047839,0.6874332167,0.5802005158,0.1436994866,0.3746350087,0.5785447201,0.2899598761,0.648776195,0.4940587823,0.2046593798,0.0642974643,0.561492481,0.5708411819,0.6144295313,0.3879551804,0.017044448,0.2272499051,0.1730116109,0.1451222623,0.0305335191,0.6519727423,0.1020390085,0.5418474272,0.186673339,0.3268012271,0.3114505328,0.4238467726,0.0355129537,0.391867771,0.0840951782,0.2506662583,0.5447022007,0.281309886,0.4796977157,0.03587291,0.5121965655,0.1067007444,0.4289696868,0.1754995512,0.2284855512,0.2034025504,0.5873347101,0.2798816087,0.5616427131,0.3666116339,0.0331852044,0.2300883261,0.2288544134,0.4838539317,0.1366095552,0.6605035642,0.4679530903,0.4562218132,0.274541314,0.3470688762,0.4987449598,0.4288804705,0.0634637985,0.5248472576,0.6304579745,0.3557610173,0.2731535278,0.5732777425,0.5432746774,0.0312609607,0.491375475,0.1958352135,0.2966607698,0.545016941,0.377244477,0.164174674,0.0781382827,0.6858154048,0.2566199707,0.6513303385,0.5793112636,0.4979459948,0.6564820802,0.4934702996,0.0696323254,0.12742518,0.6920123614,0.2656868682,0.0930839226,0.4622201669,0.5276403835,0.4461528938,0.3882823042,0.470544066,0.0083026673,0.0841638317,0.1156866344,0.6484723506,0.1364287703,0.1128615411,0.4226594688,0.1403699908,0.2797183316,0.17639211,0.1560026411,0.6490213935,0.0379993416,0.3891041605,0.6598550317,0.2862855864,0.2415717544,0.3138268236,0.4791923559,0.6637128716,0.1548764875,0.4562167197,0.577338121,0.3716235257,0.5201111809,0.6486294587,0.6340288616,0.6095807478,0.5880975351,0.2669928068,0.4349307586,0.3991113126,0.5358110407,0.378265561,0.2403301457,0.4664595023,0.6466246594,0.4306139985,0.5371330463,0.4364949001,0.5690266934,0.365326001,0.664028162,0.4195432233,0.1969181993,0.5865313353,0.2310504233,0.3508472221,0.6506658152,0.2439840896,0.7064841116,0.2471350997,0.3717819778,0.3735871539,0.5022195293,0.7081248419,0.1845350778,0.5962799892,0.1962359432,0.4184698256,0.2882323268,0.180141144,0.012128941,0.2936049373,0.2560780336,0.3747461733,0.7059013889,0.4459662505,0.5115637659,0.4580089903,0.1513895772,0.0822344436,0.1127069861,0.5094640853,0.6021817603,0.1508816105,0.4045909546,0.6898633597,0.0798825371,0.2420552523,0.0625079646,0.6819769565,0.269095097,0.4514206603,0.5256334397,0.6967919649,0.5219278353,0.3546356307,0.5020281007,0.5590477118,0.1615358574,0.4598026857,0.2653225931,0.0521812989,0.4818905027,0.4375330172,0.4474561193,0.6313581989,0.0764161228,0.6285930392,0.1120385412,0.0631143869,0.3247862565,0.5312625062,0.5405506739,0.1090873761,0.3983209903,0.5701311582,0.1199045464,0.1815651736,0.0009871804,0.3396819123,0.0625767393,0.1507184096,0.575680143,0.2246656074,0.5266654775,0.0496536818,0.5361081196,0.5901543622,0.3804783194,0.294746214,0.1980715856,0.4539014294,0.7090614175,0.1059411284,0.0494655463,0.1495254383,0.4546612077,0.2745214708,0.4149508735,0.0239120522,0.64852942,0.2453705119,0.5848609153,0.1445418593,0.0267031043,0.4093839818,0.0645608014,0.3147669344,0.0301482007,0.4616926357,0.3368388524,0.2502804417,0.0202508159,0.3308651829,0.2237582374,0.1699786752,0.2123550364,0.4806923569,0.6874262718,0.1697075743,0.5127758722,0.2389738246,0.5456521705,0.3857919181,0.286463521,0.5385609081,0.152211178,0.3404069475,0.3622969205,0.5434583917,0.0310931658,0.6083164803,0.6261823126,0.6686279045,0.0370835567,0.3407471559,0.621233733,0.181174355,0.1517570253,0.6856534878,0.532480167,0.295900381,0.6475735455,0.0333878435,0.560855365,0.4663103943,0.6122420771,0.244877917,0.1799085768,0.1163058451,0.4306529942,0.1439024262,0.1501458156,0.180823638,0.2197710296,0.3783552529,0.2128033052,0.6072131451,0.6691515551,0.5693398897,0.2968408906,0.7040063751,0.6017906268,0.1445594758,0.3250077679,0.2108245562,0.0716526111,0.5673774028,0.1436111624,0.196655862,0.0422493804,0.6403386427,0.4636030195,0.6682660903,0.6876534915,0.1855822523,0.1171831452,0.4646954276,0.3746571181,0.4773266364,0.6668060481,0.1873488406,0.6183870659,0.3383589326,0.4411075311,0.4430151332,0.3616559752,0.0331310499,0.6922300787,0.0216642767,0.276569907,0.5362011264,0.615877876,0.5280567775,0.2736999112,0.0844896091,0.0593522296,0.5303023106,0.1497654031,0.5472927651,0.5789697011,0.0748242607,0.6788386814,0.4813663925,0.0172808104,0.5841970528,0.1403862652,0.3823945734,0.1760346743,0.6263837335,0.6367724667,0.4396237477,0.6087942778,0.1666043817,0.0858480888,0.2693764958,0.1401112191,0.6161330406,0.6677937739,0.0779626416,0.3750225017,0.5142856556,0.5300371284,0.3318133739,0.1453897878,0.111253455,0.4291370692,0.1630835242,0.034413537,0.5822054519,0.1555155226,0.5733082566,0.3264830853,0.272927024,0.373238639,0.043659275,0.2903182808,0.1487608089,0.6592857073,0.5270620167,0.055245559,0.1312891027,0.5145161684,0.3193384431,0.4243171458,0.1816792675,0.2208909665,0.2370496641,0.0111935873,0.5485101955,0.2556890266,0.6431040701,0.2510772878,0.4895392135,0.186725131,0.1558284119,0.2728749729,0.577938165,0.5629201188,0.2679027271,0.3802058719,0.5396958412,0.0860496395,0.5606418268,0.1113398449,0.7063785497,0.0193442948,0.6083375863,0.1667993457,0.2734778387,0.2791098828,0.5571359965,0.3757328705,0.6717355619,0.5971123351,0.0383017857,0.0078127028,0.0563616262,0.484102475,0.4664409427,0.3111080772,0.3098124767,0.1266673329,0.4245741167,0.6228724971,0.4978745203,0.3521317509,0.2120597272,0.7003470595,0.7047602876,0.434635911,0.3566074264,0.6531765545,0.2142376837,-0.2822902606,0.6964067544,0.55659819,0.2559223011,0.6761774588,0.6058105732,0.4777499984,0.4311710928,0.0709056986,0.4285394045,0.3228137951,0.3256019636,0.2194901877,0.6784401231,0.4494471576,0.6588202083,0.4945244835,0.4262029993,0.5792968694,0.5296530729,0.1277479706,0.2837444389,0.3852726391,0.3695056728,0.5768877366,0.0714669232,0.3433655633,0.1099134315,0.2689637407,0.5519196751,0.2250697057,0.4925215252,0.3682052144,0.1371609992,0.6422877329,0.0012296786,0.6184841122,0.0138868406,0.5304780699,0.137252329,0.3275405303,0.2770732984,0.0535557695,0.3832706849,0.5905223729,0.4066780572,0.2539182842,0.4586707409,0.1634341772,0.4540425202,0.3151097964,0.0415362088,0.3497508418,0.6361998889,0.0317705511,0.0746247978,0.0995955409,0.3419821277,0.536908282,0.4904289231,0.4236509864,0.7042382951,0.268834247,0.6920526629,0.2652896892,0.1426908629,0.6007455613,0.2437708712,0.3725534788,0.6745491955,0.4937423902,0.6084578321,0.4756707407,0.0475754073,0.4423862406,0.2854683724,0.2909403797,0.5144554352,0.2542780855,0.0692638329,0.005573609,0.0106461875,0.5422700594,0.0924275438,0.5734604202,0.4376429993,0.5793937221,0.0512674686,0.6867123544,0.2570006701,0.6109208319,0.6487412224,0.5251405871,0.1317034311,0.2436013935,0.3529739943,0.510340804,0.2892690733,0.0208192561,0.5463251905,0.1217141213,0.400001512,0.4113837313,0.2108562412,0.5847544945,0.0103255566,0.1649617631,0.5463284401,0.176066578,0.2779341431,0.1856349045,0.5792450826,0.2082336824,0.3698408801,0.582206983,0.2122042085,0.6030363626,0.6060329071,0.5416675977,0.2910325925,0.4225153587,0.4099036758,0.0314927706,0.2142726165,0.2012428585,0.3769000879,0.2354914218,0.4975405758,0.3896598592,0.5387422165,0.3883040699,0.6597380059,0.1284693831,0.0325196528,0.1032027537,0.0224702691,0.214323973,0.0353054266,0.0574613253,0.1755230929,0.6482231977,0.5481445929,0.4048874752,0.6419694872,0.5875849258,0.3882283621,0.6832179707,0.6487314704,0.067076234,0.523198667,0.1770030274,0.3120490697,0.4528709185,0.697447553,0.0096857712,0.7032773355,0.7010541423,0.3332390536,0.6366798073,0.0984612745,0.4601810267,0.6458775921,0.7058548884,0.2075322896,0.6242846035,0.0347896335,0.6628822376,0.3459808423,0.2778969776,0.4635027446,0.5553542247,0.6660219896,0.526185921,0.2110826638,0.2389206922,0.1305425148,0.0126602426,0.2600417024,0.5682949396,0.0118064817,0.5265199154,0.3922819146,0.2361532802,0.0191893503,0.5496934929,0.5699953514,0.3192285795,0.3679576162,0.3041474989,0.0663566771,0.5823178334,0.5324621085,0.6425838908,0.4529567967,0.3883221456,0.6773619082,0.457229007,0.0968848469,0.4549788184,0.238070216,0.1157554445,0.3164747944,0.0194148417,0.2221356007,0.3508714033,0.4470413099,0.0592383977,0.4213232952,0.2655718648,0.4808687128,0.289792586,0.1925261496,0.6620285503,0.2236414264,0.1773228762,0.0319349025,0.5312337893,0.1689949675,0.5504464625,0.5797889414,0.5541750612,0.5541793572,0.113889944,0.2741340709,0.6212475552,0.3618188925,0.2061448338,0.491939421,0.1758514573,0.3402878893,0.5167313345,0.0554046873,0.4235532023,0.6519438224,0.3371614832,0.2315650974,0.1900946051,0.6612052335,0.6948554539,0.5960920905,0.1420129484,0.2790272024,0.5517485415,0.1033447255,0.1563827277,0.417801987,0.107713278,0.0602985658,0.4402212728,0.2223116826,0.1220448953,0.3237374731,0.6033624665,0.0554498773,0.3906280318,0.4141928054,0.4216543558,0.5637577939,0.5670028412,0.194578026,0.3219236104,0.5699691546,0.2001538472,0.6290789953,0.6799933179,0.2890693537,0.6351875257,0.558141885,0.4599652144,0.0840878419,0.1834493011,0.2098446792,0.3761707563,0.4831745101,0.3704629095,0.2425429395,0.2053425935,0.396460298,0.0633279195,0.2973861846,0.1896586089,0.6974152271,0.3166503034,0.0972939712,0.2520224817,0.5928678767,0.5293877206,0.4180225949,0.4554453273,0.4468691013,0.6847162195,0.004410658,0.6104296269,0.4137122837,0.0895528272,0.4871178585,0.3009421222,0.2287397852,0.3963091293,0.6903963897,0.0845436295,0.0496907202,0.6371256742,0.106643478,0.225519468,0.1791891542,0.5909071616,0.3381717265,0.6569698611,0.2501300742,0.1760242391,0.150217729,0.0958628668,0.3418136359,0.3845369811,0.3085773642,0.3263281041,0.4177300581,0.3003537841,0.449847351,0.323330131,0.3102387976,0.0549862079,0.3882482515,0.7066004023,0.3486865436,0.1279113364,0.3524016357,0.680790133,0.4435409617,0.6247699084,0.3577787263,0.5113260685,0.0978560495,0.3798864995,0.5737282857,0.6212396193,0.6424765724,0.4826074237,0.008635245,0.1675892295,0.4338440537,0.3082174548,0.6969851784,0.1693613106,0.6597213088,0.2254926716,0.5616852281,0.394345074,0.1381719234,0.1610050934,0.3253633417,0.6346362322,0.4163912299,0.1085857049,0.6804949831,0.4705995711,0.0662785766,0.0501150626,0.0102689475,0.3132875699,0.3941616214,0.2203125364,0.3243287382,0.6768119607,0.6422455267,0.4584968323,0.3828736824,0.3981121978,0.2203569755,0.1913571217,0.3105206769,0.0841864922,0.2207105458,0.574831259,0.2237849659,0.2930338246,0.1290118274,0.3922610658,0.5390883599,0.2085011406,0.5072891361,0.047933983,0.0614163962,0.035725138,0.2211867288,0.3636191479,0.0099053653,0.3796589067,0.5633609765,0.7034251144,0.3221511963,0.0269938799,0.4330455915,0.3374721777,0.5206054818,0.6670902458,0.1373889579,0.6838390073,0.2679808443,0.5096342799,0.0388649146,0.5291889975,0.4952951723,0.6964837334,0.5917040958,0.6231029218,0.585762021,0.5777048588,0.662177198,0.1545531203,0.3516774649,0.6157073145,0.3887081409,0.4755073217,0.6031283646,0.2236302508,0.6203581916,0.4336117206,0.5331831189,0.708068181,0.0228328436,0.576817897,0.4896728663,0.5904044565,0.5463034911,0.4047492611,0.4824584887,0.5872928709,0.2309544146,0.1085009079,0.1919413687,0.6128119037,0.6596307512,0.1026065678,0.6218318573,0.5056538807,0.2049307857,0.5094327424,0.2595509461,0.4755897738,0.0487869478,0.2782067988,0.3564616911,0.38614344,0.5779861418,0.2629896286,0.4696882169,0.4901819337,0.6951174873,0.0836554553,0.1990671829,0.1748168845,0.5185720341,0.3155466786,0.2151905967,0.4945266261,0.6926688032,0.7094091894,0.677045947,0.3182950374,0.4465055805,0.5210036123,0.3399377899,0.0891870302,0.333806697,0.4260373262,0.0876004475,0.6390669225,0.0599126328,0.3340878461,0.3495214498,0.2005829202,0.1909410676,0.0203315938,0.4419189398,0.3174681125,0.7034855465,0.117495464,0.385364609,0.2513541385,0.3135908817,0.1738021157,0.5956142488,0.4470651144,0.7018870493,0.3151776003,0.5343714219,0.3010824446,0.6101057012,0.191148941,0.4573147912,0.1606623878,0.1416833061,0.1803137126,0.1608011468,0.6629089589,0.5314168286,0.5657729563,0.5960920551,0.2151182809,0.5315491494,0.0533553751,0.1245106327,0.196602719,0.6104253578,0.6900796257,0.2005931254,0.4185031034,0.5634827399,0.0062137151,0.280195738,0.3344655272,0.0705139905,0.2309181474,0.0691834954,0.1741017063,0.0221780171,0.6224676219,0.4452568033,0.0701858849,0.5096638776,0.091592892,0.4527150807,0.236452432,0.6438364616,0.5041595942,0.4250077276,0.6786852959,0.2913969058,0.4789288218,0.0743260988,0.4030763039,0.0011231158,0.17894262,0.5397772064,0.0735885261,0.650885735,0.159498939,0.6987357958,0.1095569818,0.2211311301,0.2550687717,0.0171157186,0.1840450829,0.6945786457,0.4567738331,0.5070228837,0.5555113727,0.2858571698,0.3038942329,0.017137976,0.5144570315,0.5271877297,0.6832632202,0.1687813853,0.0684655795,0.4651274566,0.1584424277,0.4915428949,0.2041444783,0.6862482741,0.2710679053,0.2539587932,0.1863506407,0.3711784988,0.2540866831,0.1501722993,0.3590256173,0.1591040014,0.5777056696,0.0812764765,0.2041190554,0.6902895559,0.6096686478,0.3240825325,0.4911862118,0.2609177869,0.1159104055,0.2053596116,0.1593395775,0.5494981734,0.2362459453,0.2325210909,0.1960146914,0.6020385318,0.630598921,0.4827548341,0.0643647717,0.4499618522,0.5012439111,0.2655973649,0.6850947544,0.5585195193,0.0783146754,0.3605604134,0.5923687683,0.554786041,0.210271646,0.5606336575,0.5048754987,0.5547281855,0.4097095541,0.2717207141,0.5537047264,0.3252661545,0.0678219984,0.6674525039,0.5374382242,0.1347676111,0.5153317171,0.2088937381,0.3869099881,0.5574610825,0.2264350311,0.2153918945,0.6288055426,0.6337548172,0.0161244193,0.071933981,0.0093107038,0.2985050552,0.3767615013,0.3582715854,0.6057236562,0.6681102092,0.2369333977,0.2055589188,0.2530532461,0.1572383096,0.4098588263,0.1536256564,0.494399527,0.4009786848,0.4849991752,0.7250544347,0.6152395418,0.5002413413,0.5894888929,0.342540381,0.0120084831,0.2639131187,0.2642382658,0.5846108773,0.0099704493,0.6092322333,0.3534745039,0.34719357,0.4836726435,0.3014234568,0.1086690432,0.4247656325,0.1398941986,0.7061768553,0.1205045222,0.5898596769,0.1913575261,0.6850859796,0.4259696074,0.3640263502,0.4089023458,0.231955894,0.5079732811,0.6639485172,0.4478015583,0.4994475366,0.0988914215,0.0343236131,0.3094330101,0.4487088636,0.0740716637,0.0222206997,0.7118104941,0.059890981,0.3992866694,0.3645853741,0.0188974397,0.0382276692,0.1301297339,0.0519666278,0.400606106,0.6015240125,0.3717597241,0.2716678728,0.2731259114,0.1057385766,0.6954162557,0.0618775628,0.5811248845,0.4354871828,0.4815172532,0.4530508994,0.5905677478,0.3725252721,0.1287168617,0.1908101814,0.3537486184,0.6282039041,0.3208524459,0.5516120459,0.1783138347,0.4287088385,0.2750580309,0.500000364,0.3268227241,0.3070442926,0.2799183971,0.0740143685,0.2311020022,0.5197528519,0.2933454839,0.1945596037,0.3813751547,0.6972393832,0.5902952094,0.572838624,0.7145568267,0.1472960548,0.2197448276,0.3762242285,0.1360698151,0.6513733378,0.0329364177,0.2575337959,0.1333419251,0.1976972773,0.6957456737,0.1327761229,0.5516236719,0.5055914313,0.4091151408,0.6613756829,0.439844619,0.7151249116,0.6992763884,0.6059220277,0.2191577887,0.5159362267,0.5746442169,0.2136443858,0.5664147012,0.395150184,0.3745702533,0.6792796102,0.3624246827,0.4231955796,0.2764050227,0.5079808311,0.6783872276,0.4303437327,0.2844829472,0.0159815834,0.1334163734,0.0822638349,0.12948253,0.4787079025,0.2683363107,0.292523475,0.1926403807,0.7016152935,0.2196173117,0.2101633044,0.2077796363,0.2877544396,0.223823959,0.04811939,0.6640825249,0.3798012131,0.3307286533,0.5362475606,0.6274202595,0.6486345461,0.3283095333,0.0544758153,0.07711536,0.4052786254,0.2439094134,0.0708912435,0.4320441928,0.1736601362,0.5146102827,0.6685907445,0.1245542603,0.5098930091,0.4900279984,0.0393607354,0.6973261715,0.0381962864,0.5937510048,0.4301820035,0.4321045857,0.2431806006,0.3950035781,0.0567554593,0.5497527391,0.0568262435,0.6148231331,0.0640513318,0.0855347112,0.0748538831,0.0733979963,0.0556805756,0.3562083071,0.1787072808,0.5670130205,0.2489692267,0.1096519744,0.3038250298,0.1000156353,0.3554144261,0.416829163,0.5613521786,0.4916956952,0.1354765296,0.3982299529,0.4505884771,0.0180509894,0.4192652748,0.3533086083,0.0897033334,0.0783287306,0.1505392497,0.0034615185,0.5407725037,0.649358001,0.6538469199,0.2152276074,0.6401485991,0.6249157102,0.4807391296,0.4478562524,0.0677610099,0.1255642558,0.1828984026,0.15737508,0.6404830709,0.0975556249,0.5848101379,0.3003975542,0.0305173565,0.5705702391,0.3879982442,0.0732072117,0.0910298486,0.4857102941,0.191571618,-0.5581337939,0.5713389282,0.4875927409,0.259878656,0.0257320722,0.2353491601,0.421544386,0.2451482721,0.4541282058,0.6973986038,0.2959597935,0.2416099016,0.3229451538,0.1041389327,0.5991889407,0.2652059956,0.1529897089,0.2248708273,0.0591383779,0.2447856947,0.2662292925,0.3138607529,0.4009039356,0.3736112054,0.068038188,0.6399810177,0.5333392723,0.1807608706,0.5826144221,0.0278314645,0.5758752223,0.4669206288,0.4094053122,0.3023044941,0.7185947879,0.6530384617,0.2300921128,0.7244870697,0.1681391436,0.0726378834,0.3248363601,0.6262635596,0.503630868,0.1878911455,0.2009495286,0.1425359808,0.0013470008,0.4330118791,0.2035308474,0.1748381435,0.49870464,0.0645792391,0.2988462374,0.5623753833,0.5542878925,0.3893475134,0.5242370801,0.1903579617,0.0336600261,0.4321348593,0.4268746712,0.6530733794,0.371111805,0.3007189736,0.1736919055,0.3092656974,0.2809363078,0.5869478761,0.701545904,0.4829115907,0.6063331396,0.1314352747,0.2433823693,0.3716496521,0.0655170233,0.5133882455,0.6901253443,0.1626075954,0.45664765,0.5025275095,0.6400070304,0.4877002838,0.3859226761,0.2458376841,0.4254785648,0.3273026818,0.319459326,0.4556766674,0.2310853221,0.4063254288,0.4947628026,0.3181356073,0.232679575,0.5171477163,0.6933230149,0.3622767321,0.5512081443,0.137595993,0.4752269776,0.2213868527,0.2086677438,0.3994001554,0.244934296,0.4628792669,0.223020704,0.3362341073,0.050950076,0.6741595935,0.3775278488,0.2544395608,0.2743328927,0.20654208,0.0600408662,0.4094932351,0.2264124588,0.4622501656,0.5498060579,0.2299938226,0.5116400579,0.1151441595,0.566783036,0.4707117978,0.033333689,0.5409632731,0.5458612321,0.2246042864,0.3659161171,0.1023732838,0.5634744111,0.3884181801,0.4188412603,0.7184634184,0.1742392488,0.267196937,0.348976233,0.6859198854,0.0427424755,0.2393949266,0.661953313,0.5254216384,0.7127938939,0.5178260236,0.0285887939,0.6600087545,0.3948472812,0.1290518761,0.4418805362,0.1041806493,0.3946222098,0.329152429,0.6491595857,0.2048254366,0.3953659235,0.4243429867,0.5587560295,0.0325470264,0.5121017373,0.5993241781,0.4351073254,0.4619455035,0.3083633246,0.0000021025,0.5647343559,0.6289049426,0.5006829763,0.2576808701,0.5045512928,0.213105215,0.5339908394,0.4322524222,0.4464825624,0.0163346192,0.4285984082,0.3077785841,0.3441486803,0.6330314954,0.2646268135,0.3254996284,0.6286829639,0.5567986611,0.4939577222,0.2348473896,0.4101273844,0.2623586718,0.3446621741,0.3962791333,0.5506502681,0.0908712006,0.3646773035,0.3058312215,0.5958696918,0.2357180945,0.2073322678,0.2367949021,0.600349984,0.436280851,0.6528294177,0.3998726026,0.1661265199,0.0981545577,0.6977670138,0.4934003133,0.0438515988,0.5163745788,0.2944905884,0.4934429551,0.5883330896,0.2566336206,0.1176374089,0.4467267448,0.447974679,0.4080027412,0.4658933815,0.1289623597,0.5452430767,0.4641616534,0.014042195,0.0153389457,0.3452417079,0.7209447219,0.4677426491,0.178235998,0.1500652014,0.593765443,0.4339433594,0.1579449959,0.4284134141,0.0310182037,0.1968221278,0.2412288799,0.3851469765,0.7139223233,0.0790698632,0.1813725389,0.3102490133,0.5217970477,0.0753734864,0.4301273168,0.6449749994,0.5589171278,0.2990591997,0.0697536515,0.6971460895,0.26457416,0.36725828,0.5166338553,0.3461467277,0.1191887035,0.4395018716,0.1783595733,0.351521221,0.0576558737,0.5409024936,0.4789725824,0.5961630395,0.3574178568,0.523670608,0.2437574772,0.6038622765,0.7166012622,0.2454594842,0.140023112,0.6438802371,0.3367985402,0.5974733589,0.5683974039,0.6255426112,0.2451816506,0.0221677374,0.1201865997,0.6941839895,0.2819115144,0.0262959232,0.4423816887,0.2116503228,0.4981235413,0.0541669474,0.7086776816,0.3711027052,0.6948717034,0.2136880095,0.6488472456,0.7063793118,0.4962594092,0.5153695824,0.5142710773,0.4236012986,0.1582485461,0.6152935952,0.4022413695,0.051467021,0.14556392,0.0087777446,0.5635650661,0.2214450889,0.438742037,0.5823474144,0.2793929713,0.281968951,0.5850683296,0.3683141974,0.1170770355,0.448248291,0.1312045651,0.1713110887,0.4049355969,0.1996125275,0.6226236574,0.174142784,0.3859006212,0.2759246874,0.3225550487,0.4890047968,0.0123635386,0.0912564986,0.5011619268,0.1211109157,0.6063658408,0.2405284142,0.2520030422,0.6981299608,0.3323924343,0.4910837462,0.489459733,0.0522664753,0.1174088737,0.4662768609,0.2833589997,0.5917574292,0.6140432046,0.0541101741,0.1014326277,0.282414491,0.6876102791,0.0191232141,0.6805152659,0.4230558567,0.4699373732,0.0559328556,0.3035285914,0.4389309698,0.6195500205,0.4519353535,0.0866092141,0.009915055,0.1640958152,0.5426811428,0.3738343141,0.1055804855,0.6212437871,0.1061878462,0.6892642245,0.0405552875,0.0687634215,0.166952661,0.1116817137,0.6603252453,0.2821935897,0.7235351708,0.4050624422,0.7108575879,0.6980692234,0.3244111224,0.1490923755,0.6279062967,0.4303453551,0.2420573777,0.457554279,0.2569315585,0.556722329,0.6091715306,0.5481801479,0.2540472502,0.7221539817,0.2194660501,0.3427393879,0.4786213813,0.1004731687,0.3430644882,0.2253675118,0.0079919114,0.1279790317,0.6703375728,0.2171058013,0.4255576794,0.7073217293,0.0858245616,0.6497082145,0.3810076017,0.1796787133,0.2449946398,0.4683234101,0.2070200477,0.0672822878,0.1151329782,0.0403092194,0.3776807901,0.151314286,0.2799085327,0.0123672336,0.0855395066,0.0827909394,0.2982266711,0.001455584,0.2547633945,0.3556951294,0.5535407045,0.1181791488,0.4996432411,0.0441620645,0.156877727,0.305764015,0.4657753355,0.1896536878,0.1430601138,0.4380794077,0.1406368344,0.2365481045,0.2842823765,0.5007964012,0.5532481197,0.2218605358,0.2802229407,-0.3774639586,0.2668492016,0.7077748336,0.652491291,0.3653217579,0.461482077,0.3946898375,0.4847929282,0.3657699246,0.4152699103,0.4118964292,0.2320929633,0.1244960476,0.3976328027,0.3707728306,0.4645019084,0.3189189351,0.5829233771,0.6743032364,0.3517013372,0.0642178387,0.6262753246,0.2595200053,0.147653337,0.7235461121,0.4765309889,0.4270647019,0.6282467108,0.0913544568,0.5884338273,0.1401802438,0.5478505919,0.5557973942,0.3881382942,0.5756054039,0.4102877294,0.692970153,0.5430993702,0.6050396725,0.3649758253,0.1887717688,0.4590286145,0.2319251695,0.003964643,0.4026300324,0.4087518811,0.2013054543,0.0862694899,0.5918766814,0.3515774623,0.3625875372,0.4833973284,0.2912796016,0.0906330205,0.3344958787,0.1524174957,0.5597897913,0.0796907672,0.1247107338,0.3434699634,0.0761064865,0.684757641,0.0966171194,0.2390248484,0.5850096814,0.0291594403,0.3504610506,0.4869216151,0.3532060969,0.32974334,0.6463161571,0.3587967379,0.4147813373,0.5559985541,0.541007271,0.2129712261,0.2609293736,0.4133086668,0.5165662719,0.320139147,0.7192525757,0.2818279478,0.5672631695,0.4128676917,0.3662629309,0.313806103,0.3893500795,0.0603734746,0.6251190896,0.3632820657,0.3272968173,0.6279154978,0.443694387,0.3719623295,0.5257702803,0.6524498287,0.4538897642,0.4392412041,0.2185148488,0.0115964189,0.1260395385,0.3375603411,0.3266851942,0.1641346477,0.3313056869,0.4217917918,0.3879717141,0.0911540724,0.4359030587,0.2961200668,0.2533110043,0.4844201421,0.0187228332,0.7236273534,0.5311884103,0.1538013465,0.0368348228,0.3846804873,0.7173241279,0.0796707048,0.4225093089,0.2222344841,0.0157037824,0.193929773,0.5287164314,0.1379697588,0.7079288619,0.0340700832,0.1673009994,0.144288349,0.4623178776,0.4336072236,0.486025492,0.6629855837,0.5549412959,0.1497584783,0.3792822663,0.4804867065,0.0455834242,0.3877768287,0.1775816408,-0.3075349795,0.355537837,0.4962570401,0.5506681328,0.3774195859,0.137815792,0.6268579549,0.6547439247,0.238964021,0.2765933127,0.0501328696,0.4444284934,0.3565200738,0.1429127959,0.4186446082,0.655352124,0.3361995468,0.424027351,0.2004327174,0.6999482558,0.0405317723,0.0565304464,0.5659723884,0.0280382132,0.6605332126,0.3273133456,0.0473670771,0.0576518081,0.4773548077,0.0141708552,0.6337272917,0.4340848798,0.5421989188,0.4440402987,0.3341409745,0.354596927,0.0282346612,0.047865747,0.2442422314,0.0664912131,0.4276201342,0.2940612,0.4013900108,0.168054129,0.5242248945,0.552828328,0.5235745258,0.3365272352,0.2741752899,0.3415893723,0.2906467579,0.2240427626,0.6929219884,0.5209865724,0.5121462672,0.6006778318,0.2521725716,0.4219027415,0.000364988,0.3601155557,0.4483232549,0.2065410144,0.2129541489,0.6911312718,0.6069984445,0.0181441718,0.4068577594,0.644695918,0.6598753217,0.5669887712,0.3773592313,0.0128285768,0.6162900403,0.0737974727,0.3917000977,0.5826739295,0.6016552123,0.7061358337,0.1869959871,0.280113411,0.3840157687,0.4065104928,0.1265727158,0.6703467517,0.5399593167,0.528103189,0.6979729346,0.2934236605,0.6928425062,0.0229144796,0.343626526,0.5919840077,0.4204257766,0.0393313339,0.3403403923,0.3437321066,0.6683519765,0.563881281,0.6534245197,0.13397758,0.3000919239,0.6947148781,0.128515057,0.6568548158,0.4414506418,0.2382577057,0.1538052048,0.3720288673,0.3744320638,0.5874466074,0.162165646,0.225518345,0.2233168649,0.5915767645,0.1285523403,0.6926657885,0.0810070359,0.1185194649,0.3597780263,0.3829144425,0.4412066528,0.0525205307,0.1142485867,0.4443593246,0.2935409988,0.1559477672,0.4196685628,0.2491725046,0.5132322397,0.5919560479,0.5494629823,0.4169569983,0.4739877388,0.2552882905,0.7108479124,0.3694448794,0.547859792,0.3495948854,0.0214773801,0.2545876496,0.2350228167,0.6623608891,0.1762281418,0.5873107734,0.2830681729,0.3759717298,0.687276186,0.4160198212,0.443696382,0.0219772924,0.5646443964,0.1329752326,0.6386392272,0.1576656247,0.0944871414,0.074156699,0.6285676084,0.7050429698,0.3840688543,0.1103833701,0.3836477684,0.2839422976,0.020009732,0.6563740822,0.5111708538,0.0343411507,0.5826035966,0.0468634936,0.1815416396,0.3380055912,0.0373516857,0.2536138862,0.6112610009,0.1022407576,0.6361584463,0.654385358,0.351109619,0.5815190467,0.2666397299,0.5649058341,0.6823199116,0.4343398164,0.1604808216,0.477725181,0.6174056012,0.2290570775,0.2347859098,0.3654131148,0.7162890134,0.5254313029,0.3171569522,0.3914972699,0.155892693,0.5185719065,0.5336137913,0.4278473003,0.0108374126,0.6465555965,0.1896412278,0.358171468,0.040105538,0.6610645329,0.3671961813,0.0491185478,0.1258547433,0.6993633853,0.1650949877,0.5961623835
   0.23232385,0.3141664984,0.2142318266,0.32254902,0.3335584522,0.7010466558,0.6091714571,0.6344780291,0.1164754655,0.6511430283,0.1586898592,0.4712856028,0.4532726853,0.1380385423,0.2554590542,0.063794991,0.1513828274,0.6290117962,0.5765258793,0.5703663246,0.0378432758,0.1343143783,0.3628813413,0.6242182084,0.2283061234,0.468898128,0.4451703495,0.2362492375,0.4635275191,0.2338736977,0.5714545913,0.0243274065,0.6501159666,0.6131022548,0.3261677757,0.4474875271,0.7031964625,0.6321554721,0.1237707417,0.6991257025,0.2283244785,0.5579297489,0.5741956789,0.6133830605,0.2236084346,0.5682421485,0.1721243781,0.3341351743,0.6784801683,0.6923250346,0.0099685096,0.5923248127,0.1491664798,0.4494322802,0.1718917569,0.0533701173,0.5703391419,0.3015423054,0.4758192164,0.139219427,0.5422045797,0.2329106602,0.3969435424,0.3616055891,0.7034333622,0.3045145833,0.3944051832,0.0450994728,0.5329291485,0.5483719137,0.3145265877,0.0719124547,0.1761263459,0.6209830172,-0.0382867995,0.7114887847,0.2367847359,0.1740505111,0.1419249487,0.5780271711,0.3053058351,0.3744721068,0.2577967995,0.6097372425,0.6777029915,0.3383351867,0.0358070979,0.6088251561,0.3782751534,0.6166907191,0.216757032,0.1574220152,0.2924295456,0.3950523237,0.2482472498,0.1403289279,0.5811190935,0.0132830066,0.4850484714,0.0467623057,0.5502504705,0.0580681018,0.6886499664,0.4153931507,0.073428182,0.2175211929,0.5671879936,0.6448691009,0.0468522038,0.3573631296,0.6875428396,0.2551869859,0.1150360975,0.1320477496,0.3245497873,0.5651453094,0.1213038469,0.0109179105,0.664638925,0.6302718792,0.5772289517,0.4987304478,0.118086646,0.6670826904,0.2671717014,0.0413229202,0.3333633372,0.63438304,0.1066558983,0.5547610095,0.6727911787,0.3439545751,0.222984342,0.641335777,0.5828666443,0.091885479,0.2393657153,0.5809913465,0.4686201119,0.6948695974,0.4283230014,0.5792761887,0.4065468667,0.2812311946,0.1658416687,0.4198570105,0.24628376,0.3529611572,0.6897436394,0.1894936906,0.0064248344,0.239227133,0.2106208156,0.1748123777,0.4676579876,0.3790514497,0.7077712222,0.4726367066,0.354670408,0.0700502557,0.364795408,0.057547319,0.2314962361,0.0042428397,0.4962989793,0.4386825715,0.5521066459,0.3846007095,0.6951660346,0.1562886876,0.5252116014,0.718499596,0.3573113091,0.0830207527,0.3060018147,0.2297613471,0.4830111282,0.3546289997,0.3717962065,0.1260979546,0.2551365653,0.6138815346,0.5277573391,0.3993160106,0.3782195008,0.0864615926,0.7176137495,0.679077011,0.0660221692,0.2570346936,0.3084336218,0.3456805628,0.4334285184,0.6944874676,0.6318108393,0.5691537281,0.1846634844,0.0982578472,0.3137339079,0.29767064,0.1167881257,0.2883557546,0.300508008,0.2284535015,0.700306283,0.5233376008,0.3417209303,0.0666325226,0.0569133841,0.1857654235,0.0999875848,0.0587383598,0.4369280264,0.1780799615,0.7223120256,0.3058363682,0.3788287467,0.1424751093,0.4425215051,0.722425642,0.233888137,0.1251515825,0.0152988013,0.1548105298,0.097938706,0.366824141,0.018275228,0.1063904594,0.5217357452,0.1025720941,0.4988105296,0.2392553471,0.0448970162,0.2148271634,0.3901032439,0.1047185712,0.1075883764,0.0753461405,0.4897026519,0.6152104334,0.3731440922,0.3216291457,0.4242578574,0.290390407,0.3651844318,0.1488258405,0.5785028523,0.2674318089,0.5606061746,0.6034059797,0.4787930725,0.6864314142,0.35211384,0.0703261632,0.2823726887,0.6181100709,0.5713945467,0.5229228033,0.1952595871,0.4960269429,0.4645948498,0.4519522713,0.2337516283,0.0847426065,0.5743318162,0.2166057039,0.0259553239,0.1365730517,0.5148759672,0.0522413036,0.5485556636,0.5771684623,0.4221662301,0.5371201276,0.1318452193,0.3260812585,0.0521132068,0.3139460179,0.7020795536,0.1937927802,0.2766232902,0.2467368685,0.619644016,0.1282876792,0.2270670361,0.255746212,0.6208434585,0.2193749735,0.3199831325,0.3804452782,0.0163486573,0.395000141,0.1559048491,0.5292843746,0.7044633344,0.3218325186,0.575757824,0.5988290955,0.663185362,0.3716192146,0.4987185215,0.1018865323,0.1232113052,0.2609172523,0.592031196,0.0876881479,0.1610962161,0.0681372167,0.3191230582,0.388042639,0.1697136153,0.4975269647,0.3726098218,0.5145366728,0.3919383306,0.1498730561,0.3031205228,0.6525819611,0.0454861976,0.0748990044,0.4966739678,0.0316038344,0.5574049559,0.7104304778,0.2164691035,0.5963424147,0.1999744885,0.4763117171,0.2740544222,0.1279745548,0.3212206385,0.4706552169,0.4155685192,0.1110393296,0.2402224569,0.415275488,0.2160424009,0.1800813787,0.1633791947,0.3041016888,0.0045735519,0.1491667063,0.3650672288,0.0523565908,0.0547894239,0.4154615061,0.0143204724,0.6678186853,0.3660226518,0.1342574245,0.2309043708,0.6823399881,0.4040778255,0.1039556991,0.3188270569,0.1021373062,0.6899310194,0.5708068044,0.2145976979,0.6197127599,0.382242982,0.4514464936,0.4337661037,0.694133316,0.4706461032,0.1154156337,0.0683032802,0.5192785324,0.3777523276,0.0980370343,0.3223313501,0.4753427133,0.6043068638,0.4819286778,0.2943561409,0.3685738069,0.4653481837,0.3098366819,0.0863359277,0.0403112519,0.6030033853,0.1029058316,0.1472649128,0.3011721971,0.3900874305,0.1521857327,0.0360381209,0.0933846264,0.4430106116,0.434869103,0.1289863535,0.1576629637,0.6915527635,0.5463592092,0.5525223084,0.1693076151,0.418390095,0.3910417319,0.346501718,0.1538722372,0.3709017919,0.0356046482,0.4537952905,0.2526949641,0.2162248073,0.2509995404,0.059843809,0.1211364639,0.4625462861,0.0748301827,0.0085400313,0.6763788578,0.6687196204,0.3204684241,0.304263852,0.0407710378,0.5739088772,0.1317745144,0.4197671714,0.210821808,0.4123038883,0.0999746701,0.0491231467,0.425267997,0.2930729994,0.0514002189,0.4836853354,0.4147153071,0.1693456511,0.2765945199,0.467314088,0.5548942163,0.1418424089,0.4860093366,0.0121924048,0.5682399351,0.7188436987,0.6073938717,0.1637263447,0.011143778,0.5587610809,0.3515115394,0.2096417046,0.3234753295,0.3827865765,0.7222761995,0.6500340388,0.4279918804,0.4785298165,0.6036546753,0.077617877,0.5572061825,0.2116037691,0.1780021004,0.2008485399,0.2122882502,0.1561407699,0.6045328167,0.4302857052,0.3441519342,0.5783395557,0.0776269658,0.0919838375,0.5461467133,0.0126483171,0.3615036124,0.4536319883,0.477476513,0.6281471622,0.0490973092,0.2681551725,0.5571047064,0.5134724385,0.3474506425,0.2040375186,0.2147892809,0.6085966156,0.511321301,0.1016392193,0.3314843878,0.2947739348,0.2195569553,0.1432696405,0.2145163377,0.0360828051,0.0331321545,0.5056766792,0.1713960219,0.0868205795,0.1104913548,0.5906651708,0.1537273337,0.0630458915,0.2514831466,0.2219381447,0.6304009148,0.5855155299,0.2626957921,0.5288131573,0.0039746796,0.4632673476,0.5402232598,0.3119956099,0.067493733,0.0081333425,0.171500736,0.4563807307,0.3451502662,0.6876781771,0.3344134948,0.6077521303,0.4181911266,0.1511943959,0.6401380862,0.3851727009,0.1792494653,0.1214138311,0.3659009705,0.3378986519,0.1562254508,0.2185680632,0.2422540048,0.2130914539,0.3141628826,0.1056326343,0.0483511514,0.1006152853,0.0101941166,0.6530001533,0.0499617184,0.459007612,0.2647187322,0.3168092964,0.033617286,0.358573739,0.0460884915,0.2274771763,0.4492708978,0.0765406243,0.0042686813,0.406238788,0.2887273914,0.5153782714,0.2647882917,0.2904041726,0.0320047338,0.5725767263,0.6778103999,0.5801864769,0.1773447612,0.6384215041,0.3664572697,0.5087326022,0.3459633373,0.4574076335,0.0192265443,0.0584538597,0.684500135,0.0977748154,0.3162592164,0.3655901249,0.0543376413,0.4921340895,0.1509905651,0.5070605339,0.4028874306,0.624710752,0.6265025552,0.5460663203,0.6695870158,0.4970451393,0.666711186,0.6926964514,0.285085221,0.4454076362,0.0013106262,0.7015441797,0.5238645718,0.5725479345,0.1134870464,0.694461546,0.4407771625,0.4086988723,0.4987423205,0.4163473939,0.2289277389,0.1864742997,0.166352153,0.1076731907,0.7201606499,0.424198565,0.0902987547,0.229667709,0.2759402737,0.365269685,0.4420349078,0.2360397548,0.3275833046,0.2407456864,0.5389021285,0.4721741395,0.6128379374,0.6300171723,0.3613701736,0.1456018333,0.5925271809,0.6476603942,0.6857647509,0.2088894253,0.6158259357,0.6282734185,0.7210581446,0.5650611525,0.7033592503,0.6374437345,0.5292115636,0.2115057794,0.2283122501,0.6406925351,0.7173502158,0.0672779465,0.3204859014,0.0276788999,0.3262881733,0.2867592284,0.321270027,0.3987474093,0.1233679268,0.0545800638,0.6872033824,0.5427422779,0.1586080197,0.3226556523,0.5103100389,0.1820423868,0.5497612659,0.4446411467,0.3887206069,0.0159557455,0.5091331738,0.0926392373,0.0975258679,0.3683541205,0.6248487868,0.0415483655,0.2198537853,0.4319842654,0.2269743589,0.2905765369,0.0108179855,0.1417219219,0.4158546788,0.5298290506,0.6217540752,0.0211910489,0.0409739604,0.199221707,0.1689427708,0.5960927433,0.1378676762,0.1578027861,0.7095466301,0.5693391882,0.3850882397,0.6288064253,0.6596597491,0.2497265745,0.1329180158,0.3405351158,0.1174038702,0.1898931357,0.608608508,0.6395001812,0.0714991174,0.1728334126,0.581062417,0.0089425912,0.7179655959,0.5824017881,0.2992031767,0.6727065185,0.4542466847,0.579877224,0.311804118,0.572750892,0.3782603019,0.0408583704,0.00230323,0.2423662707,0.2837025853,0.6503970159,0.0666573895,0.3121777336,0.1015471744,0.7165315809,0.2519390639,0.2732100509,0.4965239931,0.4707929691,0.5168157333,0.7034671804,0.4013704128,0.1123813026,0.1848732369,0.0500048872,0.2572367316,0.5450647182,0.0241584195,0.2299750698,0.6431759999,0.0554615364,0.0917582745,0.6776107525,0.6343064094,0.3049726607,0.2157158899,0.7219549776,0.0419904699,0.5864004671,0.1127955888,0.3024205667,0.461422956,0.1319781814,0.0673223913,0.6890201093,0.6362469271,0.0473949322,0.5193490415,0.6090686032,0.0228662768,0.7073638415,0.7069904658,0.3258561613,0.4115905185,0.3518099989,0.5024604248,0.0534632268,0.102279397,0.21456751,0.546011471,0.2692295345,0.4621062811,0.6464746136,0.5471459906,0.2349487177,0.0687508491,0.2511438767,0.4102937725,0.2955549839,0.2223868052,0.4668226425,0.5999496122,0.5060774848,0.3056942281,0.3076278018,0.0928164611,0.7038265495,0.6695609417,0.3094413944,0.1963558668,0.3338775225,0.6914607564,0.0099314506,0.5610891218,0.6082097093,0.0433679524,0.0554178097,0.3696081401,0.1018095681,0.0745979636,0.2223664925,0.1294154818,0.5985702367,0.1705246605,0.2100562908,0.0922698163,0.6498385601,0.4176565152,0.0908648738,0.7001872489,0.004915698,0.3274007955,0.2285881855,0.4873388048,0.5810322889,0.6108479916,0.3399498386,0.0168050319,0.2123467632,0.7155720334,0.7063205346,0.4958851973,0.69648024,0.6704680538,0.1135132637,0.5969598723,0.2741727152,0.0983353579,0.4396714054,0.5011948676,0.4465309346,0.2356637132,0.2109739528,0.615565106,0.2581100662,0.6083877773,0.5751605374,0.1344118051,0.4736125006,0.1134927226,0.3714478227,0.0234150325,0.386092313,0.2864312665,0.6890319849,0.5978918095,0.1229566045,0.5753719096,0.1943318045,0.665445278,0.1627932315,0.5013192734,0.102301954,0.2692832919,0.0081683502,0.4413907356,0.4133009219,0.5317309296,0.4189555791,0.4722888562,0.5137249536,0.086318155,0.3208362243,0.4451046823,0.6968552197,0.1246858734,0.4996616696,0.6052729044,0.4132634992,0.5864089,0.257653059,0.0497208128,0.4819336743,0.0066052657,0.4125572651,0.2791015511,0.2007625117,0.2121147319,0.494058622,0.2726582729,0.1014561155,0.6795567411,0.5287402758,0.5537705685,0.1331948498,0.3239304869,0.6626099151,0.601672168,0.3730912488,0.1776250201,0.3121067571,0.6997582534,0.2356613906,0.0635058124,0.6540096561,0.0215001104,0.4481352267,0.1609409875,0.6348318793,0.1082930877,0.6153750331,0.649162803,0.2370220871,0.0237377506,0.4270173464,0.3007864934,0.6401110796,0.6453239175,0.0739952254,0.4339459965,0.3765856636,0.4024420509,0.201098682,0.0844244255,0.5987590232,0.3423353139,0.5219108218,0.6706476003,0.3837770652,0.5737322371,0.664705658,0.5190612784,0.6330674044,0.6798646791,0.2242739371,0.0508693466,0.440706396,0.4850598994,0.5699376622,0.5710847021,0.5907487502,0.5907019116,0.4233946484,0.5005867992,0.3708255293,0.4371533614,0.6068118413,0.0364437686,0.0067355166,0.5263524724,0.0280808648,0.4864039915,0.2094074799,0.0480778423,0.3672149734,0.4151421365,0.1724890895,0.2284117396,0.3765097116,0.1278378792,0.5603008537,0.3958881679,0.1378001328,0.6201477994,0.3616681129,0.1331666248,0.2018358414,0.5335909166,0.5430300854,0.5049475551,0.0692178525,0.4855985578,0.0213285061,0.565739402,0.269100035,0.2652419784,0.5638655598,0.5516075646,0.327600958,0.565388324,0.0652286191,0.3128707907,0.3506664019,0.7148672236,0.2795418345,0.4162999436,0.2143133965,0.6723461975,0.2128481708,0.6956237527,0.3946823294,0.4578132385,0.348208721,0.5191144782,0.2224572273,0.5146570937,0.3762582236,0.4152417508,0.5187555968,0.1566514904,0.4224032556,0.4548333046,0.3026766453,0.1662647122,0.500427767,0.7087081142,0.4435260549,0.6155597717,0.344430609,0.5516223234,0.1196265036,0.4647328642,0.695333668,0.6486195528,0.6123958292,0.6955955779,0.4452664777,0.0564763144,0.0102654644,0.7107312746,0.0537817948,0.3110462451,0.1734742218,0.5323152876,0.1566815286,0.3347912148,0.0861224852,0.6515417216,0.7067774161,0.7103603534,0.2337719069,0.4503409481,0.1287712412,0.6233895988,0.1790185702,0.1344285073,0.6447885638,0.4585433566,0.6727806872,0.6537540256,0.1736716703,0.162993612,0.6104156848,0.1490969144,0.348052212,0.1650125693,0.0131974329,0.4261368139,0.0405182486,0.4132421854,0.3201045384,0.4579567838,0.5904960169,0.3940628998,0.0511936754,0.1062668245,0.055899703,0.5094869798,0.6736216532,0.0714383176,0.1445628845,0.2076419703,0.4514825298,0.5849630912,0.2956451336,0.3312232878,0.2442909559,0.4805486736,0.120064246,0.6018661856,0.6002977,0.3259172505,0.0356681896,0.3530686633,0.1290968883,0.1377546402,0.0969918029,0.6485349475,0.0853066847,0.2467214844,0.1360281958,0.683179333,0.3808128066,0.0399900792,0.399482894,0.4395683398,0.2300091857,0.1470633047,0.3164143502,0.4249830076,0.2266717684,0.5656546885,0.3843407944,0.4584991818,0.5896657035,0.2834721523,0.1409836228,0.1296931085,0.4221652708,0.3550346746,0.2023853304,-0.0579526413,0.4503767752,0.1168062999,0.3842296167,0.1362642787,0.468646928,0.2282193624,0.619506476,0.0618875983,0.3260819979,0.2177957514,0.1805481407,0.1042771373,0.2831431618,0.0877370401,0.016477458,0.2488028738,0.0798342817,0.4445538714,0.0444418405,0.1504814694,0.1367720733,0.1392024271,0.1954126237,0.6638743715,0.6290846697,0.0147987035,0.0002590981,0.5552672344,0.1109541678,0.540969375,0.1703161173,0.4463889223,0.4227120217,0.2007660136,0.3703864962,0.0872176906,0.5018847966,0.3014144275,0.0842739882,0.249408409,0.5384528738,0.4039911356,0.6245604347,0.4266810934,0.4341304034,0.0495116765,0.5945062831,0.0660261411,0.524097609,0.302907634,0.5760446897,0.4206526535,0.1021404563,0.432956432,0.6513706912,0.3942582826,0.6439817365,0.6433135944,0.415063735,0.340018659,0.6373642888,0.4069233994,0.4044436981,0.1717362826,0.2682078561,0.4990896744,0.6020657959,0.2340291058,0.1308452115,0.5829819016,0.1968046762,0.3207916794,0.4520576973,0.6142319912,0.6492288532,0.588084676,0.4757405004,0.3105402984,0.5677750923,0.1713286992,0.0804551722,0.1389166621,0.3508065294,0.6195212307,0.7174316428,0.5492623194,0.3890087215,0.3155476455,0.5138596864,0.3589813315,0.6778534479,0.6046036552,0.6400418462,0.1171030561,0.592208186,0.249638734,0.496381163,0.1935173854,0.2838577531,0.3082399315,0.0665428518,0.6355797941,0.0986966233,0.3681871252,0.2508182039,0.3231304561,0.4275335328,0.2722019867,0.5602554619,0.1428564098,0.4734877671,0.6547309674,0.5097329681,0.3609885729,0.1188866884,0.5713871038,0.4435473482,0.4857740004,0.4754626713,0.1955923562,0.5417000408,0.4905943722,0.458577168,0.5307341522,0.3361991285,0.1221876811,0.289468663,0.3750899922,0.1383036042,0.3216195657,0.3392658506,0.1760985308,0.3397249084,0.7079149634,0.6002707614,0.2885402236,0.5566520737,0.2239677043,0.6660955128,0.0227804856,-0.2508930567,0.1873796332,0.7034581554,0.6464201019,0.318616167,0.4294265514,0.3527182469,0.3375852876,0.0102282035,0.3996818952,0.0296959957,0.7177772195,0.078020256,0.6230529219,0.1622944433,0.466431928,0.1683325669,0.1063051091,0.3885058635,0.5979379816,0.4920268398,0.027122853,0.187899037,0.4511131288,0.4432100757,0.3644655959,0.6178493368,0.2375187963,0.4190242617,0.3372152052,0.1528402082,0.0886022509,0.6124889255,0.0412358583,0.1621586284,0.628872033,0.0460169692,0.2734449551,0.2902922183,0.1945331438,0.4735879576,0.0532285895,0.0019162847,0.3998449689,0.6771150699,0.422277145,0.0177815798,0.1365241126,0.3573777561,0.2907426756,0.4164156247,0.099903255,0.3475016787,0.2430177685,0.5051469793,0.3872943879,0.3806641953,0.1970888568,0.3186666595,0.5395774161,0.5618320877,0.4757917315,0.0122934263,0.1749219863,0.0492523706,0.3772613906,0.1821023194,0.579364139,0.4792352608,0.4391735138,0.0603270668,0.0679154835,0.0046361769,0.6159601418,0.6079342082,0.67065056,0.0076422667,0.1911079153,0.0725745296,0.6601732332,0.6371518082,0.0183478783,0.3656863691,0.5037815322,0.0945781104,0.3044592671,0.3619469533,0.3045820914,0.4463645254,0.0921686026,0.0961707274,0.3290103968,0.2852324957,0.1664583522,0.1655206597,0.1013418317,0.1113436789,0.1687484521,0.643868577,0.469223614,0.3262572435,0.2435004064,0.0881276455,0.5984560798,0.2860312066,0.121919604,0.3951086139,0.2509610971,0.4474849768,0.1561959224,0.3692992004,0.2233495368,0.1700829888,0.144963624,0.530615573,0.6621402005,0.2110969936,0.5441503411,0.3470338181,0.5698118226,0.461101747,0.5796483196,0.4517614576,0.7231888036,0.3499523121,0.2027995553,0.3222505525,0.6409736367,0.697628164,0.621822934,0.6283126643,0.2192138542,0.5956863606,0.4600995535,0.6827316199,0.0380796223,0.0374302442,0.7105194214,0.5656254035,0.5927848386,0.456314283,0.5378452341,0.5781396323,0.0846831297,0.5448257074,0.536104678,0.0747146442,0.3290955108,0.6574185924,0.7181160881,0.0692816946,0.0338196303,0.6396683699,0.0124546893,0.6075175336,0.2004407632,0.2416903145,0.0285951263,0.4291362008,0.1899917639,0.6239412757,0.5873162393,0.7003615786,0.5613575271,0.4561683761,0.3855495039,0.3550441831,0.0291545964,0.3245182073,0.0954128924,0.054120537,0.6227458792,0.6324283949,0.3665906034,0.5357430514,0.6105109797,0.2533691786,0.6455192956,0.1302980599,0.3876300196,0.4522384232,0.0630642753,0.1922297177,0.4510296943,0.4641860491,0.6290019578,0.2008082842,0.3113116651,0.6928527348,0.3785256126,0.5741543519,0.3202667942,0.1674850172,0.1305683452,0.2980511142,0.4562998211,0.5285981209,0.1627860148,0.1184559544,0.6877817851,0.6223808683,0.618240119,0.2135336756,0.3685394646,0.5239362944,0.4300207426,0.240262737,0.3918091994,0.226675539,0.2750381676,0.5530145863,0.3575993549,0.3302884594,0.435630947,0.2989984474,0.2030874507,0.6393182134,0.2939945488,0.4350436454,0.6938697701,0.5843805292,0.2989692624,0.3471427094,0.636044661,0.166764543,0.6567710661,0.3788965777,0.4931546515,0.55841809,0.3852439992,0.7192535681,0.219266641,0.1362117045,0.3549248511,0.2553059404,0.4157782023,0.697274795,0.1687448952,0.0276883746,0.6184588937,0.1246621228,0.5157108727,0.4834132038,0.4359233806,0.5052792344,0.2059704817,0.5642408989,0.5313209588,0.1527237125,0.3738051665,0.3356651187,0.071494883,0.5552091585,0.1512823208,0.5570726067,0.3382584348,0.5776626336,0.1415524219,0.44635502,0.6694426331,0.169802203,0.4319881105,0.0483176623,0.516074939,0.0284553774,0.3565467686,0.1223598227,0.0958264452,0.6361163995,0.1529042999,0.2043141883,0.2078563282,0.608667061,0.519332729,0.5400953988,0.092317164,0.0644285061,0.6601737933,0.7067831335,0.3480981851,0.043142996,0.0153004262,0.5975059635,0.3325521332,0.2666706023,0.4454696701,0.0545632185,0.6952766512,0.6611004195,0.1452396924,0.1084717175,0.5277647247,0.5262764408,0.6098778584,0.1610511296,0.6095347919,0.0260431948,0.4691097348,0.6427685354,0.205819009,0.4473116903,0.4048196473,0.1353450821,0.5417535427,0.7191557369,0.2524549264,0.1181084416,0.472056744,0.1700243243,0.2564331866,0.5738510756,0.6564147007,0.0982771996,0.0328969291,0.1355705111,0.6392608892,0.1990793736,0.1299934993,0.7123269467,0.443444783,0.0771349925,0.6808690733,0.0926645305,0.1989127742,0.3714310667,0.1261233514,0.7007551744,0.4549185809,0.2849618352,0.4106437446,0.238965438,0.1087713648,0.5726707377,0.2297423194,0.4153879417,0.2322938072,0.5107610222,0.5310839283,0.6698218684,0.4536871136,0.1907810695,0.6648857379,0.1814353601,0.4489751994,0.0848511011,0.4505595507,0.2719547422,0.4196443698,0.0038588422,0.1389155711,0.2593614198,0.0707072156,0.1603442769,0.3395288856,0.5411978011,0.1759684073,0.2275643027,0.3181746366,0.4799365777,0.5469154777,0.5355118159,0.3044446635,0.5200343521,0.0910237212,0.2317329826,0.403341356,0.144184052,0.2214269373,0.2428635305,0.3360706616,0.4652977306,0.1395121247,0.5408278938,0.6612034606,0.6610928395,0.0400569936,0.4348142245,0.4005354114,0.1311149786,0.365318274,0.6627019613,0.5939816248,0.5245675586,0.4803211828,0.3004531772,0.2227374577,0.2130929779,0.5445399145,0.2492683487,0.0882544021,0.6932014162,0.2660923679,0.1340027542,0.6684519633,0.4528958923,0.2752248094,0.3967212168,0.4644316333,0.1848246116,0.3598184192,0.4766086629,0.1109825229,0.411190106,0.1764750205,0.6239383102,0.3535630491,0.3119893592,0.2277640934,0.2122313316,0.3788236398,0.3964273165,0.7099690693,0.301674368,0.3634416363,0.6335162655,0.385559027,0.3054426717,0.0794643171,0.2182235325,0.3942864707,0.433750966,0.2209714426,0.3347919497,0.1526881104,0.4711842458,0.4104653464,0.1417241565,0.4397527418,0.4224377537,0.5398860963,0.0769084594,0.517942685,0.17776265,0.1652166833,0.623988995,0.5331769093,0.5847945084,0.5148569859,0.2611728372,0.1872697063,0.3375065446,0.3310357713,0.4953156496,0.414268887,0.3386972575,0.4279046092,0.5385950492,0.4120429688,0.0453485006,0.4256344251,0.6812024682,0.3123275725,0.2872950788,0.6307269664,0.4992045522,0.0141559234,0.3104696501,0.0806950853,0.4377539452,0.0194232267,0.6586437718,0.450237574,0.2070333664,0.4281648316,0.0769022117,0.7086995878,0.0851494436,0.1833320194,0.3409411122,0.6458928872,0.1530412507,0.6213924529,0.4665496578,0.0949918098,0.4751509906,0.1578252642,0.2099263037,0.1759862848,0.379545069,0.1298726662,0.0024966009,0.494023005,0.4871552188,0.7070430133,0.1233046452,0.6910061619,0.1613013225,0.4687720132,0.0092407575,0.2295533486,0.5549270737,0.462933368,0.1676796114,0.4468668213,0.534827399,0.4332591194,0.4096958763,0.6175749614,0.1032553709,0.5962575831,0.2463252291,0.1204781711,0.5464431771,0.5661146437,0.4021266338,0.0246036879,0.1598403542,0.4363719561,0.2540619183,0.4075892424,0.0252857091,0.3430864015,0.5527270603,0.716334489,0.1093775466,0.3131603241,0.3661894822,0.4701064575,0.1143532384,0.0891098264,0.1202439843,0.6718824795,0.2177227067,0.520098384,0.4245683085,0.6801790677,0.225417117,0.2407665104,0.288771569,0.0069264664,0.7059760346,0.7068576603,0.4858250611,0.2369415498,0.4170194167,0.1785836419,0.2361985096,0.344747267,0.6631513553,0.5653966064,0.4270501029,0.7172747024,0.2473253361,0.484363277,0.7027559595,0.3105226669,0.2673842061,0.6793251913,0.3113880542,0.6978543214,0.5630254683,0.3324773937,0.1742741513,0.6576200769,0.5399762535,0.4121691302,0.4966128304,0.1239184662,0.3637809978,0.034087988,0.1574694269,0.0841898131,0.1139078292,0.0435383638,-0.6603705657,0.6497461917,0.6420276922,0.080653396,0.6735476148,0.6874215097,0.2821284986,0.0405040452,0.648369809,0.684669034,0.4487122249,0.5419096467,0.6345718,0.1254443773,0.041095454,0.6848668358,0.6924248152,0.0130115478,0.347949051,0.5039070046,0.5447432833,0.6740502598,0.0089392598,0.3822413573,0.3809248329,0.0316665412,0.3240450093,0.3145661559,0.0739852399,0.2832545181,0.1968990747,0.5871113987,0.2226721684,0.3332869791,0.4149601567,0.1585637415,0.6360934603,0.5343446711,0.7238892412,0.0790671598,0.6034578512,0.5210081727,0.2000200071,0.2670351317,0.0802226994,0.5907542495,0.2423571021,0.6647936758,0.628059404,0.3686130202,0.7024765524,0.2722256556,0.1426401325,0.0784457192,0.0775697561,0.1521017599,0.1723439353,0.3231336296,0.1212613429,0.4745554637,0.3522495753,0.6558991513,0.509270798,0.1091916585,0.6841076984,0.1772740481,0.3677933045,0.719355548,0.1245420396,0.5659871829,0.4610172528,0.2671187518,0.4525709468,0.4466704052,0.2314711798,0.0133146999,0.5036380638,0.5732365178,0.4414029222,0.1897313212,0.5519186993,0.2910508716,0.488931706,0.1919642344,0.0939726897,0.713192609,0.0608681103,0.0106603054,0.1377938837,0.5026342032,0.0438765151,0.4523775625,0.2086459525,0.0936172203,0.4829689814,0.1948712609,0.5653062745,0.6873575827,0.0733296811,0.2028258633,0.3607247776,0.5661446541,0.5957837017,0.4635769681,0.2706360578,0.2499966069,0.7057499604,0.3067394367,0.2122431784,0.040171238,0.5255010189,0.3780445886,0.24737014,0.6479871003,0.3179399327,0.2311059613,0.3470034524,0.5501105687,0.1901440989,0.6333710606,0.2467766143,0.0337003391,0.4674870397,0.393115634,0.2157636584,0.5319261187,0.3517051997,0.6688411508,0.0945343427,0.5921892603,0.0797236144,0.3262650244,0.4854774983,0.4083960864,0.0284141194,0.7103098918,0.3935375554,0.4776967067,0.3972521693,0.1468556281,0.5271029525,0.5769820908,0.2634392531,0.588051251,0.6894297302,0.4454608022,0.3227009664,0.6555703503,0.0865194404,0.5687501538,0.497674853,0.182342481,0.6083031508,0.3452811995,0.3995833278,0.4906961415,0.5865411232,0.4587214923,0.0809363191,0.0039959529,0.2303446855,0.7078174136,0.5005470826,0.533239348,0.2390024453,0.4986999896,0.2335856033,0.5983377936,0.495392872,0.1807962557,0.403519103,0.5652373876,0.5319617975,0.4691715992,0.501597054,0.3675693948,0.2667616043,0.057777596,0.2899973356,0.1943868733,0.5048378081,0.2135865711,0.607799401,0.2895285816,0.6388128466,0.4928850167,0.5564779104,0.2861083613,0.3648461961,0.2063104005,0.6545798571,0.2622226824,0.4245186764,0.0067254579,0.5112924056,0.6003050513,0.6470692562,0.2238294173,0.0661188294,0.2656218591,0.2974144861,0.6430660285,0.0613146827,0.3886027321,0.7053642133,0.0197215247,0.1904076401,0.1344531225,0.6119080283,0.2877895458,0.6976396352,0.1873514934,0.5026044182,0.2839950368,0.4344502081,0.6188161771,0.5868285487,0.2525028612,0.0951756907,0.3223598022,0.4230910614,0.1732371562,0.4669705336,0.6140857092,0.1920431635,0.5699511892,0.2026106316,0.5244118629,0.5376065955,0.2068418054,0.1749005967,0.1258413147,0.4580590804,0.5889454227,0.2954847233,0.1598609965,0.2077177712,0.6519882749,0.1184528711,0.5881168814,0.2852659899,0.1581635367,0.3074519042,0.2121772569,0.5475236125,0.2043181488,0.3348224739,0.1357446101,0.3383011067,0.4952219498,0.0528769007,0.3549716218,0.1147893444,0.6776955131,0.5978977354,0.4667419186,0.1372253285,0.3929526723,0.4393889186,0.5915939152,0.4900757434,0.3929392847,0.346598987,0.0533083561,0.0187170421,0.2745468482,0.6227583159,0.4392518739,0.1508390202,0.4702238213,0.3015003438,0.1268985182,0.2427423689,0.6851327466,0.4658893618,0.4192771475,0.1880304218,0.5512666078,0.7191814495,0.008811674,0.5786897485,0.1173791445
   -0.7183691328,0.6443592691,0.634745751,0.5419293042,0.116837812,0.5976948801,0.2604969553,0.150601122,0.0005175217,0.1766491431,0.4397863762,0.4920647423,0.6564132727,0.1994695513,0.5570341928,0.6839011444,0.6877332762,0.2867719846,0.5224416819,0.3376721137,0.4534255955,0.4233540719,0.0577536212,0.1317419077,0.1590007342,0.4220872492,0.0991467756,0.6865611293,0.3916581308,0.1657219208,0.5105824953,0.4034961914,0.4236225622,0.5289026025,0.583889015,0.2088171355,0.2702673707,0.1189396736,0.6219545874,0.7165183408,0.1514385957,0.349853237,0.3640975298,0.6027854007,0.6246627136,0.5403955135,0.3694286733,0.0058926244,0.529850218,0.2767853806,0.1925100608,0.557452372,0.6384217724,0.5784482459,0.1257084737,0.3196218717,0.6756208112,0.5441254209,0.6838777736,0.1966091903,0.1483786035,0.381818926,0.1035006318,0.1435596487,0.1211767107,0.0799012551,0.4171857285,0.6888477809,0.1484703064,0.1487401191,0.0107385197,0.1385519278,0.696189024,0.1386159812,0.424756581,0.567164656,0.0049617738,0.6055579624,0.4372863752,0.4445738163,0.3065043433,0.6178753263,0.0015576169,0.6353275515,0.6541976315,0.1588260751,0.4240306379,0.0693612014,0.2997578884,0.3467396939,0.1307459529,0.5134688612,0.0305354928,0.0995061357,0.3495422788,0.3585308372,0.4284258159,0.4875184864,0.5464963935,0.5129344655,0.5102763629,0.4131989454,0.596894952,0.2224808569,0.5616272252,0.2219193969,0.5663760096,0.2320708476,0.4788320226,0.1130438146,0.4223514083,0.7077784993,0.1974447713,0.1791329258,0.2289771847,0.6740591637,0.3216125288,0.2399233075,0.1786184216,0.4245565679,0.0615106002,0.2387417549,0.6292568823,0.1907551108,0.3844942579,0.6044033325,0.0745659424,0.5053498833,0.1067990234,0.2771155408,0.3498682991,0.1180111917,0.5375923858,0.3800118505,0.436984679,0.2443181999,0.0132462942,0.2796982173,0.2961975705,0.6169227652,0.2801069527,0.1576947612,0.6445996222,0.2794133305,0.4904610619,0.0486296734,0.4181270825,0.0484515077,0.6807480151,0.2794675644,0.612189471,0.6302075215,0.2423290095,0.3667299805,0.2636629883,0.5129257427,0.2025888426,0.1312960409,0.1821560407,0.6644226844,0.3120403369,0.4086669633,0.2627135696,0.6127206809,0.5724166283,0.573509166,0.66396824,0.2708440895,0.1516766834,0.1492549807,0.0954428221,0.1866764767,0.6030153878,0.1752553695,0.6156520489,0.2472896618,0.3980583222,0.0216830516,0.1078539142,0.6125801382,0.2922208061,0.2483130534,0.6224183433,0.0935941659,0.6873104556,0.4118493486,0.3161533395,0.408612944,0.7212509662,0.0286139679,0.1022317723,0.2826479479,0.600929673,0.1305202453,0.4245273505,0.54894142,0.684243673,0.4452373785,0.5308377238,0.3105294278,0.4150278688,0.4378130772,0.1113530209,0.0078928206,0.5891609486,0.6623852508,0.6540737222,0.6864953206,0.681166888,0.3464554889,0.4704522171,0.661364655,0.4215764936,0.0419647349,0.6180054717,0.5264424687,0.5736332695,0.292988066,0.4237900658,0.2470355751,0.4986333218,0.2269551309,0.2221389956,0.7234789769,0.1953371344,0.2659375471,0.232042807,0.1260965011,0.1439062524,0.0515754633,0.6121799766,0.3708962782,0.6134141359,0.415759216,0.48081546,0.3842989025,0.4724329423,0.0954884691,0.0562125163,0.3995021613,0.6529437286,0.0250935183,0.3297158658,0.6758202536,0.2528781516,0.5236888668,0.009688364,0.2917325796,0.5357262043,0.3261122247,0.4430772228,0.014503236,0.1004630569,0.6900928668,0.1481327346,0.0216286048,0.1527145171,0.1545794806,0.2491217304,0.5007037188,0.7044515374,0.462339585,0.3858314351,0.6971657205,0.2441698171,0.4420701517,0.3849781835,0.5742346779,0.5543078892,0.5060049065,0.5243714297,0.4633083527,0.4399074814,0.3722004148,0.3369207695,0.547803086,0.2602265406,0.3980140989,0.683735801,0.5341860941,0.6208285574,0.1145888139,0.2972620687,0.5728055703,0.4408374249,0.1466724678,0.0487448669,0.14660251,0.641827588,0.576472076,0.672185454,0.3766152052,0.6363620587,0.7249279245,0.3467171652,0.0167446389,0.1638004305,0.2201299074,0.1857498532,0.1396860098,0.3604383307,0.1299164675,0.349325524,0.706373336,0.5237628851,0.052802772,0.0766005423,0.6117902942,0.6845212972,0.5170145349,0.5046370609,0.6147986487,0.601285921,0.5213939811,0.1435630929,0.0228425336,0.5791575509,0.0792413587,0.0039907988,0.6696799592,0.5752243901,0.3309159065,0.7020823661,0.0280390017,0.5464551318,0.0857989948,0.6762299296,0.49134503,0.0903243023,0.1354322778,0.1178398275,0.4766047692,0.1539775132,0.3880186971,0.3765172795,0.7177369761,0.0142138179,0.4536968294,0.429655499,0.6824990505,0.1915095328,0.3912361156,0.0517687216,0.2530051556,0.4681333864,0.0214129723,0.3750870312,0.4016347363,0.0492460031,0.1927730962,0.2610130167,0.5888261701,0.323588603,0.2481771916,0.2726913221,0.4278016581,0.6762763179,0.393237453,0.0928965787,0.5228498922,0.6377983204,0.5991222428,0.6123843256,0.0001715801,0.4547428866,0.7199391307,0.0014471391,0.3122765151,0.179109738,0.3588402942,0.3165535594,0.7240918893,0.512317488,0.6831060329,0.1104057733,0.3998332865,0.3808166588,0.6619703458,0.090716015,0.0576316943,0.6446026089,0.5908239531,0.2207130175,0.334891834,0.2604835172,0.1309716555,0.5105133587,0.3814500775,0.55722845,0.7047630604,0.6855276033,0.068007213,0.4560849098,0.1225259206,0.6264117946,0.3885874162,0.2893682172,0.1257880132,0.597845867,0.1772510766,0.1792356283,0.2329744886,0.1481635318,0.2503704166,0.3880276566,0.0804338791,0.0691697596,0.6665972544,0.0730510163,0.4268080134,0.4757299481,0.7102968197,0.4083032897,0.5072294785,0.5062684537,0.3333529394,0.2135329414,0.2281325694,0.0246541749,0.3689856234,0.2972871115,0.0524712287,0.6001130624,-0.0844122164,0.0782513896,0.0993129451,0.5044921997,0.6806120475,0.698789136,0.3393953102,0.4253407724,0.5246849396,0.2358837787,0.1601886997,0.3818295673,0.0817048546,0.5727851623,0.3278441329,0.1245113864,0.5606260414,0.6154159858,0.2843395584,0.5257115452,0.1879904693,0.1317272649,0.1196863156,0.1368914806,0.4724871476,0.5471882271,0.7141176603,0.0798874181,0.0415405788,0.5987044175,0.3896608246,0.6858457718,0.0248507216,0.1480611508,0.3420032174,0.6707770927,0.2561832052,0.450372147,0.4810416149,0.5956512485,0.6501877868,0.6288161728,0.13922031,0.2587330341,0.657503592,0.3163980309,0.5622541613,0.0407332776,0.1771296883,0.5580418818,0.5399502518,0.1801266892,0.5752791481,0.6076285663,0.3691729848,0.4092194954,0.4779872412,0.5261849529,0.6246540273,0.5240622796,0.2502386709,0.0564024222,0.2918063709,0.4451899013,0.4826706465,0.5539016029,0.6009568302,0.502326884,0.5480242763,0.6331243666,0.5932699358,0.34282974,0.1233612129,0.1503648174,0.5600423264,0.348288924,0.5299701358,0.5545698222,0.5314331233,0.2667484692,0.3472034176,0.2312275538,0.2701821762,0.0114450333,0.5882437485,0.0644949518,0.0600601953,0.2581999231,0.4688617884,0.4860342585,0.5994177193,0.2476953712,0.1802967859,0.6142978848,0.4412090315,0.6915820377,0.1172693706,0.4691488803,0.0892028264,0.2843234723,0.4081941238,0.0072477548,0.281938611,0.4514341247,0.1594925119,0.5420151147,0.6862898308,0.1977836336,0.1151935605,0.0289252439,0.3681009024,0.3335284746,0.066521319,0.4261499427,0.5639540328,0.3703983291,0.458616192,0.483987667,0.3930031558,0.5010555707,0.2443243143,0.5590541221,0.0048049287,0.0002982307,0.4676097054,0.1502242027,0.5911413625,0.5872239827,0.631206885,0.0241189366,0.089153228,0.4459722506,0.3577179498,0.687073099,0.4391593836,0.3396423714,0.096489754,0.2350347388,0.219571603,0.514196562,0.5494802584,-0.0587180069,0.5453144392,0.3334364581,0.6316624257,0.5317115268,0.6935736721,0.7125262091,0.4728581978,0.3218287868,0.2521781743,0.2858936468,0.202268731,0.3068376665,0.0391862918,0.3119460075,0.695426523,0.4702792389,0.3370267899,0.6633585718,0.3687374309,0.7090070062,0.2142593089,0.252542207,0.4911602416,0.2274416847,0.0714767329,0.3997006762,0.5794491994,0.5999305686,0.3199197725,0.4512631356,0.5515245548,0.0049748674,0.5628424625,0.4053994479,0.5307814034,0.4784223743,0.2682337861,0.5563082487,0.4176767985,0.4626664171,0.3756002786,0.2479470441,0.2635837537,0.709456986,0.4931033918,0.3212829722,0.6980617332,0.2563219881,0.0689064435,0.220637206,0.1743654917,0.1569188319,0.6531508575,0.3044404596,0.0127839985,0.5698117639,0.5608290763,0.1687623875,0.4001651187,0.0496522981,0.4566299882,0.1538712807,0.7173612814,0.3221924464,0.7154254469,0.4013679486,0.667658839,0.6881212794,0.1184958593,0.6225833309,0.6571263531,0.2041344776,0.4552334737,0.0459073336,0.4280536187,0.5347588594,0.3164999014,0.4105627091,0.5955948063,0.5222973433,0.654894379,0.7119703938,0.0057463967,0.1608794717,0.2441661188,0.1415281016,0.5797448145,0.4912150575,0.6798543559,0.306761376,0.0442719196,0.6516241791,0.5164351853,0.5831473905,0.0199617661,0.267197526,0.4165756869,0.4592122799,0.3400959362,0.0295358304,0.461463854,0.529509212,0.4903998397,0.6736947996,0.0441357474,0.4304420076,0.0612472656,0.1404423109,0.542688549,0.6710788919,0.284707554,0.099755845,0.4053223837,0.6048721566,0.0787709141,0.3691402493,0.5323647151,0.3796201537,0.3996290759,0.5620411302,0.4902765817,0.404676193,0.3436276471,0.4180749407,0.1923688596,0.6222319302,0.4667610964,0.2949623945,0.3294119334,0.3066074875,0.6510913301,0.48147489,0.6975440139,0.2945566206,0.3166549837,0.4501222833,0.3700408998,0.4179526861,0.2632926598,0.3813772971,-0.1449165958,0.2750328935,0.5611079164,0.0064542355,0.1948162488,0.5771842401,0.0184889383,0.1384172266,0.5808849949,0.6773760353,0.111671095,0.3084653669,0.34653349,0.5998287501,0.584835135,0.2806442549,0.0042146756,0.1645380097,0.3360815381,0.2229024659,0.3278847557,0.1965044269,0.1246610057,0.3749173292,0.1136415889,0.5674918085,0.3553803925,0.0680710454,0.5290319446,0.4468165937,0.6177428053,0.2479119559,0.0340277344,0.6544360262,0.0723442566,0.0195994306,0.0638657217,0.1922941347,0.3667688051,0.5684169134,0.665382187,0.0599259014,0.1474639761,0.6322103739,0.0806914936,0.4718726786,0.4247980357,0.3690346308,0.324795018,0.4826994837,0.6475334674,0.2456605095,0.5398869341,0.5735893644,0.6550381408,0.1439286231,0.217943786,0.1440487612,0.273198525,0.177582778,0.3868471938,0.6388689137,0.4726260168,0.4866628112,0.0280044094,0.1595057084,0.4285511431,0.5064259592,0.3525787939,0.5568362364,0.6454967884,0.1913043724,0.3485584187,0.3243820346,0.4484062747,0.6103990264,0.5440964878,0.2955172653,0.5372652373,0.0966980999,0.5875469742,0.4279096687,0.2113124259,0.6808795477,0.3962030871,0.4717319784,0.5844700611,0.2812210482,0.0044955408,0.187233702,0.4422548981,0.6100319105,0.0357262958,0.6924717249,0.4027833432,0.151097712,0.2975773654,0.5007402446,0.6172405404,0.0851640716,0.1151253436,0.6333351016,0.5016616929,0.2694014687,0.3617271576,0.1996948157,0.3644360114,0.2778907334,0.2542657496,0.2990905021,0.540064659,0.6032585527,0.1256844465,0.0620420267,0.2857263949,0.445964078,0.03619482,0.4436175005,0.2898432732,0.2001504981,0.1008561381,0.6532731446,0.47929692,0.3505076382,0.1576930861,0.6820194601,0.2277462347,0.5849008362,0.1346123894,0.3195908558,0.3011739551,0.7187898589,0.0663650056,0.2604813412,0.3085774328,0.1220802089,0.3167684527,0.5650377517,0.1843509671,0.690307003,0.1997112187,-0.4409279466,0.0042224897,0.1267267981,0.6429467932,0.120161496,0.7142170518,0.0670254238,0.4444743915,0.5956200358,0.6991012975,0.1785986233,0.5706980439,0.524596336,0.1414883846,0.5920811122,0.3936774675,0.5884330232,0.1114993406,0.1596820575,0.5106966053,0.5428121708,0.3969240035,0.6625217898,0.6337161241,0.4540968717,0.4980940531,0.610587429,0.2251187614,0.4225370512,0.6719679417,0.5425973406,0.1242567495,0.5232663584,0.3695190977,0.4342449931,0.1638410089,0.2040241791,0.5945650261,0.5182177122,0.1431184956,0.2542621114,0.5386510615,0.5835444234,0.3479920622,0.3995537617,0.4035113112,0.7198654176,0.06937307,0.0109412513,0.3932317053,0.0712154347,0.2934729947,0.4911574377,0.2089761696,0.6452949875,0.190312126,0.2636404752,0.348946553,0.5526622168,0.022599773,0.3027830803,0.6081210423,0.2203867998,0.068688777,0.4594558654,0.5149871755,0.3814280985,0.2178618839,0.0574622672,0.5796815555,0.0669128366,0.0418134243,0.7145594388,0.2884015882,0.5517737828,0.4782271742,0.1873764632,0.365058486,0.2775585952,0.5526810624,0.2355979517,0.1490765483,0.1648728885,0.6209060936,0.6957059206,0.5463134662,0.0804304577,0.7209398298,0.3363455901,0.5821385217,0.5699354085,0.0006840022,0.050433499,0.3151430137,0.2314155384,0.6433955864,0.5180348582,0.4873413842,0.5302346071,0.152308972,0.2979069618,0.283641159,0.0019562682,0.4926435291,0.1930090632,0.5168945692,0.4776236998,0.2894229827,0.6101702771,0.1408090364,0.3901245396,0.5409469024,0.6838909012,0.2860350099,0.0183911939,0.0298923219,0.0942822374,0.4939435458,0.7090861424,0.6165748006,0.1363005075,0.3364173904,0.5902711805,0.6938984219,0.4168511452,0.2865876527,0.5434149275,0.5816960046,0.2698243612,0.3346490478,0.6966300601,0.3281845914,0.4286007408,0.2198985483,0.3911178715,0.7016154315,0.5642560901,0.3977221541,0.3311170126,0.2707749799,0.5353006131,-0.5163705581,0.2917151113,0.2312778389,0.618684149,0.2908422195,0.2059265021,0.6433994036,0.6606574583,0.1669085301,0.2729030649,0.7028944579,0.4208621549,0.1262326615,0.4319939852,0.0479174736,0.4831324484,0.7233890987,0.1032711898,0.2756511876,0.0479757547,0.5715872045,0.5801357035,0.4213328975,0.6578444813,0.2950455669,0.3707267738,0.4969180125,0.5012081756,0.0329795417,0.332833003,0.0565405521,0.2902601134,0.0726499505,0.5612246719,0.5961016149,0.306298425,0.236166948,0.1176489235,0.0359040488,0.6126463816,0.0198351819,0.1457784775,0.2979859486,0.0971613967,0.6300848617,0.5694026707,0.1958865349,0.3404694071,0.526159025,0.1632236781,0.4171174914,0.0252463176,0.6505386104,0.5746645767,0.0803148224,0.273784525,0.659303825,0.066892547,0.1030213349,0.3988286712,0.057406949,0.3597663557,0.2169600467,0.0827777621,0.723957684,0.0127868966,0.6645641359,0.1844304046,0.0675007147,0.3115211321,0.683703978,0.1290328671,0.3377723796,0.0942361213,0.7028361825,0.5113905518,0.2098629158,0.1789743564,0.6381929231,0.3260516925,0.0945185234,0.5368558442,0.0949374151,0.1977117136,0.5145729921,0.5851965971,0.4907196218,0.5513838505,0.5628564157,0.5225653216,0.0960629431,0.227722567,0.698669598,0.2576229852,0.6047175862,0.0525139833,0.5270725616,0.0190535548,0.0612607768,0.2113594689,0.5216332933,0.6954676818,0.0174819784,0.7214374237,0.18316636,0.4705784209,0.171315526,0.4924350469,0.5881127932,0.4429016131,0.3053178661,0.4402561737,0.6819699531,0.3872704027,0.1494638379,0.5497658862,0.1562671763,0.4760398278,0.3195683514,0.5891861753,0.2940647502,0.1801361133,0.0902226699,0.4696075643,0.2937755594,0.3344031858,0.3329883795,0.5040432578,0.7052358259,0.313967067,0.2759560032,0.1215911706,0.6006681169,0.341130518,0.2351926077,0.4365754897,0.1498708083,0.2364293915,0.6638403227,0.2785861243,0.3790529938,-0.1132616721,0.5271252106,0.6702730387,0.3063089916,0.6468507957,0.1820267826,0.6752587027,0.082962184,0.7003792643,0.5427980504,0.5788618079,0.3983749012,0.2471178138,0.5059825515,0.3334748176,0.513126127,0.5849733004,0.1102217054,0.1456758003,0.7136307119,0.0528667566,0.3133948985,0.5879375233,0.3033714851,0.3795098332,0.1674998986,0.1170448657,0.2223979859,0.2436109487,0.2793336018,0.5494946538,0.4032684499,0.3484853246,0.206793548,0.0447206508,0.7185658279,0.0919648067,0.0965841238,0.3050705621,0.5130086589,0.2105149763,0.0270904188,0.1799948105,0.3533620492,0.0910213377,0.1687774434,0.5039336113,0.163462133,0.0969246578,0.4053143923,0.3107619998,0.2229211205,0.5041812952,0.5010458239,0.2139880576,0.6372110846,0.5515469524,0.3771926627,0.4164575767,0.7170550861,0.1699616792,0.3714622353,0.1891133008,0.4818984864,0.4188467617,0.602978538,0.2204442952,0.0502445665,0.3007491081,0.3723607613,0.0159743156,0.0281502603,0.3505834118,0.7199307132,0.7019046932,0.3256598001,0.0670135741,0.6152780181,0.2696479115,0.0493396649,0.2634672704,0.5192213708,0.6584910356,0.5589282471,0.6709139474,0.6769350505,0.6845120742,0.1859347109,0.2908914879,0.4632430293,0.446158004,0.5037701397,0.7124889057,0.5186207828,0.0311219211,0.0378593347,0.4501170823,0.1411703003,0.5488089531,0.1448392952,0.6400887271,0.3423268756,0.6704856085,0.208390109,0.228772554,0.6934133959,0.2152610155,0.2085793448,0.1759659649,0.4288688419,0.6342558409,0.0392488758,0.2009667218,0.0133017249,0.1320228537,0.5223988667,0.3449097931,0.0090674875,0.4947570846,0.5602298384,0.7131053066,0.1718998078,0.2289757539,0.4852514417,0.1606127238,0.2015477178,0.259294973,0.3286529919,0.1122845706,0.283580026,0.5747738791,0.2927975707,0.6853785221,0.2787107266,0.1374028045,0.2960520869,0.2474683942,0.4220251564,0.4473766308,0.2913147148,0.3540894383,-0.6106028796,0.357081932,0.6639171517,0.3244126515,0.3189522408,0.2733559986,0.3667051101,0.441812436,0.6218821592,0.4634258844,0.4272791305,0.259808646,0.6890689791,0.4336679048,0.0059398425,0.5776402361,0.6622290846,0.1646048303,0.3341182712,0.0542301816,0.703071952,0.5418062742,0.5747144152,0.6461235039,0.0340515675,0.3457266832,0.017773625,0.0134932034,0.5399220453,0.080948511,0.6591365679,0.2187071996,0.1176672543,0.1517808794,0.5450027317,0.3029787469,0.0021831677,0.0176892231,0.1556357778,0.6167102945,0.52675311,0.7251474803,0.5988453838,0.67620611,0.3127861478,0.1152004334,0.6937428758,0.3856873228,0.417744412,0.2590607766,0.076963808,0.6750805913,0.4395785628,0.6277833566,0.309767417,0.5225278051,0.0389883179,0.0168782499,0.4123374769,0.0553783907,0.5046432273,0.5616268435,0.0497238185,0.4456138229,0.6642886735,0.5399234073,0.531420849,0.0974680269,0.3615737293,0.0960134781,0.4779235974,0.6868174791,0.5116174206,0.0796838175,0.5988500774,0.1172097449,0.4590685735,0.4375125015,0.330963967,0.1845783471,0.3823428779,0.2199385949,0.4988411819,0.3516994184,0.6881019096,0.3621818328,0.3111864934,0.1685202785,0.3058872545,0.6308943283,0.4888940869,0.0961775193,0.3427100998,0.4844801434,0.6919783538,0.7019743509,0.5625890451,0.6110190694,0.0403132471,0.4538960351,0.3302731625,0.367496691,0.4424618267,0.0599937853,0.3346487176,0.598469976,0.4882857565,0.212689108,0.2466633567,0.6009241484,0.6843586332,0.050239379,0.4690133586,0.6410448507,0.6171075247,0.3738107278,0.5165078159,0.4000030514,0.2469647464,0.2612170278,0.3389063856,0.2463695611,0.5928163921,0.4081643769,0.4010642368,0.3138400413,0.2734368629,0.6611087075,0.0013292266,0.5895736127,0.1056501526,0.6777635302,0.2610826246,0.2337536955,0.2057050929,0.2451496744,0.1752642146,0.0849010648,0.6959671963,0.2613186307,0.6900258118,0.5421617124,0.2883393494,0.6401262641,0.723238695,0.6143717792,0.6640711812,0.6334672014,0.0161019523,0.1260888373,0.5327535131,0.5510734982,0.6756463216,0.5543760963,0.1516464885,0.4482207475,0.5546433711,0.032939,0.0422580492,0.473413912,0.1179112063,0.2325370537,0.081774427,0.2153638801,0.0916287599,0.6847024514,0.0546102292,0.2924442813,0.0909708587,0.6691945105,0.5802711166,0.3075056586,0.3717919302,0.5251613558,0.4621582314,0.1290433184,0.4625887597,0.5690857163,0.3314784863,0.5718515706,0.0077460704,0.5167708579,0.0551480318,0.4687721767,0.2591915236,0.335830962,0.6783756241,0.5751092584,0.3203941577,0.6005825406,0.0378070528,0.693424258,0.0531665649,0.3086368304,0.3294288923,0.4163777381,0.5914224496,0.7245120431,0.3960140106,0.3914146402,0.3806480623,0.180952621,0.0727611338,0.0487092353,0.723480868,0.4376395572,0.6311350272,0.028042775,0.4981989136,0.2157567737,0.0968858106,0.3073656531,0.4789626031,0.6564622343,0.6026054987,0.6385472546,0.5177842678,0.702542051,0.2542183147,0.3222863104,0.6028711961,0.5130628016,0.3037228068,0.2127104344,0.7137774584,0.63325121,0.0070246633,0.6765595058,0.4393083061,0.5051830365,0.4769992781,0.5743461559,0.6788191909,0.3814502161,0.0528009933,0.0994945381,0.6102432295,0.144694674,0.3555176524,0.3073698422,0.4614894689,0.2976230032,0.5558705283,0.4947077354,0.6526255999,0.2367321735,0.6004087808,0.2218998309,0.1988428324,0.3674491647,0.5202144307,0.4777497882,0.5450771894,0.5240032935,0.1068244888,0.1752617869,0.014191465,0.4600181631,0.1192431631,0.5629068181,0.0085464839,0.2905185162,0.187146278,0.3260798872,0.6815090616,0.1490709031,0.0028575897,0.5362769396,0.5238394075,0.2733248423,0.0903312217,0.5018906645,0.6630693793,0.1722453709,0.4852305021,0.1897889408,0.6872378667,0.0612196516,0.6293086208,0.243796115,0.5363595666,0.5230952748,0.2292035109,0.2691277568,0.3617862541,0.5688471371,0.2379030676,0.0975117158,0.627364564,0.5040308107,0.220580308,0.6698183733,0.2571357246,0.3265320223,0.5917724127,0.550555547,0.328239535,0.4484220167,0.1959878036,0.3485027515,0.4305603952,0.6128735994,0.6762154794,0.2726583448,0.5071799158,0.6504961659,0.1635170469,0.6971327159,0.6578977967,0.5563859634,0.4236598993,0.5738079931,0.4474938979,0.4744422469,0.3650802382,0.5312502329,0.0032576727,0.496379931,0.4177540529,0.6959957577,0.5132044758,0.0702738573,0.3762242787,0.0307919646,0.3491248976,0.167993224,0.2955627132,0.64259566,0.1653123447,0.0537941179,0.4388656803,0.6968648263,0.7010335551,0.2120469512,0.1109517593,0.1497661823,0.7131730575,0.4904897193,0.521958616,0.1716185619,0.4437028414,0.4635548554,0.4017418548,0.7142880942,0.6122461559,0.7044685092,0.1948134397,0.5286633635,0.175685524,0.2563904636,0.5102449279,0.3699517822,0.3067389286,0.1645430657,0.4036228634,0.2377549361,0.5332580524,0.3617094821,0.6892810317,0.0918738826,0.4400804442,0.1557011134,0.4463957159,0.3761612623,0.3207181643,0.5578155895,0.654369739,0.2810399825,0.6422310206,0.3242950353,0.3012233767,0.0039046255,0.5215898915,0.0631364094,0.4767679826,0.0446828961,0.4829242705,0.3198584229,0.5153547999,0.0354768768,0.6423378093,0.2686188037,0.4663709808,0.5670011018,0.0103294623,0.2593070316,0.0204875921,0.3147390783,0.1268606072,0.6853473865,0.5005268891,0.2681706249,0.3765067652,0.4469145102,0.397613565,0.1612351408,0.3577343417,0.2338110492,0.1612534786,0.0871672016,0.1562698611,0.239590669,0.6409637961,0.5098957181,0.0408652194,0.2292419741,0.4994821072,0.4225814821,0.5509439055,0.4791746092,0.0087596734,0.1462002792,0.156281763,0.5226929197,0.4495985038,0.4528750325,0.2180691556,0.3169024794,0.6243841412,0.4746363065,0.0319097101,0.017840703,0.6778719007,-0.5805914293,0.532607974,0.4658310605,0.2225752441,0.082706922,0.3604848815,0.6372510413,0.273972355,0.2735617421,0.2078316404,0.4432048182,0.423705644,0.4272459423,0.1550679428,0.2152872366,0.156892353,0.264258226,0.4440193359,0.0256737916,0.2639909199,0.6421189393,0.2001439858,0.5845020357,0.4173459773,0.4642224205,0.6208701959,0.0934190971,0.0021155467,0.2560461709,0.3563457695,0.0168327563,0.0293407925,0.6560422121,0.2631396796,0.3959783389,0.5208324863,0.5097416433,0.0126105646,0.274760941,0.2934102161,0.6726194713,0.7106659456,0.6556438478,0.5018177912,0.2188960568,0.2836262334,0.6969289443,0.5025915149,0.4088940887,0.1052394452,0.0032032051,0.2596930622,0.4395553778,0.2053643238,0.5090068121,0.6089019595,0.2415086993,0.1431374489,0.0741707069,0.2730829754,0.4671578886,0.3921196141,0.2756129452,0.4691226697,0.4316089088,0.439614924,0.5965088165,0.0354483521,0.513505484,0.2440834458,0.1167243107,0.6581248504,0.4427094235,0.041897886,0.4120576379,0.1291254251,0.4818519445,0.3559967085,0.4699439376,0.5923184259,0.0119930043,0.4282816965,0.3767406505,0.4551964818,0.394866446,0.2042317352,0.4840380756,0.0391820369,0.3689497476,0.1613273297,0.415005366,0.0606459209,0.234873652,0.2248260517,0.1876855104,0.1180288094,0.5508039433,0.5504145806,0.5888318658,0.559794612,0.037657089,0.1726907336,0.4311275035,0.0784496487,0.6239007392,0.5266789691,0.269641755,0.1001556027,0.5372504486,0.3364931466,0.5808900513,0.1020025388,0.5967294967,0.4481660682,0.5599689619,0.5364640515,0.4895319998,0.0374602091,0.6553827233,0.2498193396,0.669985788,0.6522995167,0.0649028031,0.622609262,0.0364148292,0.349176382,0.2674763739,0.3630776408,0.6737170469,0.3330817624,0.3999813632,0.42324521,0.0746778567,0.0280016489,0.6992892874,0.1033772755,0.3486318168,0.3262856873,0.2957291638,0.2694747435,0.102310456,0.4482913345,0.66241037,0.6767967148,0.1344913974,0.5144921619,0.1241379598,0.2439228454,0.0971289308,0.1933510066,0.4080077724,0.5397489088,0.1343415327,0.1487032297,0.4207560809,0.5606065197,0.5613189527,0.0154593078,0.0265799745,0.0456766647,0.1806757418,0.137604727,0.6369719392,0.4856980318,0.1228917884,0.6308745067,0.4380274123,0.4417877365,0.4851615506,0.010494682,0.1874682295,0.1529110677,0.4184218154,0.6468380368,0.5258710477,0.2099030795,0.3594000654,0.5699173395,0.4133631737,0.3815832788,0.6070408589,0.6527938236,0.0040199334,0.6285740004,0.6521209592,0.2265476368,0.4616469926,0.1377133659,0.3044249885,0.1081860414,0.3821902115,0.708333883,0.5013630647,0.0206881376,0.5669940084,0.161291396,0.1756693586,0.1536531216,0.2031125222,0.2661594462,0.2108130976,0.609451675,0.29793749,0.4352140202,0.4844754576,0.0662320953,0.4849875911,0.3553762201,0.486278361,0.0602212162,0.5400163211,0.3816982784,0.252811134,0.6407048958,0.2264643185,0.6006220138,0.0519476767,0.02196731,0.0410530341,0.7013023331,0.5916406479,0.4048270576,0.4456231333,0.4202648978,0.3737280441,0.4716107988,0.0046436564,0.1497531322,0.7164705008,0.488593702,0.5985609448,0.4227171621,0.2928504572,0.3965289173,0.6680994899,0.3081042016,0.7229754502,0.0669608833,0.4104395428,0.4443742654,0.5368488479,0.201105837,0.0877482098,0.401606635,0.7241746437,0.0090511795,0.0289620391,0.3051381255,0.5485312189,0.3562177897,0.4597436236,0.6614374778,0.6349046715,0.6415834984,0.2933226364,0.1118285316,0.7111266679,0.4187726734,0.6552902854,0.2729909035,0.7197264927,0.019739324,0.0169161403,0.0216715558,0.0242969719,0.5542635408,0.2400419266,0.0656570265,0.3010932863,0.0051143533,0.4160715743,0.2844906626,0.496322709,0.6250876841,0.5455001045,0.7012657989,0.1825371248,0.076012722,0.1678309441,0.3880654525,0.6930830795,0.0653147526,0.5859549643,0.3523501625,0.0199309177,0.3101470846,0.2934061714,0.6633066284,0.223806966,0.4935756463,0.3882370796,0.39356755,0.1839059595,0.3539215059,0.537461347,0.4602408058,0.1422370758,0.1443412417,0.6024029264,0.2552262589,0.434205238,0.2276472222,0.2760827944,0.2397756012,0.3764253552,0.5605735659,0.3964574144,0.4769226285,0.2355816292,0.2955353683,0.4891484721,0.6045145168,0.5577106173,0.4876043321,0.6567216898,0.5488566935,0.6500905887,0.0860461891,0.6134979461,0.174971231,0.6486247542,0.6743960236,0.0187097017,0.064165027,0.6704199609,0.1803588725,0.2278799469,0.2000165207,0.1262096695,0.6858104839,0.4901407378,0.284505587,0.6192224225,0.6907710358,0.4738026197,0.0417457943,0.4597095745,0.1922240987,0.5403829912,0.501818812,0.0404721765,0.1842172144,0.2976997961,0.4879686531,0.574752817,0.7056780081,0.5635119626,0.4389142578,0.1697880397,0.5376815799,0.1846999733,0.1202327486,0.5576551341,0.2872924983,0.1190398084,0.5337840361
