encog,BasicNetwork,java,3.2.0,1,1397899479195
[BASIC]
[BASIC:PARAMS]
[BASIC:NETWORK]
beginTraining=0
connectionLimit=0
contextTargetOffset=0,0,0,0
contextTargetSize=0,0,0,0
endTraining=3
hasContext=f
inputCount=10
layerCounts=1,21,21,11
layerFeedCounts=1,20,20,10
layerContextCount=0,0,0,0
layerIndex=0,1,22,43
output=0,0,0,0,0,0,0,0,0,0,0,0,0,0,0,0,0,0,0,0,0,1,0,0,0,0,0,0,0,0,0,0,0,0,0,0,0,0,0,0,0,0,1,0,0,0,0,0,0,0,0,0,0,1
outputCount=1
weightIndex=0,21,441,661
weights=0.2714782565,0.3438763773,0.4144349606,0.5361982404,0.1079753885,0.2322726433,0.5852849627,0.1605502232,0.5658148766,0.5672229206,0.402799929,0.2725579279,0.3485016115,0.0557156603,0.0451831955,0.3557588031,0.1307677408,0.193499217,0.6930333892,0.4858121582,-0.0005064405,0.0712650667,0.7207986254,0.4452378453,0.7987232579,0.5782702656,0.0986961395,0.0729857009,0.4796407326,0.6308612188,0.0785828008,0.3984842559,0.1535264643,0.3009892558,0.7669989242,0.1840171934,0.0432752372,0.6185320479,0.8005181777,0.7661567732,0.5537117766,-0.4763991071,0.2461462579,0.2449008984,0.5367757927,0.6728120945,0.4807453415,0.3920354145,0.2219813036,0.6333599028,0.7126316102,0.2218914837,0.4875198451,0.1266649015,0.6047277809,0.1938118846,0.3628715391,0.2378101839,0.0247080336,0.4053788857,0.625862033,0.2924196541,0.2062085638,0.1928848483,0.3186639193,0.0943285744,0.2996953824,0.1467241993,0.5775624316,0.6475252294,0.0847301295,0.7594360836,0.6460251236,0.3946148934,0.5022826532,0.202131786,0.5945315455,0.120954241,0.5248626664,0.808789153,0.2682665162,0.2817264818,0.3116111214,0.0941352674,0.2721933248,0.4342694345,0.0872005137,0.524317673,0.0809232116,0.6315604248,0.4564585396,0.0259367032,0.2279220884,0.523537424,0.56145074,0.1232394007,0.3852075571,0.0257763402,0.3602209989,0.7095689161,0.7216301805,0.5435286258,0.6404465608,0.2077869535,0.6030641189,0.0799064316,0.6455496045,0.5945765791,0.3470760901,0.0082813276,0.4968907166,0.5033092557,0.6670971444,0.7168167753,0.3633476896,0.0627268214,0.5650714008,0.0318087829,0.1585931122,0.4930186012,0.3281287829,0.3296006739,0.1549828972,0.6342297911,0.0990603836,-0.7032501262,0.5533650503,0.7837131331,0.3471142656,0.5321637582,0.8058642116,0.3286574284,0.0067943528,0.480427506,0.0358002711,0.1745304998,0.1372776037,0.7630504415,0.6746894266,0.3828575154,0.6026876728,0.7461075067,0.5523232567,0.6793844197,0.6511827924,0.7357561431,-0.1703992255,0.7144044725,0.0675866228,0.7408920843,0.4010813826,0.4325967407,0.2685130197,0.4731827017,0.4125127905,0.7517084364,0.720406747,0.7143305125,0.346272996,0.1446993746,0.5960654017,0.0638275085,0.0216923723,0.5011985352,0.6705070697,0.1957035467,0.4500435582,0.3161065912,0.0004678405,0.6674650194,0.004173346,0.1777168106,0.8120151352,0.5658010648,0.1521088152,0.590785529,0.0578083775,0.3702520452,0.1154340119,0.1799777682,0.4068635807,0.3707064919,0.5076641925,0.0472194517,0.7079079705,0.6464479279,0.4985814628,0.143784846,-0.4290471079,0.049528023,0.3794229328,0.2363650895,0.759767051,0.3579166627,0.1748015262,0.0745246249,0.0151831733,0.4268770515,0.536885335,0.5239566247,0.2702332936,0.7731517383,0.329939273,0.2588541231,0.4219387478,0.6650431344,0.547242984,0.260897819,0.708104537,-0.33158755,0.6356950361,0.1112151457,0.2224049186,0.7609817404,0.3782440785,0.7764355374,0.6453800684,0.6431957265,0.6274003626,0.3796404665,0.8107572919,0.053631493,0.1350833851,0.2125963969,0.3697487061,0.5314313151,0.4751871944,0.3288260176,0.0456234071,0.4856745486,0.3264232582,0.5652556789,0.556814716,0.1802192678,0.5673029593,0.423262243,0.4327083196,0.8000384773,0.1486444137,0.1531887913,0.6716015141,0.6486367992,0.3407130168,0.0956228525,0.0264907691,0.5791337432,0.4189851287,0.2312447228,0.5328183942,0.8107084181,0.2498508089,0.1886357994,0.4843114293,0.7136809726,0.114941388,0.1886576551,0.5455499932,0.3217535634,0.3972180713,0.5058375866,0.2343961129,0.1010261657,0.0590585057,0.6978655081,0.3768570159,0.6198992951,0.1232509993,0.0368407105,0.2796965556,0.772777044,0.6707441926,0.2318432609,0.6201866156,0.0020209813,0.6168141699,0.6047644065,0.7629722675,0.517342717,0.4187278813,0.6563223453,0.0460273798,0.1575226522,0.6143054693,0.6929576028,0.7724530484,0.2397526931,0.7673365682,0.403465202,0.1904120672,0.2780141665,0.6650560508,0.0456865261,0.2478216736,-0.5778963628,0.6714925196,0.2841368176,0.2785824563,0.5984045204,0.7457907741,0.7286181168,0.6102028514,0.4953523786,0.4685856756,0.0387865972,0.0518676772,0.0251278287,0.6035047586,0.4540844007,0.1300113346,0.5618042426,0.2549024835,0.5202021132,0.1246494226,0.3562513225,0.491349856,0.4840214718,0.577551275,0.1095788201,0.8046626238,0.5851390237,0.5213508281,0.5295162664,0.3758015214,0.2139073135,0.4359033811,0.1005116041,0.6570045765,0.7422022362,0.7309103627,0.3144998786,0.4454733438,0.344037223,0.5717618193,0.257557444,0.2748586472,-0.3876436171,0.4433974253,0.5439461049,0.1100283388,0.1577832884,0.4896442512,0.7176998287,0.8027196837,0.1316142814,0.3367025056,0.1923579412,0.1874081444,0.6492961438,0.0881459602,0.5591195815,0.6027087726,0.3329422647,0.0451825107,0.5705468903,0.017689486,0.2399611002,0.3873022227,0.3205152952,0.2695844126,0.6935174384,0.4027439057,0.2754678785,0.6299612157,0.1112848706,0.1823919264,0.3846477384,0.1959962065,0.0314678714,0.1808048147,0.5148057629,0.2958693458,0.608306861,0.7184140613,0.3112242001,0.1689764901,0.1411072936,0.5119473892,-0.6407015444,0.1835679131,0.4559936634,0.8115038824,0.3419650388,0.1115060279,0.5156088208,0.308262779,0.0615765488,0.626011096,0.1639163826,0.7596654618,0.8121986596,0.4731580024,0.2578946888,0.3373075604,0.116351543,0.4321065987,0.6273531338,0.4647905472,0.2852715929,0.760178181,0.7288540709,0.4843393419,0.5534372704,0.4889821077,0.332892571,0.4579370782,0.7473319425,0.6995755771,0.2459470268,0.1392014348,0.450580052,0.0971267438,0.4716656856,0.1176793419,0.757566976,0.221892577,0.8073964201,0.4659570755,0.6468470857,0.7029813205,-0.4851284521,0.0723739252,0.7471068141,0.2934202961,0.6731514414,0.198657819,0.0618062499,0.1855220066,0.4867095902,0.5313647412,0.1420092718,0.5914890473,0.5023734794,0.3901110898,0.7886459034,0.0859599837,0.2713874599,0.5031950125,0.339657278,0.7412235041,0.5376250439,0.4548203803,0.3199297921,0.3437947134,0.7148089748,0.2909253889,0.2198237138,0.5040051645,0.3887808894,0.7367749944,0.47037589,0.240244922,-0.2125382682,0.9147266385,0.0842182938,0.2088982321,0.568319819,0.3872740246,0.7645772646,0.1542472889,0.8287647036,0.2573022092,0.1476079042,0.3312454882,0.7311042207,0.6968076544,0.0310180288,0.7585855736,0.4603725162,0.5599683384,0.6356279078,0.6359370262,0.0963981267,0.8711266679,0.1324806822,0.1333694229,0.6816708981,0.3724963803,0.8418879795,0.6224930672,0.1373391322,0.0064527256,0.6990138186,0.7687681518,0.7894379828,-0.8731707916,0.7815217676,0.3354465405,0.7810412222,0.1045416069,0.3949632669,0.3711374131,0.6116657213,0.2034456661,0.6380449411,0.5103829108,-0.3478247938,0.5679524726,0.5087226743,0.0354223617,0.7829721324,0.2594277468,0.1323311252,0.4197885762,0.0254710719,0.4422875443,0.4442077462,-0.3766900869,0.3844236714,0.4823619113,0.1786405894,0.3836257316,0.588338106,0.3513430092,0.6758598449,0.2394953881,0.1567835398,0.2762991392,-0.3415374109,0.8026624758,0.2846810613,0.0852288094,0.5075538592,0.7783133147,0.8423663941,0.6710341713,0.9270610775,0.9354442743,0.9146167493,0.9120586588,0.10532492,0.503675506,0.6142741059,0.8459067853,0.4599013999,0.8759167425,0.2762837702,0.1514065685,0.5503042063,0.7243976897,-0.3122721916,0.6019688761,0.1134668493,0.0353567821,0.2975538814,0.4157934893,0.6168685815,0.0052398456,0.5797848757,0.8465204045,0.9359656012,0.0763058348,0.3920336117,0.1216781256,0.5511088977,0.1592508033,0.8534129013,0.0571301776,0.5307598383,0.6133198396,0.6590248892,0.2696972178,0.6162241346,0.5925917226,0.7088112379,0.04034917,0.4355886995,0.9093341983,0.1143216242,0.0776247819,0.0219051774,0.6333768233,0.8232854528,0.4412926367,0.7063913736,0.0117875177,0.8762897791,0.2515635008,0.888602529,0.4327564744,0.8128792568,0.2221409433,0.363255324,0.1172765167,0.1245446679,0.7589977901,0.9258363979,0.7075720266,0.0576869086,0.2298760366,0.8686850314,0.0023535095,0.5646257221,0.633866767,0.5977493872,-0.5677675221,0.0053074943,0.7635141504,0.5995310676,0.6615402086,0.5773620415,0.0239548984,0.2979290115,0.1725260074,0.8133640611,0.6511709938,0.8265791481,0.1593057091,0.8235462073,0.2045339267,0.8137742587,0.6306453432,0.540103695,0.3592471661,0.7651874797,0.515228208,0.3398444765,0.3014544873,0.4312187006,0.2579960438,0.6057285947,0.7812604936,0.1437930595,0.5637877766,0.5298597344,0.4953080724,0.1355378395,0.1879780778,-0.240884341,0.7252843012,0.5150030339,0.9137528501,0.8459827,0.4700805277,0.2651527103,0.3038033181,0.5839266867,0.0398379882,0.6328374036,0.4640564379,0.9282909227,0.0375416133,0.5464068369,0.3023755256,0.8482662232,0.4422333267,0.2779868836,0.3279251708,0.5266103216,0.8575863961,-0.6578039568,0.809879927,0.834204091,0.1274958505,0.7370236908,0.5640973491,0.1019531716,0.8411215267,0.7709753794,0.3320469344,0.358776667,0.1784003912
biasActivation=0,1,1,1
[BASIC:ACTIVATION]
"org.encog.engine.network.activation.ActivationTANH"
"org.encog.engine.network.activation.ActivationTANH"
"org.encog.engine.network.activation.ActivationTANH"
"org.encog.engine.network.activation.ActivationLinear"
